{"learner":{"attributes":{"best_iteration":"44","best_ntree_limit":"45"},"feature_names":["Age","Barrett Integrated-K magnitude (D)","BIK_axis_cos","BIK_axis_sin","deltaTK_IOL700_cyl_atBIKaxis","Manifest_cyl_at_BIKaxis"],"feature_types":["int","float","float","float","float","float"],"gradient_booster":{"model":{"gbtree_model_param":{"num_parallel_tree":"1","num_trees":"135","size_leaf_vector":"0"},"tree_info":[0,1,2,0,1,2,0,1,2,0,1,2,0,1,2,0,1,2,0,1,2,0,1,2,0,1,2,0,1,2,0,1,2,0,1,2,0,1,2,0,1,2,0,1,2,0,1,2,0,1,2,0,1,2,0,1,2,0,1,2,0,1,2,0,1,2,0,1,2,0,1,2,0,1,2,0,1,2,0,1,2,0,1,2,0,1,2,0,1,2,0,1,2,0,1,2,0,1,2,0,1,2,0,1,2,0,1,2,0,1,2,0,1,2,0,1,2,0,1,2,0,1,2,0,1,2,0,1,2,0,1,2,0,1,2],"trees":[{"base_weights":[-4.3508932E-1,-3.1289575E-1,-6.69903E-1,-5.6842152E-2,-5.41325E-1,-4.914426E-1,-7.283843E-1,2.2052701E-1,-3.3660594E-1,-5.8729005E-1,-2.4000005E-1,-6.0409564E-1,-1.9200005E-1,-3.658537E-1,-7.3584914E-2,3.8563323E-1,-2.2388065E-1,-4.461539E-1,1.5328464E-1,-6.0905665E-1,5.6603737E-2,-5.1063836E-1,1.9354835E-1,-6.579926E-1,-3.2511625E-8,7.0588194E-2,-6.1224498E-2,-2.5544848E-9,-5.1724143E-2,4.8668277E-1,2.399996E-2,1.9354835E-1,-5.3846157E-1,-1.9480523E-1,-4.7582212E-1,8.571428E-2,2.399996E-2,-5.20548E-1,-6.868538E-1,-3.658537E-1,8.571428E-2,-3.2511625E-8,-6.153847E-1,8.1818186E-2,-1.3043483E-1,-2.5544848E-9,-6.88716E-2,-4.2857148E-2,4.285714E-2,-2.44898E-1,3.9999998E-1,1.0153846E-1,3.7815124E-2,6E-2,-2.6966298E-2,4.6153843E-2,-3.2432437E-2,-6.705883E-2,-1.463415E-2,-6.0000002E-2,2.9268289E-2,1.0344825E-2,-5.0100606E-2,-3.6585372E-2,1.9354835E-2,-6.7415773E-3,-5.8232244E-2,-3.692308E-2,-7.10145E-2,-2.5544848E-9,-5.1724143E-2,4.285714E-2,-4.2857148E-2,-3.2432437E-2,-6.741574E-2,-5.853659E-2,4.054054E-2,4.285714E-2,-5.675676E-2,7.2413795E-2,-1.2000003E-2],"categories":[],"categories_nodes":[],"categories_segments":[],"categories_sizes":[],"default_left":[0,0,0,0,0,0,0,0,0,0,0,0,0,0,0,0,0,0,0,0,0,0,0,0,0,0,0,0,0,0,0,0,0,0,0,0,0,0,0,0,0,0,0,0,0,0,0,0,0,0,0,0,0,0,0,0,0,0,0,0,0,0,0,0,0,0,0,0,0,0,0,0,0,0,0,0,0,0,0,0,0],"id":0,"left_children":[1,3,5,7,9,11,13,15,17,19,21,23,25,27,-1,29,31,33,35,37,39,41,43,45,47,49,-1,-1,-1,51,53,55,57,59,61,-1,63,65,67,69,-1,71,73,-1,75,-1,-1,-1,-1,77,79,-1,-1,-1,-1,-1,-1,-1,-1,-1,-1,-1,-1,-1,-1,-1,-1,-1,-1,-1,-1,-1,-1,-1,-1,-1,-1,-1,-1,-1,-1],"loss_changes":[1.4254715E1,1.9472439E1,1.4336548E0,1.2360557E1,2.2982674E0,1.416996E0,7.50885E-2,5.964446E0,4.3199673E0,2.1663666E0,3.0322027E0,1.0599747E0,1.5758752E0,2.5231284E-1,0E0,2.1362286E0,3.0369244E0,3.9201736E-1,1.3646216E0,6.5618896E-1,2.3051739E0,8.379712E-1,2.1978834E0,6.0422707E-1,8.5714287E-1,1.0794717E0,0E0,0E0,0E0,2.249174E0,2.511101E0,1.5837972E0,5.753889E-1,1.8655685E0,8.8984776E-1,0E0,9.888529E-1,2.004156E0,2.942772E-1,2.5231284E-1,0E0,8.5714287E-1,3.7369728E-3,0E0,2.1062164E0,0E0,0E0,0E0,0E0,1.4263651E0,9.296552E-1,0E0,0E0,0E0,0E0,0E0,0E0,0E0,0E0,0E0,0E0,0E0,0E0,0E0,0E0,0E0,0E0,0E0,0E0,0E0,0E0,0E0,0E0,0E0,0E0,0E0,0E0,0E0,0E0,0E0,0E0],"parents":[2147483647,0,0,1,1,2,2,3,3,4,4,5,5,6,6,7,7,8,8,9,9,10,10,11,11,12,12,13,13,15,15,16,16,17,17,18,18,19,19,20,20,21,21,22,22,23,23,24,24,25,25,29,29,30,30,31,31,32,32,33,33,34,34,36,36,37,37,38,38,39,39,41,41,42,42,44,44,49,49,50,50],"right_children":[2,4,6,8,10,12,14,16,18,20,22,24,26,28,-1,30,32,34,36,38,40,42,44,46,48,50,-1,-1,-1,52,54,56,58,60,62,-1,64,66,68,70,-1,72,74,-1,76,-1,-1,-1,-1,78,80,-1,-1,-1,-1,-1,-1,-1,-1,-1,-1,-1,-1,-1,-1,-1,-1,-1,-1,-1,-1,-1,-1,-1,-1,-1,-1,-1,-1,-1,-1],"split_conditions":[6.8E-1,6.5E1,5.755336E-1,3.1551662E-1,7.399718E-1,4.853488E-1,7E-1,4.1E-1,6.1E-1,9.945219E-1,5.6E-1,6.946584E-1,2.7563736E-1,6.2E1,-7.3584914E-2,6.1E1,5.8E1,4.9E1,-9.781476E-1,3.7E-1,4.9E-1,8E-1,7E1,-7.6604444E-1,6.7E1,7.9E-1,-6.1224498E-2,-2.5544848E-9,-5.1724143E-2,-1.5524732E-1,1.6E-1,5.6E-1,2.1160269E-1,4.7E1,3.3813745E-1,8.571428E-2,-4.6947157E-1,6.6E1,-9.135454E-1,6.8E1,8.571428E-2,3.8E-1,3.6E-1,8.1818186E-2,8.539087E-1,-2.5544848E-9,-6.88716E-2,-4.2857148E-2,4.285714E-2,5.123126E-1,9.8E-1,1.0153846E-1,3.7815124E-2,6E-2,-2.6966298E-2,4.6153843E-2,-3.2432437E-2,-6.705883E-2,-1.463415E-2,-6.0000002E-2,2.9268289E-2,1.0344825E-2,-5.0100606E-2,-3.6585372E-2,1.9354835E-2,-6.7415773E-3,-5.8232244E-2,-3.692308E-2,-7.10145E-2,-2.5544848E-9,-5.1724143E-2,4.285714E-2,-4.2857148E-2,-3.2432437E-2,-6.741574E-2,-5.853659E-2,4.054054E-2,4.285714E-2,-5.675676E-2,7.2413795E-2,-1.2000003E-2],"split_indices":[1,0,4,4,4,4,1,1,1,3,1,3,3,0,0,0,0,0,3,1,1,4,0,3,0,1,0,0,0,4,1,1,4,0,4,0,3,0,3,0,0,1,1,0,4,0,0,0,0,4,1,0,0,0,0,0,0,0,0,0,0,0,0,0,0,0,0,0,0,0,0,0,0,0,0,0,0,0,0,0,0],"split_type":[0,0,0,0,0,0,0,0,0,0,0,0,0,0,0,0,0,0,0,0,0,0,0,0,0,0,0,0,0,0,0,0,0,0,0,0,0,0,0,0,0,0,0,0,0,0,0,0,0,0,0,0,0,0,0,0,0,0,0,0,0,0,0,0,0,0,0,0,0,0,0,0,0,0,0,0,0,0,0,0,0],"sum_hessian":[5.0311108E2,3.3244443E2,1.7066666E2,1.5733333E2,1.751111E2,4.4444443E1,1.2622221E2,7.911111E1,7.822221E1,1.511111E2,2.3999998E1,3.1555553E1,1.2888888E1,3.5555553E0,1.2266666E2,5.7777775E1,2.1333332E1,6.3999996E1,1.4222221E1,1.4622221E2,4.8888884E0,1.4666666E1,9.333333E0,2.8888887E1,2.6666665E0,8.444444E0,4.444444E0,1.3333333E0,2.222222E0,4.4888885E1,1.2888888E1,9.333333E0,1.1999999E1,7.5555553E0,5.6444443E1,1.3333333E0,1.2888888E1,7.199999E1,7.422222E1,3.5555553E0,1.3333333E0,2.6666665E0,1.1999999E1,2.6666665E0,6.666666E0,1.3333333E0,2.7555553E1,1.3333333E0,1.3333333E0,4.444444E0,3.9999998E0,6.222222E0,3.8666664E1,3.9999998E0,8.888888E0,6.222222E0,3.111111E0,8.444444E0,3.5555553E0,3.9999998E0,3.5555553E0,2.222222E0,5.4222218E1,3.5555553E0,9.333333E0,8.888888E0,6.3111107E1,6.222222E0,6.799999E1,1.3333333E0,2.222222E0,1.3333333E0,1.3333333E0,3.111111E0,8.888888E0,3.5555553E0,3.111111E0,1.3333333E0,3.111111E0,2.222222E0,1.7777777E0],"tree_param":{"num_deleted":"0","num_feature":"6","num_nodes":"81","size_leaf_vector":"0"}},{"base_weights":[2.4949695E-1,6.1298895E-1,-2.6933482E-1,7.5128645E-1,3.359462E-1,-2.5834275E-2,-5.1022613E-1,1.5254234E-1,8.1404173E-1,-1.6342418E-1,5.3023255E-1,-1.07554466E-1,3.8216558E-1,-6.1883414E-1,-2.2304837E-1,9.6E-2,1.8633498E-2,8.636037E-1,4.263959E-1,2.9032254E-1,-3.9884397E-1,7.298969E-1,-7.100596E-2,5.8679666E-2,-2.834646E-1,4.817518E-1,-2.0689659E-2,-6.468592E-2,-3.7078658E-1,1.0909087E-1,-6.902655E-2,-2.2222227E-1,2.3595501E-1,7.969991E-1,1.11524165E-1,5.680473E-1,-3.2432437E-1,5.0649345E-1,-4.8000004E-2,-4.7770706E-1,2.3999998E-2,-4.8000004E-2,7.8038377E-1,-3.8709682E-1,2.823529E-1,-8.310293E-3,4.736842E-1,-3.9560446E-1,-4.1264755E-8,2.222222E-1,7.384615E-1,4.137931E-2,-6.52174E-2,-4.2073868E-8,8.571428E-2,-4.9180365E-3,-5.1724143E-2,4.615381E-3,5.454545E-2,8.63258E-2,5.8803983E-2,6.470588E-2,-1.2000003E-2,-4.8000004E-2,-2.5544848E-9,6.8852454E-2,-1.2000003E-2,-2.9032264E-2,-6.575343E-2,7.31707E-3,8.306637E-2,-4.9180333E-2,-1.463415E-2,-4.2857148E-2,4.5205478E-2,2.7272725E-2,-1.4457837E-2,7.31707E-3,9.6E-2,-4.3873526E-2,1.0344825E-2,-1.485149E-2,6E-2,4.736842E-2,-2.7272731E-2,9.056603E-2,-2.5544848E-9,2.5714282E-2,-4.7368426E-2],"categories":[],"categories_nodes":[],"categories_segments":[],"categories_sizes":[],"default_left":[0,0,0,0,0,0,0,0,0,0,0,0,0,0,0,0,0,0,0,0,0,0,0,0,0,0,0,0,0,0,0,0,0,0,0,0,0,0,0,0,0,0,0,0,0,0,0,0,0,0,0,0,0,0,0,0,0,0,0,0,0,0,0,0,0,0,0,0,0,0,0,0,0,0,0,0,0,0,0,0,0,0,0,0,0,0,0,0,0],"id":1,"left_children":[1,3,5,7,9,11,13,15,17,19,21,23,25,27,29,-1,31,33,35,37,39,41,43,45,47,49,-1,-1,51,53,-1,55,57,59,-1,61,63,65,-1,67,-1,-1,69,71,73,75,77,79,81,83,85,-1,-1,87,-1,-1,-1,-1,-1,-1,-1,-1,-1,-1,-1,-1,-1,-1,-1,-1,-1,-1,-1,-1,-1,-1,-1,-1,-1,-1,-1,-1,-1,-1,-1,-1,-1,-1,-1],"loss_changes":[9.389492E1,1.0956673E1,1.2037605E1,7.1777725E0,9.713273E0,3.4827209E0,3.0814533E0,2.108584E0,3.0067673E0,3.1661253E0,8.655117E0,2.5542126E0,1.1230068E0,2.7688026E-1,4.7134933E0,0E0,9.8879504E-1,1.7052689E0,2.5119085E0,1.9638373E0,1.0830884E0,3.6663284E0,2.2066536E0,1.2673435E0,1.3456783E0,8.500595E-1,0E0,0E0,2.453043E0,1.496104E0,0E0,4.3401796E-1,5.5573183E-1,1.2353439E0,0E0,1.098475E0,2.0756751E-1,1.0583096E0,0E0,3.969252E-1,0E0,0E0,1.7922173E0,1.8851817E-1,1.3331643E0,1.5755433E0,1.1633375E0,6.982975E-1,1.2475249E0,1.2493355E0,8.917272E-1,0E0,0E0,2.192481E0,0E0,0E0,0E0,0E0,0E0,0E0,0E0,0E0,0E0,0E0,0E0,0E0,0E0,0E0,0E0,0E0,0E0,0E0,0E0,0E0,0E0,0E0,0E0,0E0,0E0,0E0,0E0,0E0,0E0,0E0,0E0,0E0,0E0,0E0,0E0],"parents":[2147483647,0,0,1,1,2,2,3,3,4,4,5,5,6,6,7,7,8,8,9,9,10,10,11,11,12,12,13,13,14,14,16,16,17,17,18,18,19,19,20,20,21,21,22,22,23,23,24,24,25,25,28,28,29,29,31,31,32,32,33,33,35,35,36,36,37,37,39,39,42,42,43,43,44,44,45,45,46,46,47,47,48,48,49,49,50,50,53,53],"right_children":[2,4,6,8,10,12,14,16,18,20,22,24,26,28,30,-1,32,34,36,38,40,42,44,46,48,50,-1,-1,52,54,-1,56,58,60,-1,62,64,66,-1,68,-1,-1,70,72,74,76,78,80,82,84,86,-1,-1,88,-1,-1,-1,-1,-1,-1,-1,-1,-1,-1,-1,-1,-1,-1,-1,-1,-1,-1,-1,-1,-1,-1,-1,-1,-1,-1,-1,-1,-1,-1,-1,-1,-1,-1,-1],"split_conditions":[5.696528E-1,3.550704E-1,8.195005E-1,-1.9917156E-1,-8.660254E-1,7.880108E-1,1.7364818E-1,-9.9026805E-1,3.09017E-1,-2.4492937E-16,4.9726096E-1,-6.691306E-1,1.1746157E0,9.975641E-1,7.0420736E-1,9.6E-2,-8.8294756E-1,-4.0673664E-1,6.691306E-1,-9.396926E-1,7.1329236E-1,-9.945219E-1,-1.391731E-1,-8.09017E-1,8.480481E-1,4.9513403E-1,-2.0689659E-2,-6.468592E-2,1.2015771E0,6.49519E-1,-6.902655E-2,1.5308086E-17,-1.5391538E-1,-6.946584E-1,1.11524165E-1,9.945219E-1,-2.0791169E-1,3.596699E-1,-4.8000004E-2,-9.702957E-1,2.3999998E-2,-4.8000004E-2,3.7E-1,4.853488E-1,-2.7563736E-1,-8.682409E-2,3.940054E-1,8.0964804E-1,4.0673664E-1,2.8095496E-1,2.0791169E-1,4.137931E-2,-6.52174E-2,4.7552827E-1,8.571428E-2,-4.9180365E-3,-5.1724143E-2,4.615381E-3,5.454545E-2,8.63258E-2,5.8803983E-2,6.470588E-2,-1.2000003E-2,-4.8000004E-2,-2.5544848E-9,6.8852454E-2,-1.2000003E-2,-2.9032264E-2,-6.575343E-2,7.31707E-3,8.306637E-2,-4.9180333E-2,-1.463415E-2,-4.2857148E-2,4.5205478E-2,2.7272725E-2,-1.4457837E-2,7.31707E-3,9.6E-2,-4.3873526E-2,1.0344825E-2,-1.485149E-2,6E-2,4.736842E-2,-2.7272731E-2,9.056603E-2,-2.5544848E-9,2.5714282E-2,-4.7368426E-2],"split_indices":[4,4,4,4,2,2,2,2,2,3,5,2,5,5,5,0,2,2,5,2,5,3,3,2,3,5,0,0,5,5,0,5,5,2,0,2,3,5,0,2,0,0,4,4,2,5,5,4,2,5,3,0,0,5,0,0,0,0,0,0,0,0,0,0,0,0,0,0,0,0,0,0,0,0,0,0,0,0,0,0,0,0,0,0,0,0,0,0,0],"split_type":[0,0,0,0,0,0,0,0,0,0,0,0,0,0,0,0,0,0,0,0,0,0,0,0,0,0,0,0,0,0,0,0,0,0,0,0,0,0,0,0,0,0,0,0,0,0,0,0,0,0,0,0,0,0,0,0,0,0,0,0,0,0,0,0,0,0,0,0,0,0,0,0,0,0,0,0,0,0,0,0,0,0,0,0,0,0,0,0,0],"sum_hessian":[4.9599997E2,2.9155554E2,2.0444443E2,1.9333333E2,9.822221E1,1.0222221E2,1.0222221E2,1.8666666E1,1.7466666E2,2.7555553E1,7.0666664E1,8.577777E1,1.6444443E1,7.333333E1,2.8888887E1,1.7777777E0,1.6888887E1,1.5377777E2,2.0888887E1,9.333333E0,1.8222221E1,5.2888885E1,1.7777777E1,4.4444443E1,4.1333332E1,1.4222221E1,2.222222E0,6.444444E1,8.888888E0,1.7333332E1,1.1555555E1,7.9999995E0,8.888888E0,1.2488888E2,2.8888887E1,1.7777777E1,3.111111E0,7.5555553E0,1.7777777E0,1.6444443E1,1.7777777E0,1.7777777E0,5.1111107E1,9.333333E0,8.444444E0,3.9111107E1,5.333333E0,2.9333332E1,1.1999999E1,7.9999995E0,6.222222E0,2.222222E0,6.666666E0,1.5999999E1,1.3333333E0,5.7777777E0,2.222222E0,6.222222E0,2.6666665E0,9.244444E1,3.2444443E1,1.5999999E1,1.7777777E0,1.7777777E0,1.3333333E0,5.7777777E0,1.7777777E0,9.333333E0,7.1111107E0,3.5555553E0,4.7555553E1,5.7777777E0,3.5555553E0,1.3333333E0,7.1111107E0,1.2444444E1,2.6666664E1,3.5555553E0,1.7777777E0,2.7111109E1,2.222222E0,1.0222221E1,1.7777777E0,5.333333E0,2.6666665E0,4.8888884E0,1.3333333E0,1.0666666E1,5.333333E0],"tree_param":{"num_deleted":"0","num_feature":"6","num_nodes":"89","size_leaf_vector":"0"}},{"base_weights":[2.0578341E-1,-2.2676206E-1,1.0332681E0,-5.478262E-1,2.2850119E-1,7.303371E-1,1.3481781E0,-6.42695E-1,-2.3244557E-1,-2.6905835E-1,8.181818E-1,4.9030468E-1,9.086859E-1,2.3999998E-2,1.3696551E-1,-9.230773E-2,-6.6640323E-1,-3.9867115E-1,1.9834708E-1,-6.4192146E-1,-7.349671E-2,8.77193E-1,1.578947E-1,5.6304985E-1,-5.1724143E-2,6.373057E-1,1.0754716E0,-4.0000004E-1,4.137931E-2,-7.2151905E-1,-5.333334E-1,-2.2702707E-1,-6.240001E-1,5.4098356E-1,-1.3043483E-1,-6.7741945E-2,-2.5544848E-9,5.9999996E-1,-1.452785E-1,5.801105E-1,1.0117302E0,-3.658537E-1,9.6E-2,3.5751292E-1,7.8343946E-1,7.6470584E-1,1.2244894E-1,1.1266376E-1,5.9999996E-1,-2.5544848E-9,-5.454546E-2,-4.0000003E-2,-7.3109254E-2,-6.4077675E-2,-1.7142862E-2,-6.575343E-2,4.958674E-3,-2.5544848E-9,-6.902655E-2,8E-2,-1.2000003E-2,-4.2857148E-2,4.137931E-2,1.0344827E-1,-1.2000003E-2,-4.8837215E-2,1.0238865E-3,4.137931E-2,1E-1,1.1927711E-1,4.752475E-2,-2.5544848E-9,-5.1724143E-2,4.9090907E-2,-3.2432437E-2,1.0684931E-1,4.8387095E-2,8.297872E-2,-2.5544848E-9,-4.2857148E-2,4.054054E-2,9.6E-2,1.0344825E-2],"categories":[],"categories_nodes":[],"categories_segments":[],"categories_sizes":[],"default_left":[0,0,0,0,0,0,0,0,0,0,0,0,0,0,0,0,0,0,0,0,0,0,0,0,0,0,0,0,0,0,0,0,0,0,0,0,0,0,0,0,0,0,0,0,0,0,0,0,0,0,0,0,0,0,0,0,0,0,0,0,0,0,0,0,0,0,0,0,0,0,0,0,0,0,0,0,0,0,0,0,0,0,0],"id":2,"left_children":[1,3,5,7,9,11,13,15,17,19,21,23,25,-1,-1,27,29,31,33,35,37,39,41,43,-1,45,47,49,-1,51,53,55,57,59,61,-1,-1,63,65,67,69,71,-1,73,75,77,79,-1,81,-1,-1,-1,-1,-1,-1,-1,-1,-1,-1,-1,-1,-1,-1,-1,-1,-1,-1,-1,-1,-1,-1,-1,-1,-1,-1,-1,-1,-1,-1,-1,-1,-1,-1],"loss_changes":[1.7764566E2,4.782489E1,1.5264511E1,5.585232E0,4.0024902E1,3.3645134E0,1.6308594E0,1.853756E0,3.3651211E0,5.373038E0,2.290268E0,3.2311401E0,1.5726852E0,0E0,0E0,1.2901857E0,6.460571E-1,1.151845E0,1.5851157E0,5.7979965E-1,2.4990351E0,1.6913033E0,3.0118613E0,1.4362078E0,0E0,1.3129635E0,4.033661E-2,2.9090917E-1,0E0,4.760742E-3,1.6399441E0,2.4804475E0,5.7430077E-1,1.2563933E0,1.4212893E0,0E0,0E0,1.6882759E0,2.4534945E0,9.906645E-1,3.1131096E0,2.5231284E-1,0E0,2.109682E0,9.726219E-1,8.460579E-1,1.0226145E0,0E0,7.944828E-1,0E0,0E0,0E0,0E0,0E0,0E0,0E0,0E0,0E0,0E0,0E0,0E0,0E0,0E0,0E0,0E0,0E0,0E0,0E0,0E0,0E0,0E0,0E0,0E0,0E0,0E0,0E0,0E0,0E0,0E0,0E0,0E0,0E0,0E0],"parents":[2147483647,0,0,1,1,2,2,3,3,4,4,5,5,6,6,7,7,8,8,9,9,10,10,11,11,12,12,15,15,16,16,17,17,18,18,19,19,20,20,21,21,22,22,23,23,25,25,26,26,27,27,29,29,30,30,31,31,32,32,33,33,34,34,37,37,38,38,39,39,40,40,41,41,43,43,44,44,45,45,46,46,48,48],"right_children":[2,4,6,8,10,12,14,16,18,20,22,24,26,-1,-1,28,30,32,34,36,38,40,42,44,-1,46,48,50,-1,52,54,56,58,60,62,-1,-1,64,66,68,70,72,-1,74,76,78,80,-1,82,-1,-1,-1,-1,-1,-1,-1,-1,-1,-1,-1,-1,-1,-1,-1,-1,-1,-1,-1,-1,-1,-1,-1,-1,-1,-1,-1,-1,-1,-1,-1,-1,-1,-1],"split_conditions":[6.8E-1,-1.8369701E-16,7.625064E-1,5.6E-1,4E-1,8E-1,7.2E-1,-3.0079168E-1,-6.156615E-1,3.355201E-1,7.6E1,7.083159E-1,-9.702957E-1,2.3999998E-2,1.3696551E-1,-8.09017E-1,-5.591929E-1,3.6527944E-1,6.2E1,9.945219E-1,3.7E-1,5.2991927E-1,8.1E1,-8.660254E-1,-5.1724143E-2,-9.848077E-1,7.4E1,2.6E-1,4.137931E-2,4.7E1,4.2E-1,-9.781476E-1,-9.9026805E-1,-4.0673664E-1,6.5E-1,-6.7741945E-2,-2.5544848E-9,6.1E1,6.4E1,7.308364E-1,5.6E-1,4.3E-1,9.6E-2,6.490287E-1,7.2E-1,7.526037E-1,4.6285963E-1,1.1266376E-1,8.3E-1,-2.5544848E-9,-5.454546E-2,-4.0000003E-2,-7.3109254E-2,-6.4077675E-2,-1.7142862E-2,-6.575343E-2,4.958674E-3,-2.5544848E-9,-6.902655E-2,8E-2,-1.2000003E-2,-4.2857148E-2,4.137931E-2,1.0344827E-1,-1.2000003E-2,-4.8837215E-2,1.0238865E-3,4.137931E-2,1E-1,1.1927711E-1,4.752475E-2,-2.5544848E-9,-5.1724143E-2,4.9090907E-2,-3.2432437E-2,1.0684931E-1,4.8387095E-2,8.297872E-2,-2.5544848E-9,-4.2857148E-2,4.054054E-2,9.6E-2,1.0344825E-2],"split_indices":[1,2,4,1,1,1,1,4,2,4,0,4,2,0,0,2,2,4,0,2,4,2,0,2,0,2,0,1,0,0,1,2,2,2,1,0,0,0,0,4,1,1,0,4,1,4,4,0,1,0,0,0,0,0,0,0,0,0,0,0,0,0,0,0,0,0,0,0,0,0,0,0,0,0,0,0,0,0,0,0,0,0,0],"split_type":[0,0,0,0,0,0,0,0,0,0,0,0,0,0,0,0,0,0,0,0,0,0,0,0,0,0,0,0,0,0,0,0,0,0,0,0,0,0,0,0,0,0,0,0,0,0,0,0,0,0,0,0,0,0,0,0,0,0,0,0,0,0,0,0,0,0,0,0,0,0,0,0,0,0,0,0,0,0,0,0,0,0,0],"sum_hessian":[4.9466663E2,3.253333E2,1.6933333E2,1.9066666E2,1.3466666E2,8.799999E1,8.133333E1,1.4577777E2,4.4888885E1,7.333333E1,6.133333E1,3.9111107E1,4.8888885E1,1.7777777E0,7.955555E1,6.222222E0,1.3955554E2,3.2444443E1,1.2444444E1,2.4444443E1,4.8888885E1,5.5999996E1,5.333333E0,3.6888885E1,2.222222E0,2.0444443E1,2.8444443E1,3.9999998E0,2.222222E0,9.555555E1,4.3999996E1,1.9555553E1,1.2888888E1,5.7777777E0,6.666666E0,2.311111E1,1.3333333E0,3.9999998E0,4.4888885E1,1.911111E1,3.6888885E1,3.5555553E0,1.7777777E0,2.0444443E1,1.6444443E1,1.5999999E1,4.444444E0,2.4444443E1,3.9999998E0,1.3333333E0,2.6666665E0,3.9999998E0,9.155555E1,3.3333332E1,1.0666666E1,7.1111107E0,1.2444444E1,1.3333333E0,1.1555555E1,3.9999998E0,1.7777777E0,4.444444E0,2.222222E0,2.222222E0,1.7777777E0,1.3333332E1,3.1555553E1,1.5111111E1,3.9999998E0,2.6666664E1,1.0222221E1,1.3333333E0,2.222222E0,1.7333332E1,3.111111E0,7.1111107E0,9.333333E0,1.4666666E1,1.3333333E0,1.3333333E0,3.111111E0,1.7777777E0,2.222222E0],"tree_param":{"num_deleted":"0","num_feature":"6","num_nodes":"83","size_leaf_vector":"0"}},{"base_weights":[-4.3033868E-1,-2.5023893E-1,-5.6342375E-1,1.8653059E-1,-4.5673087E-1,-3.3019504E-1,-5.849224E-1,5.7625407E-1,-7.026017E-2,-2.433043E-1,-6.5978193E-1,1.8443003E-1,-5.8144367E-1,-5.929675E-1,-2.1750928E-1,7.4746484E-1,-2.5078243E-1,-1.4897177E-1,4.947333E-1,-3.9624718E-1,2.4404147E-1,-2.9130423E-1,-6.9654274E-1,-5.433456E-2,5.519176E-1,-6.264396E-2,-1.0435506E-2,-6.0631835E-1,-4.231505E-1,-5.707183E-2,2.7361098E-1,1.0242225E-1,-6.027198E-2,-5.2269723E-2,9.955409E-3,7.891331E-2,-4.484904E-1,-2.0261316E-2,1.0358641E-1,9.4487235E-2,-4.3113697E-1,6.086123E-1,-2.7759457E-1,-5.944481E-2,1.7626306E-1,-3.375064E-1,-7.1080714E-2,6.8208176E-1,9.4681635E-4,-4.7637665E-1,-6.2561977E-1,1.302051E-2,-4.9095225E-1,8.2837895E-2,-4.147147E-2,5.8919866E-2,-4.083471E-2,-4.5544755E-2,2.5387902E-2,-1.691656E-2,-5.762161E-2,-4.6546217E-2,6.161647E-2,1.0658741E-2,-4.5729727E-2,-4.197999E-2,7.9467654E-2,-5.979197E-2,2.6188085E-2,4.2958096E-2,-1.0331231E-2,-4.9715117E-2,3.0677132E-3,8.301238E-2,2.4157863E-2,-3.2186672E-2,-6.717508E-2,-3.8859863E-2,-6.395759E-2,-1.7733777E-2,-5.5772465E-2],"categories":[],"categories_nodes":[],"categories_segments":[],"categories_sizes":[],"default_left":[0,0,0,0,0,0,0,0,0,0,0,0,0,0,0,0,0,0,0,0,0,0,0,0,0,0,0,0,0,0,0,0,0,0,0,0,0,0,0,0,0,0,0,0,0,0,0,0,0,0,0,0,0,0,0,0,0,0,0,0,0,0,0,0,0,0,0,0,0,0,0,0,0,0,0,0,0,0,0,0,0],"id":3,"left_children":[1,3,5,7,9,11,13,15,17,19,21,23,25,27,29,31,33,35,37,39,41,43,45,-1,47,-1,-1,49,51,-1,53,-1,55,-1,-1,57,59,-1,-1,61,63,65,67,-1,69,71,-1,73,-1,75,77,-1,79,-1,-1,-1,-1,-1,-1,-1,-1,-1,-1,-1,-1,-1,-1,-1,-1,-1,-1,-1,-1,-1,-1,-1,-1,-1,-1,-1,-1],"loss_changes":[1.1760414E1,1.927748E1,1.2345886E0,6.9478707E0,6.113699E0,3.5114205E0,6.378174E-1,4.084654E0,1.9636236E0,5.4760046E0,7.941704E-1,2.812889E0,3.1957054E-1,3.176651E-1,1.3943549E0,5.2153444E0,5.730514E-1,2.6338491E0,2.258152E0,9.877777E-1,3.565043E0,1.2948585E0,9.920502E-2,0E0,4.6941185E-1,0E0,0E0,2.8510284E-1,8.807416E-1,0E0,1.7418973E0,0E0,1.7840843E0,0E0,0E0,2.216496E0,4.9472475E-1,0E0,0E0,1.5989041E0,7.777071E-1,2.4049172E0,1.544782E0,0E0,3.3289182E-1,2.758875E-1,0E0,1.5300035E-1,0E0,8.1804466E-1,4.1053772E-1,0E0,3.116231E-1,0E0,0E0,0E0,0E0,0E0,0E0,0E0,0E0,0E0,0E0,0E0,0E0,0E0,0E0,0E0,0E0,0E0,0E0,0E0,0E0,0E0,0E0,0E0,0E0,0E0,0E0,0E0,0E0],"parents":[2147483647,0,0,1,1,2,2,3,3,4,4,5,5,6,6,7,7,8,8,9,9,10,10,11,11,12,12,13,13,14,14,15,15,16,16,17,17,18,18,19,19,20,20,21,21,22,22,24,24,27,27,28,28,30,30,32,32,35,35,36,36,39,39,40,40,41,41,42,42,44,44,45,45,47,47,49,49,50,50,52,52],"right_children":[2,4,6,8,10,12,14,16,18,20,22,24,26,28,30,32,34,36,38,40,42,44,46,-1,48,-1,-1,50,52,-1,54,-1,56,-1,-1,58,60,-1,-1,62,64,66,68,-1,70,72,-1,74,-1,76,78,-1,80,-1,-1,-1,-1,-1,-1,-1,-1,-1,-1,-1,-1,-1,-1,-1,-1,-1,-1,-1,-1,-1,-1,-1,-1,-1,-1,-1,-1],"split_conditions":[6.3E1,3.0735317E-1,1.6E-1,2.7E-1,7.2E-1,6.7E1,9.945219E-1,9.135454E-1,2.6004356E-1,6.1E-1,5.755336E-1,5.2349246E-3,5.4742754E-1,7.7E1,4.9E-1,6E1,5.6E1,4.6E-1,-4.3837115E-1,1.7E-1,5.8E1,9.3E-1,7.6E-1,-5.433456E-2,2.9944408E-1,-6.264396E-2,-1.0435506E-2,6.5E1,2.1E-1,-5.707183E-2,6.3E-1,1.0242225E-1,-9.765906E-3,-5.2269723E-2,9.955409E-3,-7.193398E-1,-1.7364818E-1,-2.0261316E-2,1.0358641E-1,1.4E-1,3.2356587E-1,3.6466068E-1,6.3069224E-1,-5.944481E-2,1E0,7.4E-1,-7.1080714E-2,1.4E-1,9.4681635E-4,7.1E-1,-9.2718387E-1,1.302051E-2,1.3703182E-1,8.2837895E-2,-4.147147E-2,5.8919866E-2,-4.083471E-2,-4.5544755E-2,2.5387902E-2,-1.691656E-2,-5.762161E-2,-4.6546217E-2,6.161647E-2,1.0658741E-2,-4.5729727E-2,-4.197999E-2,7.9467654E-2,-5.979197E-2,2.6188085E-2,4.2958096E-2,-1.0331231E-2,-4.9715117E-2,3.0677132E-3,8.301238E-2,2.4157863E-2,-3.2186672E-2,-6.717508E-2,-3.8859863E-2,-6.395759E-2,-1.7733777E-2,-5.5772465E-2],"split_indices":[0,4,1,1,1,0,3,3,4,1,4,4,4,0,1,0,0,1,3,1,0,1,1,0,4,0,0,0,1,0,1,0,4,0,0,3,3,0,0,1,4,4,4,0,1,1,0,1,0,1,3,0,4,0,0,0,0,0,0,0,0,0,0,0,0,0,0,0,0,0,0,0,0,0,0,0,0,0,0,0,0],"split_type":[0,0,0,0,0,0,0,0,0,0,0,0,0,0,0,0,0,0,0,0,0,0,0,0,0,0,0,0,0,0,0,0,0,0,0,0,0,0,0,0,0,0,0,0,0,0,0,0,0,0,0,0,0,0,0,0,0,0,0,0,0,0,0,0,0,0,0,0,0,0,0,0,0,0,0,0,0,0,0,0,0],"sum_hessian":[4.955414E2,2.1179982E2,2.8374158E2,6.802043E1,1.4377939E2,2.5328032E1,2.5841354E2,2.652309E1,4.149734E1,7.117048E1,7.260892E1,8.39623E0,1.69318E1,2.5227565E2,6.1379123E0,2.205379E1,4.4693007E0,3.706938E1,4.427961E0,5.4312584E1,1.6857897E1,7.3962054E0,6.521271E1,2.656578E0,5.739652E0,1.5186467E1,1.7453347E0,2.3150458E2,2.0771065E1,3.4759603E0,2.6619518E0,1.6226152E1,5.8276367E0,2.239286E0,2.2300148E0,2.1470413E1,1.5598968E1,2.2080534E0,2.2199075E0,3.4917645E0,5.082082E1,9.824693E0,7.033204E0,4.3224273E0,3.0737782E0,3.4342074E0,6.17785E1,4.421318E0,1.318334E0,3.326143E1,1.9824315E2,2.1667793E0,1.8604286E1,1.3613106E0,1.3006412E0,1.7917291E0,4.0359077E0,4.90057E0,1.6569843E1,5.6240697E0,9.974898E0,1.7360795E0,1.7556853E0,2.215099E0,4.860572E1,1.3127369E0,8.511956E0,4.344957E0,2.6882472E0,1.3311242E0,1.742654E0,2.151175E0,1.2830324E0,2.6471782E0,1.7741399E0,2.0051395E1,1.3210032E1,1.2627657E1,1.856155E2,3.9075022E0,1.4696784E1],"tree_param":{"num_deleted":"0","num_feature":"6","num_nodes":"81","size_leaf_vector":"0"}},{"base_weights":[1.9377375E-1,5.093783E-1,-3.806452E-1,6.791574E-1,1.0329451E-2,-2.1953127E-1,-6.454341E-1,3.8070142E-1,9.4306797E-1,7.755654E-1,-2.0546943E-1,-8.537735E-2,-5.379191E-1,-6.728091E-2,2.8227333E-3,-6.42213E-2,4.6627164E-1,1.0319021E0,2.310753E-2,9.682209E-1,2.0319991E-1,7.445368E-1,-3.511561E-1,-2.1173722E-1,8.0216E-2,-6.114881E-1,3.604938E-3,-4.845359E-1,1.2966014E-1,7.570632E-2,5.314939E-1,1.1181612E0,7.095226E-1,5.156819E-1,-3.8583073E-1,3.9335737E-1,1.1017187E0,-2.1744719E-2,5.158626E-2,-4.7327477E-2,1.099376E-1,3.2378048E-2,-5.214438E-1,-1.02037415E-2,-3.672303E-1,3.8471156E-1,-1.2805872E-1,-4.474454E-1,-6.918703E-2,4.0565096E-2,-4.705502E-2,-9.242136E-4,-6.0944196E-2,2.9905489E-2,-5.2989345E-2,-2.261377E-2,2.9503295E-2,9.2814334E-2,4.644686E-2,4.854941E-2,1.1388337E-1,8.382331E-2,-5.1859528E-2,-4.376816E-2,8.8497326E-2,-6.2307585E-2,2.1430913E-2,-1.2987514E-2,8.506723E-2,3.8453296E-2,1.1679997E-1,-2.782609E-2,5.192989E-2,-1.2241911E-4,-5.78747E-2,-3.0391706E-2,5.9528716E-2,-2.3160417E-2,-6.448126E-2,-5.6143515E-3,6.768625E-2,1.866209E-2,-2.3231417E-2,-5.6653973E-2,-9.262982E-4],"categories":[],"categories_nodes":[],"categories_segments":[],"categories_sizes":[],"default_left":[0,0,0,0,0,0,0,0,0,0,0,0,0,0,0,0,0,0,0,0,0,0,0,0,0,0,0,0,0,0,0,0,0,0,0,0,0,0,0,0,0,0,0,0,0,0,0,0,0,0,0,0,0,0,0,0,0,0,0,0,0,0,0,0,0,0,0,0,0,0,0,0,0,0,0,0,0,0,0,0,0,0,0,0,0],"id":4,"left_children":[1,3,5,7,9,11,13,15,17,19,21,23,25,-1,-1,27,29,31,33,35,37,39,41,43,45,47,49,51,53,55,57,59,61,63,65,67,69,-1,-1,-1,-1,71,73,75,77,79,81,83,-1,-1,-1,-1,-1,-1,-1,-1,-1,-1,-1,-1,-1,-1,-1,-1,-1,-1,-1,-1,-1,-1,-1,-1,-1,-1,-1,-1,-1,-1,-1,-1,-1,-1,-1,-1,-1],"loss_changes":[9.176454E1,2.7650162E1,7.523876E0,1.8824097E1,1.4010476E1,4.790365E0,1.2630043E0,4.4451656E0,1.048394E1,1.8608637E0,9.426054E0,1.7087297E0,1.3319311E0,0E0,0E0,1.6588514E0,2.4404945E0,2.4666214E0,2.6857162E0,6.176319E-1,8.9665693E-1,4.4634094E0,3.8109264E0,1.4419093E0,2.3144584E0,7.797718E-2,1.1414204E0,3.7393236E-1,1.7440376E0,1.0664836E0,1.7830315E0,6.3399506E-1,4.7789154E0,2.5096025E0,1.1753753E0,1.100219E0,5.278778E-2,0E0,0E0,0E0,0E0,2.988648E0,1.2002993E0,3.9369693E0,8.299496E-1,1.9387164E0,7.638147E-1,6.468651E-1,0E0,0E0,0E0,0E0,0E0,0E0,0E0,0E0,0E0,0E0,0E0,0E0,0E0,0E0,0E0,0E0,0E0,0E0,0E0,0E0,0E0,0E0,0E0,0E0,0E0,0E0,0E0,0E0,0E0,0E0,0E0,0E0,0E0,0E0,0E0,0E0,0E0],"parents":[2147483647,0,0,1,1,2,2,3,3,4,4,5,5,6,6,7,7,8,8,9,9,10,10,11,11,12,12,15,15,16,16,17,17,18,18,19,19,20,20,21,21,22,22,23,23,24,24,25,25,26,26,27,27,28,28,29,29,30,30,31,31,32,32,33,33,34,34,35,35,36,36,41,41,42,42,43,43,44,44,45,45,46,46,47,47],"right_children":[2,4,6,8,10,12,14,16,18,20,22,24,26,-1,-1,28,30,32,34,36,38,40,42,44,46,48,50,52,54,56,58,60,62,64,66,68,70,-1,-1,-1,-1,72,74,76,78,80,82,84,-1,-1,-1,-1,-1,-1,-1,-1,-1,-1,-1,-1,-1,-1,-1,-1,-1,-1,-1,-1,-1,-1,-1,-1,-1,-1,-1,-1,-1,-1,-1,-1,-1,-1,-1,-1,-1],"split_conditions":[6.6E-1,5.4742754E-1,1.04E0,6.5E1,3.8E-1,-6.691306E-1,7.7E1,1.6E-1,8.480481E-1,7.2E1,-4.3837115E-1,6.5E1,7.3E1,-6.728091E-2,2.8227333E-3,-9.765906E-3,5E1,-1.8369701E-16,2.2E-1,4.0673664E-1,6.490287E-1,4.9E1,4.7E-1,8.4E-1,6.9E1,6.5009815E-1,7.4E-1,7E-2,6.2E1,-8.09017E-1,5.3E1,-3.0079168E-1,4.9E-1,6.8E1,7.3E1,6.883192E-1,5.755336E-1,-2.1744719E-2,5.158626E-2,-4.7327477E-2,1.099376E-1,7.458914E-1,-1.7364818E-1,6.490287E-1,-8.8294756E-1,5.395048E-1,3.0903167E-1,6.6E1,-6.918703E-2,4.0565096E-2,-4.705502E-2,-9.242136E-4,-6.0944196E-2,2.9905489E-2,-5.2989345E-2,-2.261377E-2,2.9503295E-2,9.2814334E-2,4.644686E-2,4.854941E-2,1.1388337E-1,8.382331E-2,-5.1859528E-2,-4.376816E-2,8.8497326E-2,-6.2307585E-2,2.1430913E-2,-1.2987514E-2,8.506723E-2,3.8453296E-2,1.1679997E-1,-2.782609E-2,5.192989E-2,-1.2241911E-4,-5.78747E-2,-3.0391706E-2,5.9528716E-2,-2.3160417E-2,-6.448126E-2,-5.6143515E-3,6.768625E-2,1.866209E-2,-2.3231417E-2,-5.6653973E-2,-9.262982E-4],"split_indices":[1,4,1,0,1,2,0,1,2,0,2,0,0,0,0,4,0,2,1,2,4,0,1,1,0,4,1,1,0,2,0,4,1,0,0,4,4,0,0,0,0,4,2,4,2,4,4,0,0,0,0,0,0,0,0,0,0,0,0,0,0,0,0,0,0,0,0,0,0,0,0,0,0,0,0,0,0,0,0,0,0,0,0,0,0],"split_type":[0,0,0,0,0,0,0,0,0,0,0,0,0,0,0,0,0,0,0,0,0,0,0,0,0,0,0,0,0,0,0,0,0,0,0,0,0,0,0,0,0,0,0,0,0,0,0,0,0,0,0,0,0,0,0,0,0,0,0,0,0,0,0,0,0,0,0,0,0,0,0,0,0,0,0,0,0,0,0,0,0,0,0,0,0],"sum_hessian":[5.0410797E2,3.254231E2,1.7868488E2,2.4254659E2,8.287651E1,1.1222769E2,6.6457184E1,1.149699E2,1.27576675E2,1.7659813E1,6.52167E1,7.9850525E1,3.2377167E1,6.3863293E1,2.5938935E0,1.8585258E1,9.638464E1,1.16231346E2,1.1345325E1,1.2695092E1,4.9647217E0,8.124861E0,5.7091835E1,4.513248E1,3.471805E1,2.8390907E1,3.986258E0,5.393526E0,1.3191733E1,1.4101645E1,8.2283E1,8.9748795E1,2.6482557E1,5.027987E0,6.3173385E0,3.136282E0,9.55881E0,2.2466612E0,2.7180603E0,1.7579131E0,6.3669477E0,1.7803463E1,3.9288376E1,2.012031E1,2.5012169E1,1.3757534E1,2.0960514E1,1.1496172E1,1.6894735E1,2.2353415E0,1.7509165E0,1.3459389E0,4.0475874E0,1.09309025E1,2.2608304E0,5.9213915E0,8.180254E0,1.0037051E1,7.224595E1,3.6144836E0,8.613431E1,2.4257738E1,2.2248192E0,1.3521302E0,3.6758568E0,4.500141E0,1.8171972E0,1.7966578E0,1.3396242E0,1.3840828E0,8.174727E0,1.1130874E1,6.672589E0,3.9996307E0,3.5288742E1,1.3883653E1,6.2366586E0,1.8034777E1,6.977393E0,5.8052506E0,7.9522834E0,5.019591E0,1.5940923E1,8.809023E0,2.6871495E0],"tree_param":{"num_deleted":"0","num_feature":"6","num_nodes":"85","size_leaf_vector":"0"}},{"base_weights":[2.2640015E-1,-2.1966797E-1,9.849168E-1,-5.3059644E-1,1.9782504E-1,7.6652175E-1,1.262527E-1,-6.1673796E-1,-1.91181E-1,-2.621334E-1,6.8265563E-1,5.340307E-1,9.5200264E-1,-6.6688037E-1,-4.6926856E-1,2.4959649E-1,-3.649525E-1,-4.9962908E-1,-6.4725E-2,7.7763253E-1,2.4490929E-1,3.6704358E-1,6.545826E-1,9.9433005E-1,2.4138162E-1,-5.3603476E-1,-7.073789E-1,-6.1247032E-2,8.033019E-2,3.7610126E-1,-4.2379167E-2,-4.6787307E-1,-6.51192E-2,-6.013444E-2,1.1993307E-1,1.336425E-1,-2.6855463E-1,9.0011454E-1,4.310896E-1,-4.357779E-2,3.5498714E-1,4.3926054E-1,-2.2024827E-2,8.306075E-2,3.5078487E-1,8.5583043E-1,1.23599246E-1,-4.9146127E-2,8.738927E-2,-6.1624616E-2,-1.3085606E-2,-3.7847955E-2,-7.1927E-2,4.181918E-2,-2.4245346E-2,8.03464E-3,9.9486664E-2,-4.9998984E-2,7.859701E-4,4.4035118E-2,-2.1988546E-2,-2.1287858E-2,4.1763265E-2,-2.5345838E-2,3.2496013E-2,-3.3929866E-2,4.231489E-2,9.580538E-2,1.589034E-2,7.4870944E-2,-1.8032638E-2,5.192863E-2,-9.366653E-3,1.9394642E-2,6.945272E-2,-5.8216336E-3,7.064648E-2,4.527714E-2,1.01616256E-1],"categories":[],"categories_nodes":[],"categories_segments":[],"categories_sizes":[],"default_left":[0,0,0,0,0,0,0,0,0,0,0,0,0,0,0,0,0,0,0,0,0,0,0,0,0,0,0,0,0,0,0,0,0,0,0,0,0,0,0,0,0,0,0,0,0,0,0,0,0,0,0,0,0,0,0,0,0,0,0,0,0,0,0,0,0,0,0,0,0,0,0,0,0,0,0,0,0,0,0],"id":5,"left_children":[1,3,5,7,9,11,-1,13,15,17,19,21,23,25,27,29,31,33,35,37,39,41,43,45,47,49,51,-1,53,55,-1,57,59,-1,61,63,65,67,69,-1,71,73,-1,-1,75,77,-1,-1,-1,-1,-1,-1,-1,-1,-1,-1,-1,-1,-1,-1,-1,-1,-1,-1,-1,-1,-1,-1,-1,-1,-1,-1,-1,-1,-1,-1,-1,-1,-1],"loss_changes":[1.7488055E2,4.2407467E1,1.0633194E1,5.3509674E0,3.1361446E1,4.2195435E0,0E0,7.868805E-1,3.1021533E0,3.3657146E0,2.65135E0,7.8502464E-1,1.5559196E0,1.9641113E-1,3.2851276E0,1.1569033E0,8.5216045E-1,2.135995E0,1.6826684E0,1.9764366E0,1.1771674E0,1.0989437E0,1.2221022E0,8.1755066E-1,2.5974581E0,8.879204E-1,3.993988E-2,0E0,1.1246228E0,1.8210311E0,0E0,3.267951E-1,7.5948685E-1,0E0,6.290942E-1,1.6604528E0,1.1427994E0,1.5758743E0,3.3327415E0,0E0,9.551275E-1,1.2038922E0,0E0,0E0,1.8033514E0,2.0517445E0,0E0,0E0,0E0,0E0,0E0,0E0,0E0,0E0,0E0,0E0,0E0,0E0,0E0,0E0,0E0,0E0,0E0,0E0,0E0,0E0,0E0,0E0,0E0,0E0,0E0,0E0,0E0,0E0,0E0,0E0,0E0,0E0,0E0],"parents":[2147483647,0,0,1,1,2,2,3,3,4,4,5,5,7,7,8,8,9,9,10,10,11,11,12,12,13,13,14,14,15,15,16,16,17,17,18,18,19,19,20,20,21,21,22,22,23,23,24,24,25,25,26,26,28,28,29,29,31,31,32,32,34,34,35,35,36,36,37,37,38,38,40,40,41,41,44,44,45,45],"right_children":[2,4,6,8,10,12,-1,14,16,18,20,22,24,26,28,30,32,34,36,38,40,42,44,46,48,50,52,-1,54,56,-1,58,60,-1,62,64,66,68,70,-1,72,74,-1,-1,76,78,-1,-1,-1,-1,-1,-1,-1,-1,-1,-1,-1,-1,-1,-1,-1,-1,-1,-1,-1,-1,-1,-1,-1,-1,-1,-1,-1,-1,-1,-1,-1,-1,-1],"split_conditions":[6.8E-1,-1.8369701E-16,1.02E0,5.6E-1,4E-1,-9.2718387E-1,1.262527E-1,-5E-1,-5E-1,2.3E-1,8.2903755E-1,8.4E-1,6.975647E-2,2.4E-1,4.1E-1,-4.0673664E-1,6.4E-1,9.945219E-1,-2.4492937E-16,5.6E-1,5.6E1,2.419219E-1,9.5E-1,-5.8778524E-1,6.156615E-1,2.1E-1,4.7E1,-6.1247032E-2,4.7E-1,-5.591929E-1,-4.2379167E-2,7.6E1,6.5E-1,-6.013444E-2,-2.4492937E-16,5E-1,7.7E1,7.6E1,8.9879405E-1,-4.357779E-2,7.4E1,-2.4492937E-16,-2.2024827E-2,8.306075E-2,9.8E-1,7.9E-1,1.23599246E-1,-4.9146127E-2,8.738927E-2,-6.1624616E-2,-1.3085606E-2,-3.7847955E-2,-7.1927E-2,4.181918E-2,-2.4245346E-2,8.03464E-3,9.9486664E-2,-4.9998984E-2,7.859701E-4,4.4035118E-2,-2.1988546E-2,-2.1287858E-2,4.1763265E-2,-2.5345838E-2,3.2496013E-2,-3.3929866E-2,4.231489E-2,9.580538E-2,1.589034E-2,7.4870944E-2,-1.8032638E-2,5.192863E-2,-9.366653E-3,1.9394642E-2,6.945272E-2,-5.8216336E-3,7.064648E-2,4.527714E-2,1.01616256E-1],"split_indices":[1,2,1,1,1,2,0,2,3,1,3,1,2,1,1,2,1,2,3,1,0,3,1,2,2,1,0,0,1,2,0,0,1,0,3,2,0,0,2,0,0,3,0,0,1,1,0,0,0,0,0,0,0,0,0,0,0,0,0,0,0,0,0,0,0,0,0,0,0,0,0,0,0,0,0,0,0,0,0],"split_type":[0,0,0,0,0,0,0,0,0,0,0,0,0,0,0,0,0,0,0,0,0,0,0,0,0,0,0,0,0,0,0,0,0,0,0,0,0,0,0,0,0,0,0,0,0,0,0,0,0,0,0,0,0,0,0,0,0,0,0,0,0,0,0,0,0,0,0,0,0,0,0,0,0,0,0,0,0,0,0],"sum_hessian":[5.152232E2,3.2487897E2,1.9034428E2,1.8604831E2,1.3883064E2,1.0863927E2,8.170501E1,1.4773662E2,3.8311695E1,7.147843E1,6.735221E1,4.9931625E1,5.8707638E1,1.0762121E2,4.0115414E1,1.0709732E1,2.7601961E1,3.175004E1,3.972839E1,5.4706257E1,1.2645953E1,2.2629807E1,2.730182E1,5.5030556E1,3.6770818E0,2.8801868E1,7.8819336E1,3.1732813E1,8.3826E0,9.387624E0,1.3221087E0,2.0131273E1,7.4706893E0,2.7297873E1,4.452167E0,2.0308475E1,1.9419916E1,3.923991E1,1.5466347E1,1.3484906E0,1.1297462E1,2.0376274E1,2.2535317E0,1.6188114E1,1.1113708E1,3.786888E1,1.7161678E1,1.8067437E0,1.870338E0,2.3607475E1,5.194392E0,3.8957021E0,7.492364E1,3.9512248E0,4.431375E0,7.1161337E0,2.27149E0,1.881039E1,1.3208815E0,1.3186572E0,6.1520324E0,2.236644E0,2.215523E0,6.609796E0,1.369868E1,1.8080233E1,1.3396823E0,3.6123634E1,3.1162748E0,1.0030913E1,5.435433E0,8.153997E0,3.143465E0,1.128808E1,9.088194E0,5.5583773E0,5.5553303E0,1.1865112E1,2.6003767E1],"tree_param":{"num_deleted":"0","num_feature":"6","num_nodes":"79","size_leaf_vector":"0"}},{"base_weights":[-4.1054663E-1,-2.6361424E-1,-5.6209046E-1,1.0677222E-1,-4.52429E-1,-5.9724975E-1,-2.3818308E-1,2.6498827E-1,-2.1348818E-1,-3.766716E-1,-6.4301103E-1,-6.3873756E-1,-4.272323E-1,8.9400806E-2,-3.398821E-1,6.735147E-1,1.7094392E-1,-2.612831E-1,4.2288754E-2,-4.986278E-1,-3.2167763E-1,-6.643525E-1,5.751371E-3,3.1593763E-3,-6.441176E-1,6.343834E-2,-4.9218485E-1,2.0274849E-1,-4.305151E-1,-8.182909E-2,1.0151874E-1,2.2226383E-1,-3.5895482E-1,5.1002882E-2,-4.166093E-1,-2.4810344E-1,-6.81661E-2,5.9851248E-2,-3.4874883E-1,-6.8615355E-2,-7.803178E-3,-5.5155164E-1,-6.7102784E-1,4.7175974E-1,-4.8114147E-2,-5.409898E-1,-1.702262E-1,4.7638442E-2,-9.908945E-3,-1.6863127E-1,-4.820835E-1,-4.6700712E-2,3.9819825E-2,1.0986346E-2,9.577517E-2,-5.06091E-2,-6.125195E-4,-5.7378948E-2,4.9059995E-2,-4.8395083E-3,-5.8684498E-2,-4.4380225E-2,4.6532187E-3,-2.2313716E-2,-4.906732E-2,-5.9496474E-2,5.0159466E-2,-4.3140776E-2,-6.848993E-2,-7.7031828E-3,9.113197E-2,-5.651951E-2,4.4743246E-3,9.618281E-3,-4.9517438E-2,-5.1902425E-2,4.4126306E-2,-6.128894E-2,-3.3066764E-2],"categories":[],"categories_nodes":[],"categories_segments":[],"categories_sizes":[],"default_left":[0,0,0,0,0,0,0,0,0,0,0,0,0,0,0,0,0,0,0,0,0,0,0,0,0,0,0,0,0,0,0,0,0,0,0,0,0,0,0,0,0,0,0,0,0,0,0,0,0,0,0,0,0,0,0,0,0,0,0,0,0,0,0,0,0,0,0,0,0,0,0,0,0,0,0,0,0,0,0],"id":6,"left_children":[1,3,5,7,9,11,13,15,17,19,21,23,25,-1,27,29,31,33,-1,35,37,39,-1,-1,41,43,45,47,49,51,-1,53,55,57,59,61,-1,-1,63,-1,-1,65,67,69,-1,71,73,-1,-1,75,77,-1,-1,-1,-1,-1,-1,-1,-1,-1,-1,-1,-1,-1,-1,-1,-1,-1,-1,-1,-1,-1,-1,-1,-1,-1,-1,-1,-1],"loss_changes":[1.0447006E1,1.7075552E1,2.5152893E0,4.2631426E0,2.0888977E0,1.2072678E0,3.1263802E0,2.0368721E0,9.622867E-1,6.3064957E-1,7.036438E-1,6.213989E-1,1.4393091E0,0E0,1.2291226E0,2.7003732E0,1.3544304E0,1.314759E0,0E0,1.4283609E0,2.3039045E0,4.9960518E-1,0E0,0E0,4.185486E-2,1.5724353E0,5.227823E-1,3.7780398E-1,1.9170284E-1,9.4107956E-1,0E0,3.4785438E0,2.3160595E-1,2.9590893E0,1.0947618E0,9.593401E-1,0E0,0E0,1.3583403E0,0E0,0E0,2.2582827E0,1.1507797E-1,1.026151E0,0E0,5.005436E-1,6.1985695E-1,0E0,0E0,1.2684004E0,1.2118673E-1,0E0,0E0,0E0,0E0,0E0,0E0,0E0,0E0,0E0,0E0,0E0,0E0,0E0,0E0,0E0,0E0,0E0,0E0,0E0,0E0,0E0,0E0,0E0,0E0,0E0,0E0,0E0,0E0],"parents":[2147483647,0,0,1,1,2,2,3,3,4,4,5,5,6,6,7,7,8,8,9,9,10,10,11,11,12,12,14,14,15,15,16,16,17,17,19,19,20,20,21,21,24,24,25,25,26,26,27,27,28,28,29,29,31,31,32,32,33,33,34,34,35,35,38,38,41,41,42,42,43,43,45,45,46,46,49,49,50,50],"right_children":[2,4,6,8,10,12,14,16,18,20,22,24,26,-1,28,30,32,34,-1,36,38,40,-1,-1,42,44,46,48,50,52,-1,54,56,58,60,62,-1,-1,64,-1,-1,66,68,70,-1,72,74,-1,-1,76,78,-1,-1,-1,-1,-1,-1,-1,-1,-1,-1,-1,-1,-1,-1,-1,-1,-1,-1,-1,-1,-1,-1,-1,-1,-1,-1,-1,-1],"split_conditions":[6.5E1,2.9944408E-1,9.5755553E-1,6E1,8.654614E-1,7.193398E-1,-8.2903755E-1,-1.9570252E-1,2.8982648E-1,-4.0673664E-1,6.4E1,-9.9939084E-1,-5.2099377E-1,8.9400806E-2,2.9944408E-1,5.2E1,8.9879405E-1,5.2349246E-3,4.2288754E-2,1.970027E-1,-3.4202015E-1,1.3005035E0,5.751371E-3,3.1593763E-3,-2.3776414E-1,2.6629582E-1,9.945219E-1,1.0600601E0,-2.7563736E-1,-3.8027197E-1,1.0151874E-1,7.193398E-1,5.6E1,-1.795333E-1,-5.2991927E-1,6.396101E-1,-6.81661E-2,5.9851248E-2,4.3837115E-1,-6.8615355E-2,-7.803178E-3,-2.445369E-1,-9.612617E-1,1.6269466E-1,-4.8114147E-2,9.377102E-1,3.4878235E-2,4.7638442E-2,-9.908945E-3,-4.3837115E-1,7.2E1,-4.6700712E-2,3.9819825E-2,1.0986346E-2,9.577517E-2,-5.06091E-2,-6.125195E-4,-5.7378948E-2,4.9059995E-2,-4.8395083E-3,-5.8684498E-2,-4.4380225E-2,4.6532187E-3,-2.2313716E-2,-4.906732E-2,-5.9496474E-2,5.0159466E-2,-4.3140776E-2,-6.848993E-2,-7.7031828E-3,9.113197E-2,-5.651951E-2,4.4743246E-3,9.618281E-3,-4.9517438E-2,-5.1902425E-2,4.4126306E-2,-6.128894E-2,-3.3066764E-2],"split_indices":[0,4,5,0,4,3,3,4,4,3,0,3,5,0,4,0,3,4,0,5,3,5,0,0,5,4,3,5,3,4,0,3,0,4,3,4,0,0,3,0,0,5,3,4,0,4,5,0,0,3,0,0,0,0,0,0,0,0,0,0,0,0,0,0,0,0,0,0,0,0,0,0,0,0,0,0,0,0,0],"split_type":[0,0,0,0,0,0,0,0,0,0,0,0,0,0,0,0,0,0,0,0,0,0,0,0,0,0,0,0,0,0,0,0,0,0,0,0,0,0,0,0,0,0,0,0,0,0,0,0,0,0,0,0,0,0,0,0,0,0,0,0,0,0,0,0,0,0,0,0,0,0,0,0,0,0,0,0,0,0,0],"sum_hessian":[4.7483084E2,2.4247441E2,2.3235645E2,8.20184E1,1.6045601E2,2.0884319E2,2.351325E1,5.5013195E1,2.7005209E1,1.1694584E2,4.3510174E1,1.6566144E2,4.3181744E1,1.2958735E0,2.2217377E1,9.141419E0,4.5871773E1,2.5666918E1,1.3382909E0,3.3838253E1,8.310758E1,4.2273937E1,1.2362373E0,1.2802144E0,1.6438123E2,5.050686E0,3.8131058E1,3.0027184E0,1.9214659E1,3.0840163E0,6.057403E0,4.2350723E1,3.521051E0,8.748848E0,1.691807E1,1.5279771E1,1.8558483E1,1.7718239E0,8.133576E1,4.0594257E1,1.6796799E0,4.1866085E1,1.22515144E2,2.9628692E0,2.0878167E0,3.252097E1,5.6100903E0,1.2716266E0,1.7310917E0,3.863645E0,1.5351013E1,1.7261016E0,1.3579147E0,3.7733505E1,4.617219E0,2.1782885E0,1.3427626E0,3.4872344E0,5.2616134E0,5.7548337E0,1.1163236E1,8.877202E0,6.402568E0,4.451209E1,3.6823673E1,4.062643E1,1.2396537E0,8.460799E0,1.14054344E2,1.6845088E0,1.2783604E0,3.1264053E1,1.2569153E0,3.469568E0,2.1405225E0,2.5484927E0,1.3151524E0,6.6008835E0,8.750131E0],"tree_param":{"num_deleted":"0","num_feature":"6","num_nodes":"79","size_leaf_vector":"0"}},{"base_weights":[1.8990958E-1,5.1455665E-1,-3.316802E-1,6.3190657E-1,-7.7894456E-3,-1.0176419E-1,-5.774411E-1,3.3674842E-1,8.619586E-1,7.217594E-1,-2.1169326E-1,5.839147E-2,-3.8874838E-1,-4.8686975E-1,-6.867801E-2,-1.487515E-1,4.0122682E-1,9.55214E-1,5.6852937E-1,7.8022525E-2,1.0599325E-1,2.788626E-2,-3.6035267E-1,-3.2365334E-1,1.1714553E-1,-6.545385E-2,-2.847166E-1,-5.119248E-1,1.0306086E-2,-3.47359E-1,4.93352E-1,1.9245066E-2,4.6644983E-1,9.7834957E-1,-4.6623975E-2,2.4066645E-1,8.7378806E-1,4.8565036E-1,-4.950969E-2,4.8479614E-1,-1.4709893E-1,-1.03345476E-1,-5.1208836E-1,-6.067278E-2,1.8346766E-1,3.843379E-1,-6.325173E-3,4.577013E-2,-3.3729482E-1,-5.3938E-1,-7.884574E-2,-4.080118E-2,4.1305803E-2,4.528214E-3,-5.367158E-2,-1.4416E-3,7.855514E-2,1.7476218E-2,-5.4469295E-2,3.3863306E-2,7.419856E-2,1.0079119E-1,5.229955E-3,5.557486E-2,-2.1282127E-2,9.635141E-2,2.4742624E-2,-2.6204472E-3,7.8898884E-2,-9.514708E-3,7.790042E-2,1.5173422E-3,-5.608598E-2,-5.13838E-2,4.8863668E-2,-1.4861568E-2,-6.614238E-2,6.221748E-2,-4.1811902E-2,4.690638E-2,-4.1737318E-2,-1.3688034E-2,3.3313844E-2,-5.8463763E-2,-1.2669839E-2,-4.4346992E-2,-6.745446E-2,-4.720593E-2,4.8699763E-2],"categories":[],"categories_nodes":[],"categories_segments":[],"categories_sizes":[],"default_left":[0,0,0,0,0,0,0,0,0,0,0,0,0,0,0,0,0,0,0,0,0,0,0,0,0,0,0,0,0,0,0,0,0,0,0,0,0,0,0,0,0,0,0,0,0,0,0,0,0,0,0,0,0,0,0,0,0,0,0,0,0,0,0,0,0,0,0,0,0,0,0,0,0,0,0,0,0,0,0,0,0,0,0,0,0,0,0,0,0],"id":7,"left_children":[1,3,5,7,9,11,13,15,17,19,21,23,25,27,-1,29,31,33,35,37,-1,39,41,43,45,-1,47,49,51,53,55,57,59,61,-1,63,65,67,-1,69,71,73,75,-1,77,79,81,-1,83,85,87,-1,-1,-1,-1,-1,-1,-1,-1,-1,-1,-1,-1,-1,-1,-1,-1,-1,-1,-1,-1,-1,-1,-1,-1,-1,-1,-1,-1,-1,-1,-1,-1,-1,-1,-1,-1,-1,-1],"loss_changes":[8.666113E1,1.9326668E1,1.1047674E1,1.7187714E1,8.9016285E0,4.746096E0,6.0434914E-1,3.6405058E0,3.3976898E0,2.7634053E0,1.6746855E0,1.5379726E0,8.350415E-1,6.9389725E-1,0E0,1.9746126E0,2.5135078E0,4.001663E0,3.5129423E0,1.5445393E0,0E0,1.5764006E0,1.0746422E0,1.4281558E0,1.9374646E0,0E0,1.2597821E0,5.83477E-1,7.8052545E-1,8.708836E-1,5.6824446E-1,1.4817244E0,2.792921E0,2.8603287E0,0E0,2.878368E0,8.229408E-1,6.055359E-1,0E0,1.0032992E0,9.73945E-1,3.1638381E0,8.7479925E-1,0E0,1.3300679E0,1.4560785E0,1.8671101E0,0E0,1.3334415E0,3.404665E-1,1.1888312E0,0E0,0E0,0E0,0E0,0E0,0E0,0E0,0E0,0E0,0E0,0E0,0E0,0E0,0E0,0E0,0E0,0E0,0E0,0E0,0E0,0E0,0E0,0E0,0E0,0E0,0E0,0E0,0E0,0E0,0E0,0E0,0E0,0E0,0E0,0E0,0E0,0E0,0E0],"parents":[2147483647,0,0,1,1,2,2,3,3,4,4,5,5,6,6,7,7,8,8,9,9,10,10,11,11,12,12,13,13,15,15,16,16,17,17,18,18,19,19,21,21,22,22,23,23,24,24,26,26,27,27,28,28,29,29,30,30,31,31,32,32,33,33,35,35,36,36,37,37,39,39,40,40,41,41,42,42,44,44,45,45,46,46,48,48,49,49,50,50],"right_children":[2,4,6,8,10,12,14,16,18,20,22,24,26,28,-1,30,32,34,36,38,-1,40,42,44,46,-1,48,50,52,54,56,58,60,62,-1,64,66,68,-1,70,72,74,76,-1,78,80,82,-1,84,86,88,-1,-1,-1,-1,-1,-1,-1,-1,-1,-1,-1,-1,-1,-1,-1,-1,-1,-1,-1,-1,-1,-1,-1,-1,-1,-1,-1,-1,-1,-1,-1,-1,-1,-1,-1,-1,-1,-1],"split_conditions":[6.2E-1,5.969071E-1,7.399718E-1,6.4E1,3.6E-1,8.4E-1,1.15E0,-1.5098208E-1,3.9546937E-1,7.083159E-1,4.6E-1,-7.193398E-1,-3.09017E-1,7.6E1,-6.867801E-2,6.2E1,-8.660254E-1,9.9939084E-1,0E0,6.691306E-1,1.0599325E-1,6E1,7.308364E-1,7.2E-1,6.8E-1,-6.545385E-2,-2.7563736E-1,1.13E0,1.7364818E-1,1.04528464E-1,1.7E-1,4E-1,3.7E-1,6E-1,-4.6623975E-2,-5.2991927E-1,5.4742754E-1,6.975647E-2,-4.950969E-2,5.2E1,4.3E-1,6.6E1,5.1E-1,-6.067278E-2,-8.480481E-1,6.5775275E-1,6.2098926E-1,4.577013E-2,5.9E1,4.6947157E-1,6.2E1,-4.080118E-2,4.1305803E-2,4.528214E-3,-5.367158E-2,-1.4416E-3,7.855514E-2,1.7476218E-2,-5.4469295E-2,3.3863306E-2,7.419856E-2,1.0079119E-1,5.229955E-3,5.557486E-2,-2.1282127E-2,9.635141E-2,2.4742624E-2,-2.6204472E-3,7.8898884E-2,-9.514708E-3,7.790042E-2,1.5173422E-3,-5.608598E-2,-5.13838E-2,4.8863668E-2,-1.4861568E-2,-6.614238E-2,6.221748E-2,-4.1811902E-2,4.690638E-2,-4.1737318E-2,-1.3688034E-2,3.3313844E-2,-5.8463763E-2,-1.2669839E-2,-4.4346992E-2,-6.745446E-2,-4.720593E-2,4.8699763E-2],"split_indices":[1,4,4,0,1,1,1,4,4,4,1,3,3,0,0,0,3,3,3,3,0,0,4,1,1,0,3,1,3,3,1,1,4,1,0,3,4,3,0,0,1,0,1,0,3,4,4,0,0,3,0,0,0,0,0,0,0,0,0,0,0,0,0,0,0,0,0,0,0,0,0,0,0,0,0,0,0,0,0,0,0,0,0,0,0,0,0,0,0],"split_type":[0,0,0,0,0,0,0,0,0,0,0,0,0,0,0,0,0,0,0,0,0,0,0,0,0,0,0,0,0,0,0,0,0,0,0,0,0,0,0,0,0,0,0,0,0,0,0,0,0,0,0,0,0,0,0,0,0,0,0,0,0,0,0,0,0,0,0,0,0,0,0,0,0,0,0,0,0,0,0,0,0,0,0,0,0,0,0,0,0],"sum_hessian":[5.0977267E2,3.1421375E2,1.9555893E2,2.564011E2,5.7812634E1,1.01767105E2,9.3791824E1,1.1338775E2,1.4301335E2,1.2073844E1,4.573879E1,6.58276E1,3.5939503E1,5.428087E1,3.951096E1,1.314013E1,1.0024762E2,1.0681188E2,3.620147E1,4.5821357E0,7.491708E0,1.7824781E1,2.791401E1,8.173204E0,5.7654396E1,8.621299E0,2.7318205E1,5.16484E1,2.6324723E0,1.0386527E1,2.7536025E0,1.4809589E1,8.543803E1,1.0540799E2,1.4038918E0,1.8316763E1,1.7884708E1,2.7668495E0,1.8152864E0,4.4457726E0,1.3379009E1,1.0986448E1,1.692756E1,5.119236E0,3.0539684E0,1.755416E1,4.0100235E1,1.2971382E0,2.6021067E1,4.8338505E1,3.3098931E0,1.2848766E0,1.3475957E0,3.6268756E0,6.7596517E0,1.3530356E0,1.4005669E0,1.2149286E1,2.6603034E0,5.988657E1,2.5551458E1,1.0206148E2,3.346512E0,1.0674587E1,7.6421757E0,1.5172923E1,2.7117848E0,1.3695228E0,1.3973267E0,1.7240071E0,2.7217655E0,1.0302007E1,3.0770028E0,6.5656776E0,4.4207706E0,5.510514E0,1.1417046E1,1.7462745E0,1.307694E0,1.625159E1,1.3025687E0,2.939277E1,1.0707465E1,1.1149738E1,1.4871328E1,3.0779177E1,1.7559328E1,2.050624E0,1.2592691E0],"tree_param":{"num_deleted":"0","num_feature":"6","num_nodes":"89","size_leaf_vector":"0"}},{"base_weights":[1.8860766E-1,-1.6728784E-1,9.6734405E-1,-4.4461498E-1,6.590247E-2,7.799443E-1,1.1146246E0,-5.1353663E-1,-9.658995E-2,-9.397319E-2,5.361925E-1,2.1004137E-1,8.1593233E-1,1.1240323E-1,3.2773875E-2,-5.7444024E-1,-3.6244705E-1,3.1127894E-1,-3.1718072E-1,3.389886E-1,-1.9628085E-1,5.77006E-1,-8.660236E-2,7.090942E-2,-5.252212E-2,1.0517135E0,7.221531E-1,-6.74847E-2,-5.3099024E-1,9.0253145E-2,-4.2434317E-1,2.521394E-2,8.123859E-2,-4.7275847E-1,1.5277159E-1,4.816417E-1,-4.0422776E-1,-2.9040655E-1,3.4157464E-1,8.4870785E-1,4.2217764E-1,-4.8273843E-2,3.46057E-2,3.422573E-2,1.0936204E-1,4.4461635E-1,9.7809446E-1,-4.8588376E-2,-6.687748E-2,-4.7617357E-2,5.3820312E-2,-3.0630803E-2,-5.1825292E-2,4.1084E-2,-5.1989134E-2,-5.9076644E-2,1.1201848E-2,-4.5299076E-2,5.5984545E-2,-3.405576E-2,6.3747734E-2,-5.592838E-2,2.167031E-3,-3.962743E-2,7.162223E-3,4.6066698E-2,-4.735723E-2,3.5748344E-2,9.465956E-2,-8.994284E-3,6.2603146E-2,1.8281376E-2,5.640992E-2,1.02467075E-1,4.37806E-2],"categories":[],"categories_nodes":[],"categories_segments":[],"categories_sizes":[],"default_left":[0,0,0,0,0,0,0,0,0,0,0,0,0,0,0,0,0,0,0,0,0,0,0,0,0,0,0,0,0,0,0,0,0,0,0,0,0,0,0,0,0,0,0,0,0,0,0,0,0,0,0,0,0,0,0,0,0,0,0,0,0,0,0,0,0,0,0,0,0,0,0,0,0,0,0],"id":8,"left_children":[1,3,5,7,9,11,13,15,17,19,21,23,25,-1,-1,27,29,31,33,35,37,39,41,-1,-1,43,45,-1,47,49,51,53,-1,55,57,59,61,63,65,67,69,-1,-1,-1,-1,71,73,-1,-1,-1,-1,-1,-1,-1,-1,-1,-1,-1,-1,-1,-1,-1,-1,-1,-1,-1,-1,-1,-1,-1,-1,-1,-1,-1,-1],"loss_changes":[1.406933E2,2.259047E1,3.5244904E0,3.7758007E0,1.4365008E1,1.3337593E0,2.742386E-1,1.0146065E0,2.581431E0,6.3978467E0,1.2815075E0,2.466012E0,7.591324E-1,0E0,0E0,4.7395706E-2,1.1839681E0,1.4402853E0,1.4178023E0,3.1300344E0,5.984368E0,1.5600061E0,8.2679766E-1,0E0,0E0,1.4160919E-1,3.2821732E0,0E0,1.07629776E-1,1.7133371E0,2.419033E-1,1.7941538E0,0E0,1.0371768E0,1.5686812E0,3.251689E0,3.4244466E-1,3.840969E0,1.9435418E0,4.099617E-1,3.2965999E0,0E0,0E0,0E0,0E0,7.395363E-1,2.1548653E-1,0E0,0E0,0E0,0E0,0E0,0E0,0E0,0E0,0E0,0E0,0E0,0E0,0E0,0E0,0E0,0E0,0E0,0E0,0E0,0E0,0E0,0E0,0E0,0E0,0E0,0E0,0E0,0E0],"parents":[2147483647,0,0,1,1,2,2,3,3,4,4,5,5,6,6,7,7,8,8,9,9,10,10,11,11,12,12,15,15,16,16,17,17,18,18,19,19,20,20,21,21,22,22,25,25,26,26,28,28,29,29,30,30,31,31,33,33,34,34,35,35,36,36,37,37,38,38,39,39,40,40,45,45,46,46],"right_children":[2,4,6,8,10,12,14,16,18,20,22,24,26,-1,-1,28,30,32,34,36,38,40,42,-1,-1,44,46,-1,48,50,52,54,-1,56,58,60,62,64,66,68,70,-1,-1,-1,-1,72,74,-1,-1,-1,-1,-1,-1,-1,-1,-1,-1,-1,-1,-1,-1,-1,-1,-1,-1,-1,-1,-1,-1,-1,-1,-1,-1,-1,-1],"split_conditions":[7.7E-1,4E-1,1.02E0,6.0676277E-1,4.8063084E-1,-7.047695E-1,7.9E1,1.857862E-1,7.277218E-1,-7.193398E-1,1.6980175E0,-7.386058E-1,-3.4202015E-1,1.1240323E-1,3.2773875E-2,5.7E1,2.1201202E-1,3.1E-1,4.6947157E-1,2.7959645E-1,9.135454E-1,-4.6947157E-1,-1.7364818E-1,7.090942E-2,-5.252212E-2,-9.5105654E-1,2.7563736E-1,-6.74847E-2,7.3E1,2.6E-1,0E0,1.2246469E-16,8.123859E-2,1.3005035E0,6.3E1,4.4E-1,4.275252E-1,6.6E-1,7.4E1,4.9969542E-1,-1.04528464E-1,-4.8273843E-2,3.46057E-2,3.422573E-2,1.0936204E-1,-6.975647E-2,7.5E1,-4.8588376E-2,-6.687748E-2,-4.7617357E-2,5.3820312E-2,-3.0630803E-2,-5.1825292E-2,4.1084E-2,-5.1989134E-2,-5.9076644E-2,1.1201848E-2,-4.5299076E-2,5.5984545E-2,-3.405576E-2,6.3747734E-2,-5.592838E-2,2.167031E-3,-3.962743E-2,7.162223E-3,4.6066698E-2,-4.735723E-2,3.5748344E-2,9.465956E-2,-8.994284E-3,6.2603146E-2,1.8281376E-2,5.640992E-2,1.02467075E-1,4.37806E-2],"split_indices":[1,1,1,5,5,5,0,5,5,3,5,5,3,0,0,0,5,1,3,5,3,3,3,0,0,3,3,0,0,1,3,3,0,5,0,1,5,1,0,5,3,0,0,0,0,3,0,0,0,0,0,0,0,0,0,0,0,0,0,0,0,0,0,0,0,0,0,0,0,0,0,0,0,0,0],"split_type":[0,0,0,0,0,0,0,0,0,0,0,0,0,0,0,0,0,0,0,0,0,0,0,0,0,0,0,0,0,0,0,0,0,0,0,0,0,0,0,0,0,0,0,0,0,0,0,0,0,0,0,0,0,0,0,0,0,0,0,0,0,0,0,0,0,0,0,0,0,0,0,0,0,0,0],"sum_hessian":[5.0606152E2,3.478661E2,1.5819542E2,1.5848152E2,1.8938457E2,7.2386505E1,8.5808914E1,1.3188742E2,2.6594095E1,1.4193408E2,4.745049E1,4.7055926E0,6.768091E1,8.437174E1,1.4371748E0,9.200043E1,3.9886997E1,9.190286E0,1.740381E1,2.668612E1,1.1524797E2,4.4601166E1,2.849321E0,2.8242493E0,1.8813431E0,1.635248E1,5.132843E1,2.3398434E1,6.860199E1,4.742539E0,3.514446E1,6.5190797E0,2.671206E0,1.3070762E1,4.3330483E0,2.268408E1,4.002038E0,9.847477E1,1.67732E1,1.4563203E1,3.0037964E1,1.4270184E0,1.4223025E0,1.4233425E0,1.4929138E1,2.5938509E1,2.5389923E1,5.5092716E1,1.3509275E1,2.0664873E0,2.6760516E0,1.7460314E1,1.7684145E1,3.9623146E0,2.5567653E0,1.0867466E1,2.2032957E0,1.6961813E0,2.636867E0,3.4255073E0,1.9258574E1,2.7043006E0,1.2977374E0,7.612037E1,2.2354399E1,1.5014463E1,1.7587358E0,3.192821E0,1.1370381E1,8.711577E0,2.1326387E1,8.921145E0,1.7017365E1,2.2549492E1,2.8404307E0],"tree_param":{"num_deleted":"0","num_feature":"6","num_nodes":"75","size_leaf_vector":"0"}},{"base_weights":[-3.944557E-1,-1.4810373E-1,-5.070345E-1,1.1429541E-1,-6.027471E-1,-8.248747E-2,-5.3631806E-1,3.1317982E-1,-3.0517483E-1,-3.0138633E-1,-6.687259E-2,5.4967767E-1,-4.9695224E-1,-4.1161585E-1,-5.820472E-1,7.250811E-1,1.5440229E-1,-4.831479E-1,3.479858E-1,-6.0662415E-2,1.7297707E-1,7.2283506E-1,-1.0688185E-2,-6.2447526E-2,-1.19949475E-1,2.7689132E-1,-4.463953E-1,-6.2426275E-1,-4.440491E-1,-6.051061E-3,7.97977E-1,4.087413E-1,-2.2288976E-2,-6.243667E-1,4.1447278E-2,-4.1083317E-2,5.870675E-1,8.22415E-2,-2.671647E-1,8.711414E-3,9.897227E-2,-4.3255653E-2,1.9037707E-2,-1.0437722E-3,3.9902765E-2,-3.5163578E-1,-6.5578066E-2,-4.7806624E-1,-6.374856E-2,-5.4881924E-1,1.08773395E-1,4.7915515E-2,9.698333E-2,1.4606619E-2,9.222262E-2,1.4498206E-2,-3.0041674E-2,-1.956468E-3,-6.691763E-2,9.0294406E-2,-5.386878E-2,1.0345866E-1,2.376754E-3,4.504111E-3,-4.335767E-2,-8.001318E-3,-4.5226645E-2,-4.3576485E-3,-6.300641E-2,-6.636974E-2,-4.0960368E-2,3.6975145E-2,-4.747224E-2],"categories":[],"categories_nodes":[],"categories_segments":[],"categories_sizes":[],"default_left":[0,0,0,0,0,0,0,0,0,0,0,0,0,0,0,0,0,0,0,0,0,0,0,0,0,0,0,0,0,0,0,0,0,0,0,0,0,0,0,0,0,0,0,0,0,0,0,0,0,0,0,0,0,0,0,0,0,0,0,0,0,0,0,0,0,0,0,0,0,0,0,0,0],"id":9,"left_children":[1,3,5,7,9,11,13,15,17,19,-1,21,23,25,27,29,31,33,35,-1,37,39,-1,-1,41,43,45,47,49,-1,51,53,55,57,59,-1,61,-1,63,-1,-1,-1,-1,-1,-1,65,-1,67,-1,69,71,-1,-1,-1,-1,-1,-1,-1,-1,-1,-1,-1,-1,-1,-1,-1,-1,-1,-1,-1,-1,-1,-1],"loss_changes":[1.2686302E1,1.7454712E1,3.876915E0,7.8745556E0,8.620262E-1,5.915068E0,1.4419098E0,4.0571413E0,3.7132509E0,1.7596335E0,0E0,1.1006699E0,5.756285E-1,2.0999174E0,9.6562195E-1,1.0484734E0,2.1339164E0,1.8324041E0,1.5313928E0,0E0,1.721129E0,1.1442146E0,0E0,0E0,5.3421044E-1,1.65095E-1,1.3358059E0,6.2675476E-3,3.1548138E0,0E0,4.148655E-1,2.486506E0,1.3856325E0,5.0928974E-1,3.5400145E0,0E0,1.4424481E0,0E0,2.214013E-1,0E0,0E0,0E0,0E0,0E0,0E0,1.508328E0,0E0,1.1179821E0,0E0,4.492607E-1,1.5991305E0,0E0,0E0,0E0,0E0,0E0,0E0,0E0,0E0,0E0,0E0,0E0,0E0,0E0,0E0,0E0,0E0,0E0,0E0,0E0,0E0,0E0,0E0],"parents":[2147483647,0,0,1,1,2,2,3,3,4,4,5,5,6,6,7,7,8,8,9,9,11,11,12,12,13,13,14,14,15,15,16,16,17,17,18,18,20,20,21,21,24,24,25,25,26,26,27,27,28,28,30,30,31,31,32,32,33,33,34,34,36,36,38,38,45,45,47,47,49,49,50,50],"right_children":[2,4,6,8,10,12,14,16,18,20,-1,22,24,26,28,30,32,34,36,-1,38,40,-1,-1,42,44,46,48,50,-1,52,54,56,58,60,-1,62,-1,64,-1,-1,-1,-1,-1,-1,66,-1,68,-1,70,72,-1,-1,-1,-1,-1,-1,-1,-1,-1,-1,-1,-1,-1,-1,-1,-1,-1,-1,-1,-1,-1,-1],"split_conditions":[5.9E1,7E-1,1.5E-1,-6.975647E-2,5.755336E-1,6.7E1,6.5E1,2.7E-1,5.4E-1,9.3E-1,-6.687259E-2,8.2903755E-1,1.3E-1,2E-1,3.4202015E-1,9E-2,-8.8294756E-1,9.5105654E-1,2.7563736E-1,-6.0662415E-2,9.8E-1,1.4657789E-2,-1.0688185E-2,-6.2447526E-2,7E1,6.2E1,7.6E-1,6.6E1,5.6E-1,-6.051061E-3,-7.6604444E-1,3.2356587E-1,5.2E-1,5.9581224E-2,2E-1,-4.1083317E-2,8.314255E-1,8.22415E-2,-9.612617E-1,8.711414E-3,9.897227E-2,-4.3255653E-2,1.9037707E-2,-1.0437722E-3,3.9902765E-2,-8.9879405E-1,-6.5578066E-2,3.7E-1,-6.374856E-2,7.1E1,7.4E-1,4.7915515E-2,9.698333E-2,1.4606619E-2,9.222262E-2,1.4498206E-2,-3.0041674E-2,-1.956468E-3,-6.691763E-2,9.0294406E-2,-5.386878E-2,1.0345866E-1,2.376754E-3,4.504111E-3,-4.335767E-2,-8.001318E-3,-4.5226645E-2,-4.3576485E-3,-6.300641E-2,-6.636974E-2,-4.0960368E-2,3.6975145E-2,-4.747224E-2],"split_indices":[0,1,1,2,4,0,0,1,1,1,0,2,1,1,2,1,2,2,2,0,1,4,0,0,0,0,1,0,1,0,2,4,1,4,1,0,4,0,2,0,0,0,0,0,0,2,0,1,0,0,1,0,0,0,0,0,0,0,0,0,0,0,0,0,0,0,0,0,0,0,0,0,0],"split_type":[0,0,0,0,0,0,0,0,0,0,0,0,0,0,0,0,0,0,0,0,0,0,0,0,0,0,0,0,0,0,0,0,0,0,0,0,0,0,0,0,0,0,0,0,0,0,0,0,0,0,0,0,0,0,0,0,0,0,0,0,0,0,0,0,0,0,0,0,0,0,0,0,0],"sum_hessian":[4.5913565E2,1.4473434E2,3.144013E2,9.224398E1,5.249036E1,2.053315E1,2.9386816E2,6.2746994E1,2.9496986E1,1.0427996E1,4.2062366E1,8.0019245E0,1.2531224E1,8.153249E1,2.1233568E2,1.6465496E1,4.6281498E1,2.3385267E1,6.1117196E0,6.175463E0,4.252532E0,6.2520895E0,1.7498354E0,8.87335E0,3.6578743E0,3.5857773E0,7.794672E1,1.5989723E2,5.2438442E1,1.4125454E0,1.505295E1,1.8433708E1,2.784779E1,1.8275415E1,5.1098514E0,1.2921615E0,4.819558E0,1.3669894E0,2.8855429E0,2.240846E0,4.0112433E0,1.6260247E0,2.0318496E0,1.3423657E0,2.2434115E0,5.550618E1,2.2440535E1,1.6344215E1,1.4355302E2,4.408984E1,8.348601E0,6.59894E0,8.45401E0,1.3044968E1,5.388741E0,1.7688393E1,1.0159396E1,1.359717E0,1.6915699E1,1.8323647E0,3.2774868E0,2.2195568E0,2.6000016E0,1.2568688E0,1.6286739E0,1.5490173E1,4.0016006E1,4.569338E0,1.17748785E1,2.2092276E1,2.1997564E1,6.021641E0,2.3269608E0],"tree_param":{"num_deleted":"0","num_feature":"6","num_nodes":"73","size_leaf_vector":"0"}},{"base_weights":[1.8238945E-1,4.752695E-1,-2.6155034E-1,2.3544788E-1,6.7447734E-1,-7.8923486E-2,-4.6526718E-1,2.0129088E-1,7.088357E-1,7.436335E-1,1.6490601E-1,-4.1115636E-1,-9.464355E-3,-4.993824E-1,-6.3607834E-2,2.3393801E-1,-3.051526E-1,1.7910413E-1,9.218464E-2,1.19359875E-2,7.695469E-1,8.456568E-2,3.1513426E-2,-6.174239E-2,-2.5558951E-1,3.1149125E-1,-7.584449E-2,-4.2302328E-1,-6.313007E-2,-4.1416767E-1,5.1258415E-1,5.932134E-2,3.415357E-1,-5.870642E-2,1.791393E-2,3.6184154E-2,-7.503716E-3,3.4442836E-1,-4.9494054E-2,9.1971874E-1,5.8407575E-1,-1.6925532E-1,4.7374132E-1,4.3862697E-2,-3.7838694E-1,-4.1991657E-1,6.319353E-1,-2.0317855E-1,9.8372124E-2,-7.3727146E-2,-4.516675E-1,4.709558E-3,-5.484574E-2,7.704099E-2,1.7320967E-3,-3.1646278E-2,2.0999415E-2,4.0545825E-2,-4.9742735E-3,4.1520916E-2,-4.6047676E-2,5.4003544E-2,-3.4079526E-3,9.362825E-2,2.8653303E-2,2.4807043E-2,7.197844E-2,-4.540782E-4,-5.9388507E-2,8.3967924E-2,-4.5578744E-2,-4.3908186E-2,5.541669E-3,-9.2780293E-4,-5.537653E-2,-1.4470254E-4,8.2554154E-2,-8.5643185E-3,-6.457598E-2,4.4407804E-2,-1.0285061E-2,-5.0837208E-2,5.30834E-2,-1.7313702E-2,-4.8169497E-2],"categories":[],"categories_nodes":[],"categories_segments":[],"categories_sizes":[],"default_left":[0,0,0,0,0,0,0,0,0,0,0,0,0,0,0,0,0,0,0,0,0,0,0,0,0,0,0,0,0,0,0,0,0,0,0,0,0,0,0,0,0,0,0,0,0,0,0,0,0,0,0,0,0,0,0,0,0,0,0,0,0,0,0,0,0,0,0,0,0,0,0,0,0,0,0,0,0,0,0,0,0,0,0,0,0],"id":10,"left_children":[1,3,5,7,9,11,13,15,17,19,21,23,25,27,29,31,33,35,-1,37,39,-1,41,-1,43,45,47,49,-1,51,53,55,57,-1,59,-1,-1,61,-1,63,65,67,69,-1,71,73,75,77,79,81,83,-1,-1,-1,-1,-1,-1,-1,-1,-1,-1,-1,-1,-1,-1,-1,-1,-1,-1,-1,-1,-1,-1,-1,-1,-1,-1,-1,-1,-1,-1,-1,-1,-1,-1],"loss_changes":[6.6061325E1,1.4455467E1,7.4868317E0,2.1265173E0,5.747078E0,2.4845867E0,1.2753048E0,2.2586632E0,8.558507E-1,2.7661972E0,1.897446E0,4.3977404E-1,1.9456102E0,6.171093E-1,1.9521421E0,2.325368E0,7.796911E-1,2.052995E-1,0E0,1.1854396E0,3.399849E0,0E0,1.745433E0,0E0,1.2164469E0,3.9347615E0,1.6961095E0,5.532656E-1,0E0,3.9181447E-1,4.5976847E-1,2.8300319E0,1.9469557E0,0E0,1.1236074E0,0E0,0E0,3.3132505E-1,0E0,5.326843E-1,2.8302174E0,9.5106435E-1,2.4642773E0,0E0,3.1415284E-1,2.9003638E-1,1.3851275E0,2.2323787E0,2.3119655E0,1.7514366E0,3.6812496E-1,0E0,0E0,0E0,0E0,0E0,0E0,0E0,0E0,0E0,0E0,0E0,0E0,0E0,0E0,0E0,0E0,0E0,0E0,0E0,0E0,0E0,0E0,0E0,0E0,0E0,0E0,0E0,0E0,0E0,0E0,0E0,0E0,0E0,0E0],"parents":[2147483647,0,0,1,1,2,2,3,3,4,4,5,5,6,6,7,7,8,8,9,9,10,10,11,11,12,12,13,13,14,14,15,15,16,16,17,17,19,19,20,20,22,22,24,24,25,25,26,26,27,27,29,29,30,30,31,31,32,32,34,34,37,37,39,39,40,40,41,41,42,42,44,44,45,45,46,46,47,47,48,48,49,49,50,50],"right_children":[2,4,6,8,10,12,14,16,18,20,22,24,26,28,30,32,34,36,-1,38,40,-1,42,-1,44,46,48,50,-1,52,54,56,58,-1,60,-1,-1,62,-1,64,66,68,70,-1,72,74,76,78,80,82,84,-1,-1,-1,-1,-1,-1,-1,-1,-1,-1,-1,-1,-1,-1,-1,-1,-1,-1,-1,-1,-1,-1,-1,-1,-1,-1,-1,-1,-1,-1,-1,-1,-1,-1],"split_conditions":[5.6479007E-1,6.5E1,8.195005E-1,9.702957E-1,4.9878204E-1,-7.193398E-1,7.6E1,6.851591E-1,2.0784609E-1,-3.0079168E-1,-2.1950977E-2,6.4012504E-1,-1.3979822E-1,1.1039193E0,3.09017E-1,-3.4878235E-2,8.9879405E-1,5.4E1,9.218464E-2,-3.8302222E-1,2.4270509E-1,8.456568E-2,1.0600601E0,-6.174239E-2,6.5009815E-1,-4.7552827E-1,4.617461E-1,-6.691306E-1,-6.313007E-2,-2.3473579E-1,7.8E1,5.4E1,7.431448E-1,-5.870642E-2,1.2226845E0,3.6184154E-2,-7.503716E-3,7E1,-4.9494054E-2,8E1,-2.3776414E-1,8.3878934E-1,4.725514E-1,4.3862697E-2,7.1E1,6.490287E-1,6.2098926E-1,3.715724E-1,-3.4899496E-2,9.4203645E-1,-1.5391538E-1,4.709558E-3,-5.484574E-2,7.704099E-2,1.7320967E-3,-3.1646278E-2,2.0999415E-2,4.0545825E-2,-4.9742735E-3,4.1520916E-2,-4.6047676E-2,5.4003544E-2,-3.4079526E-3,9.362825E-2,2.8653303E-2,2.4807043E-2,7.197844E-2,-4.540782E-4,-5.9388507E-2,8.3967924E-2,-4.5578744E-2,-4.3908186E-2,5.541669E-3,-9.2780293E-4,-5.537653E-2,-1.4470254E-4,8.2554154E-2,-8.5643185E-3,-6.457598E-2,4.4407804E-2,-1.0285061E-2,-5.0837208E-2,5.30834E-2,-1.7313702E-2,-4.8169497E-2],"split_indices":[4,0,4,3,5,3,0,5,4,4,4,4,5,4,3,5,5,0,0,5,4,0,5,0,4,5,5,3,0,5,0,0,3,0,5,0,0,0,0,0,5,5,4,0,0,4,4,5,3,4,5,0,0,0,0,0,0,0,0,0,0,0,0,0,0,0,0,0,0,0,0,0,0,0,0,0,0,0,0,0,0,0,0,0,0],"split_type":[0,0,0,0,0,0,0,0,0,0,0,0,0,0,0,0,0,0,0,0,0,0,0,0,0,0,0,0,0,0,0,0,0,0,0,0,0,0,0,0,0,0,0,0,0,0,0,0,0,0,0,0,0,0,0,0,0,0,0,0,0,0,0,0,0,0,0,0,0,0,0,0,0,0,0,0,0,0,0,0,0,0,0,0,0],"sum_hessian":[5.0612546E2,3.0490207E2,2.0122337E2,1.3933815E2,1.6556393E2,1.0683552E2,9.438785E1,1.3129019E2,8.047951E0,1.4537512E2,2.0188822E1,1.7622967E1,8.921255E1,8.6774315E1,7.6135373E0,1.23844795E2,7.445395E0,2.8359962E0,5.211954E0,5.0223846E0,1.4035274E2,2.4329565E0,1.7755867E1,6.300375E0,1.1322592E1,1.4656097E1,7.455645E1,5.7625374E1,2.914894E1,4.9084163E0,2.7051213E0,4.780881E1,7.603599E1,3.5395668E0,3.9058285E0,1.4032351E0,1.4327611E0,3.2264445E0,1.7959403E0,7.536919E1,6.498354E1,1.2636321E1,5.1195455E0,1.315223E0,1.0007369E1,4.370374E0,1.0285723E1,4.2977886E1,3.1578566E1,4.638309E0,5.298707E1,1.2531948E0,3.6552215E0,1.4136449E0,1.2914762E0,1.336804E1,3.444077E1,6.5327324E1,1.0708663E1,2.2059205E0,1.699908E0,1.8458102E0,1.3806344E0,7.298135E1,2.3878322E0,1.9508877E1,4.5474667E1,9.83284E0,2.8034806E0,3.742755E0,1.3767904E0,8.768388E0,1.2389817E0,1.3372138E0,3.0331607E0,2.6403508E0,7.645372E0,3.4902428E1,8.075458E0,1.1174164E1,2.0404404E1,2.7909098E0,1.847399E0,5.8148956E0,4.7172173E1],"tree_param":{"num_deleted":"0","num_feature":"6","num_nodes":"85","size_leaf_vector":"0"}},{"base_weights":[1.5543666E-1,-2.1422432E-1,7.434218E-1,-3.3471435E-1,2.4496801E-1,5.716126E-1,9.994453E-1,-4.933735E-1,-1.5653546E-1,-1.8273458E-1,5.709425E-1,5.0152E-1,9.126264E-1,1.0090252E0,3.0002711E-2,-6.0170317E-1,-4.1545188E-1,5.6444705E-1,-2.7421698E-1,-3.5825878E-1,5.5857587E-1,6.31077E-1,-2.3953086E-2,7.802623E-1,3.7191522E-1,1.0290034E-1,2.8148216E-1,4.059856E-2,1.01975344E-1,-6.302735E-2,-3.772392E-1,-4.7956118E-1,-2.2470303E-1,6.995016E-1,5.4266956E-2,-3.8298717E-1,-6.6784225E-2,9.568586E-2,-4.4020796E-1,1.1671495E-2,7.8846544E-2,7.5124705E-1,3.6259687E-1,3.2151896E-1,8.719897E-1,-4.9960773E-2,4.0221295E-1,-1.7945455E-2,7.034997E-2,-2.363707E-4,-5.726115E-2,7.0065046E-3,-5.0546445E-2,8.60316E-2,-3.7202235E-2,9.712304E-3,8.130082E-2,5.6084197E-2,-4.8222106E-2,-4.59295E-2,-1.6903741E-2,1.3949061E-2,-3.228925E-2,4.345971E-2,-1.8381974E-2,-5.8821913E-2,-1.2953862E-2,8.083621E-2,-6.883902E-3,8.679619E-2,1.5907431E-2,-1.6188977E-2,8.3233014E-2,1.2469823E-2,9.27754E-2,2.543897E-2,5.4532237E-2],"categories":[],"categories_nodes":[],"categories_segments":[],"categories_sizes":[],"default_left":[0,0,0,0,0,0,0,0,0,0,0,0,0,0,0,0,0,0,0,0,0,0,0,0,0,0,0,0,0,0,0,0,0,0,0,0,0,0,0,0,0,0,0,0,0,0,0,0,0,0,0,0,0,0,0,0,0,0,0,0,0,0,0,0,0,0,0,0,0,0,0,0,0,0,0,0,0],"id":11,"left_children":[1,3,5,7,9,11,13,15,17,19,21,23,25,27,-1,29,31,33,35,37,39,41,-1,43,45,-1,47,-1,-1,-1,49,51,53,55,57,59,61,63,65,-1,-1,67,69,71,73,-1,75,-1,-1,-1,-1,-1,-1,-1,-1,-1,-1,-1,-1,-1,-1,-1,-1,-1,-1,-1,-1,-1,-1,-1,-1,-1,-1,-1,-1,-1,-1],"loss_changes":[1.0923629E2,1.7172825E1,7.959488E0,6.852125E0,9.136501E0,2.3721886E0,2.1014404E-1,8.405857E-1,1.0075047E1,3.9445622E0,1.9547625E0,3.3378582E0,1.1033964E0,7.1777344E-2,0E0,9.456253E-2,8.506689E-1,1.1149979E0,2.2574587E0,9.303658E-1,5.072973E-1,8.4795856E-1,0E0,1.0225658E0,2.0615416E0,0E0,9.6837807E-1,0E0,0E0,0E0,6.0961556E-1,8.580065E-1,3.7721758E0,8.199296E-1,1.5169448E0,1.002634E0,1.9478471E0,5.035825E-1,8.620539E-1,0E0,0E0,1.1355486E0,1.1650838E0,1.7999656E0,9.3527794E-1,0E0,1.3135586E0,0E0,0E0,0E0,0E0,0E0,0E0,0E0,0E0,0E0,0E0,0E0,0E0,0E0,0E0,0E0,0E0,0E0,0E0,0E0,0E0,0E0,0E0,0E0,0E0,0E0,0E0,0E0,0E0,0E0,0E0],"parents":[2147483647,0,0,1,1,2,2,3,3,4,4,5,5,6,6,7,7,8,8,9,9,10,10,11,11,12,12,13,13,15,15,16,16,17,17,18,18,19,19,20,20,21,21,23,23,24,24,26,26,30,30,31,31,32,32,33,33,34,34,35,35,36,36,37,37,38,38,41,41,42,42,43,43,44,44,46,46],"right_children":[2,4,6,8,10,12,14,16,18,20,22,24,26,28,-1,30,32,34,36,38,40,42,-1,44,46,-1,48,-1,-1,-1,50,52,54,56,58,60,62,64,66,-1,-1,68,70,72,74,-1,76,-1,-1,-1,-1,-1,-1,-1,-1,-1,-1,-1,-1,-1,-1,-1,-1,-1,-1,-1,-1,-1,-1,-1,-1,-1,-1,-1,-1,-1,-1],"split_conditions":[6.6E-1,5E-1,1.03E0,4.1E-1,3.9E-1,7.431448E-1,7.9E1,2.1E-1,-8.2903755E-1,7.4E1,6.5E-1,-3.09017E-1,7.3E1,-6.156615E-1,3.0002711E-2,2.7959645E-1,1.857862E-1,2.7959645E-1,1.0395584E-1,1.3E-1,2.6E-1,5.7E-1,-2.3953086E-2,-8.9879405E-1,6.7E-1,1.0290034E-1,-7.725425E-2,4.059856E-2,1.01975344E-1,-6.302735E-2,3.9743945E-1,2.2E-1,2.0672801E-1,4.3E-1,6.7E1,7E1,5.2E-1,-1.7364818E-1,3.2E-1,1.1671495E-2,7.8846544E-2,1.6980175E0,6.740955E-1,2.2469851E-1,4.8E1,-4.9960773E-2,8.6E-1,-1.7945455E-2,7.034997E-2,-2.363707E-4,-5.726115E-2,7.0065046E-3,-5.0546445E-2,8.60316E-2,-3.7202235E-2,9.712304E-3,8.130082E-2,5.6084197E-2,-4.8222106E-2,-4.59295E-2,-1.6903741E-2,1.3949061E-2,-3.228925E-2,4.345971E-2,-1.8381974E-2,-5.8821913E-2,-1.2953862E-2,8.083621E-2,-6.883902E-3,8.679619E-2,1.5907431E-2,-1.6188977E-2,8.3233014E-2,1.2469823E-2,9.27754E-2,2.543897E-2,5.4532237E-2],"split_indices":[1,5,1,1,1,3,0,1,3,0,1,3,0,5,0,5,5,5,5,1,1,1,0,3,1,0,5,0,0,0,5,1,5,1,0,0,1,3,1,0,0,5,5,5,0,0,1,0,0,0,0,0,0,0,0,0,0,0,0,0,0,0,0,0,0,0,0,0,0,0,0,0,0,0,0,0,0],"split_type":[0,0,0,0,0,0,0,0,0,0,0,0,0,0,0,0,0,0,0,0,0,0,0,0,0,0,0,0,0,0,0,0,0,0,0,0,0,0,0,0,0,0,0,0,0,0,0,0,0,0,0,0,0,0,0,0,0,0,0,0,0,0,0,0,0,0,0,0,0,0,0,0,0,0,0,0,0],"sum_hessian":[5.0083777E2,3.0789966E2,1.929381E2,2.4411583E2,6.3783833E1,1.17392456E2,7.554564E1,1.2819542E2,1.1592042E2,2.7777338E1,3.6006496E1,9.942676E1,1.7965696E1,7.40882E1,1.4574423E0,5.082066E1,7.7374756E1,1.5733267E1,1.0018715E2,2.287728E1,4.9000583E0,3.372552E1,2.2809756E0,2.9963543E1,6.946321E1,1.463649E1,3.329207E0,1.9739529E0,7.211425E1,4.347868E1,7.34198E0,5.677799E1,2.0596767E1,1.214671E1,3.5865564E0,6.516872E1,3.501843E1,3.472773E0,1.9404507E1,2.1928926E0,2.7071657E0,2.2055477E1,1.1670044E1,5.7436767E0,2.4219866E1,1.8132963E0,6.764992E1,1.865948E0,1.4632591E0,2.8621864E0,4.479793E0,2.4787126E0,5.429928E1,1.8836589E0,1.8713108E1,2.220134E0,9.926577E0,1.8213575E0,1.765199E0,4.7190804E1,1.7977915E1,1.9648485E1,1.5369944E1,1.3187999E0,2.153973E0,1.2537781E1,6.8667254E0,2.0632797E1,1.422679E0,2.4131863E0,9.256858E0,3.3019412E0,2.4417357E0,1.9065493E0,2.2313316E1,3.46432E1,3.3006714E1],"tree_param":{"num_deleted":"0","num_feature":"6","num_nodes":"77","size_leaf_vector":"0"}},{"base_weights":[-3.78039E-1,-1.9087271E-1,-4.868733E-1,-2.0526789E-1,2.305984E-1,-5.5079055E-1,-3.8927847E-1,-1.5417902E-1,-4.5235252E-1,-4.491518E-2,6.6836846E-1,-2.8410485E-1,-5.842463E-1,-5.558153E-1,-2.839976E-1,2.7021945E-1,-1.8153602E-1,-5.3718257E-1,5.986896E-2,9.16048E-2,5.688494E-3,1.0815582E-1,-5.538707E-1,-5.107098E-1,-6.5438755E-2,-5.746904E-1,4.7112987E-3,5.7709787E-2,-3.5803154E-1,-8.272747E-2,7.5599134E-2,-5.484222E-1,-1.4349623E-1,5.5251974E-3,-5.7211E-1,4.6490252E-2,-2.2210155E-1,-2.395339E-1,5.3545017E-2,-4.4203755E-3,-6.2481582E-2,-3.953946E-1,-6.13897E-1,-2.3582163E-1,-5.9218574E-1,7.1703273E-1,-3.1539884E-1,-6.2179755E-2,-1.634152E-1,-4.387207E-2,1.5543749E-2,-6.33971E-3,-6.2041778E-2,5.817462E-2,-1.7424207E-2,-3.5752676E-2,-6.4719886E-2,-4.067683E-2,6.803568E-3,2.4444286E-2,-5.091554E-2,-6.2358644E-2,-3.0173218E-2,-6.348951E-2,-3.12476E-2,-4.1434754E-2,8.0176955E-3,-2.4127139E-2,-6.119723E-2,3.2691397E-2,9.550149E-2,4.869807E-3,-5.664138E-2,-4.6281284E-3,-5.086528E-2],"categories":[],"categories_nodes":[],"categories_segments":[],"categories_sizes":[],"default_left":[0,0,0,0,0,0,0,0,0,0,0,0,0,0,0,0,0,0,0,0,0,0,0,0,0,0,0,0,0,0,0,0,0,0,0,0,0,0,0,0,0,0,0,0,0,0,0,0,0,0,0,0,0,0,0,0,0,0,0,0,0,0,0,0,0,0,0,0,0,0,0,0,0,0,0],"id":12,"left_children":[1,3,5,7,9,11,13,15,17,-1,19,21,23,25,27,29,31,33,35,-1,-1,37,39,41,-1,43,-1,45,47,49,-1,51,53,-1,55,-1,57,59,-1,-1,-1,61,63,65,67,69,71,-1,73,-1,-1,-1,-1,-1,-1,-1,-1,-1,-1,-1,-1,-1,-1,-1,-1,-1,-1,-1,-1,-1,-1,-1,-1,-1,-1],"loss_changes":[9.071091E0,1.0608921E0,1.5560532E0,1.976088E0,2.0821478E0,1.3426552E0,1.8712559E0,1.625922E0,1.2162905E0,0E0,5.604186E-1,2.2603402E0,4.3585587E-1,5.2530384E-1,1.8661442E0,1.54157E0,1.7103591E0,5.174613E-1,6.482168E-1,0E0,0E0,1.5114133E0,4.2379618E-1,6.7871094E-1,0E0,1.1247349E-1,0E0,3.6337008E0,2.9834108E0,5.6823E-1,0E0,3.688128E-1,2.7214448E0,0E0,1.2729311E-1,0E0,2.1466024E-1,8.8444865E-1,0E0,0E0,0E0,6.535039E-1,4.882431E-2,2.4474779E-1,1.2853527E-1,1.809094E-1,8.995239E-1,0E0,1.42978E0,0E0,0E0,0E0,0E0,0E0,0E0,0E0,0E0,0E0,0E0,0E0,0E0,0E0,0E0,0E0,0E0,0E0,0E0,0E0,0E0,0E0,0E0,0E0,0E0,0E0,0E0],"parents":[2147483647,0,0,1,1,2,2,3,3,4,4,5,5,6,6,7,7,8,8,10,10,11,11,12,12,13,13,14,14,15,15,16,16,17,17,18,18,21,21,22,22,23,23,25,25,27,27,28,28,29,29,31,31,32,32,34,34,36,36,37,37,41,41,42,42,43,43,44,44,45,45,46,46,48,48],"right_children":[2,4,6,8,10,12,14,16,18,-1,20,22,24,26,28,30,32,34,36,-1,-1,38,40,42,-1,44,-1,46,48,50,-1,52,54,-1,56,-1,58,60,-1,-1,-1,62,64,66,68,70,72,-1,74,-1,-1,-1,-1,-1,-1,-1,-1,-1,-1,-1,-1,-1,-1,-1,-1,-1,-1,-1,-1,-1,-1,-1,-1,-1,-1],"split_conditions":[3.2908964E-1,9.781476E-1,-2.419219E-1,2.8095496E-1,-8.8294756E-1,4.1846487E-1,5.6479007E-1,-9.2718387E-1,3.7460658E-1,-4.491518E-2,1.036297E0,-9.135454E-1,7.5814867E-1,1.348191E0,2.0791169E-1,-9.612617E-1,-7.336107E-1,-9.975641E-1,4.3837115E-1,9.16048E-2,5.688494E-3,-9.612617E-1,-8.8294756E-1,-8.9879405E-1,-6.5438755E-2,-9.9026805E-1,4.7112987E-3,6.633939E-1,7.8582335E-1,3.4793276E-2,7.5599134E-2,-5.2991927E-1,-6.740955E-1,5.5251974E-3,5.2349246E-3,4.6490252E-2,6.946584E-1,-9.945219E-1,5.3545017E-2,-4.4203755E-3,-6.2481582E-2,5.094687E-1,7.1393156E-1,-9.945219E-1,-2.3776414E-1,1.5308086E-17,7.5814867E-1,-6.2179755E-2,1.0635923E0,-4.387207E-2,1.5543749E-2,-6.33971E-3,-6.2041778E-2,5.817462E-2,-1.7424207E-2,-3.5752676E-2,-6.4719886E-2,-4.067683E-2,6.803568E-3,2.4444286E-2,-5.091554E-2,-6.2358644E-2,-3.0173218E-2,-6.348951E-2,-3.12476E-2,-4.1434754E-2,8.0176955E-3,-2.4127139E-2,-6.119723E-2,3.2691397E-2,9.550149E-2,4.869807E-3,-5.664138E-2,-4.6281284E-3,-5.086528E-2],"split_indices":[4,5,2,5,2,4,4,3,2,0,5,2,4,5,2,3,5,2,2,0,0,2,3,2,0,3,0,4,4,4,0,3,5,0,4,0,2,2,0,0,0,4,4,3,5,5,4,0,4,0,0,0,0,0,0,0,0,0,0,0,0,0,0,0,0,0,0,0,0,0,0,0,0,0,0],"split_type":[0,0,0,0,0,0,0,0,0,0,0,0,0,0,0,0,0,0,0,0,0,0,0,0,0,0,0,0,0,0,0,0,0,0,0,0,0,0,0,0,0,0,0,0,0,0,0,0,0,0,0,0,0,0,0,0,0,0,0,0,0,0,0,0,0,0,0,0,0,0,0,0,0,0,0],"sum_hessian":[4.4887582E2,1.6605641E2,2.8281943E2,1.6106816E2,4.98825E0,1.6808974E2,1.147297E2,1.3481657E2,2.6251587E1,1.9438792E0,3.0443704E0,1.979443E1,1.482953E2,4.27798E1,7.19499E1,7.626504E0,1.2719006E2,2.2479912E1,3.7716756E0,1.8122494E0,1.232121E0,8.310045E0,1.1484385E1,7.643822E1,7.1857086E1,4.1526615E1,1.253186E0,1.285188E1,5.9098015E1,4.8976912E0,2.7288127E0,1.068813E1,1.1650194E2,1.2191367E0,2.1260775E1,1.2817527E0,2.4899228E0,4.824094E0,3.4859514E0,1.6016041E0,9.88278E0,3.8379566E1,3.805865E1,2.749546E0,3.877707E1,4.3113976E0,8.5404825E0,2.4159435E1,3.493858E1,1.6256659E0,3.272025E0,1.6245186E0,9.063612E0,4.0092545E0,1.1249268E2,7.004691E0,1.42560835E1,1.2758704E0,1.2140524E0,1.75937E0,3.064724E0,9.522319E0,2.8857246E1,3.4545734E1,3.5129151E0,1.5580698E0,1.1914762E0,2.7739913E0,3.600308E1,2.5329237E0,1.7784739E0,3.8141124E0,4.72637E0,2.6934252E1,8.004329E0],"tree_param":{"num_deleted":"0","num_feature":"6","num_nodes":"75","size_leaf_vector":"0"}},{"base_weights":[1.7111616E-1,3.9965564E-1,-2.7322143E-1,4.8259643E-1,2.5412324E-1,-1.16757475E-1,-5.231694E-1,4.9932536E-1,-5.7870746E-2,-9.6597895E-2,3.686602E-1,-4.4321513E-1,-3.5469007E-2,-5.9319433E-2,-3.145946E-1,-1.4645451E-1,5.220285E-1,-2.0155221E-1,6.567486E-1,4.9051723E-1,2.3018477E-2,-2.9308805E-1,-6.174281E-2,-3.0030063E-3,-4.472446E-1,2.846283E-1,-5.7490975E-1,1.814596E-1,-5.313451E-2,9.354242E-2,4.963443E-1,-2.4921703E-1,4.4288322E-2,1.3940055E-3,9.506989E-2,5.1694614E-1,-4.6497166E-2,-1.2060302E-1,5.4245526E-1,-4.7093365E-1,4.3077346E-2,-7.575912E-2,1.1880607E-1,7.384549E-4,-5.6682657E-2,-1.2634443E-2,4.7079155E-1,9.842112E-4,-6.374574E-2,3.8556736E-2,-1.22681735E-2,5.0533777E-3,5.3776633E-2,-6.1270487E-2,-1.5187414E-2,-4.1150797E-2,5.4107573E-2,-2.5921151E-2,3.6139116E-2,5.883711E-3,8.4826864E-2,7.2829486E-3,-5.4344583E-2,1.6363421E-3,-6.0371496E-2,8.686818E-2,4.0822002E-4,6.8155386E-2,-2.1474261E-3],"categories":[],"categories_nodes":[],"categories_segments":[],"categories_sizes":[],"default_left":[0,0,0,0,0,0,0,0,0,0,0,0,0,0,0,0,0,0,0,0,0,0,0,0,0,0,0,0,0,0,0,0,0,0,0,0,0,0,0,0,0,0,0,0,0,0,0,0,0,0,0,0,0,0,0,0,0,0,0,0,0,0,0,0,0,0,0,0,0],"id":13,"left_children":[1,3,5,7,9,11,13,15,-1,17,19,21,23,-1,25,27,29,31,33,35,37,39,-1,41,43,45,47,49,-1,-1,51,53,-1,-1,-1,55,-1,57,59,61,-1,63,65,-1,-1,-1,67,-1,-1,-1,-1,-1,-1,-1,-1,-1,-1,-1,-1,-1,-1,-1,-1,-1,-1,-1,-1,-1,-1],"loss_changes":[5.1899E1,3.947403E0,6.7363634E0,4.082531E0,5.037586E0,2.85519E0,7.865257E-1,3.168354E0,0E0,2.61873E0,3.9509277E0,3.808465E-1,1.1711397E0,0E0,3.108053E0,1.0989351E0,1.7011604E0,9.816942E-1,7.57702E-1,1.9954739E0,1.9729923E0,1.9332736E0,0E0,7.3837924E-1,3.5227573E-1,5.480289E-1,4.996872E-1,3.5983056E-1,0E0,0E0,3.55801E0,8.6414266E-1,0E0,0E0,0E0,1.7484283E0,0E0,1.4865955E0,7.961259E-1,4.8387718E-1,0E0,2.545582E0,2.677545E0,0E0,0E0,0E0,4.92553E-1,0E0,0E0,0E0,0E0,0E0,0E0,0E0,0E0,0E0,0E0,0E0,0E0,0E0,0E0,0E0,0E0,0E0,0E0,0E0,0E0,0E0,0E0],"parents":[2147483647,0,0,1,1,2,2,3,3,4,4,5,5,6,6,7,7,9,9,10,10,11,11,12,12,14,14,15,15,16,16,17,17,18,18,19,19,20,20,21,21,23,23,24,24,25,25,26,26,27,27,30,30,31,31,35,35,37,37,38,38,39,39,41,41,42,42,46,46],"right_children":[2,4,6,8,10,12,14,16,-1,18,20,22,24,-1,26,28,30,32,34,36,38,40,-1,42,44,46,48,50,-1,-1,52,54,-1,-1,-1,56,-1,58,60,62,-1,64,66,-1,-1,-1,68,-1,-1,-1,-1,-1,-1,-1,-1,-1,-1,-1,-1,-1,-1,-1,-1,-1,-1,-1,-1,-1,-1],"split_conditions":[6.096284E-1,3.550704E-1,8.900965E-1,9.945219E-1,-8.660254E-1,-5.591929E-1,5.591929E-1,-5.6025195E-1,-5.7870746E-2,5.9416085E-1,4.8063084E-1,3.596699E-1,1.1746157E0,-5.9319433E-2,4.7552827E-1,-7.725425E-2,-8.480481E-1,8.9879405E-1,-2.0791169E-1,9.975641E-1,9.2718387E-1,2.2073689E-1,-6.174281E-2,4.617461E-1,6.8328494E-1,9.977105E-1,7.880108E-1,-3.4899496E-2,-5.313451E-2,9.354242E-2,-5.479639E-1,4.0188548E-1,4.4288322E-2,1.3940055E-3,9.506989E-2,-9.945219E-1,-4.6497166E-2,7.6604444E-1,4.853488E-1,-9.9026805E-1,4.3077346E-2,2.8095496E-1,4.7552827E-1,7.384549E-4,-5.6682657E-2,-1.2634443E-2,8.660254E-1,9.842112E-4,-6.374574E-2,3.8556736E-2,-1.22681735E-2,5.0533777E-3,5.3776633E-2,-6.1270487E-2,-1.5187414E-2,-4.1150797E-2,5.4107573E-2,-2.5921151E-2,3.6139116E-2,5.883711E-3,8.4826864E-2,7.2829486E-3,-5.4344583E-2,1.6363421E-3,-6.0371496E-2,8.686818E-2,4.0822002E-4,6.8155386E-2,-2.1474261E-3],"split_indices":[4,4,4,2,2,3,2,4,0,4,5,5,5,0,5,5,5,5,3,2,2,5,0,5,4,4,2,3,0,0,5,4,0,0,0,3,0,5,4,3,0,5,5,0,0,0,2,0,0,0,0,0,0,0,0,0,0,0,0,0,0,0,0,0,0,0,0,0,0],"split_type":[0,0,0,0,0,0,0,0,0,0,0,0,0,0,0,0,0,0,0,0,0,0,0,0,0,0,0,0,0,0,0,0,0,0,0,0,0,0,0,0,0,0,0,0,0,0,0,0,0,0,0,0,0,0,0,0,0,0,0,0,0,0,0,0,0,0,0,0,0],"sum_hessian":[5.0899976E2,3.3618683E2,1.7281293E2,2.1266832E2,1.2351851E2,1.0718421E2,6.5628716E1,2.0988943E2,2.7788894E0,3.0446266E1,9.307224E1,2.0480669E1,8.6703545E1,4.7752647E1,1.7876068E1,6.9431834E0,2.0294624E2,2.7366142E1,3.0801234E0,6.850237E1,2.4569868E1,1.2441567E1,8.039102E0,8.1300766E1,5.4027777E0,5.385565E0,1.2490502E1,4.0344806E0,2.9087029E0,9.79953E0,1.9314671E2,2.6052483E1,1.3136594E0,1.2952037E0,1.7849197E0,6.710521E1,1.3971646E0,1.9849428E1,4.720441E0,1.0268189E1,2.1733773E0,5.113567E1,3.0165096E1,1.3205462E0,4.0822315E0,1.7791814E0,3.6063836E0,1.2883636E0,1.1202139E1,2.2540648E0,1.780416E0,1.6609081E1,1.7653763E2,4.3848243E0,2.166766E1,1.2931557E0,6.581206E1,1.5775135E1,4.074292E0,2.2905397E0,2.4299011E0,1.2076606E0,9.06053E0,4.4363693E1,6.7719755E0,3.1305807E0,2.7034515E1,2.2559714E0,1.3504121E0],"tree_param":{"num_deleted":"0","num_feature":"6","num_nodes":"69","size_leaf_vector":"0"}},{"base_weights":[1.4657953E-1,-3.871113E-1,4.2474937E-1,4.3352008E-1,-4.5515087E-1,2.3110177E-1,7.7816635E-1,2.4636032E-1,9.370357E-2,-5.7067543E-1,-3.2675117E-1,2.640868E-1,-3.5876527E-1,9.000884E-1,3.9489898E-1,2.4364876E-2,5.047463E-1,-5.8048373E-1,2.5443148E-3,-1.400092E-1,-4.630897E-1,1.4754857E-1,3.5307446E-1,-3.97635E-3,-6.2769234E-2,9.146719E-2,4.7183996E-1,-3.7265173E-1,5.1393664E-1,6.433849E-2,-2.5516072E-1,6.5437265E-2,3.0358192E-3,-1.662789E-2,-5.892539E-2,-4.802095E-1,5.6637008E-2,-1.2991941E-1,-5.051525E-1,2.7957022E-1,-1.3265124E-1,-4.793009E-2,3.6782616E-1,-4.919265E-2,3.165115E-1,-1.2211538E-2,7.4896686E-2,-3.7753712E-3,-5.0561763E-2,2.7854064E-1,9.0473574E-1,4.2667235E-3,-4.737308E-2,-2.266742E-3,-6.1433803E-2,-9.929585E-3,4.7716208E-2,-4.2341348E-2,5.9493E-3,-5.246637E-2,4.180798E-3,3.4991167E-2,-2.1166785E-2,1.455304E-2,-3.3793043E-2,4.115937E-2,3.6825228E-3,-1.1861584E-2,6.756412E-2,6.988756E-3,7.36874E-2,2.7752051E-2,9.859212E-2],"categories":[],"categories_nodes":[],"categories_segments":[],"categories_sizes":[],"default_left":[0,0,0,0,0,0,0,0,0,0,0,0,0,0,0,0,0,0,0,0,0,0,0,0,0,0,0,0,0,0,0,0,0,0,0,0,0,0,0,0,0,0,0,0,0,0,0,0,0,0,0,0,0,0,0,0,0,0,0,0,0,0,0,0,0,0,0,0,0,0,0,0,0],"id":14,"left_children":[1,3,5,7,9,11,13,15,-1,17,19,21,23,25,27,29,31,33,-1,35,37,39,41,43,-1,-1,45,47,49,-1,51,-1,-1,-1,-1,53,55,57,59,61,63,-1,65,-1,67,-1,-1,-1,-1,69,71,-1,-1,-1,-1,-1,-1,-1,-1,-1,-1,-1,-1,-1,-1,-1,-1,-1,-1,-1,-1,-1,-1],"loss_changes":[7.37655E1,9.711208E0,2.2157276E1,1.0468206E0,2.154728E0,4.2249117E0,5.0234604E0,6.324728E-1,0E0,4.9271393E-1,1.8979092E0,2.0386744E0,1.1105464E0,1.08932495E-1,2.892531E0,1.3921428E0,3.452506E-1,1.9430733E-1,0E0,2.2994523E0,5.527487E-1,3.3297563E0,1.5711737E0,1.0996574E0,0E0,0E0,9.005877E-1,1.8347037E-1,2.1410193E0,0E0,3.850853E-1,0E0,0E0,0E0,0E0,7.560756E-1,1.517438E0,3.7500542E-1,4.363556E-1,2.175808E0,1.7157913E0,0E0,1.6100979E0,0E0,7.445556E-1,0E0,0E0,0E0,0E0,1.6392202E0,2.0167828E-1,0E0,0E0,0E0,0E0,0E0,0E0,0E0,0E0,0E0,0E0,0E0,0E0,0E0,0E0,0E0,0E0,0E0,0E0,0E0,0E0,0E0,0E0],"parents":[2147483647,0,0,1,1,2,2,3,3,4,4,5,5,6,6,7,7,9,9,10,10,11,11,12,12,13,13,14,14,15,15,16,16,17,17,19,19,20,20,21,21,22,22,23,23,26,26,27,27,28,28,30,30,35,35,36,36,37,37,38,38,39,39,40,40,42,42,44,44,49,49,50,50],"right_children":[2,4,6,8,10,12,14,16,-1,18,20,22,24,26,28,30,32,34,-1,36,38,40,42,44,-1,-1,46,48,50,-1,52,-1,-1,-1,-1,54,56,58,60,62,64,-1,66,-1,68,-1,-1,-1,-1,70,72,-1,-1,-1,-1,-1,-1,-1,-1,-1,-1,-1,-1,-1,-1,-1,-1,-1,-1,-1,-1,-1,-1],"split_conditions":[3.460542E-1,-3.0079168E-1,8.195005E-1,-3.8027197E-1,1.5455993E-1,9.781476E-1,4.6947157E-1,6.8E1,9.370357E-2,8.1E1,-1.7364818E-1,5.613404E-1,6.3E1,7.7E1,7.6604444E-1,5.2E1,-5.6025195E-1,4.6E1,2.5443148E-3,-7.880108E-1,5.1E1,3.7460658E-1,-9.9026805E-1,9.945219E-1,-6.2769234E-2,9.146719E-2,7.8E1,9.2490536E-1,1.0430588E0,6.433849E-2,-2.0791169E-1,6.5437265E-2,3.0358192E-3,-1.662789E-2,-5.892539E-2,2.0228755E-1,7.1E1,1.391731E-1,9.945219E-1,5.2870893E-1,6.4E1,-4.793009E-2,8.8294756E-1,-4.919265E-2,6.1E1,-1.2211538E-2,7.4896686E-2,-3.7753712E-3,-5.0561763E-2,9.848077E-1,8.09017E-1,4.2667235E-3,-4.737308E-2,-2.266742E-3,-6.1433803E-2,-9.929585E-3,4.7716208E-2,-4.2341348E-2,5.9493E-3,-5.246637E-2,4.180798E-3,3.4991167E-2,-2.1166785E-2,1.455304E-2,-3.3793043E-2,4.115937E-2,3.6825228E-3,-1.1861584E-2,6.756412E-2,6.988756E-3,7.36874E-2,2.7752051E-2,9.859212E-2],"split_indices":[4,4,4,4,4,3,2,0,0,0,3,4,0,0,2,0,4,0,0,3,0,3,3,3,0,0,0,4,4,0,3,0,0,0,0,4,0,3,2,4,0,0,2,0,0,0,0,0,0,2,2,0,0,0,0,0,0,0,0,0,0,0,0,0,0,0,0,0,0,0,0,0,0],"split_type":[0,0,0,0,0,0,0,0,0,0,0,0,0,0,0,0,0,0,0,0,0,0,0,0,0,0,0,0,0,0,0,0,0,0,0,0,0,0,0,0,0,0,0,0,0,0,0,0,0,0,0,0,0,0,0,0,0,0,0,0,0,0,0,0,0,0,0,0,0,0,0,0,0],"sum_hessian":[4.9477472E2,1.6939171E2,3.25383E2,1.2557919E1,1.5683379E2,2.1127376E2,1.1410924E2,1.0240678E1,2.317241E0,8.074283E1,7.609095E1,2.0060815E2,1.0665603E1,8.5547165E1,2.8562078E1,6.0968184E0,4.1438594E0,7.9461624E1,1.2812049E0,3.2965397E1,4.3125557E1,8.8009285E1,1.1259888E2,5.036223E0,5.62938E0,8.163147E1,3.9156885E0,3.5488276E0,2.501325E1,1.4916968E0,4.6051216E0,2.8618135E0,1.2820456E0,2.0614507E0,7.740018E1,1.1546983E1,2.1418415E1,5.2926135E0,3.7832943E1,5.982419E1,2.8185095E1,1.4123926E0,1.11186485E2,1.7844408E0,3.251782E0,1.4236935E0,2.4919949E0,1.3734604E0,2.1753674E0,1.6679298E1,8.333952E0,2.289793E0,2.3153288E0,2.882644E0,8.664339E0,1.6181944E1,5.236472E0,1.5913758E0,3.7012377E0,3.656921E1,1.2637323E0,5.2582485E1,7.241706E0,1.2091078E1,1.6094017E1,9.798647E1,1.320001E1,1.7731355E0,1.4786465E0,1.2253472E1,4.425827E0,1.461463E0,6.8724885E0],"tree_param":{"num_deleted":"0","num_feature":"6","num_nodes":"73","size_leaf_vector":"0"}},{"base_weights":[-3.395783E-1,-2.3811123E-1,-5.699135E-1,2.1555899E-2,-2.871371E-1,-1.3960189E-1,-5.9490263E-1,1.0959753E-1,-5.8007296E-2,-4.2271975E-1,-2.2044562E-1,-4.2802402E-1,6.6431925E-2,-4.482904E-1,-6.25321E-1,-4.828577E-2,1.5427478E-1,-2.7230176E-1,-5.385373E-1,3.9304355E-1,-2.3754822E-1,1.2418691E-2,-5.5377003E-2,-5.1427287E-1,2.2142848E-2,-4.3521246E-1,-6.418478E-2,-4.0296935E-3,3.215164E-1,8.5775834E-4,-3.496878E-1,4.338108E-3,-5.553666E-1,-1.842484E-1,9.4276905E-2,-1.4292459E-1,-3.4493265E-1,-6.184243E-2,-3.0116078E-1,-5.899887E-2,-1.4210911E-2,4.802788E-2,-1.203088E-2,9.066235E-2,1.4145004E-2,-4.2046312E-2,6.0311396E-2,-1.2082047E-2,-5.307029E-2,-5.7323016E-2,3.9942884E-3,-3.569546E-2,6.667429E-3,6.55187E-3,-3.0405963E-2,-4.71206E-2,1.7713739E-2,-4.993605E-3,-4.1835543E-2,-3.512938E-2,2.3334779E-2],"categories":[],"categories_nodes":[],"categories_segments":[],"categories_sizes":[],"default_left":[0,0,0,0,0,0,0,0,0,0,0,0,0,0,0,0,0,0,0,0,0,0,0,0,0,0,0,0,0,0,0,0,0,0,0,0,0,0,0,0,0,0,0,0,0,0,0,0,0,0,0,0,0,0,0,0,0,0,0,0,0],"id":15,"left_children":[1,3,5,7,9,11,13,15,-1,17,19,21,-1,23,25,-1,27,29,31,33,35,-1,-1,37,-1,39,-1,41,43,45,47,-1,49,51,-1,53,55,-1,57,-1,59,-1,-1,-1,-1,-1,-1,-1,-1,-1,-1,-1,-1,-1,-1,-1,-1,-1,-1,-1,-1],"loss_changes":[1.0145245E1,3.915556E0,1.3557663E0,2.6961732E0,2.2432098E0,2.2901127E0,2.8227997E-1,1.2443724E0,0E0,1.3185148E0,1.9325037E0,5.5307174E-1,0E0,1.2278395E0,4.096222E-2,0E0,1.1094444E0,8.16448E-1,4.794159E-1,1.8019432E0,1.6898174E0,0E0,0E0,3.2978392E-1,0E0,7.253194E-1,0E0,1.3243215E0,2.0174794E0,2.66944E0,1.18239E0,0E0,5.042E-1,1.6850355E-1,0E0,3.1331687E0,5.3220024E0,0E0,2.6120555E-1,0E0,4.2005977E-1,0E0,0E0,0E0,0E0,0E0,0E0,0E0,0E0,0E0,0E0,0E0,0E0,0E0,0E0,0E0,0E0,0E0,0E0,0E0,0E0],"parents":[2147483647,0,0,1,1,2,2,3,3,4,4,5,5,6,6,7,7,9,9,10,10,11,11,13,13,14,14,16,16,17,17,18,18,19,19,20,20,23,23,25,25,27,27,28,28,29,29,30,30,32,32,33,33,35,35,36,36,38,38,40,40],"right_children":[2,4,6,8,10,12,14,16,-1,18,20,22,-1,24,26,-1,28,30,32,34,36,-1,-1,38,-1,40,-1,42,44,46,48,-1,50,52,-1,54,56,-1,58,-1,60,-1,-1,-1,-1,-1,-1,-1,-1,-1,-1,-1,-1,-1,-1,-1,-1,-1,-1,-1,-1],"split_conditions":[7.1E-1,1.8E-1,1.3703182E-1,4.330127E-1,-4.3837115E-1,-8.8294756E-1,5.755336E-1,-9.9026805E-1,-5.8007296E-2,4E-1,-3.7460658E-1,-3.09017E-1,6.6431925E-2,5.5425626E-1,7.7E-1,-4.828577E-2,5.9581224E-2,-9.5105654E-1,-2.9233456E-1,6.5775275E-1,-4.3837115E-1,1.2418691E-2,-5.5377003E-2,4.821356E-1,2.2142848E-2,7.5E-1,-6.418478E-2,-7.6604444E-1,-5.2991927E-1,3E-1,2.8E-1,4.338108E-3,1.0430588E0,3.5E-1,9.4276905E-2,4.6E-1,5.6E-1,-6.184243E-2,-2.0791169E-1,-5.899887E-2,6.633939E-1,4.802788E-2,-1.203088E-2,9.066235E-2,1.4145004E-2,-4.2046312E-2,6.0311396E-2,-1.2082047E-2,-5.307029E-2,-5.7323016E-2,3.9942884E-3,-3.569546E-2,6.667429E-3,6.55187E-3,-3.0405963E-2,-4.71206E-2,1.7713739E-2,-4.993605E-3,-4.1835543E-2,-3.512938E-2,2.3334779E-2],"split_indices":[1,1,4,4,3,2,4,3,0,1,3,3,0,4,1,0,4,3,4,4,2,0,0,4,0,1,0,3,2,1,1,0,4,1,0,1,1,0,3,0,4,0,0,0,0,0,0,0,0,0,0,0,0,0,0,0,0,0,0,0,0],"split_type":[0,0,0,0,0,0,0,0,0,0,0,0,0,0,0,0,0,0,0,0,0,0,0,0,0,0,0,0,0,0,0,0,0,0,0,0,0,0,0,0,0,0,0,0,0,0,0,0,0,0,0,0,0,0,0,0,0,0,0,0,0],"sum_hessian":[4.388936E2,3.0608917E2,1.3280441E2,4.870132E1,2.5738788E2,7.65045E0,1.2515395E2,4.319766E1,5.5036607E0,8.3102806E1,1.7428506E2,5.9745464E0,1.6759038E0,2.4208704E1,1.0094525E2,2.3413846E0,4.0856274E1,3.7609123E1,4.549368E1,4.130704E0,1.7015436E2,1.1104455E0,4.864101E0,2.22488E1,1.9599042E0,1.025985E1,9.06854E1,2.1490295E1,1.936598E1,8.520859E0,2.9088264E1,1.234363E0,4.4259315E1,2.339121E0,1.7915826E0,9.169059E1,7.8463776E1,1.366743E1,8.58137E0,7.208381E0,3.0514688E0,3.5546396E0,1.7935656E1,3.6078148E0,1.5758165E1,5.191141E0,3.3297179E0,1.3582553E1,1.55057125E1,4.3005917E1,1.2533989E0,1.1352075E0,1.2039137E0,4.023554E1,5.1455048E1,6.326038E1,1.5203394E1,3.1833863E0,5.397984E0,1.1146703E0,1.9367986E0],"tree_param":{"num_deleted":"0","num_feature":"6","num_nodes":"61","size_leaf_vector":"0"}},{"base_weights":[1.5653525E-1,3.0590218E-1,-3.409612E-1,1.1774901E-1,4.7839606E-1,-7.693152E-2,-4.2913577E-1,-2.6929957E-1,1.5026514E-1,6.710323E-1,2.3458819E-1,-1.4629062E-1,7.972913E-2,1.5627738E-2,-4.7524813E-1,4.8055936E-2,-4.1658235E-1,1.8651362E-1,-2.4361177E-1,6.9501126E-1,-4.9871203E-2,3.6344478E-1,2.0456295E-2,1.4017235E-1,-2.6151684E-1,-1.851692E-1,5.184942E-2,-5.3213423E-1,-3.393088E-1,-6.399136E-2,-2.16576E-1,9.187748E-2,3.5660914E-1,-4.5063582E-1,1.00772075E-1,7.207008E-1,1.1798644E-1,4.3435622E-2,4.8148635E-1,-4.9626563E-2,1.457668E-1,3.8002712E-1,-2.7374133E-1,-4.2989132E-1,2.3420297E-2,-3.9202735E-1,3.3174153E-2,-5.766986E-1,-2.3037092E-1,-2.974544E-2,-6.2277324E-2,2.9732285E-2,-4.7357168E-2,-4.96158E-3,2.2113709E-2,7.417401E-2,2.413114E-2,-6.1251473E-2,-1.2340657E-2,5.7646513E-2,-3.2423213E-2,1.38736665E-2,7.489429E-2,6.4546436E-2,-2.0876596E-2,4.6073828E-2,-3.889842E-2,7.290944E-2,2.3968395E-2,1.3064175E-4,5.5914707E-2,-9.375985E-3,5.8812857E-2,-4.2129368E-2,1.3491202E-3,-5.4798245E-2,1.9273033E-2,4.0313292E-2,-9.931781E-3,-5.1695075E-2,2.3910308E-3,-5.9445973E-2,-1.6456546E-2,5.5254698E-2,-5.482157E-2,-1.9166632E-2,8.084022E-2],"categories":[],"categories_nodes":[],"categories_segments":[],"categories_sizes":[],"default_left":[0,0,0,0,0,0,0,0,0,0,0,0,0,0,0,0,0,0,0,0,0,0,0,0,0,0,0,0,0,0,0,0,0,0,0,0,0,0,0,0,0,0,0,0,0,0,0,0,0,0,0,0,0,0,0,0,0,0,0,0,0,0,0,0,0,0,0,0,0,0,0,0,0,0,0,0,0,0,0,0,0,0,0,0,0,0,0],"id":16,"left_children":[1,3,5,7,9,11,13,15,17,19,21,23,-1,25,27,-1,29,31,33,35,-1,37,39,41,43,45,-1,47,49,-1,51,53,55,57,59,61,63,65,67,-1,69,71,73,75,77,79,-1,81,83,85,-1,-1,-1,-1,-1,-1,-1,-1,-1,-1,-1,-1,-1,-1,-1,-1,-1,-1,-1,-1,-1,-1,-1,-1,-1,-1,-1,-1,-1,-1,-1,-1,-1,-1,-1,-1,-1],"loss_changes":[3.7293663E1,1.2452923E1,2.6683683E0,2.377234E0,9.271362E0,1.9519409E0,1.7869453E0,1.8289616E0,2.5001035E0,3.4771843E0,2.4799204E0,9.901941E-1,0E0,1.0167906E0,4.276352E-1,0E0,4.3594122E-1,2.5106497E0,1.1093276E0,1.5423698E0,0E0,2.1027646E0,2.333864E0,9.913554E-1,1.0151837E0,9.056643E-1,0E0,5.891142E-1,2.2596436E0,0E0,1.2366006E0,1.8923563E0,2.313713E0,4.277842E-1,1.4848241E0,1.6203918E0,1.1473607E0,3.1113114E0,2.2782898E0,0E0,1.7240599E0,6.543427E-1,1.6929245E-1,1.0776546E0,4.468997E-1,3.0535746E-1,0E0,2.3971558E-1,2.4363678E0,1.981629E0,0E0,0E0,0E0,0E0,0E0,0E0,0E0,0E0,0E0,0E0,0E0,0E0,0E0,0E0,0E0,0E0,0E0,0E0,0E0,0E0,0E0,0E0,0E0,0E0,0E0,0E0,0E0,0E0,0E0,0E0,0E0,0E0,0E0,0E0,0E0,0E0,0E0],"parents":[2147483647,0,0,1,1,2,2,3,3,4,4,5,5,6,6,7,7,8,8,9,9,10,10,11,11,13,13,14,14,16,16,17,17,18,18,19,19,21,21,22,22,23,23,24,24,25,25,27,27,28,28,30,30,31,31,32,32,33,33,34,34,35,35,36,36,37,37,38,38,40,40,41,41,42,42,43,43,44,44,45,45,47,47,48,48,49,49],"right_children":[2,4,6,8,10,12,14,16,18,20,22,24,-1,26,28,-1,30,32,34,36,-1,38,40,42,44,46,-1,48,50,-1,52,54,56,58,60,62,64,66,68,-1,70,72,74,76,78,80,-1,82,84,86,-1,-1,-1,-1,-1,-1,-1,-1,-1,-1,-1,-1,-1,-1,-1,-1,-1,-1,-1,-1,-1,-1,-1,-1,-1,-1,-1,-1,-1,-1,-1,-1,-1,-1,-1,-1,-1],"split_conditions":[7.399718E-1,6.5E1,8.195005E-1,-5.479639E-1,3.550704E-1,8.159218E-1,-1.5391538E-1,-1.1589798E0,6.953879E-1,9.945219E-1,3.596699E-1,5.7E1,7.972913E-2,3.4899496E-2,1.7364818E-1,4.8055936E-2,7.866739E-2,-4.0673664E-1,5.9E1,7.386058E-1,-4.9871203E-2,4.3758965E-1,4.4147378E-1,7.956425E-1,6.0676277E-1,-3.8302222E-1,5.184942E-2,9.975641E-1,7.0420736E-1,-6.399136E-2,2.1160269E-1,5.6E1,5.3E1,8.3878934E-1,3.7314117E-1,-3.0079168E-1,-2.1950977E-2,7E1,5.5425626E-1,-4.9626563E-2,6.762749E-1,7.5814867E-1,5E1,6.156615E-1,6.953879E-1,7.3E1,3.3174153E-2,7.5E1,1.2015771E0,6.49519E-1,-6.2277324E-2,2.9732285E-2,-4.7357168E-2,-4.96158E-3,2.2113709E-2,7.417401E-2,2.413114E-2,-6.1251473E-2,-1.2340657E-2,5.7646513E-2,-3.2423213E-2,1.38736665E-2,7.489429E-2,6.4546436E-2,-2.0876596E-2,4.6073828E-2,-3.889842E-2,7.290944E-2,2.3968395E-2,1.3064175E-4,5.5914707E-2,-9.375985E-3,5.8812857E-2,-4.2129368E-2,1.3491202E-3,-5.4798245E-2,1.9273033E-2,4.0313292E-2,-9.931781E-3,-5.1695075E-2,2.3910308E-3,-5.9445973E-2,-1.6456546E-2,5.5254698E-2,-5.482157E-2,-1.9166632E-2,8.084022E-2],"split_indices":[4,0,4,5,4,4,5,5,5,2,5,0,0,2,2,0,4,2,0,5,0,4,5,4,5,5,0,5,5,0,4,0,0,5,4,4,4,0,4,0,4,4,0,2,5,0,0,0,5,5,0,0,0,0,0,0,0,0,0,0,0,0,0,0,0,0,0,0,0,0,0,0,0,0,0,0,0,0,0,0,0,0,0,0,0,0,0],"split_type":[0,0,0,0,0,0,0,0,0,0,0,0,0,0,0,0,0,0,0,0,0,0,0,0,0,0,0,0,0,0,0,0,0,0,0,0,0,0,0,0,0,0,0,0,0,0,0,0,0,0,0,0,0,0,0,0,0,0,0,0,0,0,0,0,0,0,0,0,0,0,0,0,0,0,0,0,0,0,0,0,0,0,0,0,0,0,0],"sum_hessian":[4.9946573E2,3.8443054E2,1.1503522E2,1.8467406E2,1.9975647E2,2.9267925E1,8.576729E1,1.3747825E1,1.7092624E2,1.1060974E2,8.914672E1,2.7888008E1,1.3799165E0,8.118991E0,7.76483E1,1.8854783E0,1.1862346E1,1.5700366E2,1.3922575E1,1.0878555E2,1.8241875E0,5.5220062E1,3.392666E1,7.937689E0,1.995032E1,6.2536516E0,1.8653396E0,5.268633E1,2.496197E1,4.5652385E0,7.2971077E0,1.0186765E2,5.513601E1,8.502704E0,5.419872E0,1.039104E2,4.875152E0,1.5248783E1,3.997128E1,6.0439496E0,2.788271E1,5.07734E0,2.8603492E0,1.2220363E1,7.729956E0,4.6388607E0,1.6147909E0,4.5112953E1,7.573374E0,1.2459857E1,1.2502113E1,2.380349E0,4.9167585E0,4.8926594E1,5.294106E1,1.1451411E1,4.36846E1,5.105308E0,3.3973958E0,2.3892682E0,3.0306036E0,5.0829096E0,9.882749E1,1.4917004E0,3.3834515E0,7.7267084E0,7.522075E0,1.8752888E1,2.1218391E1,2.1405483E1,6.4772267E0,1.7172066E0,3.3601334E0,1.5812974E0,1.2790517E0,1.03728485E1,1.8475139E0,1.3302107E0,6.3997455E0,3.3806539E0,1.2582068E0,4.282499E1,2.287964E0,1.9735906E0,5.599783E0,1.1088921E1,1.3709354E0],"tree_param":{"num_deleted":"0","num_feature":"6","num_nodes":"87","size_leaf_vector":"0"}},{"base_weights":[1.4669953E-1,-2.0435768E-1,6.569246E-1,-4.8783964E-1,1.6665415E-1,5.144486E-1,8.7587553E-1,-5.5998445E-1,-2.0939134E-1,-1.496318E-1,4.945037E-1,3.2109487E-1,6.5889645E-1,8.8458665E-2,2.5141556E-2,-5.722867E-1,2.255661E-2,3.0257696E-1,-3.9019766E-1,-3.7972787E-1,1.4462767E-2,6.177044E-1,-6.612813E-2,2.4090682E-1,7.2278893E-1,3.2724816E-1,8.5107666E-1,-6.2078327E-1,-4.6214348E-1,7.938673E-2,1.3150705E-1,-4.3895283E-1,1.1023546E-2,-6.1593264E-2,-1.8674725E-1,1.724296E-1,-1.1553077E-1,2.5319102E-1,6.6710126E-1,3.705572E-1,-3.253466E-1,3.9568236E-1,2.847087E-2,7.816883E-2,2.5900159E-2,1.9196959E-1,7.9421125E-2,8.73631E-2,4.5030254E-1,-2.8738562E-2,-6.2990256E-2,-3.7093673E-2,-6.347663E-2,-1.3808029E-2,5.3081144E-2,-2.0746294E-2,-5.057788E-2,1.9481924E-3,-5.7462085E-2,-1.1340727E-2,4.2411953E-2,-5.285279E-2,-2.6262733E-3,6.666763E-2,-2.1934764E-2,4.9089994E-2,8.652946E-2,7.297989E-2,-3.972704E-2,-5.8749344E-2,-2.2682536E-4,-6.940331E-3,4.514499E-2,-2.5353897E-2,2.733243E-2,5.6720592E-2,-1.3863881E-2,6.9816485E-2,9.020058E-3],"categories":[],"categories_nodes":[],"categories_segments":[],"categories_sizes":[],"default_left":[0,0,0,0,0,0,0,0,0,0,0,0,0,0,0,0,0,0,0,0,0,0,0,0,0,0,0,0,0,0,0,0,0,0,0,0,0,0,0,0,0,0,0,0,0,0,0,0,0,0,0,0,0,0,0,0,0,0,0,0,0,0,0,0,0,0,0,0,0,0,0,0,0,0,0,0,0,0,0],"id":17,"left_children":[1,3,5,7,9,11,13,15,17,19,21,23,25,-1,-1,27,-1,29,31,33,35,37,39,41,43,45,47,49,51,-1,53,55,-1,-1,57,59,61,63,65,67,69,71,73,-1,-1,75,-1,-1,77,-1,-1,-1,-1,-1,-1,-1,-1,-1,-1,-1,-1,-1,-1,-1,-1,-1,-1,-1,-1,-1,-1,-1,-1,-1,-1,-1,-1,-1,-1],"loss_changes":[8.900833E1,3.107621E1,5.8657455E0,3.2437592E0,1.3387125E1,3.2819557E0,2.0404816E-1,1.4074821E0,3.4528975E0,2.501804E0,4.4112034E0,1.6115823E0,4.224182E0,0E0,0E0,4.103279E-1,0E0,7.331635E-1,7.086282E-1,1.141192E0,8.321781E-1,7.6688004E-1,1.5132082E0,1.5575154E0,3.588772E-2,1.5874286E0,5.2547455E-3,8.564377E-2,4.5438766E-1,0E0,9.9802125E-1,2.7962446E-1,0E0,0E0,1.3392292E0,1.3615944E0,8.081809E-1,1.6730042E0,1.1522007E0,1.6829643E0,6.9761646E-1,7.452307E-1,1.5323391E0,0E0,0E0,2.8915997E0,0E0,0E0,3.3095104E-1,0E0,0E0,0E0,0E0,0E0,0E0,0E0,0E0,0E0,0E0,0E0,0E0,0E0,0E0,0E0,0E0,0E0,0E0,0E0,0E0,0E0,0E0,0E0,0E0,0E0,0E0,0E0,0E0,0E0,0E0],"parents":[2147483647,0,0,1,1,2,2,3,3,4,4,5,5,6,6,7,7,8,8,9,9,10,10,11,11,12,12,15,15,17,17,18,18,19,19,20,20,21,21,22,22,23,23,24,24,25,25,26,26,27,27,28,28,30,30,31,31,34,34,35,35,36,36,37,37,38,38,39,39,40,40,41,41,42,42,45,45,48,48],"right_children":[2,4,6,8,10,12,14,16,18,20,22,24,26,-1,-1,28,-1,30,32,34,36,38,40,42,44,46,48,50,52,-1,54,56,-1,-1,58,60,62,64,66,68,70,72,74,-1,-1,76,-1,-1,78,-1,-1,-1,-1,-1,-1,-1,-1,-1,-1,-1,-1,-1,-1,-1,-1,-1,-1,-1,-1,-1,-1,-1,-1,-1,-1,-1,-1,-1,-1],"split_conditions":[6.6E-1,-1.8369701E-16,1.04E0,5.6E-1,4E-1,-9.2718387E-1,7.9E1,9.9939084E-1,-5.591929E-1,2.3E-1,8.2903755E-1,7.2E1,7.7E-1,8.8458665E-2,2.5141556E-2,-5.591929E-1,2.255661E-2,5.5E1,-3.09017E-1,6.156615E-1,-2.0791169E-1,5.7E1,4.6E-1,6.1E1,9.2E-1,8.660254E-1,7.5E1,4.7E1,-2.419219E-1,7.938673E-2,6.8E1,5.7E1,1.1023546E-2,-6.1593264E-2,1.8E-1,6.691306E-1,5.5E1,5.8778524E-1,-2.419219E-1,3.7460658E-1,2.419219E-1,-2.7563736E-1,8.5E-1,7.816883E-2,2.5900159E-2,-5.591929E-1,7.9421125E-2,8.73631E-2,8.1E-1,-2.8738562E-2,-6.2990256E-2,-3.7093673E-2,-6.347663E-2,-1.3808029E-2,5.3081144E-2,-2.0746294E-2,-5.057788E-2,1.9481924E-3,-5.7462085E-2,-1.1340727E-2,4.2411953E-2,-5.285279E-2,-2.6262733E-3,6.666763E-2,-2.1934764E-2,4.9089994E-2,8.652946E-2,7.297989E-2,-3.972704E-2,-5.8749344E-2,-2.2682536E-4,-6.940331E-3,4.514499E-2,-2.5353897E-2,2.733243E-2,5.6720592E-2,-1.3863881E-2,6.9816485E-2,9.020058E-3],"split_indices":[1,2,1,1,1,2,0,3,3,1,3,0,1,0,0,2,0,0,2,2,3,0,1,0,1,3,0,0,2,0,0,0,0,0,1,2,0,2,3,2,2,3,1,0,0,3,0,0,1,0,0,0,0,0,0,0,0,0,0,0,0,0,0,0,0,0,0,0,0,0,0,0,0,0,0,0,0,0,0],"split_type":[0,0,0,0,0,0,0,0,0,0,0,0,0,0,0,0,0,0,0,0,0,0,0,0,0,0,0,0,0,0,0,0,0,0,0,0,0,0,0,0,0,0,0,0,0,0,0,0,0,0,0,0,0,0,0,0,0,0,0,0,0,0,0,0,0,0,0,0,0,0,0,0,0,0,0,0,0,0,0],"sum_hessian":[4.9517563E2,2.93698E2,2.0147763E2,1.663096E2,1.2738839E2,1.2408348E2,7.739415E1,1.312835E2,3.5026108E1,6.511432E1,6.227407E1,5.44377E1,6.964578E1,7.591853E1,1.4756144E0,1.295265E2,1.7569923E0,8.965645E0,2.6060463E1,2.6558907E1,3.8555412E1,5.0971184E1,1.1302886E1,4.6712463E1,7.7252345E0,2.654298E1,4.3102806E1,8.67111E1,4.281541E1,1.3753159E0,7.5903287E0,2.3858847E1,2.2016163E0,1.0956575E1,1.560233E1,1.7257645E1,2.1297766E1,6.8140516E0,4.4157135E1,4.050241E0,7.2526445E0,2.652466E1,2.0187803E1,6.2465043E0,1.4787302E0,2.1674894E1,4.8680854E0,3.968935E1,3.4134548E0,3.174278E0,8.353682E1,3.0074247E1,1.2741162E1,4.921687E0,2.6686416E0,6.2640977E0,1.759475E1,1.0806419E1,4.7959113E0,8.337925E0,8.919721E0,2.910713E0,1.8387053E1,3.414993E0,3.3990588E0,2.5216019E1,1.8941114E1,2.7930095E0,1.2572316E0,3.5520642E0,3.7005804E0,2.813804E0,2.3710855E1,9.365556E0,1.0822247E1,9.8170395E0,1.1857856E1,1.4657588E0,1.947696E0],"tree_param":{"num_deleted":"0","num_feature":"6","num_nodes":"79","size_leaf_vector":"0"}},{"base_weights":[-3.5561135E-1,-2.042212E-1,-5.13863E-1,1.4867511E-1,-3.8590828E-1,-5.40293E-1,-3.0729654E-1,4.0619445E-1,-2.1847461E-1,-2.2000116E-1,-5.643739E-1,-2.524044E-1,-5.590833E-1,-4.2693216E-1,5.5263877E-1,5.3742003E-1,-4.5314863E-2,-3.1416288E-1,2.815555E-1,4.7401555E-2,-3.7244937E-1,-5.7650473E-2,9.0357205E-3,-5.106732E-1,4.8157707E-1,-5.669818E-1,-2.3508865E-1,-1.2868024E-1,-6.13558E-2,8.027981E-2,3.7634303E-3,7.173995E-1,2.986659E-1,2.4111708E-1,-5.4637976E-2,-5.232377E-1,-4.0937528E-2,8.109931E-2,-4.5985997E-2,-9.7863786E-2,5.404737E-1,-2.4083462E-1,-4.7040287E-1,1.0815765E-2,-6.008638E-2,9.615348E-2,-3.6134996E-2,-1.4523435E-1,-5.7176226E-1,-5.028629E-2,1.6955236E-2,-2.750243E-1,5.3738922E-2,-7.6223663E-3,7.856291E-2,-4.8429035E-3,6.633102E-2,5.059619E-2,-4.6599205E-4,3.7225422E-3,-5.7614695E-2,6.861741E-3,-4.4114526E-2,-1.9110832E-2,7.9703584E-2,3.0435411E-2,8.595973E-2,-3.844107E-2,2.3405641E-2,-5.8639653E-2,-1.4590184E-2,1.0780054E-2,-3.370002E-2,-4.119312E-2,-5.8314007E-2,-4.5230176E-2,3.4084722E-2],"categories":[],"categories_nodes":[],"categories_segments":[],"categories_sizes":[],"default_left":[0,0,0,0,0,0,0,0,0,0,0,0,0,0,0,0,0,0,0,0,0,0,0,0,0,0,0,0,0,0,0,0,0,0,0,0,0,0,0,0,0,0,0,0,0,0,0,0,0,0,0,0,0,0,0,0,0,0,0,0,0,0,0,0,0,0,0,0,0,0,0,0,0,0,0,0,0],"id":18,"left_children":[1,3,5,7,9,11,13,15,17,19,21,23,25,27,29,31,33,35,37,39,41,-1,-1,43,45,47,49,51,-1,-1,-1,53,55,57,-1,59,61,-1,-1,63,65,67,69,-1,-1,-1,-1,71,73,-1,-1,75,-1,-1,-1,-1,-1,-1,-1,-1,-1,-1,-1,-1,-1,-1,-1,-1,-1,-1,-1,-1,-1,-1,-1,-1,-1],"loss_changes":[1.0172428E1,1.4220882E1,9.75441E-1,7.25541E0,4.2017593E0,8.5445404E-1,2.9144425E0,2.6847034E0,1.6146971E0,3.1710095E0,6.0606194E-1,2.7290907E0,3.0672455E-1,1.2246361E0,4.355924E-1,1.2840157E0,1.7152655E0,1.5350688E0,2.5911877E0,2.1282306E0,5.233221E-1,0E0,0E0,6.328871E-1,1.9350718E0,2.5394058E-1,7.1373594E-1,1.149797E0,0E0,0E0,0E0,1.0977745E0,2.1457648E0,5.044898E-1,0E0,4.7665596E-1,5.957116E-1,0E0,0E0,2.09053E0,2.4677289E-1,1.6662786E0,9.405508E-1,0E0,0E0,0E0,0E0,1.9227391E-1,5.9711456E-2,0E0,0E0,1.1465383E0,0E0,0E0,0E0,0E0,0E0,0E0,0E0,0E0,0E0,0E0,0E0,0E0,0E0,0E0,0E0,0E0,0E0,0E0,0E0,0E0,0E0,0E0,0E0,0E0,0E0],"parents":[2147483647,0,0,1,1,2,2,3,3,4,4,5,5,6,6,7,7,8,8,9,9,10,10,11,11,12,12,13,13,14,14,15,15,16,16,17,17,18,18,19,19,20,20,23,23,24,24,25,25,26,26,27,27,31,31,32,32,33,33,35,35,36,36,39,39,40,40,41,41,42,42,47,47,48,48,51,51],"right_children":[2,4,6,8,10,12,14,16,18,20,22,24,26,28,30,32,34,36,38,40,42,-1,-1,44,46,48,50,52,-1,-1,-1,54,56,58,-1,60,62,-1,-1,64,66,68,70,-1,-1,-1,-1,72,74,-1,-1,76,-1,-1,-1,-1,-1,-1,-1,-1,-1,-1,-1,-1,-1,-1,-1,-1,-1,-1,-1,-1,-1,-1,-1,-1,-1],"split_conditions":[6.5E1,4.1E-1,8.8294756E-1,-1.04528464E-1,7.2E-1,1.4E-1,5.6E-1,6.1E1,6.2E1,-8.8294756E-1,-1.7364818E-1,9.5105654E-1,9.975641E-1,3.6E-1,7.4E1,2.7E-1,-6.4278764E-1,1.04528464E-1,-5E-1,2.7563736E-1,5.6E1,-5.7650473E-2,9.0357205E-3,-8.480481E-1,6.7E1,-9.9939084E-1,4.9E-1,2.0791169E-1,-6.13558E-2,8.027981E-2,3.7634303E-3,-9.9026805E-1,3.4E-1,-9.5105654E-1,-5.4637976E-2,-9.975641E-1,3.3E-1,8.109931E-2,-4.5985997E-2,-9.2718387E-1,6.1E-1,8.09017E-1,7.6604444E-1,1.0815765E-2,-6.008638E-2,9.615348E-2,-3.6134996E-2,6.2E-1,-9.135454E-1,-5.028629E-2,1.6955236E-2,7.7E1,5.3738922E-2,-7.6223663E-3,7.856291E-2,-4.8429035E-3,6.633102E-2,5.059619E-2,-4.6599205E-4,3.7225422E-3,-5.7614695E-2,6.861741E-3,-4.4114526E-2,-1.9110832E-2,7.9703584E-2,3.0435411E-2,8.595973E-2,-3.844107E-2,2.3405641E-2,-5.8639653E-2,-1.4590184E-2,1.0780054E-2,-3.370002E-2,-4.119312E-2,-5.8314007E-2,-4.5230176E-2,3.4084722E-2],"split_indices":[0,1,2,2,1,1,1,0,0,2,2,3,3,1,0,1,2,3,3,3,0,0,0,3,0,2,1,3,0,0,0,2,1,2,0,3,1,0,0,2,1,3,2,0,0,0,0,1,3,0,0,0,0,0,0,0,0,0,0,0,0,0,0,0,0,0,0,0,0,0,0,0,0,0,0,0,0],"split_type":[0,0,0,0,0,0,0,0,0,0,0,0,0,0,0,0,0,0,0,0,0,0,0,0,0,0,0,0,0,0,0,0,0,0,0,0,0,0,0,0,0,0,0,0,0,0,0,0,0,0,0,0,0,0,0,0,0,0,0,0,0,0,0,0,0,0,0,0,0,0,0,0,0,0,0,0,0],"sum_hessian":[4.2797897E2,2.1990204E2,2.0807693E2,7.4799126E1,1.4510292E2,1.8304143E2,2.5035501E1,4.3900738E1,3.0898386E1,7.635434E1,6.874857E1,1.20992985E1,1.7094214E2,2.2419933E1,2.6155677E0,3.386734E1,1.0033399E1,2.6247284E1,4.6511E0,2.7974522E1,4.8379818E1,6.761529E1,1.1332871E0,9.175074E0,2.9242253E0,1.6614186E2,4.8002796E0,9.279546E0,1.31403885E1,1.384325E0,1.2312428E0,1.8167452E1,1.5699888E1,6.714099E0,3.3192997E0,1.4350837E1,1.1896448E1,2.6587024E0,1.9923979E0,2.2227531E1,5.746991E0,2.211874E1,2.6261078E1,1.1417687E0,8.033305E0,1.7736244E0,1.1506009E0,2.2138093E0,1.6392804E2,2.742603E0,2.0576766E0,8.089313E0,1.1902328E0,1.4289734E0,1.673848E1,8.487786E0,7.2121024E0,2.722144E0,3.9919548E0,1.2634666E0,1.308737E1,9.990219E0,1.9062291E0,2.0842304E1,1.3852277E0,4.425949E0,1.3210422E0,1.713021E1,4.988529E0,1.875131E1,7.509769E0,1.1432047E0,1.0706044E0,1.33664E1,1.5056165E2,6.487491E0,1.6018214E0],"tree_param":{"num_deleted":"0","num_feature":"6","num_nodes":"77","size_leaf_vector":"0"}},{"base_weights":[1.4488217E-1,2.3809479E-1,-1.4422397E-1,4.515187E-2,4.232346E-1,-6.3233934E-2,-1.1339718E-1,-2.6709187E-1,8.224053E-2,4.88829E-1,2.352866E-1,3.4405106E-1,-1.7047402E-1,-6.298319E-2,-1.3857614E-1,7.5993106E-2,6.4295255E-2,3.707263E-1,6.185699E-1,6.94154E-1,1.7041256E-1,-1.1659609E-2,5.750374E-1,-3.5366297E-1,-7.049673E-2,2.2509657E-1,-2.5951806E-1,1.854786E-2,3.464214E-1,2.1806286E-1,4.75215E-1,6.564932E-1,1.22010425E-1,8.2742624E-2,3.235636E-2,-6.0632627E-2,2.4657612E-1,-1.9860779E-1,4.034725E-2,-1.0504514E-3,6.829867E-1,-5.112798E-1,-2.237059E-2,8.547538E-2,-2.8300586E-1,-2.1943336E-2,7.0367776E-2,-3.9602567E-2,1.168066E-2,4.6892785E-2,1.7526576E-4,6.167413E-2,1.7347833E-2,6.335916E-2,-5.043987E-3,6.993671E-2,3.4673315E-2,6.786663E-2,1.3234886E-2,-2.6239708E-2,4.8132896E-2,6.950375E-2,1.6118754E-2,-3.148156E-2,1.0929508E-2,7.987174E-2,1.9555448E-2,-5.4039605E-2,5.0957664E-3,2.5113601E-2,-3.1738363E-2,2.1562135E-2,-2.2557987E-2,6.878852E-2,-3.5758637E-2],"categories":[],"categories_nodes":[],"categories_segments":[],"categories_sizes":[],"default_left":[0,0,0,0,0,0,0,0,0,0,0,0,0,0,0,0,0,0,0,0,0,0,0,0,0,0,0,0,0,0,0,0,0,0,0,0,0,0,0,0,0,0,0,0,0,0,0,0,0,0,0,0,0,0,0,0,0,0,0,0,0,0,0,0,0,0,0,0,0,0,0,0,0,0,0],"id":19,"left_children":[1,3,5,7,9,-1,11,13,15,17,19,21,23,-1,25,-1,27,29,31,33,35,37,39,41,43,45,47,49,51,53,55,57,59,-1,-1,-1,61,63,-1,-1,65,67,69,71,73,-1,-1,-1,-1,-1,-1,-1,-1,-1,-1,-1,-1,-1,-1,-1,-1,-1,-1,-1,-1,-1,-1,-1,-1,-1,-1,-1,-1,-1,-1],"loss_changes":[1.3785004E1,1.377763E1,1.8096037E0,2.2251894E0,2.3134422E0,0E0,3.1610065E0,8.653196E-1,2.0284839E0,1.9938965E0,1.4561539E0,1.1169219E0,1.9220679E0,0E0,7.7844894E-1,0E0,2.155435E0,1.1477547E0,1.1937122E0,3.976655E-2,2.969249E0,5.690604E-1,5.2625847E-1,1.9354873E0,2.3451304E0,1.137501E0,7.012194E-1,1.0974032E0,9.829588E-1,3.7945728E0,1.0743513E0,6.378956E-1,9.588904E-1,0E0,0E0,0E0,1.577409E0,2.138095E-1,0E0,0E0,2.3580861E-1,4.403801E-1,1.1339675E0,1.7145516E0,2.408957E0,0E0,0E0,0E0,0E0,0E0,0E0,0E0,0E0,0E0,0E0,0E0,0E0,0E0,0E0,0E0,0E0,0E0,0E0,0E0,0E0,0E0,0E0,0E0,0E0,0E0,0E0,0E0,0E0,0E0,0E0],"parents":[2147483647,0,0,1,1,2,2,3,3,4,4,6,6,7,7,8,8,9,9,10,10,11,11,12,12,14,14,16,16,17,17,18,18,19,19,20,20,21,21,22,22,23,23,24,24,25,25,26,26,27,27,28,28,29,29,30,30,31,31,32,32,36,36,37,37,40,40,41,41,42,42,43,43,44,44],"right_children":[2,4,6,8,10,-1,12,14,16,18,20,22,24,-1,26,-1,28,30,32,34,36,38,40,42,44,46,48,50,52,54,56,58,60,-1,-1,-1,62,64,-1,-1,66,68,70,72,74,-1,-1,-1,-1,-1,-1,-1,-1,-1,-1,-1,-1,-1,-1,-1,-1,-1,-1,-1,-1,-1,-1,-1,-1,-1,-1,-1,-1,-1,-1],"split_conditions":[4.8063084E-1,6.5E1,4.890738E-1,-4.9240386E-1,-1.8369701E-16,-6.3233934E-2,4.9969542E-1,-5E-1,-4.4939703E-1,-7.6604444E-1,-4.1451877E-1,4.9513403E-1,6.1E1,-6.298319E-2,-1.7364818E-1,7.5993106E-2,3.7460658E-1,-2.3176275E-1,7.7E1,8.8294756E-1,1.04528464E-1,7E1,-8.8294756E-1,5.8778524E-1,6.156615E-1,-7.2094625E-1,-9.135454E-1,-9.848077E-1,5.8778524E-1,-9.781476E-1,-4.5924254E-17,3.445467E-1,-6.156615E-1,8.2742624E-2,3.235636E-2,-6.0632627E-2,2.7563736E-1,3.09017E-1,4.034725E-2,-1.0504514E-3,6.4E1,1.3907758E0,5.7E1,7.2E1,6.2E1,-2.1943336E-2,7.0367776E-2,-3.9602567E-2,1.168066E-2,4.6892785E-2,1.7526576E-4,6.167413E-2,1.7347833E-2,6.335916E-2,-5.043987E-3,6.993671E-2,3.4673315E-2,6.786663E-2,1.3234886E-2,-2.6239708E-2,4.8132896E-2,6.950375E-2,1.6118754E-2,-3.148156E-2,1.0929508E-2,7.987174E-2,1.9555448E-2,-5.4039605E-2,5.0957664E-3,2.5113601E-2,-3.1738363E-2,2.1562135E-2,-2.2557987E-2,6.878852E-2,-3.5758637E-2],"split_indices":[5,0,5,5,2,0,5,3,5,2,5,5,0,0,3,0,2,5,0,3,2,0,3,2,2,5,2,3,2,2,5,5,2,0,0,0,2,3,0,0,0,5,0,0,0,0,0,0,0,0,0,0,0,0,0,0,0,0,0,0,0,0,0,0,0,0,0,0,0,0,0,0,0,0,0],"split_type":[0,0,0,0,0,0,0,0,0,0,0,0,0,0,0,0,0,0,0,0,0,0,0,0,0,0,0,0,0,0,0,0,0,0,0,0,0,0,0,0,0,0,0,0,0,0,0,0,0,0,0,0,0,0,0,0,0,0,0,0,0,0,0,0,0,0,0,0,0,0,0,0,0,0,0],"sum_hessian":[5.0926013E2,3.8523154E2,1.24028595E2,1.8924956E2,1.9598198E2,6.2085752E0,1.17820015E2,1.9434238E1,1.6981532E2,1.4409245E2,5.1889526E1,