{"learner":{"attributes":{"best_iteration":"44","best_ntree_limit":"45"},"feature_names":["Age","Laterality","Barrett Integrated-K magnitude (D)","BIK_axis_cos","BIK_axis_sin","deltaTK_IOL700_cyl_atBIKaxis","Manifest_cyl_at_BIKaxis"],"feature_types":["int","int","float","float","float","float","float"],"gradient_booster":{"model":{"gbtree_model_param":{"num_parallel_tree":"1","num_trees":"135","size_leaf_vector":"0"},"tree_info":[0,1,2,0,1,2,0,1,2,0,1,2,0,1,2,0,1,2,0,1,2,0,1,2,0,1,2,0,1,2,0,1,2,0,1,2,0,1,2,0,1,2,0,1,2,0,1,2,0,1,2,0,1,2,0,1,2,0,1,2,0,1,2,0,1,2,0,1,2,0,1,2,0,1,2,0,1,2,0,1,2,0,1,2,0,1,2,0,1,2,0,1,2,0,1,2,0,1,2,0,1,2,0,1,2,0,1,2,0,1,2,0,1,2,0,1,2,0,1,2,0,1,2,0,1,2,0,1,2,0,1,2,0,1,2],"trees":[{"base_weights":[-4.3508932E-1,-2.1766567E-1,-5.5015206E-1,3.4235972E-1,-4.8467973E-1,-6.2998325E-1,-4.264088E-1,-1.9480523E-1,4.276169E-1,-2.5464195E-1,-6.0084635E-1,-4.9108595E-1,-6.9820976E-1,-3.8872596E-8,-4.4907004E-1,-4.5283023E-1,2.7272725E-1,6.695279E-1,1.5999997E-1,-3.5294122E-1,6.1855633E-2,-6.218979E-1,-3.2511625E-8,-2.1509439E-1,-6.8144053E-1,-2.727273E-1,-7.049609E-2,-4.8000004E-2,2.2641507E-1,-5.9154934E-1,-3.3229333E-1,-2.5544848E-9,-5.853659E-2,-2.5544848E-9,4.285714E-2,9.896907E-1,4.137931E-1,-3.2432437E-1,2.4365479E-1,-1.538462E-1,-4.6408844E-1,3.934426E-1,-4.0000004E-1,-2.5544848E-9,-6.3298666E-1,4.285714E-2,-4.2857148E-2,2.2018345E-1,-4.9090916E-1,-3.692308E-1,-7.278689E-2,-4.2857148E-2,-2.5544848E-9,-4.2857148E-2,5.121951E-1,-6.1822134E-1,-2.0000003E-1,5.121951E-1,-3.842365E-1,-2.5544848E-9,1.1294117E-1,-1.2000003E-2,4.8837207E-2,-4.8000004E-2,-2.5544848E-9,3.5502955E-2,-3.2432437E-2,-3.2673273E-2,6E-2,-2.376238E-2,-6.741574E-2,8.571428E-2,1.2244894E-2,-5.454546E-2,-2.5544848E-9,-6.6502474E-2,-2.8767128E-2,-4.8000004E-2,3.8709674E-2,-6.279071E-2,-3.5762788E-9,-3.2511627E-9,-5.853659E-2,9.6E-2,-1.2000003E-2,-4.4378705E-2,-6.9767445E-2,1.0344825E-2,-4.8000004E-2,-2.5544848E-9,7.2413795E-2,-4.8493158E-2,-2.252965E-2],"categories":[],"categories_nodes":[],"categories_segments":[],"categories_sizes":[],"default_left":[0,0,0,0,0,0,0,0,0,0,0,0,0,0,0,0,0,0,0,0,0,0,0,0,0,0,0,0,0,0,0,0,0,0,0,0,0,0,0,0,0,0,0,0,0,0,0,0,0,0,0,0,0,0,0,0,0,0,0,0,0,0,0,0,0,0,0,0,0,0,0,0,0,0,0,0,0,0,0,0,0,0,0,0,0,0,0,0,0,0,0,0,0],"id":0,"left_children":[1,3,5,7,9,11,13,15,17,19,21,23,25,27,29,31,33,35,37,39,41,43,45,47,49,51,-1,-1,53,55,57,-1,-1,-1,-1,59,61,63,65,67,69,71,73,-1,75,-1,-1,77,79,81,-1,-1,-1,-1,83,85,87,89,91,-1,-1,-1,-1,-1,-1,-1,-1,-1,-1,-1,-1,-1,-1,-1,-1,-1,-1,-1,-1,-1,-1,-1,-1,-1,-1,-1,-1,-1,-1,-1,-1,-1,-1],"loss_changes":[1.2491783E1,2.6500648E1,2.9814148E0,2.714095E0,3.0448132E0,1.532402E0,1.2765827E0,1.1555992E0,3.1226559E0,1.3250566E0,9.964409E-1,3.4550781E0,1.8211746E-1,9.418868E-1,1.8906116E0,3.5342836E-1,1.5584418E-1,1.7101717E0,1.0919249E0,6.39184E-1,1.807943E0,5.248718E-1,8.5714287E-1,3.6430736E0,3.1267357E-1,1.5584415E-1,0E0,0E0,1.3218066E0,4.5306206E-1,3.3209953E0,0E0,0E0,0E0,0E0,1.4903574E0,6.999841E-1,2.0756751E-1,1.4998039E0,1.8903275E0,7.965536E-1,7.467382E-1,2.9090917E-1,0E0,6.3597107E-1,0E0,0E0,1.6012312E0,1.2329817E0,5.763602E-1,0E0,0E0,0E0,0E0,1.4048779E0,4.0028763E-1,4.744827E-1,4.945333E-1,9.7371674E-1,0E0,0E0,0E0,0E0,0E0,0E0,0E0,0E0,0E0,0E0,0E0,0E0,0E0,0E0,0E0,0E0,0E0,0E0,0E0,0E0,0E0,0E0,0E0,0E0,0E0,0E0,0E0,0E0,0E0,0E0,0E0,0E0,0E0,0E0],"parents":[2147483647,0,0,1,1,2,2,3,3,4,4,5,5,6,6,7,7,8,8,9,9,10,10,11,11,12,12,13,13,14,14,15,15,16,16,17,17,18,18,19,19,20,20,21,21,22,22,23,23,24,24,25,25,28,28,29,29,30,30,35,35,36,36,37,37,38,38,39,39,40,40,41,41,42,42,44,44,47,47,48,48,49,49,54,54,55,55,56,56,57,57,58,58],"right_children":[2,4,6,8,10,12,14,16,18,20,22,24,26,28,30,32,34,36,38,40,42,44,46,48,50,52,-1,-1,54,56,58,-1,-1,-1,-1,60,62,64,66,68,70,72,74,-1,76,-1,-1,78,80,82,-1,-1,-1,-1,84,86,88,90,92,-1,-1,-1,-1,-1,-1,-1,-1,-1,-1,-1,-1,-1,-1,-1,-1,-1,-1,-1,-1,-1,-1,-1,-1,-1,-1,-1,-1,-1,-1,-1,-1,-1,-1],"split_conditions":[3.0735317E-1,6E1,-2.419219E-1,-9.848077E-1,6.6E1,5.755336E-1,3.3813745E-1,1.0036959E-1,1.0036959E-1,2.7563736E-1,2.913047E-1,-9.135454E-1,4E1,1.391731E-1,5.969071E-1,5.4E1,5.3E1,-8.2903755E-1,4.7E1,-5.2991927E-1,1E0,-9.9939084E-1,6.9E1,6E1,5.4E1,3.3E1,-7.049609E-2,-4.8000004E-2,3.1152618E-1,7.7E1,-9.781476E-1,-2.5544848E-9,-5.853659E-2,-2.5544848E-9,4.285714E-2,-9.702957E-1,-7.880108E-1,-8.480481E-1,8.8294756E-1,-6.156615E-1,-9.848077E-1,-8.241345E-2,6.4E1,-2.5544848E-9,7.7E1,4.285714E-2,-4.2857148E-2,3.460542E-1,5.094687E-1,1E0,-7.278689E-2,-4.2857148E-2,-2.5544848E-9,-4.2857148E-2,-3.4899496E-2,4.0673664E-1,7.9E1,5.8E1,8.8294756E-1,-2.5544848E-9,1.1294117E-1,-1.2000003E-2,4.8837207E-2,-4.8000004E-2,-2.5544848E-9,3.5502955E-2,-3.2432437E-2,-3.2673273E-2,6E-2,-2.376238E-2,-6.741574E-2,8.571428E-2,1.2244894E-2,-5.454546E-2,-2.5544848E-9,-6.6502474E-2,-2.8767128E-2,-4.8000004E-2,3.8709674E-2,-6.279071E-2,-3.5762788E-9,-3.2511627E-9,-5.853659E-2,9.6E-2,-1.2000003E-2,-4.4378705E-2,-6.9767445E-2,1.0344825E-2,-4.8000004E-2,-2.5544848E-9,7.2413795E-2,-4.8493158E-2,-2.252965E-2],"split_indices":[5,0,3,3,0,5,5,5,5,4,5,3,0,3,5,0,0,3,0,4,1,3,0,0,0,0,0,0,5,0,4,0,0,0,0,3,3,3,4,4,3,5,0,0,0,0,0,5,5,1,0,0,0,0,4,3,0,0,3,0,0,0,0,0,0,0,0,0,0,0,0,0,0,0,0,0,0,0,0,0,0,0,0,0,0,0,0,0,0,0,0,0,0],"split_type":[0,0,0,0,0,0,0,0,0,0,0,0,0,0,0,0,0,0,0,0,0,0,0,0,0,0,0,0,0,0,0,0,0,0,0,0,0,0,0,0,0,0,0,0,0,0,0,0,0,0,0,0,0,0,0,0,0,0,0,0,0,0,0,0,0,0,0,0,0,0,0,0,0,0,0,0,0,0,0,0,0,0,0,0,0,0,0,0,0,0,0,0,0],"sum_hessian":[5.0311108E2,1.751111E2,3.2799997E2,5.6444443E1,1.1866666E2,1.9688887E2,1.311111E2,7.5555553E0,4.8888885E1,4.0888885E1,7.777777E1,6.755555E1,1.2933333E2,6.666666E0,1.24444435E2,4.8888884E0,2.6666665E0,2.4888887E1,2.3999998E1,3.1111109E1,9.777777E0,7.511111E1,2.6666665E0,2.8444443E1,3.9111107E1,2.6666665E0,1.2666666E2,1.7777777E0,4.8888884E0,5.4222218E1,7.022222E1,1.3333333E0,3.5555553E0,1.3333333E0,1.3333333E0,9.777777E0,1.5111111E1,3.111111E0,2.0888887E1,1.1999999E1,1.911111E1,5.7777777E0,3.9999998E0,1.3333333E0,7.377777E1,1.3333333E0,1.3333333E0,1.1111111E1,1.7333332E1,6.222222E0,3.2888885E1,1.3333333E0,1.3333333E0,1.3333333E0,3.5555553E0,5.0222218E1,3.9999998E0,3.5555553E0,6.6666664E1,1.3333333E0,8.444444E0,1.7777777E0,1.3333332E1,1.7777777E0,1.3333333E0,1.7777777E1,3.111111E0,1.0222221E1,1.7777777E0,1.0222221E1,8.888888E0,1.3333333E0,4.444444E0,2.6666665E0,1.3333333E0,6.6666664E1,7.1111107E0,1.7777777E0,9.333333E0,1.3333332E1,3.9999998E0,2.6666665E0,3.5555553E0,1.7777777E0,1.7777777E0,1.7777777E1,3.2444443E1,2.222222E0,1.7777777E0,1.3333333E0,2.222222E0,3.9555553E1,2.7111109E1],"tree_param":{"num_deleted":"0","num_feature":"7","num_nodes":"93","size_leaf_vector":"0"}},{"base_weights":[2.4949695E-1,6.107406E-1,-3.8211885E-1,7.792732E-1,4.7694314E-3,-1.9469032E-1,-6.8160003E-1,8.921739E-1,3.8596487E-1,4.8788923E-1,-3.954155E-1,5.2516367E-2,-3.9015824E-1,-2.6086962E-1,-7.22124E-2,3.834586E-1,9.294191E-1,5.1655626E-1,-5.217392E-1,-1.9480523E-1,7.058823E-1,2.7272725E-1,-5.6583637E-1,8.1818186E-2,-6.9284504E-3,-2.2304837E-1,-5.242719E-1,-4.7368425E-1,4.285714E-2,5.5045867E-1,-2.727273E-1,6.7474043E-1,9.7880393E-1,3.0830035E-1,7.4641144E-1,-1.2000003E-2,-6.2264156E-2,-5.853659E-2,1.9999997E-1,1.0619469E0,3.0769226E-1,9.6E-2,-4.9180366E-2,-1.9480523E-1,-6.760564E-1,-2.2388065E-1,1.7427382E-1,-4.1584638E-8,-4.0268463E-1,-3.9593914E-1,-6.942149E-2,-1.2000003E-2,-5.853659E-2,7.826087E-2,1.2244894E-2,-4.2857148E-2,-2.5544848E-9,8.626609E-2,-9.230773E-3,7.2897196E-2,1.049554E-1,5.643564E-2,1.30434735E-2,4.5599997E-2,1.0645161E-1,8.571428E-2,-2.7272731E-2,5.121951E-2,1.2222222E-1,5.5555552E-2,-2.0000003E-2,-5.454546E-2,4.054054E-2,-3.692308E-2,4.285714E-2,-3.2432437E-2,-7.135136E-2,-4.3795663E-3,-5.3424664E-2,4.2148758E-2,-6.9767484E-3,-1.926606E-2,7.2413795E-2,-6.52174E-2,-1.6853938E-2,-5.806452E-2,-2.1238944E-2],"categories":[],"categories_nodes":[],"categories_segments":[],"categories_sizes":[],"default_left":[0,0,0,0,0,0,0,0,0,0,0,0,0,0,0,0,0,0,0,0,0,0,0,0,0,0,0,0,0,0,0,0,0,0,0,0,0,0,0,0,0,0,0,0,0,0,0,0,0,0,0,0,0,0,0,0,0,0,0,0,0,0,0,0,0,0,0,0,0,0,0,0,0,0,0,0,0,0,0,0,0,0,0,0,0,0,0],"id":1,"left_children":[1,3,5,7,9,11,13,15,17,19,21,23,25,27,-1,29,31,33,35,37,39,41,43,-1,45,47,49,51,-1,53,55,57,59,61,63,-1,-1,-1,65,67,69,-1,71,73,75,77,79,81,83,85,-1,-1,-1,-1,-1,-1,-1,-1,-1,-1,-1,-1,-1,-1,-1,-1,-1,-1,-1,-1,-1,-1,-1,-1,-1,-1,-1,-1,-1,-1,-1,-1,-1,-1,-1,-1,-1],"loss_changes":[1.13632454E2,3.232479E1,1.0052013E1,1.0653244E1,1.3705046E1,5.4807587E0,9.9562836E-1,3.2751465E0,7.0261908E0,4.9163723E0,4.569767E0,2.3168113E0,1.2999802E0,1.3278849E0,0E0,1.7695196E0,1.5769043E0,2.1792736E0,2.3606229E-1,1.4363003E0,3.154766E0,1.9400296E0,1.1451359E0,0E0,1.9303715E0,1.1975747E0,4.7391796E-1,1.7992294E-1,0E0,1.1075604E0,1.5584415E-1,4.708256E0,1.8292999E0,1.2066684E0,1.6598787E0,0E0,0E0,0E0,1.787013E0,4.802742E-1,1.7470083E0,0E0,1.7501915E0,1.0885115E0,8.03957E-2,1.2248626E0,1.6449193E0,2.1391966E0,8.572049E-1,6.187706E-1,0E0,0E0,0E0,0E0,0E0,0E0,0E0,0E0,0E0,0E0,0E0,0E0,0E0,0E0,0E0,0E0,0E0,0E0,0E0,0E0,0E0,0E0,0E0,0E0,0E0,0E0,0E0,0E0,0E0,0E0,0E0,0E0,0E0,0E0,0E0,0E0,0E0],"parents":[2147483647,0,0,1,1,2,2,3,3,4,4,5,5,6,6,7,7,8,8,9,9,10,10,11,11,12,12,13,13,15,15,16,16,17,17,18,18,19,19,20,20,21,21,22,22,24,24,25,25,26,26,27,27,29,29,30,30,31,31,32,32,33,33,34,34,38,38,39,39,40,40,42,42,43,43,44,44,45,45,46,46,47,47,48,48,49,49],"right_children":[2,4,6,8,10,12,14,16,18,20,22,24,26,28,-1,30,32,34,36,38,40,42,44,-1,46,48,50,52,-1,54,56,58,60,62,64,-1,-1,-1,66,68,70,-1,72,74,76,78,80,82,84,86,-1,-1,-1,-1,-1,-1,-1,-1,-1,-1,-1,-1,-1,-1,-1,-1,-1,-1,-1,-1,-1,-1,-1,-1,-1,-1,-1,-1,-1,-1,-1,-1,-1,-1,-1,-1,-1],"split_conditions":[6.6E-1,5.969071E-1,1.04E0,2.419219E-1,4.7E-1,-9.396926E-1,6.8957967E-1,-1.9917156E-1,4.4E-1,6.633939E-1,-3.09017E-1,-2.7563736E-1,8E-1,6.1487806E-1,-7.22124E-2,-2.5980762E-1,-8.480481E-1,1.04528464E-1,3.4202015E-1,-2.4492937E-16,4E-1,6.248201E-1,5.1E-1,8.1818186E-2,1E0,-5.8778524E-1,-6.691306E-1,-9.781476E-1,4.285714E-2,1.391731E-1,1.6E-1,4.1E-1,2.7E-1,7.880108E-1,6.946584E-1,-1.2000003E-2,-6.2264156E-2,-5.853659E-2,4.6947157E-1,7.1393156E-1,1E0,9.6E-2,6.762749E-1,9.9E-1,-9.396926E-1,9.2E-1,8.1E-1,6.946584E-1,6.9E-1,4.0673664E-1,-6.942149E-2,-1.2000003E-2,-5.853659E-2,7.826087E-2,1.2244894E-2,-4.2857148E-2,-2.5544848E-9,8.626609E-2,-9.230773E-3,7.2897196E-2,1.049554E-1,5.643564E-2,1.30434735E-2,4.5599997E-2,1.0645161E-1,8.571428E-2,-2.7272731E-2,5.121951E-2,1.2222222E-1,5.5555552E-2,-2.0000003E-2,-5.454546E-2,4.054054E-2,-3.692308E-2,4.285714E-2,-3.2432437E-2,-7.135136E-2,-4.3795663E-3,-5.3424664E-2,4.2148758E-2,-6.9767484E-3,-1.926606E-2,7.2413795E-2,-6.52174E-2,-1.6853938E-2,-5.806452E-2,-2.1238944E-2],"split_indices":[2,5,2,3,2,3,5,5,2,5,3,4,2,5,0,5,4,4,3,4,2,5,2,0,1,3,3,3,0,4,2,2,2,3,3,0,0,0,4,5,1,0,5,5,4,2,2,4,2,4,0,0,0,0,0,0,0,0,0,0,0,0,0,0,0,0,0,0,0,0,0,0,0,0,0,0,0,0,0,0,0,0,0,0,0,0,0],"split_type":[0,0,0,0,0,0,0,0,0,0,0,0,0,0,0,0,0,0,0,0,0,0,0,0,0,0,0,0,0,0,0,0,0,0,0,0,0,0,0,0,0,0,0,0,0,0,0,0,0,0,0,0,0,0,0,0,0,0,0,0,0,0,0,0,0,0,0,0,0,0,0,0,0,0,0,0,0,0,0,0,0,0,0,0,0,0,0],"sum_hessian":[4.9599997E2,3.1555554E2,1.8044443E2,2.4666666E2,6.8888885E1,1.1199999E2,6.844444E1,1.9066666E2,5.5999996E1,3.1111109E1,3.7777775E1,4.9777775E1,6.2222218E1,6.666666E0,6.1777775E1,1.3777777E1,1.7688889E2,4.9333332E1,6.666666E0,7.5555553E0,2.3555553E1,7.5555553E0,3.0222221E1,2.6666665E0,4.7111107E1,2.8888887E1,3.3333332E1,5.333333E0,1.3333333E0,1.1111111E1,2.6666665E0,3.1111109E1,1.4577777E2,2.7111109E1,2.2222221E1,1.7777777E0,4.8888884E0,3.5555553E0,3.9999998E0,1.1555555E1,1.1999999E1,1.7777777E0,5.7777777E0,7.5555553E0,2.2666666E1,2.1333332E1,2.5777777E1,1.3333332E1,1.5555554E1,2.0888887E1,1.2444444E1,1.7777777E0,3.5555553E0,6.666666E0,4.444444E0,1.3333333E0,1.3333333E0,2.4888887E1,6.222222E0,3.4666664E1,1.1111111E2,1.0222221E1,1.6888887E1,1.2888888E1,9.333333E0,1.3333333E0,2.6666665E0,3.5555553E0,7.9999995E0,7.9999995E0,3.9999998E0,2.6666665E0,3.111111E0,6.222222E0,1.3333333E0,3.111111E0,1.9555553E1,1.4222221E1,7.1111107E0,1.2444444E1,1.3333332E1,1.1111111E1,2.222222E0,6.666666E0,8.888888E0,9.333333E0,1.1555555E1],"tree_param":{"num_deleted":"0","num_feature":"7","num_nodes":"87","size_leaf_vector":"0"}},{"base_weights":[2.0578341E-1,-2.2676206E-1,1.0332681E0,-5.008184E-1,2.2641505E-1,7.303371E-1,1.3481781E0,-5.499093E-1,-4.7619093E-2,8.630606E-2,6.996047E-1,4.9030468E-1,9.086859E-1,2.3999998E-2,1.3696551E-1,-6.1437917E-1,-2.2105268E-1,3.333333E-1,-3.0769235E-1,6.2443435E-1,-9.5890455E-2,-3.1578952E-1,9.512195E-1,5.6304985E-1,-5.1724143E-2,1.1752577E-1,8.144044E-1,-4.109593E-2,-6.420412E-1,-2.0689698E-2,-4.0268463E-1,5.9999996E-1,-4.8000004E-2,-6.461539E-2,9.836062E-2,-4.8000004E-2,7.317073E-1,-4.398632E-8,-6.000001E-1,-6.0000002E-2,4.285714E-2,1.0909091E0,3.0612242E-1,9.438202E-1,4.1379306E-1,6.157205E-1,1.0851064E0,-3.1578954E-2,6E-2,-6.97462E-2,-4.6290807E-2,-1.3953494E-2,6E-2,-3.7645043E-9,-5.940595E-2,-1.2000003E-2,8.571429E-2,4.054054E-2,-2.7272731E-2,2.9032255E-2,1.016529E-1,-6.1224498E-2,5.7581533E-3,-6.741574E-2,-1.2000003E-2,1.2772278E-1,6.9863014E-2,-4.2857148E-2,6.486487E-2,2.3999998E-2,1.0684931E-1,5.1502146E-2,-3.2432437E-2,7.61194E-2,-3.2432437E-2,1.176E-1,2.3999998E-2],"categories":[],"categories_nodes":[],"categories_segments":[],"categories_sizes":[],"default_left":[0,0,0,0,0,0,0,0,0,0,0,0,0,0,0,0,0,0,0,0,0,0,0,0,0,0,0,0,0,0,0,0,0,0,0,0,0,0,0,0,0,0,0,0,0,0,0,0,0,0,0,0,0,0,0,0,0,0,0,0,0,0,0,0,0,0,0,0,0,0,0,0,0,0,0,0,0],"id":2,"left_children":[1,3,5,7,9,11,13,15,17,19,21,23,25,-1,-1,27,29,31,33,35,37,39,41,43,-1,-1,45,47,49,51,53,55,-1,-1,57,-1,59,61,63,-1,-1,65,67,69,71,73,75,-1,-1,-1,-1,-1,-1,-1,-1,-1,-1,-1,-1,-1,-1,-1,-1,-1,-1,-1,-1,-1,-1,-1,-1,-1,-1,-1,-1,-1,-1],"loss_changes":[1.7764566E2,4.06427E1,1.5264511E1,4.504986E0,8.138489E0,3.3645134E0,1.6308594E0,3.758175E0,2.1831503E0,9.526676E0,7.482441E0,3.2311401E0,2.9671478E-1,0E0,0E0,2.39991E0,1.1440916E0,2.24E0,1.850189E0,3.2604618E0,3.528767E0,1.5969925E0,1.7186298E0,1.7627745E0,0E0,0E0,1.4892159E0,1.6178803E0,1.1254845E0,1.2721733E0,1.2758324E0,1.4400003E0,0E0,0E0,8.828293E-1,0E0,2.568408E0,2.2327547E0,3.3438158E-1,0E0,0E0,4.4765282E-1,1.6480972E0,6.112852E-1,2.3338685E0,3.7264414E0,9.2119026E-1,0E0,0E0,0E0,0E0,0E0,0E0,0E0,0E0,0E0,0E0,0E0,0E0,0E0,0E0,0E0,0E0,0E0,0E0,0E0,0E0,0E0,0E0,0E0,0E0,0E0,0E0,0E0,0E0,0E0,0E0],"parents":[2147483647,0,0,1,1,2,2,3,3,4,4,5,5,6,6,7,7,8,8,9,9,10,10,11,11,12,12,15,15,16,16,17,17,18,18,19,19,20,20,21,21,22,22,23,23,26,26,27,27,28,28,29,29,30,30,31,31,34,34,36,36,37,37,38,38,41,41,42,42,43,43,44,44,45,45,46,46],"right_children":[2,4,6,8,10,12,14,16,18,20,22,24,26,-1,-1,28,30,32,34,36,38,40,42,44,-1,-1,46,48,50,52,54,56,-1,-1,58,-1,60,62,64,-1,-1,66,68,70,72,74,76,-1,-1,-1,-1,-1,-1,-1,-1,-1,-1,-1,-1,-1,-1,-1,-1,-1,-1,-1,-1,-1,-1,-1,-1,-1,-1,-1,-1,-1,-1],"split_conditions":[6.8E-1,4.2824358E-1,7.625064E-1,5.9E-1,8.195005E-1,8E-1,7.2E-1,3.2356587E-1,-1.7364818E-1,-7.193398E-1,4.2E-1,7.083159E-1,-3.09017E-1,2.3999998E-2,1.3696551E-1,-3.0079168E-1,-2.4492937E-16,3.6527944E-1,2.7563736E-1,2.7E-1,5.9E-1,7.4E1,7.4E1,-4.6947157E-1,-5.1724143E-2,1.1752577E-1,2.419219E-1,4.6947157E-1,4.2E-1,-2.419219E-1,3.6466068E-1,5.8E1,-4.8000004E-2,-6.461539E-2,3.0903167E-1,-4.8000004E-2,1E0,1.5E-1,6.5E-1,-6.0000002E-2,4.285714E-2,5.6E-1,1E0,-8.9879405E-1,6.683679E-1,1.7364818E-1,7.5E1,-3.1578954E-2,6E-2,-6.97462E-2,-4.6290807E-2,-1.3953494E-2,6E-2,-3.7645043E-9,-5.940595E-2,-1.2000003E-2,8.571429E-2,4.054054E-2,-2.7272731E-2,2.9032255E-2,1.016529E-1,-6.1224498E-2,5.7581533E-3,-6.741574E-2,-1.2000003E-2,1.2772278E-1,6.9863014E-2,-4.2857148E-2,6.486487E-2,2.3999998E-2,1.0684931E-1,5.1502146E-2,-3.2432437E-2,7.61194E-2,-3.2432437E-2,1.176E-1,2.3999998E-2],"split_indices":[2,5,5,2,5,2,2,5,4,4,2,5,4,0,0,5,4,5,4,2,2,0,0,4,0,0,4,4,2,4,5,0,0,0,5,0,1,2,2,0,0,2,1,4,5,4,0,0,0,0,0,0,0,0,0,0,0,0,0,0,0,0,0,0,0,0,0,0,0,0,0,0,0,0,0,0,0],"split_type":[0,0,0,0,0,0,0,0,0,0,0,0,0,0,0,0,0,0,0,0,0,0,0,0,0,0,0,0,0,0,0,0,0,0,0,0,0,0,0,0,0,0,0,0,0,0,0,0,0,0,0,0,0,0,0,0,0,0,0,0,0,0,0,0,0,0,0,0,0,0,0,0,0,0,0,0,0],"sum_hessian":[4.9466663E2,3.253333E2,1.6933333E2,2.0266666E2,1.2266666E2,8.799999E1,8.133333E1,1.8266666E2,1.9999998E1,9.555555E1,2.7111109E1,3.9111107E1,4.8888885E1,1.7777777E0,7.955555E1,1.5199998E2,3.0666664E1,7.9999995E0,1.1999999E1,2.3555553E1,7.199999E1,5.333333E0,2.1777777E1,3.6888885E1,2.222222E0,9.777777E0,3.9111107E1,7.1111107E0,1.4488889E2,1.5111111E1,1.5555554E1,6.222222E0,1.7777777E0,6.222222E0,5.7777777E0,1.7777777E0,2.1777777E1,6.133333E1,1.0666666E1,3.9999998E0,1.3333333E0,1.7333332E1,4.444444E0,8.888888E0,2.7999998E1,2.4444443E1,1.4666666E1,5.333333E0,1.7777777E0,1.08444435E2,3.6444443E1,1.3333332E1,1.7777777E0,5.333333E0,1.0222221E1,1.7777777E0,4.444444E0,3.111111E0,2.6666665E0,9.333333E0,1.2444444E1,4.444444E0,5.6888885E1,8.888888E0,1.7777777E0,1.0222221E1,7.1111107E0,1.3333333E0,3.111111E0,1.7777777E0,7.1111107E0,2.4888887E1,3.111111E0,2.1333332E1,3.111111E0,1.2888888E1,1.7777777E0],"tree_param":{"num_deleted":"0","num_feature":"7","num_nodes":"77","size_leaf_vector":"0"}},{"base_weights":[-4.3062955E-1,-2.4951826E-1,-5.642582E-1,1.8613973E-1,-4.5571554E-1,-6.2694657E-1,-4.464732E-1,3.0371937E-1,-2.4064916E-1,-3.597867E-1,-6.64823E-1,-4.2174047E-1,-6.599655E-1,-4.9271733E-1,-2.0893016E-1,3.663865E-1,-2.7903298E-1,2.1687278E-1,-4.162435E-1,1.2249555E-1,-3.8964897E-1,-7.058918E-2,-3.4965447E-1,-2.5805968E-1,-5.9336465E-2,-6.701353E-1,-3.6886638E-1,1.8826341E-2,-5.0919664E-1,1.5112376E-1,-4.2073855E-1,2.4483071E-1,8.273752E-1,-7.755675E-2,-4.7661252E-2,5.5884624E-1,-4.1697364E-2,-5.688586E-1,4.295757E-2,-5.5095673E-2,8.3553106E-2,-6.5265334E-1,-3.0259848E-1,2.4889922E-3,-5.7249703E-2,-5.546248E-2,-1.4717123E-1,-3.4906974E-1,-6.753913E-2,-5.937931E-2,1.235305E-2,6.4700254E-4,2.3128705E-3,-5.401056E-1,-1.7249079E-1,-3.8444418E-1,8.338403E-2,2.5168246E-2,-5.6250507E-1,7.709368E-2,1.4295823E-2,2.7398659E-2,9.920048E-2,-4.7570463E-2,4.2733133E-2,1.44285E-3,8.586139E-2,-6.556423E-2,8.2826026E-4,-6.924435E-2,-1.8567946E-2,6.088686E-2,-3.334061E-2,-2.6233599E-2,1.7350433E-2,3.04365E-4,-4.98302E-2,-5.6537893E-2,-2.2188125E-2,-4.0842403E-2,1.7952869E-2,7.720721E-4,-5.302438E-2,-1.8380513E-2,-6.423186E-2],"categories":[],"categories_nodes":[],"categories_segments":[],"categories_sizes":[],"default_left":[0,0,0,0,0,0,0,0,0,0,0,0,0,0,0,0,0,0,0,0,0,0,0,0,0,0,0,0,0,0,0,0,0,0,0,0,0,0,0,0,0,0,0,0,0,0,0,0,0,0,0,0,0,0,0,0,0,0,0,0,0,0,0,0,0,0,0,0,0,0,0,0,0,0,0,0,0,0,0,0,0,0,0,0,0],"id":3,"left_children":[1,3,5,7,9,11,13,15,17,19,21,23,25,27,29,31,33,35,37,39,41,-1,43,45,-1,47,49,51,53,55,57,59,61,63,-1,65,-1,67,-1,-1,-1,69,71,-1,-1,-1,73,75,-1,-1,-1,-1,-1,77,79,81,-1,-1,83,-1,-1,-1,-1,-1,-1,-1,-1,-1,-1,-1,-1,-1,-1,-1,-1,-1,-1,-1,-1,-1,-1,-1,-1,-1,-1],"loss_changes":[1.188311E1,1.9194458E1,1.8251495E0,3.5380921E0,2.6629734E0,9.6562195E-1,1.0230484E0,2.0953574E0,1.3332686E0,1.5075073E0,3.2683372E-1,6.3953114E-1,2.1574402E-1,7.266598E-1,1.4698186E0,2.5829892E0,1.9658032E-1,1.3056784E0,1.7318674E0,3.6636724E0,1.9932528E0,0E0,6.06086E-1,4.515257E-1,0E0,1.7158508E-2,9.043374E-1,4.275446E-5,7.648525E-1,3.0867825E0,1.2734852E0,2.074233E0,6.349125E-1,1.0272909E0,0E0,5.81931E-1,0E0,5.159247E-1,0E0,0E0,0E0,2.9750633E-1,2.2741084E0,0E0,0E0,0E0,5.315696E-1,2.3711789E-1,0E0,0E0,0E0,0E0,0E0,4.780941E-1,7.710614E-1,2.8563696E-1,0E0,0E0,1.876874E-1,0E0,0E0,0E0,0E0,0E0,0E0,0E0,0E0,0E0,0E0,0E0,0E0,0E0,0E0,0E0,0E0,0E0,0E0,0E0,0E0,0E0,0E0,0E0,0E0,0E0,0E0],"parents":[2147483647,0,0,1,1,2,2,3,3,4,4,5,5,6,6,7,7,8,8,9,9,10,10,11,11,12,12,13,13,14,14,15,15,16,16,17,17,18,18,19,19,20,20,22,22,23,23,25,25,26,26,27,27,28,28,29,29,30,30,31,31,32,32,33,33,35,35,37,37,41,41,42,42,46,46,47,47,53,53,54,54,55,55,58,58],"right_children":[2,4,6,8,10,12,14,16,18,20,22,24,26,28,30,32,34,36,38,40,42,-1,44,46,-1,48,50,52,54,56,58,60,62,64,-1,66,-1,68,-1,-1,-1,70,72,-1,-1,-1,74,76,-1,-1,-1,-1,-1,78,80,82,-1,-1,84,-1,-1,-1,-1,-1,-1,-1,-1,-1,-1,-1,-1,-1,-1,-1,-1,-1,-1,-1,-1,-1,-1,-1,-1,-1,-1],"split_conditions":[6.3E1,3.0735317E-1,-2.419219E-1,6E1,8.654614E-1,6.5E1,8.654614E-1,9.135454E-1,-9.765906E-3,-9.612617E-1,5.8778524E-1,5.123126E-1,7.9E1,-2.0791169E-1,-2.7563736E-1,5.8778524E-1,-1.391731E-1,-5.591929E-1,2.4863048E-1,5.3E1,-4.0673664E-1,-7.058918E-2,9.2718387E-1,-6.156615E-1,-5.9336465E-2,-9.9939084E-1,5.8778524E-1,6.6E1,9.945219E-1,8.9879405E-1,7.193398E-1,-8.660254E-1,5.1E1,-1.7364818E-1,-4.7661252E-2,-9.612617E-1,-4.1697364E-2,4.3837115E-1,4.295757E-2,-5.5095673E-2,8.3553106E-2,8.195005E-1,-3.4202015E-1,2.4889922E-3,-5.7249703E-2,-5.546248E-2,-8.480481E-1,1.9396913E-1,-6.753913E-2,-5.937931E-2,1.235305E-2,6.4700254E-4,2.3128705E-3,7.7E1,5.569323E-1,8.09017E-1,8.338403E-2,2.5168246E-2,9E-1,7.709368E-2,1.4295823E-2,2.7398659E-2,9.920048E-2,-4.7570463E-2,4.2733133E-2,1.44285E-3,8.586139E-2,-6.556423E-2,8.2826026E-4,-6.924435E-2,-1.8567946E-2,6.088686E-2,-3.334061E-2,-2.6233599E-2,1.7350433E-2,3.04365E-4,-4.98302E-2,-5.6537893E-2,-2.2188125E-2,-4.0842403E-2,1.7952869E-2,7.720721E-4,-5.302438E-2,-1.8380513E-2,-6.423186E-2],"split_indices":[0,5,3,0,5,0,5,4,5,4,3,5,0,3,4,4,3,3,5,0,4,0,3,4,0,3,4,0,4,3,3,4,0,3,0,3,0,4,0,0,0,5,4,0,0,0,3,5,0,0,0,0,0,0,5,3,0,0,5,0,0,0,0,0,0,0,0,0,0,0,0,0,0,0,0,0,0,0,0,0,0,0,0,0,0],"split_type":[0,0,0,0,0,0,0,0,0,0,0,0,0,0,0,0,0,0,0,0,0,0,0,0,0,0,0,0,0,0,0,0,0,0,0,0,0,0,0,0,0,0,0,0,0,0,0,0,0,0,0,0,0,0,0,0,0,0,0,0,0,0,0,0,0,0,0,0,0,0,0,0,0,0,0,0,0,0,0,0,0,0,0,0,0],"sum_hessian":[4.9582153E2,2.1172752E2,2.84094E2,6.804913E1,1.4367839E2,1.8259117E2,1.0150282E2,5.357709E1,1.447204E1,1.00358925E2,4.3319466E1,2.7216793E1,1.5537439E2,8.40634E1,1.7439417E1,4.8710247E1,4.866845E0,3.9486108E0,1.052343E1,5.6708903E0,9.4688034E1,3.722858E1,6.090887E0,1.5212255E1,1.2004539E1,1.4887134E2,6.5030413E0,2.619128E0,8.1444275E1,6.5653906E0,1.0874026E1,3.975781E1,8.952439E0,3.0991287E0,1.7677163E0,2.6416893E0,1.3069212E0,9.192271E0,1.3311579E0,3.033294E0,2.6375964E0,2.1930956E1,7.275708E1,2.6034403E0,3.4874468E0,3.0509663E0,1.2161288E1,3.483658E0,1.4538768E2,4.3225694E0,2.1804721E0,1.3230841E0,1.2960438E0,7.4043175E1,7.401104E0,3.92402E0,2.6413703E0,1.7583869E0,9.11564E0,5.3842E0,3.4373608E1,2.6635158E0,6.2889237E0,1.7650423E0,1.3340865E0,1.3102446E0,1.3314449E0,7.8724833E0,1.3197882E0,1.976406E1,2.1668963E0,1.7653129E0,7.099177E1,9.081692E0,3.0795958E0,1.3285497E0,2.1551082E0,6.787582E1,6.1673546E0,4.3352604E0,3.065843E0,1.3201605E0,2.6038597E0,2.1617029E0,6.953937E0],"tree_param":{"num_deleted":"0","num_feature":"7","num_nodes":"85","size_leaf_vector":"0"}},{"base_weights":[1.9461887E-1,5.025562E-1,-3.7207398E-1,6.7208177E-1,4.48039E-3,-2.090921E-1,-6.3992786E-1,6.9733006E-1,-4.604184E-1,7.5518817E-1,-2.0847571E-1,-7.5209364E-2,-5.283339E-1,-5.056771E-1,-7.07362E-2,7.6193947E-1,4.3877974E-1,-5.901614E-2,-1.2004009E-3,2.7036646E-1,8.905618E-1,7.2231567E-1,-3.52368E-1,7.277622E-2,-2.0621742E-1,-2.0336519E-1,-6.21733E-1,-1.34306E-1,-5.5796087E-1,5.2807415E-1,8.524373E-1,5.821404E-1,-3.2116127E-1,-2.7561098E-1,8.749505E-2,9.7356594E-1,2.0935256E-2,-1.279015E-2,9.449932E-1,2.002652E-2,-5.19193E-1,-6.9513716E-2,4.6080118E-1,-2.6106045E-1,3.2176328E-1,-3.7267715E-1,4.3060813E-2,-6.567406E-1,3.99337E-4,-4.6908025E-2,2.4636492E-2,-5.92631E-1,-8.738979E-3,3.427103E-2,9.09526E-2,-1.3316597E-2,8.909645E-2,4.951549E-2,1.1190772E-1,1.4803166E-2,-6.1784744E-2,2.419697E-4,-4.3417428E-2,1.0696658E-1,3.786743E-2,1.1161739E-1,3.859966E-2,-2.8647343E-2,5.0055802E-2,-1.0005255E-3,-5.7562392E-2,6.1491933E-2,-1.3625616E-2,7.407256E-2,-2.6517093E-2,-4.313908E-2,-4.3530837E-3,-4.1267455E-2,7.504688E-2,-6.093518E-3,-5.712278E-2,-2.5084827E-2,-6.945717E-2,-6.72315E-2,-3.763315E-2],"categories":[],"categories_nodes":[],"categories_segments":[],"categories_sizes":[],"default_left":[0,0,0,0,0,0,0,0,0,0,0,0,0,0,0,0,0,0,0,0,0,0,0,0,0,0,0,0,0,0,0,0,0,0,0,0,0,0,0,0,0,0,0,0,0,0,0,0,0,0,0,0,0,0,0,0,0,0,0,0,0,0,0,0,0,0,0,0,0,0,0,0,0,0,0,0,0,0,0,0,0,0,0,0,0],"id":4,"left_children":[1,3,5,7,9,11,13,15,17,19,21,23,25,27,-1,29,31,-1,-1,33,35,37,39,41,43,45,47,49,51,53,55,57,59,61,-1,63,-1,-1,65,67,69,71,73,75,77,79,-1,81,-1,-1,-1,83,-1,-1,-1,-1,-1,-1,-1,-1,-1,-1,-1,-1,-1,-1,-1,-1,-1,-1,-1,-1,-1,-1,-1,-1,-1,-1,-1,-1,-1,-1,-1,-1,-1],"loss_changes":[8.825756E1,2.7643417E1,7.6483192E0,7.305725E0,1.3610291E1,4.7606153E0,2.4840927E-1,3.6638565E0,3.378824E-1,9.939108E-1,9.139359E0,1.5716939E0,8.757334E-1,4.2780542E-1,0E0,3.5738907E0,5.657091E0,0E0,0E0,2.0705664E0,6.0305595E-1,1.864542E0,3.6215582E0,2.1545565E0,1.3247944E0,1.1112207E0,5.537834E-1,6.906222E-1,3.1333256E-1,3.6249685E0,5.2623215E0,1.4353886E0,1.2904326E0,1.6296354E-1,0E0,3.0648232E-1,0E0,0E0,2.7895498E-1,2.933893E0,1.1488008E0,1.4084041E0,2.3191955E0,1.4399841E0,1.7203081E0,4.310577E-1,0E0,1.9174957E-1,0E0,0E0,0E0,1.03266716E-1,0E0,0E0,0E0,0E0,0E0,0E0,0E0,0E0,0E0,0E0,0E0,0E0,0E0,0E0,0E0,0E0,0E0,0E0,0E0,0E0,0E0,0E0,0E0,0E0,0E0,0E0,0E0,0E0,0E0,0E0,0E0,0E0,0E0],"parents":[2147483647,0,0,1,1,2,2,3,3,4,4,5,5,6,6,7,7,8,8,9,9,10,10,11,11,12,12,13,13,15,15,16,16,19,19,20,20,21,21,22,22,23,23,24,24,25,25,26,26,27,27,28,28,29,29,30,30,31,31,32,32,33,33,35,35,38,38,39,39,40,40,41,41,42,42,43,43,44,44,45,45,47,47,51,51],"right_children":[2,4,6,8,10,12,14,16,18,20,22,24,26,28,-1,30,32,-1,-1,34,36,38,40,42,44,46,48,50,52,54,56,58,60,62,-1,64,-1,-1,66,68,70,72,74,76,78,80,-1,82,-1,-1,-1,84,-1,-1,-1,-1,-1,-1,-1,-1,-1,-1,-1,-1,-1,-1,-1,-1,-1,-1,-1,-1,-1,-1,-1,-1,-1,-1,-1,-1,-1,-1,-1,-1,-1],"split_conditions":[6.6E-1,5.4742754E-1,1.04E0,9.945219E-1,3.8E-1,-6.691306E-1,1.21E0,2.419219E-1,9.9939084E-1,-5E-1,-4.3837115E-1,8.4E-1,5.613404E-1,6.8957967E-1,-7.07362E-2,2.7E-1,4E-1,-5.901614E-2,-1.2004009E-3,7.1393156E-1,9.2718387E-1,5.5E-1,4.7E-1,6.490287E-1,9.131986E-1,5.4742754E-1,9.848077E-1,1.13E0,1.142377E0,-4.3837115E-1,-9.9026805E-1,9.781476E-1,5.2991927E-1,4.3837115E-1,8.749505E-2,3.5E-1,2.0935256E-2,-1.279015E-2,6.4012504E-1,7.458914E-1,-1.7364818E-1,-5.591929E-1,7.882346E-1,9.5E-1,-1.7364818E-1,8.09017E-1,4.3060813E-2,-9.396926E-1,3.99337E-4,-4.6908025E-2,2.4636492E-2,5.2991927E-1,-8.738979E-3,3.427103E-2,9.09526E-2,-1.3316597E-2,8.909645E-2,4.951549E-2,1.1190772E-1,1.4803166E-2,-6.1784744E-2,2.419697E-4,-4.3417428E-2,1.0696658E-1,3.786743E-2,1.1161739E-1,3.859966E-2,-2.8647343E-2,5.0055802E-2,-1.0005255E-3,-5.7562392E-2,6.1491933E-2,-1.3625616E-2,7.407256E-2,-2.6517093E-2,-4.313908E-2,-4.3530837E-3,-4.1267455E-2,7.504688E-2,-6.093518E-3,-5.712278E-2,-2.5084827E-2,-6.945717E-2,-6.72315E-2,-3.763315E-2],"split_indices":[2,5,2,3,2,3,2,3,3,4,3,2,5,5,0,2,2,0,0,5,4,2,2,5,5,5,4,2,5,3,4,3,3,3,0,2,0,0,5,5,3,4,5,2,4,4,0,4,0,0,0,4,0,0,0,0,0,0,0,0,0,0,0,0,0,0,0,0,0,0,0,0,0,0,0,0,0,0,0,0,0,0,0,0,0],"split_type":[0,0,0,0,0,0,0,0,0,0,0,0,0,0,0,0,0,0,0,0,0,0,0,0,0,0,0,0,0,0,0,0,0,0,0,0,0,0,0,0,0,0,0,0,0,0,0,0,0,0,0,0,0,0,0,0,0,0,0,0,0,0,0,0,0,0,0,0,0,0,0,0,0,0,0,0,0,0,0,0,0,0,0,0,0],"sum_hessian":[5.036853E2,3.2642252E2,1.7726279E2,2.4327267E2,8.314986E1,1.1131265E2,6.5950134E1,2.3834323E2,4.929443E0,1.7812265E1,6.533759E1,7.9294106E1,3.2018547E1,2.4892303E1,4.1057835E1,1.891335E2,4.920973E1,3.5780678E0,1.3513753E0,4.542199E0,1.3270066E1,8.209999E0,5.712759E1,3.7443142E1,4.1850964E1,7.857364E0,2.4161184E1,3.5124185E0,2.1379885E1,5.467557E1,1.3445793E2,4.1596615E1,7.6131124E0,2.6727076E0,1.8694916E0,1.1446195E1,1.8238711E0,1.7923086E0,6.4176903E0,1.794651E1,3.918108E1,2.7997297E1,9.445843E0,3.8370815E1,3.4801486E0,6.5265174E0,1.3308467E0,2.2834116E1,1.3270674E0,1.7452998E0,1.7671187E0,1.9671188E1,1.7086959E0,3.80728E1,1.6602772E1,4.9658146E0,1.2949211E2,3.745153E1,4.1450844E0,3.1432636E0,4.469849E0,1.328321E0,1.3443866E0,9.167221E0,2.2789736E0,4.150074E0,2.2676163E0,1.1204027E1,6.7424836E0,4.0264945E0,3.5154587E1,1.7578194E0,2.623948E1,6.802553E0,2.643289E0,2.0968721E1,1.7402094E1,1.2964783E0,2.1836705E0,3.0479178E0,3.4785995E0,2.597384E0,2.0236732E1,1.2834678E1,6.8365107E0],"tree_param":{"num_deleted":"0","num_feature":"7","num_nodes":"85","size_leaf_vector":"0"}},{"base_weights":[2.2604676E-1,-2.187217E-1,9.8083454E-1,-5.3261334E-1,2.0527443E-1,7.6258826E-1,1.2583856E-1,-6.188435E-1,-1.9195926E-1,-2.6210836E-1,7.0198727E-1,5.3681934E-1,9.4146407E-1,-6.7413443E-1,-4.8587167E-1,2.377275E-1,-3.6264405E-1,-4.99087E-1,-6.521246E-2,8.3283913E-1,3.526029E-1,5.6737745E-1,-1.7159343E-2,1.1258264E-1,9.866365E-1,-2.1934463E-1,-7.008198E-2,-5.9796184E-1,-1.2394471E-1,3.7135166E-1,-4.4870764E-2,-4.6253857E-1,-7.4080706E-2,-6.0306823E-1,1.4285201E-1,3.284076E-2,-6.1577786E-2,9.1062486E-1,-1.31288E-1,5.71992E-1,-1.9708508E-1,3.515487E-1,7.3182744E-1,3.8424708E-2,-1.549194E-2,7.293297E-1,1.1081982E0,-4.42772E-2,4.3516733E-2,-6.209938E-2,-5.3852953E-5,2.4505509E-2,-3.8893566E-2,8.311003E-3,9.654098E-2,-5.398488E-2,2.3919463E-2,4.1930806E-2,-2.2478824E-2,-6.846926E-2,-4.6523944E-2,-1.8949637E-2,4.2834174E-2,-9.3338555E-3,6.282521E-2,1.0385274E-1,4.131821E-2,4.526424E-2,-5.1087506E-2,1.5370532E-2,8.716323E-2,3.708766E-2,-5.937917E-2,5.7842154E-2,-3.3104617E-2,8.768695E-2,4.491205E-2,1.2424671E-2,8.304392E-2,8.037511E-2,1.20368324E-1],"categories":[],"categories_nodes":[],"categories_segments":[],"categories_sizes":[],"default_left":[0,0,0,0,0,0,0,0,0,0,0,0,0,0,0,0,0,0,0,0,0,0,0,0,0,0,0,0,0,0,0,0,0,0,0,0,0,0,0,0,0,0,0,0,0,0,0,0,0,0,0,0,0,0,0,0,0,0,0,0,0,0,0,0,0,0,0,0,0,0,0,0,0,0,0,0,0,0,0,0,0],"id":5,"left_children":[1,3,5,7,9,11,-1,13,15,17,19,21,23,25,27,29,31,33,35,37,39,41,-1,43,45,47,-1,49,51,53,-1,55,57,59,61,63,-1,65,67,69,71,73,75,-1,-1,77,79,-1,-1,-1,-1,-1,-1,-1,-1,-1,-1,-1,-1,-1,-1,-1,-1,-1,-1,-1,-1,-1,-1,-1,-1,-1,-1,-1,-1,-1,-1,-1,-1,-1,-1],"loss_changes":[1.7354579E2,4.3455986E1,1.0647751E1,5.386791E0,3.251641E1,3.9292183E0,0E0,7.687874E-1,2.969215E0,3.349473E0,2.8054771E0,1.1985493E0,2.1332626E0,1.093174E0,1.8478165E0,1.2471128E0,7.8813505E-1,2.2717075E0,2.2195256E0,3.7631226E0,2.5493526E0,1.4817886E0,0E0,3.666805E-1,9.6570206E-1,1.2382578E0,0E0,4.937935E-1,1.3140776E0,1.7018518E0,0E0,1.2685409E0,7.283277E-1,6.198883E-4,5.9095246E-1,2.7279644E0,0E0,2.439251E0,1.2289246E0,1.7081404E0,1.6864433E0,3.7708344E0,7.0854855E-1,0E0,0E0,1.1890554E0,9.627533E-2,0E0,0E0,0E0,0E0,0E0,0E0,0E0,0E0,0E0,0E0,0E0,0E0,0E0,0E0,0E0,0E0,0E0,0E0,0E0,0E0,0E0,0E0,0E0,0E0,0E0,0E0,0E0,0E0,0E0,0E0,0E0,0E0,0E0,0E0],"parents":[2147483647,0,0,1,1,2,2,3,3,4,4,5,5,7,7,8,8,9,9,10,10,11,11,12,12,13,13,14,14,15,15,16,16,17,17,18,18,19,19,20,20,21,21,23,23,24,24,25,25,27,27,28,28,29,29,31,31,32,32,33,33,34,34,35,35,37,37,38,38,39,39,40,40,41,41,42,42,45,45,46,46],"right_children":[2,4,6,8,10,12,-1,14,16,18,20,22,24,26,28,30,32,34,36,38,40,42,-1,44,46,48,-1,50,52,54,-1,56,58,60,62,64,-1,66,68,70,72,74,76,-1,-1,78,80,-1,-1,-1,-1,-1,-1,-1,-1,-1,-1,-1,-1,-1,-1,-1,-1,-1,-1,-1,-1,-1,-1,-1,-1,-1,-1,-1,-1,-1,-1,-1,-1,-1,-1],"split_conditions":[6.8E-1,-1.8369701E-16,1.02E0,5.6E-1,4E-1,-9.2718387E-1,1.2583856E-1,-5.591929E-1,-5E-1,2.3E-1,5.6E-1,9.131986E-1,1.3703182E-1,-3.0079168E-1,4.1E-1,-4.0673664E-1,6.4E-1,9.945219E-1,7.7952486E-1,9.781476E-1,8.9879405E-1,8.4E-1,-1.7159343E-2,5.7E1,7.9E-1,-4.1259867E-1,-7.008198E-2,5.696528E-1,4.7E-1,-5.591929E-1,-4.4870764E-2,6.096284E-1,6.5E-1,6.156615E-1,-2.4492937E-16,6.1487806E-1,-6.1577786E-2,7.2E1,4.3E-1,8.2545316E-1,6E1,6.490287E-1,9.5E-1,3.8424708E-2,-1.549194E-2,-8.660254E-1,-8.2903755E-1,-4.42772E-2,4.3516733E-2,-6.209938E-2,-5.3852953E-5,2.4505509E-2,-3.8893566E-2,8.311003E-3,9.654098E-2,-5.398488E-2,2.3919463E-2,4.1930806E-2,-2.2478824E-2,-6.846926E-2,-4.6523944E-2,-1.8949637E-2,4.2834174E-2,-9.3338555E-3,6.282521E-2,1.0385274E-1,4.131821E-2,4.526424E-2,-5.1087506E-2,1.5370532E-2,8.716323E-2,3.708766E-2,-5.937917E-2,5.7842154E-2,-3.3104617E-2,8.768695E-2,4.491205E-2,1.2424671E-2,8.304392E-2,8.037511E-2,1.20368324E-1],"split_indices":[2,3,2,2,2,3,0,3,4,2,2,5,5,5,2,3,2,3,5,4,3,2,0,0,2,5,0,5,2,3,0,5,2,3,4,5,0,0,2,5,0,5,2,0,0,3,3,0,0,0,0,0,0,0,0,0,0,0,0,0,0,0,0,0,0,0,0,0,0,0,0,0,0,0,0,0,0,0,0,0,0],"split_type":[0,0,0,0,0,0,0,0,0,0,0,0,0,0,0,0,0,0,0,0,0,0,0,0,0,0,0,0,0,0,0,0,0,0,0,0,0,0,0,0,0,0,0,0,0,0,0,0,0,0,0,0,0,0,0,0,0,0,0,0,0,0,0,0,0,0,0,0,0,0,0,0,0,0,0,0,0,0,0,0,0],"sum_hessian":[5.153189E2,3.2469714E2,1.9062177E2,1.8642635E2,1.382708E2,1.088094E2,8.181237E1,1.4811674E2,3.8309593E1,7.148201E1,6.6788795E1,4.98686E1,5.89408E1,1.0174177E2,4.6374985E1,1.0779695E1,2.7529898E1,3.1742638E1,3.973937E1,4.758389E1,1.9204908E1,4.7997276E1,1.8713231E0,3.226639E0,5.571416E1,6.149941E0,9.559183E1,3.491081E1,1.1464174E1,9.407423E0,1.3722719E0,2.000254E1,7.527357E0,2.7369825E1,4.372811E0,3.453007E1,5.209299E0,4.4082783E1,3.5011046E0,1.3697462E1,5.5074463E0,2.2113127E1,2.5884151E1,1.384336E0,1.8423032E0,2.0122007E1,3.559215E1,4.826017E0,1.3239242E0,3.3576893E1,1.3339168E0,4.8231587E0,6.641015E0,7.1015825E0,2.3058405E0,1.822534E1,1.7772002E0,1.3442539E0,6.183103E0,1.4697836E1,1.2671989E1,2.1759517E0,2.1968594E0,2.9187834E1,5.342236E0,3.4201233E1,9.881553E0,1.3034725E0,2.1976318E0,6.348359E0,7.349103E0,2.2916381E0,3.2158084E0,1.6711401E1,5.401725E0,1.5718254E1,1.0165897E1,3.2000923E0,1.6921917E1,1.0746219E1,2.4845934E1],"tree_param":{"num_deleted":"0","num_feature":"7","num_nodes":"81","size_leaf_vector":"0"}},{"base_weights":[-4.0995163E-1,4.2901117E-2,-4.61328E-1,3.938849E-1,-5.2748376E-1,-2.815582E-1,-5.460462E-1,5.7505333E-1,-1.6897678E-1,-5.684118E-1,2.1998107E-3,-2.5299568E-2,-5.895996E-1,-5.023342E-1,-6.56796E-1,7.080676E-1,-2.365215E-2,3.9142888E-2,-4.4013676E-1,-6.1480117E-1,-7.422292E-3,4.2175952E-1,-1.8284428E-1,-6.02876E-1,2.8209386E-3,-5.335895E-1,-1.4726728E-1,-3.8111687E-1,-6.9297165E-2,4.360096E-1,1.0284338E-1,-5.2055042E-2,6.326274E-2,-5.695624E-2,2.2992257E-3,-2.3150302E-1,-6.686302E-2,-2.0605093E-2,5.0986755E-1,3.391118E-2,-4.141493E-1,-2.4857788E-1,-6.141311E-2,-3.435192E-1,-6.0296875E-1,2.3875792E-2,-5.8425803E-2,-5.137706E-1,6.368299E-2,6.02866E-2,-2.1640126E-2,3.8767853E-3,-4.001024E-2,7.908447E-2,2.1337219E-2,3.1580973E-2,-2.4447821E-2,-4.7450434E-2,4.7592197E-2,1.5405066E-3,-4.0672496E-2,1.9011963E-2,-3.7875373E-2,-6.4007856E-2,-4.0005147E-2,-1.6555037E-2,7.27125E-2,-5.9692122E-2,-2.1242071E-2,-3.839021E-2,4.7197964E-2],"categories":[],"categories_nodes":[],"categories_segments":[],"categories_sizes":[],"default_left":[0,0,0,0,0,0,0,0,0,0,0,0,0,0,0,0,0,0,0,0,0,0,0,0,0,0,0,0,0,0,0,0,0,0,0,0,0,0,0,0,0,0,0,0,0,0,0,0,0,0,0,0,0,0,0,0,0,0,0,0,0,0,0,0,0,0,0,0,0,0,0],"id":6,"left_children":[1,3,5,7,9,11,13,15,17,19,-1,21,23,25,27,29,31,-1,33,35,-1,37,39,41,-1,43,45,47,-1,49,-1,-1,-1,-1,-1,51,-1,-1,53,55,57,59,-1,61,63,65,-1,67,69,-1,-1,-1,-1,-1,-1,-1,-1,-1,-1,-1,-1,-1,-1,-1,-1,-1,-1,-1,-1,-1,-1],"loss_changes":[1.109697E1,1.0102719E1,6.3597946E0,3.275714E0,4.455533E-1,1.096195E1,1.0721893E0,1.9127078E0,1.443088E0,3.6606312E-1,0E0,5.4970703E0,5.345955E-1,2.2732162E0,5.2087784E-1,1.2522421E0,2.056204E0,0E0,3.7912583E-1,1.8110561E-1,0E0,1.230972E0,2.9018502E0,9.3860626E-2,0E0,2.356285E0,1.3994936E0,7.0258105E-1,0E0,1.4680781E0,0E0,0E0,0E0,0E0,0E0,1.7656262E-1,0E0,0E0,1.3422456E0,2.4832413E0,1.7267637E0,1.5586586E-1,0E0,1.0930972E0,8.0633926E-1,2.0217772E0,0E0,9.508729E-2,8.203892E-1,0E0,0E0,0E0,0E0,0E0,0E0,0E0,0E0,0E0,0E0,0E0,0E0,0E0,0E0,0E0,0E0,0E0,0E0,0E0,0E0,0E0,0E0],"parents":[2147483647,0,0,1,1,2,2,3,3,4,4,5,5,6,6,7,7,8,8,9,9,11,11,12,12,13,13,14,14,15,15,16,16,18,18,19,19,21,21,22,22,23,23,25,25,26,26,27,27,29,29,35,35,38,38,39,39,40,40,41,41,43,43,44,44,45,45,47,47,48,48],"right_children":[2,4,6,8,10,12,14,16,18,20,-1,22,24,26,28,30,32,-1,34,36,-1,38,40,42,-1,44,46,48,-1,50,-1,-1,-1,-1,-1,52,-1,-1,54,56,58,60,-1,62,64,66,-1,68,70,-1,-1,-1,-1,-1,-1,-1,-1,-1,-1,-1,-1,-1,-1,-1,-1,-1,-1,-1,-1,-1,-1],"split_conditions":[1.8E-1,6.7E1,5.9E1,5.8778524E-1,9.945219E-1,7E-1,7.7E-1,6.4E1,1E-1,1.7E-1,2.1998107E-3,-9.135454E-1,-1.7364818E-1,9.5755553E-1,-4.9240386E-1,3.4878235E-2,9.396926E-1,3.9142888E-2,9.396926E-1,-8.480481E-1,-7.422292E-3,4.7E1,1.7101008E-1,7.2E-1,2.8209386E-3,6.5E1,9.781476E-1,7.3E1,-6.9297165E-2,-1.391731E-1,1.0284338E-1,-5.2055042E-2,6.326274E-2,-5.695624E-2,2.2992257E-3,1.5E-1,-6.686302E-2,-2.0605093E-2,5.4E1,4E-1,1.036297E0,4.8E1,-6.141311E-2,-6.740955E-1,6.1E-1,9.2718387E-1,-5.8425803E-2,1.7364818E-1,-2.7563736E-1,6.02866E-2,-2.1640126E-2,3.8767853E-3,-4.001024E-2,7.908447E-2,2.1337219E-2,3.1580973E-2,-2.4447821E-2,-4.7450434E-2,4.7592197E-2,1.5405066E-3,-4.0672496E-2,1.9011963E-2,-3.7875373E-2,-6.4007856E-2,-4.0005147E-2,-1.6555037E-2,7.27125E-2,-5.9692122E-2,-2.1242071E-2,-3.839021E-2,4.7197964E-2],"split_indices":[2,0,0,3,3,2,2,0,2,2,0,3,3,6,6,6,4,0,3,4,0,0,6,2,0,0,3,0,0,3,0,0,0,0,0,2,0,0,0,2,6,0,0,6,2,3,0,4,4,0,0,0,0,0,0,0,0,0,0,0,0,0,0,0,0,0,0,0,0,0,0],"split_type":[0,0,0,0,0,0,0,0,0,0,0,0,0,0,0,0,0,0,0,0,0,0,0,0,0,0,0,0,0,0,0,0,0,0,0,0,0,0,0,0,0,0,0,0,0,0,0,0,0,0,0,0,0,0,0,0,0,0,0,0,0,0,0,0,0,0,0,0,0,0,0],"sum_hessian":[4.7511127E2,4.8426357E1,4.266849E2,3.017051E1,1.8255848E1,1.3805634E2,2.8862857E2,2.2807722E1,7.362788E0,1.6958263E1,1.2975844E0,7.595323E1,6.2103107E1,2.109171E2,7.771147E1,1.8512205E1,4.295516E0,2.2562556E0,5.106533E0,1.5279885E1,1.6783773E0,1.9354519E1,5.6598717E1,6.0820282E1,1.2828273E0,1.933908E2,1.7526302E1,1.0352768E1,6.73587E1,1.1287622E1,7.2245827E0,2.5623007E0,1.7332153E0,3.8115473E0,1.2949854E0,2.5343506E0,1.2745535E1,2.2172158E0,1.7137302E1,2.9658857E1,2.693986E1,2.5833993E0,5.823688E1,5.3305965E1,1.4008482E2,1.3273307E1,4.252996E0,7.855071E0,2.497697E0,9.049199E0,2.2384238E0,1.2694446E0,1.2649062E0,7.9428577E0,9.194446E0,1.4669762E1,1.4989095E1,2.5666336E1,1.2735223E0,1.3059934E0,1.277406E0,3.0293639E0,5.02766E1,1.1660545E2,2.3479376E1,1.105905E1,2.2142572E0,5.387648E0,2.4674232E0,1.2200235E0,1.2776735E0],"tree_param":{"num_deleted":"0","num_feature":"7","num_nodes":"71","size_leaf_vector":"0"}},{"base_weights":[1.8926378E-1,5.0656974E-1,-3.257582E-1,6.243267E-1,-1.689076E-2,-9.235151E-2,-5.7446474E-1,3.1125137E-1,8.722048E-1,6.769052E-1,-2.1354693E-1,5.9787307E-2,-3.6999166E-1,-4.3760216E-1,-6.432934E-2,-1.7872879E-1,3.7727866E-1,1.0456855E0,4.6235436E-1,6.0735535E-2,9.9971525E-2,-6.6802934E-2,-5.929988E-1,1.4829764E-1,-2.7700526E-1,-4.4755834E-1,1.7020105E-1,-4.8482257E-1,4.253374E-2,-3.7450045E-1,4.6722433E-1,2.8231433E-1,5.881706E-1,1.0757538E0,3.6539707E-1,6.8795675E-1,-1.9713692E-1,-3.1252444E-1,5.306065E-2,2.6962063E-1,-2.2014491E-1,-6.618681E-2,-2.1585092E-1,5.1509265E-2,4.1418105E-1,8.757649E-2,-6.257064E-2,-2.748553E-1,-6.611752E-2,-4.806332E-2,7.456637E-2,3.971502E-2,-5.5470675E-1,3.584342E-2,-5.109484E-2,-4.714942E-3,7.872238E-2,4.8845846E-2,1.3476687E-2,-1.8962784E-2,6.456846E-2,1.09147385E-1,4.2135376E-2,-4.730581E-2,7.478698E-2,7.9352595E-2,-5.304825E-2,2.1895891E-2,-6.2255573E-2,-4.158854E-3,-4.528719E-2,-9.335508E-3,7.269583E-2,5.1747274E-2,-3.974152E-2,-3.8443934E-2,4.574119E-3,2.0666279E-2,-2.3131836E-2,8.710315E-2,2.0733126E-3,-4.7698256E-2,3.307777E-2,-2.1139076E-3,-5.3824913E-2,-4.1844662E-2,3.2676857E-2,-6.366437E-2,-2.6290571E-2],"categories":[],"categories_nodes":[],"categories_segments":[],"categories_sizes":[],"default_left":[0,0,0,0,0,0,0,0,0,0,0,0,0,0,0,0,0,0,0,0,0,0,0,0,0,0,0,0,0,0,0,0,0,0,0,0,0,0,0,0,0,0,0,0,0,0,0,0,0,0,0,0,0,0,0,0,0,0,0,0,0,0,0,0,0,0,0,0,0,0,0,0,0,0,0,0,0,0,0,0,0,0,0,0,0,0,0,0,0],"id":7,"left_children":[1,3,5,7,9,11,13,15,17,19,21,23,25,27,-1,29,31,33,35,37,-1,39,41,43,45,47,49,51,-1,53,55,57,59,61,63,65,67,69,-1,71,73,-1,75,77,79,81,-1,83,-1,-1,-1,85,87,-1,-1,-1,-1,-1,-1,-1,-1,-1,-1,-1,-1,-1,-1,-1,-1,-1,-1,-1,-1,-1,-1,-1,-1,-1,-1,-1,-1,-1,-1,-1,-1,-1,-1,-1,-1],"loss_changes":[8.361577E1,1.9511948E1,1.1283112E1,1.977346E1,8.204524E0,4.3277125E0,6.072941E-1,3.8103266E0,9.726921E0,2.5819898E0,2.565619E0,2.029669E0,1.5939255E0,1.620161E0,0E0,1.9981825E0,1.8822384E0,1.6545563E0,6.7564344E0,1.1536485E0,0E0,1.858042E0,1.9274378E-1,1.3548896E0,1.8640765E0,9.9697113E-1,2.3331459E0,1.2451444E0,0E0,1.3451458E0,6.6229194E-1,2.1376066E0,1.5016928E0,5.209961E-1,2.1982505E0,4.7146034E0,2.281715E0,1.2445164E-1,0E0,1.954637E0,3.4092863E0,0E0,1.7101684E-1,1.8183434E0,2.5217545E0,1.2334841E0,0E0,1.2836131E0,0E0,0E0,0E0,7.75379E-1,5.381994E-1,0E0,0E0,0E0,0E0,0E0,0E0,0E0,0E0,0E0,0E0,0E0,0E0,0E0,0E0,0E0,0E0,0E0,0E0,0E0,0E0,0E0,0E0,0E0,0E0,0E0,0E0,0E0,0E0,0E0,0E0,0E0,0E0,0E0,0E0,0E0,0E0],"parents":[2147483647,0,0,1,1,2,2,3,3,4,4,5,5,6,6,7,7,8,8,9,9,10,10,11,11,12,12,13,13,15,15,16,16,17,17,18,18,19,19,21,21,22,22,23,23,24,24,25,25,26,26,27,27,29,29,30,30,31,31,32,32,33,33,34,34,35,35,36,36,37,37,39,39,40,40,42,42,43,43,44,44,45,45,47,47,51,51,52,52],"right_children":[2,4,6,8,10,12,14,16,18,20,22,24,26,28,-1,30,32,34,36,38,-1,40,42,44,46,48,50,52,-1,54,56,58,60,62,64,66,68,70,-1,72,74,-1,76,78,80,82,-1,84,-1,-1,-1,86,88,-1,-1,-1,-1,-1,-1,-1,-1,-1,-1,-1,-1,-1,-1,-1,-1,-1,-1,-1,-1,-1,-1,-1,-1,-1,-1,-1,-1,-1,-1,-1,-1,-1,-1,-1,-1],"split_conditions":[6.2E-1,5.969071E-1,7.399718E-1,6.4E1,3.6E-1,8.4E-1,8.751793E-1,-1.5098208E-1,-1.8369701E-16,7.083159E-1,7.4954313E-1,3.715724E-1,6.691306E-1,7.6E1,-6.432934E-2,6.2E1,3.7E-1,6E-1,3.9E-1,7.6604444E-1,9.9971525E-2,4.3E-1,9.9026805E-1,5.2264232E-2,-6.691306E-1,-9.2718387E-1,6E1,-1.5391538E-1,4.253374E-2,-9.9026805E-1,-9.135454E-1,-7.880108E-1,-9.396926E-1,7.386058E-1,6.6E1,9.975641E-1,4.0673664E-1,2.9E-1,5.306065E-2,7.458914E-1,-6.946584E-1,-6.618681E-2,6.6E1,-5.2317355E-2,4.2824358E-1,-9.612617E-1,-6.257064E-2,9.7E-1,-6.611752E-2,-4.806332E-2,7.456637E-2,8.5E-1,7.431448E-1,3.584342E-2,-5.109484E-2,-4.714942E-3,7.872238E-2,4.8845846E-2,1.3476687E-2,-1.8962784E-2,6.456846E-2,1.09147385E-1,4.2135376E-2,-4.730581E-2,7.478698E-2,7.9352595E-2,-5.304825E-2,2.1895891E-2,-6.2255573E-2,-4.158854E-3,-4.528719E-2,-9.335508E-3,7.269583E-2,5.1747274E-2,-3.974152E-2,-3.8443934E-2,4.574119E-3,2.0666279E-2,-2.3131836E-2,8.710315E-2,2.0733126E-3,-4.7698256E-2,3.307777E-2,-2.1139076E-3,-5.3824913E-2,-4.1844662E-2,3.2676857E-2,-6.366437E-2,-2.6290571E-2],"split_indices":[2,5,5,0,2,2,5,5,3,5,6,6,6,0,0,0,5,2,2,3,0,2,3,6,3,3,0,6,0,3,3,3,3,6,0,3,3,2,0,5,3,0,0,6,5,3,0,2,0,0,0,2,6,0,0,0,0,0,0,0,0,0,0,0,0,0,0,0,0,0,0,0,0,0,0,0,0,0,0,0,0,0,0,0,0,0,0,0,0],"split_type":[0,0,0,0,0,0,0,0,0,0,0,0,0,0,0,0,0,0,0,0,0,0,0,0,0,0,0,0,0,0,0,0,0,0,0,0,0,0,0,0,0,0,0,0,0,0,0,0,0,0,0,0,0,0,0,0,0,0,0,0,0,0,0,0,0,0,0,0,0,0,0,0,0,0,0,0,0,0,0,0,0,0,0,0,0,0,0,0,0],"sum_hessian":[5.0965344E2,3.153699E2,1.9428355E2,2.5729617E2,5.8073708E1,1.00932E2,9.335155E1,1.14692604E2,1.4260359E2,1.2286234E1,4.578747E1,6.5709656E1,3.5222343E1,3.36995E1,5.9652046E1,1.3417339E1,1.0127526E2,9.910374E1,4.3499847E1,4.6323314E0,7.6539025E0,3.386647E1,1.1921001E1,5.247794E1,1.323172E1,3.0949732E1,4.2726116E0,3.236656E1,1.332938E0,1.0619178E1,2.7981615E0,7.144317E1,2.9832096E1,9.435212E1,4.7516184E0,3.2379967E1,1.1119881E1,2.7681875E0,1.8641437E0,1.0365926E1,2.3500546E1,9.441925E0,2.4790761E0,3.9347992E1,1.3129947E1,6.834652E0,6.3970675E0,1.8378178E1,1.2571555E1,2.0823326E0,2.190279E0,3.8559825E0,2.8510578E1,1.4113222E0,9.207855E0,1.4001651E0,1.3979964E0,2.8839663E1,4.2603504E1,1.8958787E0,2.7936218E1,9.1486534E1,2.8655887E0,1.4143169E0,3.3373013E0,3.0119095E1,2.260872E0,5.8668814E0,5.2529993E0,1.3869855E0,1.3812021E0,6.2228794E0,4.143047E0,4.181655E0,1.9318892E1,1.2219508E0,1.2571253E0,2.5582983E1,1.376501E1,5.51379E0,7.6161566E0,1.7683638E0,5.066288E0,9.911298E0,8.46688E0,1.3089916E0,2.5469909E0,2.1337341E1,7.173237E0],"tree_param":{"num_deleted":"0","num_feature":"7","num_nodes":"89","size_leaf_vector":"0"}},{"base_weights":[1.8795526E-1,-4.336609E-1,5.2680886E-1,2.6163658E-1,-4.871101E-1,3.0667287E-1,9.434664E-1,8.546407E-2,9.105007E-2,-1.09686986E-1,-5.143259E-1,1.8760966E-1,4.8908836E-1,1.0750597E0,5.2560806E-1,-3.2247776E-1,5.338817E-1,-3.0021045E-1,8.487981E-2,-5.241169E-1,1.1672562E-2,6.1953567E-2,3.9146826E-1,5.5039126E-1,-5.3411115E-2,1.1016313E-1,6.0554504E-1,3.596705E-1,8.2690877E-1,8.5728895E-3,-5.521638E-2,1.460566E-1,9.122008E-2,-6.188813E-2,2.3919493E-1,-5.332323E-1,-5.211304E-2,2.0162618E-1,-2.379806E-1,-3.1687614E-2,4.9068892E-1,3.6504638E-1,7.025869E-1,-5.514882E-2,2.2224835E-1,2.8282474E-3,9.0614446E-2,4.5370442E-1,-2.6143169E-2,9.624724E-2,1.7326703E-2,5.4585725E-2,-4.1234754E-2,7.345426E-2,-4.445684E-2,-5.551365E-2,-3.254108E-2,-4.0016092E-2,2.5324209E-2,3.71402E-2,-8.859923E-3,-4.0228438E-2,1.902545E-2,8.3621755E-2,-3.2100346E-2,5.4826688E-2,-4.9168367E-2,2.2027526E-2,9.167612E-2,7.893289E-2,-1.6034426E-2,4.7735065E-2,-2.1223782E-2,1.5583338E-2,7.4570194E-2],"categories":[],"categories_nodes":[],"categories_segments":[],"categories_sizes":[],"default_left":[0,0,0,0,0,0,0,0,0,0,0,0,0,0,0,0,0,0,0,0,0,0,0,0,0,0,0,0,0,0,0,0,0,0,0,0,0,0,0,0,0,0,0,0,0,0,0,0,0,0,0,0,0,0,0,0,0,0,0,0,0,0,0,0,0,0,0,0,0,0,0,0,0,0,0],"id":8,"left_children":[1,3,5,7,9,11,13,-1,15,17,19,21,23,25,27,29,31,33,-1,35,-1,37,39,41,43,-1,45,47,49,-1,-1,51,-1,-1,53,55,57,59,61,63,65,67,69,-1,71,-1,-1,73,-1,-1,-1,-1,-1,-1,-1,-1,-1,-1,-1,-1,-1,-1,-1,-1,-1,-1,-1,-1,-1,-1,-1,-1,-1,-1,-1],"loss_changes":[1.0707648E2,6.798607E0,2.9864166E1,1.2842741E0,1.659462E0,4.612257E0,5.6576385E0,0E0,2.2920132E0,2.5386739E0,1.0221863E0,3.374269E0,2.853363E0,3.946762E-1,1.1554899E0,6.670418E-1,7.4218833E-1,2.0683212E0,0E0,6.3197327E-1,0E0,3.5362518E0,2.131823E0,1.898138E0,1.4314035E0,0E0,1.1507206E0,1.3164396E0,6.7952013E-1,0E0,0E0,1.1486461E0,0E0,0E0,1.9760492E0,5.036888E-1,5.2789706E-1,2.8588552E0,1.9702488E0,2.908284E0,2.5825071E0,2.715119E0,3.1850147E0,0E0,8.6047053E-1,0E0,0E0,1.464865E0,0E0,0E0,0E0,0E0,0E0,0E0,0E0,0E0,0E0,0E0,0E0,0E0,0E0,0E0,0E0,0E0,0E0,0E0,0E0,0E0,0E0,0E0,0E0,0E0,0E0,0E0,0E0],"parents":[2147483647,0,0,1,1,2,2,3,3,4,4,5,5,6,6,8,8,9,9,10,10,11,11,12,12,13,13,14,14,15,15,16,16,17,17,19,19,21,21,22,22,23,23,24,24,26,26,27,27,28,28,31,31,34,34,35,35,36,36,37,37,38,38,39,39,40,40,41,41,42,42,44,44,47,47],"right_children":[2,4,6,8,10,12,14,-1,16,18,20,22,24,26,28,30,32,34,-1,36,-1,38,40,42,44,-1,46,48,50,-1,-1,52,-1,-1,54,56,58,60,62,64,66,68,70,-1,72,-1,-1,74,-1,-1,-1,-1,-1,-1,-1,-1,-1,-1,-1,-1,-1,-1,-1,-1,-1,-1,-1,-1,-1,-1,-1,-1,-1,-1,-1],"split_conditions":[3.2908964E-1,-3.0079168E-1,8.195005E-1,5.2E1,-7.386058E-1,6.1487806E-1,4.6947157E-1,8.546407E-2,6.7E1,3.0735317E-1,9.945219E-1,2.5651512E-1,8.660254E-1,7.5E1,1.0635923E0,-2.0791169E-1,2.7563736E-1,-8.480481E-1,8.487981E-2,8E1,1.1672562E-2,5E-1,5.6E1,2.0672801E-1,6.8E1,1.1016313E-1,9.2490536E-1,1.348191E0,5.2991927E-1,8.5728895E-3,-5.521638E-2,-5.6025195E-1,9.122008E-2,-6.188813E-2,-8.2903755E-1,4.820907E-1,2.1706022E-1,7.6540425E-17,5.5425626E-1,-9.5105654E-1,1.4917828E0,7.625064E-1,8E-1,-5.514882E-2,7.880108E-1,2.8282474E-3,9.0614446E-2,6.9E1,-2.6143169E-2,9.624724E-2,1.7326703E-2,5.4585725E-2,-4.1234754E-2,7.345426E-2,-4.445684E-2,-5.551365E-2,-3.254108E-2,-4.0016092E-2,2.5324209E-2,3.71402E-2,-8.859923E-3,-4.0228438E-2,1.902545E-2,8.3621755E-2,-3.2100346E-2,5.4826688E-2,-4.9168367E-2,2.2027526E-2,9.167612E-2,7.893289E-2,-1.6034426E-2,4.7735065E-2,-2.1223782E-2,1.5583338E-2,7.4570194E-2],"split_indices":[5,5,5,0,6,5,3,0,0,5,3,6,3,0,5,4,4,6,0,0,0,4,0,6,0,0,5,6,4,0,0,5,0,0,3,6,6,6,5,4,6,5,5,0,6,0,0,0,0,0,0,0,0,0,0,0,0,0,0,0,0,0,0,0,0,0,0,0,0,0,0,0,0,0,0],"split_type":[0,0,0,0,0,0,0,0,0,0,0,0,0,0,0,0,0,0,0,0,0,0,0,0,0,0,0,0,0,0,0,0,0,0,0,0,0,0,0,0,0,0,0,0,0,0,0,0,0,0,0,0,0,0,0,0,0,0,0,0,0,0,0,0,0,0,0,0,0,0,0,0,0,0,0],"sum_hessian":[5.0626172E2,1.7851035E2,3.2775134E2,1.2464902E1,1.6604546E2,2.1558543E2,1.12165924E2,1.8888261E0,1.05760765E1,1.1506474E1,1.5453897E2,1.3167148E2,8.3913956E1,8.410616E1,2.805976E1,5.609531E0,4.966545E0,1.0171429E1,1.3350451E0,1.5234476E2,2.1942158E0,8.226697E1,4.9404507E1,7.538126E1,8.532698E0,7.832703E1,5.7791367E0,1.9509092E1,8.550665E0,2.2455E0,3.364031E0,3.1368961E0,1.8296492E0,6.3013597E0,3.8700686E0,1.4933115E2,3.0136125E0,5.6352596E1,2.5914373E1,9.513216E0,3.989129E1,3.5521484E1,3.9859776E1,2.6834588E0,5.8492393E0,2.353544E0,3.4255927E0,1.7177902E1,2.3311915E0,6.690579E0,1.8600862E0,1.841154E0,1.295742E0,2.2011766E0,1.6688918E0,1.3358063E2,1.5750523E1,1.2632575E0,1.7503551E0,3.5377686E1,2.0974913E1,1.8772432E1,7.1419415E0,1.905792E0,7.607424E0,3.8100094E1,1.7911938E0,2.9246418E1,6.275067E0,3.6296535E1,3.5632384E0,3.6232464E0,2.2259927E0,9.262631E0,7.9152703E0],"tree_param":{"num_deleted":"0","num_feature":"7","num_nodes":"75","size_leaf_vector":"0"}},{"base_weights":[-3.9430764E-1,-1.437323E-1,-5.0837773E-1,1.2930492E-1,-6.082805E-1,-8.7178096E-2,-5.3749967E-1,3.3696002E-1,-3.0338514E-1,-3.2261655E-1,-6.7129076E-2,5.619399E-1,-5.05017E-1,-4.0813187E-1,-5.8461076E-1,7.559789E-1,1.7472486E-1,-4.8363197E-1,3.6640343E-1,-6.21099E-2,1.4618947E-1,7.336991E-1,-9.936104E-3,-6.317996E-2,-1.2676154E-1,2.6922163E-1,-4.4260657E-1,-6.255805E-1,-4.5128834E-1,8.812179E-1,-4.2739276E-2,-1.586155E-1,3.5223314E-1,2.5044617E-1,-5.865231E-1,-4.1074984E-2,6.121255E-1,8.511185E-2,-3.0005392E-1,9.434347E-3,1.0010226E-1,3.0398382E-2,-4.6572644E-2,-6.6608004E-4,3.8408887E-2,-3.4458017E-1,-6.5752864E-2,-6.357513E-1,-2.537332E-1,-5.547165E-1,9.391312E-2,5.1039774E-2,1.0825527E-1,-3.312765E-2,5.6592908E-2,8.795258E-2,1.832077E-2,-4.4145446E-2,8.376475E-2,2.4655057E-2,-6.722601E-2,1.0583104E-1,4.028089E-3,2.377343E-3,-4.624335E-2,-6.050372E-3,-4.489345E-2,-4.8208464E-2,-6.5039344E-2,-5.1511407E-2,1.4802585E-2,1.7294442E-2,-5.9337225E-2,3.642517E-2,-4.9101442E-2],"categories":[],"categories_nodes":[],"categories_segments":[],"categories_sizes":[],"default_left":[0,0,0,0,0,0,0,0,0,0,0,0,0,0,0,0,0,0,0,0,0,0,0,0,0,0,0,0,0,0,0,0,0,0,0,0,0,0,0,0,0,0,0,0,0,0,0,0,0,0,0,0,0,0,0,0,0,0,0,0,0,0,0,0,0,0,0,0,0,0,0,0,0,0,0],"id":9,"left_children":[1,3,5,7,9,11,13,15,17,19,-1,21,23,25,27,29,31,33,35,-1,37,39,-1,-1,41,43,45,47,49,51,-1,53,55,57,59,-1,61,-1,63,-1,-1,-1,-1,-1,-1,65,-1,67,69,71,73,-1,-1,-1,-1,-1,-1,-1,-1,-1,-1,-1,-1,-1,-1,-1,-1,-1,-1,-1,-1,-1,-1,-1,-1],"loss_changes":[1.3097458E1,1.8538456E1,3.8322144E0,8.412253E0,7.5631523E-1,6.154413E0,1.5629654E0,4.148507E0,3.8616347E0,1.7269808E0,0E0,1.0894556E0,5.7666945E-1,2.0391808E0,8.8864136E-1,2.936821E0,2.8187885E0,1.9957423E0,1.5958754E0,0E0,1.9408772E0,1.1402123E0,0E0,0E0,8.2618994E-1,1.4845592E-1,1.4297667E0,4.490776E-1,3.0960407E0,6.381378E-1,0E0,2.303509E0,2.582108E0,1.8770847E0,1.7205534E0,0E0,1.4246283E0,0E0,2.2239915E-1,0E0,0E0,0E0,0E0,0E0,0E0,1.6357083E0,0E0,3.842926E-2,7.0223945E-1,1.382968E0,1.6751964E0,0E0,0E0,0E0,0E0,0E0,0E0,0E0,0E0,0E0,0E0,0E0,0E0,0E0,0E0,0E0,0E0,0E0,0E0,0E0,0E0,0E0,0E0,0E0,0E0],"parents":[2147483647,0,0,1,1,2,2,3,3,4,4,5,5,6,6,7,7,8,8,9,9,11,11,12,12,13,13,14,14,15,15,16,16,17,17,18,18,20,20,21,21,24,24,25,25,26,26,27,27,28,28,29,29,31,31,32,32,33,33,34,34,36,36,38,38,45,45,47,47,48,48,49,49,50,50],"right_children":[2,4,6,8,10,12,14,16,18,20,-1,22,24,26,28,30,32,34,36,-1,38,40,-1,-1,42,44,46,48,50,52,-1,54,56,58,60,-1,62,-1,64,-1,-1,-1,-1,-1,-1,66,-1,68,70,72,74,-1,-1,-1,-1,-1,-1,-1,-1,-1,-1,-1,-1,-1,-1,-1,-1,-1,-1,-1,-1,-1,-1,-1,-1],"split_conditions":[5.9E1,7E-1,1.5E-1,-6.975647E-2,5.755336E-1,6.7E1,6.5E1,2.7E-1,5.4E-1,9.3E-1,-6.7129076E-2,8.2903755E-1,1.3E-1,2E-1,3.4202015E-1,8.9879405E-1,-4.3837115E-1,1.8070073E-1,2.7563736E-1,-6.21099E-2,9.8E-1,1.4657789E-2,-9.936104E-3,-6.317996E-2,-2.4492937E-16,-7.431448E-1,7.6E-1,9.975641E-1,5.6E-1,-7.6604444E-1,-4.2739276E-2,-2.7563736E-1,4.9E1,1.391731E-1,1.6E-1,-4.1074984E-2,8.314255E-1,8.511185E-2,-9.612617E-1,9.434347E-3,1.0010226E-1,3.0398382E-2,-4.6572644E-2,-6.6608004E-4,3.8408887E-2,-8.9879405E-1,-6.5752864E-2,6.6E1,4.9E-1,-9.135454E-1,7.4E-1,5.1039774E-2,1.0825527E-1,-3.312765E-2,5.6592908E-2,8.795258E-2,1.832077E-2,-4.4145446E-2,8.376475E-2,2.4655057E-2,-6.722601E-2,1.0583104E-1,4.028089E-3,2.377343E-3,-4.624335E-2,-6.050372E-3,-4.489345E-2,-4.8208464E-2,-6.5039344E-2,-5.1511407E-2,1.4802585E-2,1.7294442E-2,-5.9337225E-2,3.642517E-2,-4.9101442E-2],"split_indices":[0,2,2,3,5,0,0,2,2,2,0,3,2,2,3,4,4,5,3,0,2,5,0,0,4,4,2,4,2,3,0,3,0,3,2,0,5,0,3,0,0,0,0,0,0,3,0,0,2,4,2,0,0,0,0,0,0,0,0,0,0,0,0,0,0,0,0,0,0,0,0,0,0,0,0],"split_type":[0,0,0,0,0,0,0,0,0,0,0,0,0,0,0,0,0,0,0,0,0,0,0,0,0,0,0,0,0,0,0,0,0,0,0,0,0,0,0,0,0,0,0,0,0,0,0,0,0,0,0,0,0,0,0,0,0,0,0,0,0,0,0,0,0,0,0,0,0,0,0,0,0,0,0],"sum_hessian":[4.5977945E2,1.4453735E2,3.152421E2,9.148745E1,5.30499E1,2.0644707E1,2.9459738E2,6.196883E1,2.9518621E1,1.0692836E1,4.2357063E1,7.9497685E0,1.2694938E1,8.122246E1,2.1337492E2,1.6274776E1,4.5694054E1,2.3478306E1,6.0403156E0,6.3347397E0,4.3580956E0,6.22379E0,1.7259784E0,9.006024E0,3.6889126E0,3.6039202E0,7.761854E1,1.603939E2,5.2981026E1,1.4948116E1,1.3266613E0,1.5914627E1,2.9779427E1,2.7099621E0,2.0768345E1,1.2897087E0,4.750607E0,1.3376766E0,3.0204191E0,2.2339022E0,3.989888E0,1.6699699E0,2.0189428E0,1.3363512E0,2.267569E0,5.5093544E1,2.2524992E1,1.5543279E2,4.9611125E0,4.4518192E1,8.462835E0,6.5040216E0,8.444095E0,1.3290293E1,2.6243343E0,6.2083416E0,2.3571085E1,1.3580155E0,1.3519467E0,1.762932E0,1.9005413E1,2.1906471E0,2.55996E0,1.2938124E0,1.7266067E0,1.522564E1,3.9867905E1,1.6473238E1,1.3895955E2,2.834721E0,2.1263914E0,2.0704155E0,4.2447777E1,6.0458627E0,2.4169724E0],"tree_param":{"num_deleted":"0","num_feature":"7","num_nodes":"75","size_leaf_vector":"0"}},{"base_weights":[1.8187554E-1,4.380297E-1,-3.349671E-1,5.718404E-1,7.2963703E-3,-9.257736E-2,-5.5732906E-1,6.153481E-1,2.159655E-1,4.4642392E-1,-3.056671E-1,6.996096E-2,-2.9511788E-1,-4.3281296E-1,-6.656481E-2,4.6774858E-1,6.876681E-1,-1.7156601E-2,5.6098384E-1,5.54128E-1,-3.782633E-1,5.930026E-1,-4.6357366E-1,3.624959E-1,-2.2660029E-1,-5.9722763E-2,-4.7855783E-1,2.3125975E-1,-5.2524847E-1,2.4169521E-1,6.721432E-1,7.0653135E-1,-2.7212662E-1,3.5978103E-1,-3.3719087E-1,6.6037834E-1,-9.642358E-3,-4.572274E-2,6.2925017E-1,-5.0192475E-2,-5.9426106E-3,7.457898E-1,-5.1120096E-3,-1.8487065E-1,-5.8763754E-1,4.5941297E-2,5.393195E-1,-2.855637E-1,4.3617647E-2,-2.9198354E-1,2.7095738E-1,-6.0111847E-2,-7.469935E-2,-4.3935705E-2,5.833981E-2,-2.0130672E-1,-6.0684186E-1,7.6835684E-2,1.1693887E-2,-3.8035817E-3,6.980338E-2,8.318748E-2,5.8346458E-2,-8.024444E-4,-4.2186387E-2,-5.202219E-2,6.56931E-2,-4.8241463E-2,3.6043532E-2,9.57926E-2,3.4487564E-2,8.6895205E-2,3.9841127E-2,9.792624E-2,-4.0095686E-3,-6.0248554E-2,8.5031055E-3,-1.3403475E-2,-6.781893E-2,4.749776E-2,-2.9659051E-2,8.735398E-2,2.5550703E-2,-4.7982678E-2,-8.109013E-3,3.8174476E-2,-4.351492E-2,-2.7167657E-2,6.1622586E-2,-5.1778127E-2,5.0897058E-2,-3.7547655E-2,5.2608784E-2,1.6560622E-3,-6.351813E-2],"categories":[],"categories_nodes":[],"categories_segments":[],"categories_sizes":[],"default_left":[0,0,0,0,0,0,0,0,0,0,0,0,0,0,0,0,0,0,0,0,0,0,0,0,0,0,0,0,0,0,0,0,0,0,0,0,0,0,0,0,0,0,0,0,0,0,0,0,0,0,0,0,0,0,0,0,0,0,0,0,0,0,0,0,0,0,0,0,0,0,0,0,0,0,0,0,0,0,0,0,0,0,0,0,0,0,0,0,0,0,0,0,0,0,0],"id":10,"left_children":[1,3,5,7,9,11,13,15,17,19,21,23,25,27,-1,29,31,33,35,37,39,41,43,45,47,49,51,53,55,57,59,61,63,65,67,69,-1,-1,71,-1,-1,73,-1,75,77,79,81,83,-1,85,87,-1,89,-1,-1,91,93,-1,-1,-1,-1,-1,-1,-1,-1,-1,-1,-1,-1,-1,-1,-1,-1,-1,-1,-1,-1,-1,-1,-1,-1,-1,-1,-1,-1,-1,-1,-1,-1,-1,-1,-1,-1,-1,-1],"loss_changes":[6.728398E1,1.9563461E1,9.036318E0,3.8775558E0,1.1334678E1,2.7159336E0,8.952923E-1,2.1362228E0,2.4030528E0,3.2573886E0,7.110401E0,4.092802E0,1.553669E0,2.8025398E0,0E0,3.480608E0,2.9516754E0,2.380615E0,8.496609E-1,2.6243544E0,1.4988363E-1,7.897792E-1,1.3273983E0,1.2994428E0,1.045754E0,1.3994604E0,9.6737766E-1,1.6805601E0,8.9931107E-1,2.4727135E0,7.7758217E-1,1.8246536E0,1.4133832E-1,2.7170486E0,1.252355E0,6.625066E-1,0E0,0E0,1.2611904E0,0E0,0E0,1.1837413E0,0E0,1.6576349E0,1.0706711E0,1.5475408E0,1.2077785E0,8.449346E-1,0E0,1.1865718E0,1.5934544E0,0E0,1.7902242E0,0E0,0E0,1.3721989E0,5.471344E-1,0E0,0E0,0E0,0E0,0E0,0E0,0E0,0E0,0E0,0E0,0E0,0E0,0E0,0E0,0E0,0E0,0E0,0E0,0E0,0E0,0E0,0E0,0E0,0E0,0E0,0E0,0E0,0E0,0E0,0E0,0E0,0E0,0E0,0E0,0E0,0E0,0E0,0E0],"parents":[2147483647,0,0,1,1,2,2,3,3,4,4,5,5,6,6,7,7,8,8,9,9,10,10,11,11,12,12,13,13,15,15,16,16,17,17,18,18,19,19,20,20,21,21,22,22,23,23,24,24,25,25,26,26,27,27,28,28,29,29,30,30,31,31,32,32,33,33,34,34,35,35,38,38,41,41,43,43,44,44,45,45,46,46,47,47,49,49,50,50,52,52,55,55,56,56],"right_children":[2,4,6,8,10,12,14,16,18,20,22,24,26,28,-1,30,32,34,36,38,40,42,44,46,48,50,52,54,56,58,60,62,64,66,68,70,-1,-1,72,-1,-1,74,-1,76,78,80,82,84,-1,86,88,-1,90,-1,-1,92,94,-1,-1,-1,-1,-1,-1,-1,-1,-1,-1,-1,-1,-1,-1,-1,-1,-1,-1,-1,-1,-1,-1,-1,-1,-1,-1,-1,-1,-1,-1,-1,-1,-1,-1,-1,-1,-1,-1],"split_conditions":[6.6E-1,5.5425626E-1,7.399718E-1,4.9969542E-1,4.3E-1,-9.2718387E-1,1.14E0,2.6E-1,1.2246469E-16,9.975641E-1,-6.156615E-1,8.5E-1,7.7E-1,-9.848077E-1,-6.656481E-2,-4.3837115E-1,9.5105654E-1,3.2019758E-1,5.1E-1,-9.135454E-1,6.762749E-1,6.3E-1,5.1E-1,7.5E-1,8.3878934E-1,7.2E-1,6.8328494E-1,-2.4492937E-16,-7.725425E-2,-6.156615E-1,4E-2,2.3640323E-1,3.7E-1,1.4E-1,9.9026805E-1,6.946584E-1,-9.642358E-3,-4.572274E-2,3.4E-1,-5.0192475E-2,-5.9426106E-3,7.308364E-1,-5.1120096E-3,6.4012504E-1,-3.09017E-1,3.0735317E-1,-2.4492937E-16,5.969071E-1,4.3617647E-2,1.6269466E-1,-9.3651645E-2,-6.0111847E-2,5E-1,-4.3935705E-2,5.833981E-2,1.08E0,7.484539E-1,7.6835684E-2,1.1693887E-2,-3.8035817E-3,6.980338E-2,8.318748E-2,5.8346458E-2,-8.024444E-4,-4.2186387E-2,-5.202219E-2,6.56931E-2,-4.8241463E-2,3.6043532E-2,9.57926E-2,3.4487564E-2,8.6895205E-2,3.9841127E-2,9.792624E-2,-4.0095686E-3,-6.0248554E-2,8.5031055E-3,-1.3403475E-2,-6.781893E-2,4.749776E-2,-2.9659051E-2,8.735398E-2,2.5550703E-2,-4.7982678E-2,-8.109013E-3,3.8174476E-2,-4.351492E-2,-2.7167657E-2,6.1622586E-2,-5.1778127E-2,5.0897058E-2,-3.7547655E-2,5.2608784E-2,1.6560622E-3,-6.351813E-2],"split_indices":[2,5,5,6,2,3,2,2,4,6,3,2,2,3,0,3,3,5,2,4,5,2,2,2,6,2,5,4,6,6,2,5,2,2,3,4,0,0,2,0,0,5,0,5,3,5,4,5,0,5,6,0,6,0,0,2,5,0,0,0,0,0,0,0,0,0,0,0,0,0,0,0,0,0,0,0,0,0,0,0,0,0,0,0,0,0,0,0,0,0,0,0,0,0,0],"split_type":[0,0,0,0,0,0,0,0,0,0,0,0,0,0,0,0,0,0,0,0,0,0,0,0,0,0,0,0,0,0,0,0,0,0,0,0,0,0,0,0,0,0,0,0,0,0,0,0,0,0,0,0,0,0,0,0,0,0,0,0,0,0,0,0,0,0,0,0,0,0,0,0,0,0,0,0,0,0,0,0,0,0,0,0,0,0,0,0,0,0,0,0,0,0,0],"sum_hessian":[5.061119E2,3.3849948E2,1.6761243E2,2.5801694E2,8.048257E1,8.087236E1,8.674007E1,2.2925954E2,2.8757383E1,3.3313313E1,4.716926E1,4.5229984E1,3.564238E1,4.2677113E1,4.406295E1,7.784718E1,1.5141235E2,1.7728714E1,1.1028668E1,2.9755342E1,3.5579705E0,6.6377034E0,4.0531555E1,2.2657633E1,2.257235E1,1.6191095E1,1.9451283E1,5.031085E0,3.764603E1,3.8001423E1,3.9845764E1,1.4875272E2,2.6596315E0,8.083611E0,9.645104E0,9.576295E0,1.4523742E0,1.7056776E0,2.8049665E1,2.1498954E0,1.4080751E0,5.2375164E0,1.4001873E0,1.3251922E1,2.727963E1,8.57186E0,1.40857725E1,2.125092E1,1.3214314E0,9.5796385E0,6.6114573E0,1.4547924E1,4.9033585E0,1.6469429E0,3.3841422E0,8.271951E0,2.9374079E1,6.2898436E0,3.1711578E1,1.3850387E0,3.8460724E1,7.084132E1,7.791141E1,1.3435347E0,1.3160968E0,1.8510534E0,6.2325573E0,8.238583E0,1.4065219E0,3.8804698E0,5.6958246E0,1.2404537E1,1.5645127E1,3.848217E0,1.3892992E0,4.7186246E0,8.533298E0,4.9522796E0,2.2327353E1,3.6337547E0,4.938106E0,5.5142565E0,8.571516E0,1.0206984E1,1.1043935E1,1.3868335E0,8.192805E0,2.6538048E0,3.9576526E0,2.8515475E0,2.0518112E0,7.0642653E0,1.2076855E0,1.295335E0,2.8078743E1],"tree_param":{"num_deleted":"0","num_feature":"7","num_nodes":"95","size_leaf_vector":"0"}},{"base_weights":[1.5369077E-1,-2.1812756E-1,7.4797946E-1,-5.150634E-1,1.7089973E-1,5.38718E-1,9.618631E-1,-5.682199E-1,-2.8682968E-1,-2.5237176E-1,5.960652E-1,3.0977023E-1,8.0745333E-1,1.0020294E-1,6.5613115E-1,-6.879646E-2,-5.963376E-1,7.0907995E-2,-3.952004E-1,-5.784377E-1,-9.6921384E-2,6.7825085E-1,-3.1373224E-1,5.476472E-1,1.8029276E-1,6.0189533E-1,1.0239965E0,-1.3839565E-1,8.8033646E-1,-3.468505E-1,8.200956E-2,-6.6480273E-1,-4.5079052E-1,-1.00843236E-1,-5.883865E-1,4.26472E-3,-6.183839E-2,5.931237E-1,-1.8850897E-1,9.574961E-1,4.5258972E-1,3.1459548E-3,-4.083424E-1,9.509251E-1,3.069755E-1,-2.4613824E-1,3.374222E-1,6.722746E-1,-1.8739095E-2,3.0719703E-2,1.06186844E-1,-5.0529677E-2,2.8294077E-2,3.7426025E-2,9.5109105E-2,1.3640902E-2,-5.739161E-2,-4.0480874E-2,-6.859573E-2,-5.8640797E-2,-6.2500946E-3,-5.7911314E-2,2.1485334E-2,-6.324787E-2,1.3842515E-3,3.3913048E-3,1.02834895E-1,-2.559617E-2,7.125265E-2,9.783966E-2,3.419533E-2,1.1632293E-2,6.028849E-2,-5.3802706E-2,-3.9564283E-3,1.06346264E-1,3.2091852E-2,6.5977566E-2,1.5821549E-3,-6.157932E-3,-5.714739E-2,6.125211E-3,5.5332392E-2,4.952083E-2,1.0450702E-1],"categories":[],"categories_nodes":[],"categories_segments":[],"categories_sizes":[],"default_left":[0,0,0,0,0,0,0,0,0,0,0,0,0,0,0,0,0,0,0,0,0,0,0,0,0,0,0,0,0,0,0,0,0,0,0,0,0,0,0,0,0,0,0,0,0,0,0,0,0,0,0,0,0,0,0,0,0,0,0,0,0,0,0,0,0,0,0,0,0,0,0,0,0,0,0,0,0,0,0,0,0,0,0,0,0],"id":11,"left_children":[1,3,5,7,9,11,13,15,17,19,21,23,25,-1,27,29,31,-1,33,35,37,39,41,43,45,47,49,51,53,55,-1,57,59,61,63,-1,-1,65,67,69,71,-1,73,75,77,79,81,83,-1,-1,-1,-1,-1,-1,-1,-1,-1,-1,-1,-1,-1,-1,-1,-1,-1,-1,-1,-1,-1,-1,-1,-1,-1,-1,-1,-1,-1,-1,-1,-1,-1,-1,-1,-1,-1],"loss_changes":[1.11260376E2,3.590391E1,8.152519E0,1.9733162E0,2.44386E1,5.914442E0,5.034027E-1,1.9502754E0,4.0882664E0,3.4076462E0,5.2695465E0,1.6175594E0,1.4076099E0,0E0,2.5933208E0,2.4318984E0,1.0367584E0,0E0,1.7866869E0,5.687113E-1,3.1122375E0,3.495119E0,2.1816361E-1,1.5667229E0,2.600736E0,1.5565071E0,2.3619461E-1,7.485848E-1,3.636551E-2,8.816336E-1,0E0,2.1239471E-1,2.386259E0,2.2488344E0,5.237031E-1,0E0,0E0,1.3777416E0,2.7758286E0,1.2363434E-2,1.7682605E0,0E0,2.1811938E-1,1.3235092E-1,1.3731279E0,6.070088E-1,1.6284144E0,1.0575962E0,0E0,0E0,0E0,0E0,0E0,0E0,0E0,0E0,0E0,0E0,0E0,0E0,0E0,0E0,0E0,0E0,0E0,0E0,0E0,0E0,0E0,0E0,0E0,0E0,0E0,0E0,0E0,0E0,0E0,0E0,0E0,0E0,0E0,0E0,0E0,0E0,0E0],"parents":[2147483647,0,0,1,1,2,2,3,3,4,4,5,5,6,6,7,7,8,8,9,9,10,10,11,11,12,12,14,14,15,15,16,16,18,18,19,19,20,20,21,21,22,22,23,23,24,24,25,25,26,26,27,27,28,28,29,29,31,31,32,32,33,33,34,34,37,37,38,38,39,39,40,40,42,42,43,43,44,44,45,45,46,46,47,47],"right_children":[2,4,6,8,10,12,14,16,18,20,22,24,26,-1,28,30,32,-1,34,36,38,40,42,44,46,48,50,52,54,56,-1,58,60,62,64,-1,-1,66,68,70,72,-1,74,76,78,80,82,84,-1,-1,-1,-1,-1,-1,-1,-1,-1,-1,-1,-1,-1,-1,-1,-1,-1,-1,-1,-1,-1,-1,-1,-1,-1,-1,-1,-1,-1,-1,-1,-1,-1,-1,-1,-1,-1],"split_conditions":[6.6E-1,-1.8369701E-16,9.8E-1,5.6E-1,4E-1,-8.2903755E-1,9.975641E-1,-3.0079168E-1,-7.880108E-1,3.355201E-1,9.781476E-1,4.6574196E-1,7.9E-1,1.0020294E-1,9.4203645E-1,-3.8027197E-1,-5.591929E-1,7.0907995E-2,3.6527944E-1,4E-2,3.7E-1,6.740955E-1,3.8976243E-1,-4.6359193E-1,7.7E-1,8.6E-1,-9.5105654E-1,1.02E0,1.0695649E0,-4.1451877E-1,8.200956E-2,-7.4817306E-1,4.1E-1,-9.612617E-1,-1.7364818E-1,4.26472E-3,-6.183839E-2,3.550704E-1,1.3005035E0,1.2015771E0,4.9240386E-1,3.1459548E-3,3.940054E-1,8.7E-1,-9.9026805E-1,7.4E-1,8.682409E-2,8.660254E-1,-1.8739095E-2,3.0719703E-2,1.06186844E-1,-5.0529677E-2,2.8294077E-2,3.7426025E-2,9.5109105E-2,1.3640902E-2,-5.739161E-2,-4.0480874E-2,-6.859573E-2,-5.8640797E-2,-6.2500946E-3,-5.7911314E-2,2.1485334E-2,-6.324787E-2,1.3842515E-3,3.3913048E-3,1.02834895E-1,-2.559617E-2,7.125265E-2,9.783966E-2,3.419533E-2,1.1632293E-2,6.028849E-2,-5.3802706E-2,-3.9564283E-3,1.06346264E-1,3.2091852E-2,6.5977566E-2,1.5821549E-3,-6.157932E-3,-5.714739E-2,6.125211E-3,5.5332392E-2,4.952083E-2,1.0450702E-1],"split_indices":[2,3,2,2,2,3,6,5,4,5,4,5,2,0,5,5,3,0,5,2,5,5,5,6,2,5,4,2,5,6,0,6,2,3,3,0,0,5,6,6,6,0,6,2,3,2,6,4,0,0,0,0,0,0,0,0,0,0,0,0,0,0,0,0,0,0,0,0,0,0,0,0,0,0,0,0,0,0,0,0,0,0,0,0,0],"split_type":[0,0,0,0,0,0,0,0,0,0,0,0,0,0,0,0,0,0,0,0,0,0,0,0,0,0,0,0,0,0,0,0,0,0,0,0,0,0,0,0,0,0,0,0,0,0,0,0,0,0,0,0,0,0,0,0,0,0,0,0,0,0,0,0,0,0,0,0,0,0,0,0,0,0,0,0,0,0,0,0,0,0,0,0,0],"sum_hessian":[5.017765E2,3.090509E2,1.9272557E2,1.7508696E2,1.3396394E2,9.919397E1,9.353161E1,1.4080365E2,3.4283314E1,6.733516E1,6.6628784E1,5.4724445E1,4.446952E1,8.065754E1,1.2874064E1,7.6884904E0,1.3311516E2,2.8204775E0,3.1462835E1,2.0859705E1,4.6475456E1,6.134202E1,5.2867665E0,1.814981E1,3.6574635E1,2.4752382E1,1.9717138E1,2.9175909E0,9.956473E0,6.3210115E0,1.3674791E0,8.810369E1,4.5011463E1,1.3070042E1,1.8392792E1,1.2564697E0,1.9603235E1,4.804097E0,4.167136E1,2.5966547E1,3.537547E1,1.2808776E0,4.005889E0,5.6804E0,1.2469411E1,9.695556E0,2.6879078E1,2.2862064E1,1.8903191E0,1.4467149E0,1.8270424E1,1.4530226E0,1.4645684E0,1.9927526E0,7.9637213E0,2.1482282E0,4.172783E0,8.1442995E0,7.99594E1,3.298174E1,1.2029723E1,4.8651314E0,8.20491E0,1.7091228E1,1.3015635E0,2.5743265E0,2.2297707E0,3.943512E1,2.2362397E0,2.454369E1,1.422857E0,1.1475167E1,2.3900303E1,2.6241379E0,1.381751E0,4.235753E0,1.4446471E0,5.0654182E0,7.403992E0,6.945014E0,2.750542E0,1.2356719E1,1.4522359E1,1.7078617E1,5.7834473E0],"tree_param":{"num_deleted":"0","num_feature":"7","num_nodes":"85","size_leaf_vector":"0"}},{"base_weights":[-3.7691942E-1,-1.9592854E-1,-5.210285E-1,1.8586123E-1,-4.1732898E-1,-5.514022E-1,-2.803441E-1,-2.830835E-1,2.7746892E-1,-3.3139154E-1,-6.018853E-1,-3.9471522E-1,-5.9367114E-1,8.2546756E-2,-3.7792897E-1,4.373189E-2,-4.0502226E-1,3.8013545E-1,-2.2627942E-1,-3.479963E-1,4.4851635E-2,-6.244811E-1,-3.8122495E-3,-2.7207914E-1,-5.5286294E-1,-6.3282007E-1,-5.096628E-1,-2.994967E-1,4.7182456E-1,-6.052363E-2,-1.9658385E-1,8.559938E-3,-5.3108263E-1,3.8679022E-2,5.002871E-1,1.1656951E-1,-5.911408E-2,-1.6553563E-1,-4.3176377E-1,-6.467941E-2,-2.5886914E-1,-3.3495554E-1,2.3401144E-1,-5.9093423E-2,-1.7349283E-1,-1.8868087E-1,-6.406345E-2,-6.0514295E-1,-3.7333426E-1,6.3966583E-3,-4.6665765E-2,9.688517E-2,-3.736096E-2,-4.1304806E-1,1.3741387E-1,-3.6513357E-4,1.7249947E-3,-6.296196E-2,1.6431365E-3,1.953387E-2,-5.1611602E-2,6.7340486E-2,2.1585038E-2,5.4481532E-2,-1.6040694E-2,5.308882E-2,-3.0707983E-2,-4.764981E-2,-9.140351E-4,8.159484E-3,-4.4127505E-2,-1.0903729E-2,-5.081146E-2,5.2596636E-2,-9.0314755E-3,9.562167E-3,-3.629979E-2,7.1144714E-3,-3.664652E-2,-1.5865335E-2,-6.603246E-2,4.7455244E-2,-4.3318857E-2,-7.6483446E-3,-5.8651477E-2,4.006224E-2,-4.2208508E-2],"categories":[],"categories_nodes":[],"categories_segments":[],"categories_sizes":[],"default_left":[0,0,0,0,0,0,0,0,0,0,0,0,0,0,0,0,0,0,0,0,0,0,0,0,0,0,0,0,0,0,0,0,0,0,0,0,0,0,0,0,0,0,0,0,0,0,0,0,0,0,0,0,0,0,0,0,0,0,0,0,0,0,0,0,0,0,0,0,0,0,0,0,0,0,0,0,0,0,0,0,0,0,0,0,0,0,0],"id":12,"left_children":[1,3,5,7,9,11,13,15,17,19,21,23,25,27,29,-1,31,33,35,37,-1,39,-1,41,43,45,47,49,51,-1,53,55,57,59,61,63,-1,65,67,-1,69,71,73,-1,75,77,-1,79,81,-1,-1,-1,-1,83,85,-1,-1,-1,-1,-1,-1,-1,-1,-1,-1,-1,-1,-1,-1,-1,-1,-1,-1,-1,-1,-1,-1,-1,-1,-1,-1,-1,-1,-1,-1,-1,-1],"loss_changes":[1.1648422E1,1.7093555E1,1.6745605E0,3.282454E0,1.8262882E0,1.2302628E0,1.0961154E0,1.2912848E0,3.3389516E0,1.313448E0,4.7750473E-1,8.186374E-1,2.4372101E-1,1.2111474E0,8.6530185E-1,0E0,5.9714746E-1,2.1395478E0,1.4793801E0,1.2746239E0,0E0,1.4070415E-1,0E0,1.0365617E0,1.9867468E-1,2.723732E-1,5.533619E-1,2.875955E-1,2.0223432E0,0E0,1.1240969E0,4.491759E-4,4.8117304E-1,1.38547E0,1.7672291E0,8.759809E-1,0E0,3.0545006E0,1.1250343E0,0E0,2.7447465E-1,1.008461E0,4.1833222E-1,0E0,2.038998E-1,1.8204519E-1,0E0,7.230339E-1,1.5894973E0,0E0,0E0,0E0,0E0,4.9268138E-1,1.1345292E0,0E0,0E0,0E0,0E0,0E0,0E0,0E0,0E0,0E0,0E0,0E0,0E0,0E0,0E0,0E0,0E0,0E0,0E0,0E0,0E0,0E0,0E0,0E0,0E0,0E0,0E0,0E0,0E0,0E0,0E0,0E0,0E0],"parents":[2147483647,0,0,1,1,2,2,3,3,4,4,5,5,6,6,7,7,8,8,9,9,10,10,11,11,12,12,13,13,14,14,16,16,17,17,18,18,19,19,21,21,23,23,24,24,25,25,26,26,27,27,28,28,30,30,31,31,32,32,33,33,34,34,35,35,37,37,38,38,40,40,41,41,42,42,44,44,45,45,47,47,48,48,53,53,54,54],"right_children":[2,4,6,8,10,12,14,16,18,20,22,24,26,28,30,-1,32,34,36,38,-1,40,-1,42,44,46,48,50,52,-1,54,56,58,60,62,64,-1,66,68,-1,70,72,74,-1,76,78,-1,80,82,-1,-1,-1,-1,84,86,-1,-1,-1,-1,-1,-1,-1,-1,-1,-1,-1,-1,-1,-1,-1,-1,-1,-1,-1,-1,-1,-1,-1,-1,-1,-1,-1,-1,-1,-1,-1,-1],"split_conditions":[6.3E1,3.2908964E-1,9.2893106E-1,-9.848077E-1,8.654614E-1,6.6E1,9.975641E-1,-5.479639E-1,6E1,1.3005035E0,1.3005035E0,2.0336832E-1,-1.04528464E-1,7.1E1,3.4202015E-1,4.373189E-2,-9.975641E-1,5.1E1,1E0,-9.135454E-1,4.4851635E-2,8.660254E-1,-3.8122495E-3,1.1736789E-1,9.377102E-1,-9.9939084E-1,5.6479007E-1,9.5755553E-1,6.995736E-1,-6.052363E-2,8.441573E-1,5.6E1,2.5605002E-1,5E1,1.4307821E-1,-8.241345E-2,-5.911408E-2,4.1846487E-1,6.2E1,-6.467941E-2,9.702957E-1,-8.09017E-1,6.4E1,-5.9093423E-2,1.004504E0,3.4878235E-2,-6.406345E-2,-2.3776414E-1,6.123234E-17,6.3966583E-3,-4.6665765E-2,9.688517E-2,-3.736096E-2,5.342703E-1,1.0635923E0,-3.6513357E-4,1.7249947E-3,-6.296196E-2,1.6431365E-3,1.953387E-2,-5.1611602E-2,6.7340486E-2,2.1585038E-2,5.4481532E-2,-1.6040694E-2,5.308882E-2,-3.0707983E-2,-4.764981E-2,-9.140351E-4,8.159484E-3,-4.4127505E-2,-1.0903729E-2,-5.081146E-2,5.2596636E-2,-9.0314755E-3,9.562167E-3,-3.629979E-2,7.1144714E-3,-3.664652E-2,-1.5865335E-2,-6.603246E-2,4.7455244E-2,-4.3318857E-2,-7.6483446E-3,-5.8651477E-2,4.006224E-2,-4.2208508E-2],"split_indices":[0,5,6,3,5,0,6,6,0,6,6,6,3,0,3,0,3,0,1,3,0,3,0,6,5,3,5,6,5,0,5,0,5,0,5,5,0,5,0,0,3,3,0,0,5,6,0,6,3,0,0,0,0,5,5,0,0,0,0,0,0,0,0,0,0,0,0,0,0,0,0,0,0,0,0,0,0,0,0,0,0,0,0,0,0,0,0],"split_type":[0,0,0,0,0,0,0,0,0,0,0,0,0,0,0,0,0,0,0,0,0,0,0,0,0,0,0,0,0,0,0,0,0,0,0,0,0,0,0,0,0,0,0,0,0,0,0,0,0,0,0,0,0,0,0,0,0,0,0,0,0,0,0,0,0,0,0,0,0,0,0,0,0,0,0,0,0,0,0,0,0,0,0,0,0,0,0],"sum_hessian":[4.4951428E2,2.0030496E2,2.492093E2,7.358068E1,1.2672429E2,2.201376E2,2.90717E1,1.1683262E1,6.1897423E1,8.8370674E1,3.835361E1,4.8965427E1,1.7117218E2,6.193585E0,2.2878115E1,1.3168803E0,1.0366382E1,5.162198E1,1.0275442E1,8.707068E1,1.299993E0,3.6772076E1,1.581537E0,2.9111359E1,1.9854069E1,1.1230417E2,5.886801E1,3.2422369E0,2.9513478E0,9.115185E0,1.3762929E1,2.6393218E0,7.7270594E0,1.378073E1,3.7841248E1,5.648361E0,4.6270804E0,2.833282E1,5.873786E1,3.393216E1,2.8399153E0,2.6195051E1,2.9163067E0,1.7536537E1,2.3175318E0,2.3765602E0,1.0992761E2,3.2598335E1,2.6269676E1,1.2158694E0,2.0263674E0,1.7667197E0,1.1846282E0,8.207174E0,5.555755E0,1.3384062E0,1.3009157E0,6.421426E0,1.305634E0,1.1251507E1,2.5292242E0,2.2673744E1,1.5167505E1,1.8386037E0,3.8097577E0,4.3211703E0,2.401165E1,5.3000347E1,5.737515E0,1.1835228E0,1.6563926E0,1.2073116E1,1.4121935E1,1.2075568E0,1.7087498E0,1.1623302E0,1.1552016E0,1.2091928E0,1.1673675E0,4.011919E0,2.8586416E1,1.2753141E0,2.4994362E1,3.2814095E0,4.9257646E0,3.9714186E0,1.5843365E0],"tree_param":{"num_deleted":"0","num_feature":"7","num_nodes":"87","size_leaf_vector":"0"}},{"base_weights":[1.7299649E-1,4.2789233E-1,-2.6446357E-1,5.221987E-1,5.989468E-3,-1.1601303E-1,-5.886601E-1,5.716541E-1,3.5561922E-1,3.2559165E-1,-3.3259347E-1,1.538961E-2,-4.1096786E-1,-2.455182E-1,-6.334064E-1,3.7575543E-1,6.497473E-1,5.182566E-1,-4.6281052E-1,-3.5950354E-1,4.1649178E-1,2.974799E-1,-4.758005E-1,4.2104262E-1,-6.332993E-2,3.9634317E-1,-4.8948726E-1,1.1399171E-1,-5.3606212E-2,-6.5113366E-2,-1.25211915E-2,1.7546245E-1,7.4663174E-1,-2.7998948E-2,6.6970575E-1,3.3275196E-1,6.911434E-1,-1.333689E-1,-6.1387777E-2,-3.7477762E-3,-5.04066E-2,6.9874406E-1,1.732202E-1,-3.2514262E-1,8.993613E-2,-5.965478E-1,-2.1822125E-1,-1.836461E-1,6.12494E-1,-3.7935624E-1,1.9851914E-2,-8.985023E-3,7.810825E-2,-2.539093E-1,-6.513555E-2,3.8967142E-1,-3.6956705E-2,5.9075713E-2,-2.3519176E-3,2.5415992E-2,8.282264E-2,4.967707E-2,-5.023495E-2,6.900083E-2,1.2216384E-2,-2.5289414E-2,3.9675996E-2,7.61333E-2,-1.584748E-2,2.9427482E-2,-4.68291E-2,8.8350184E-2,-4.6275314E-2,3.9733972E-2,-1.6642204E-2,-3.2781784E-3,-4.7393005E-2,-6.505041E-2,-2.1184279E-2,1.1666414E-2,-5.4497864E-2,3.3893622E-2,-5.5425692E-2,3.149215E-2,8.547972E-2,7.3978305E-3,-6.598845E-2,8.1623524E-2,-4.8497617E-3,-4.7418154E-3,-5.763206E-2,7.3616183E-3,5.2877486E-2],"categories":[],"categories_nodes":[],"categories_segments":[],"categories_sizes":[],"default_left":[0,0,0,0,0,0,0,0,0,0,0,0,0,0,0,0,0,0,0,0,0,0,0,0,0,0,0,0,0,0,0,0,0,0,0,0,0,0,0,0,0,0,0,0,0,0,0,0,0,0,0,0,0,0,0,0,0,0,0,0,0,0,0,0,0,0,0,0,0,0,0,0,0,0,0,0,0,0,0,0,0,0,0,0,0,0,0,0,0,0,0,0,0],"id":13,"left_children":[1,3,5,7,9,11,13,15,17,19,21,23,25,27,29,31,33,35,37,39,41,43,45,47,49,51,53,55,-1,-1,-1,57,59,61,63,65,67,69,-1,-1,-1,71,73,75,-1,77,79,81,83,85,87,-1,-1,89,-1,91,-1,-1,-1,-1,-1,-1,-1,-1,-1,-1,-1,-1,-1,-1,-1,-1,-1,-1,-1,-1,-1,-1,-1,-1,-1,-1,-1,-1,-1,-1,-1,-1,-1,-1,-1,-1,-1],"loss_changes":[5.682973E1,1.2799145E1,8.973682E0,1.9630966E0,6.5787334E0,5.0492344E0,7.467632E-1,2.8326874E0,8.60503E0,2.096741E0,2.8060267E0,2.9318001E0,2.7382584E0,9.3975264E-1,3.8109016E-1,4.303382E0,1.9453316E0,1.4665565E0,4.6291208E-1,1.7658669E-1,1.806056E0,2.5723746E0,6.301279E-1,1.839298E0,2.033267E0,8.3903843E-1,1.2465324E0,7.551369E-1,0E0,0E0,0E0,3.3250303E0,6.183224E-1,1.5026666E0,1.4541359E0,1.129206E0,1.6981115E0,8.137007E-1,0E0,0E0,0E0,3.1261125E0,1.3147503E0,1.4649764E-1,0E0,1.9569588E-1,1.0898781E0,1.0315577E0,5.643029E-1,2.0971413E0,3.4118814E0,0E0,0E0,1.0857189E0,0E0,1.10839546E-1,0E0,0E0,0E0,0E0,0E0,0E0,0E0,0E0,0E0,0E0,0E0,0E0,0E0,0E0,0E0,0E0,0E0,0E0,0E0,0E0,0E0,0E0,0E0,0E0,0E0,0E0,0E0,0E0,0E0,0E0,0E0,0E0,0E0,0E0,0E0,0E0,0E0],"parents":[2147483647,0,0,1,1,2,2,3,3,4,4,5,5,6,6,7,7,8,8,9,9,10,10,11,11,12,12,13,13,14,14,15,15,16,16,17,17,18,18,19,19,20,20,21,21,22,22,23,23,24,24,25,25,26,26,27,27,31,31,32,32,33,33,34,34,35,35,36,36,37,37,41,41,42,42,43,43,45,45,46,46,47,47,48,48,49,49,50,50,53,53,55,55],"right_children":[2,4,6,8,10,12,14,16,18,20,22,24,26,28,30,32,34,36,38,40,42,44,46,48,50,52,54,56,-1,-1,-1,58,60,62,64,66,68,70,-1,-1,-1,72,74,76,-1,78,80,82,84,86,88,-1,-1,90,-1,92,-1,-1,-1,-1,-1,-1,-1,-1,-1,-1,-1,-1,-1,-1,-1,-1,-1,-1,-1,-1,-1,-1,-1,-1,-1,-1,-1,-1,-1,-1,-1,-1,-1,-1,-1,-1,-1],"split_conditions":[6.2E-1,4.9969542E-1,1.04E0,2.419219E-1,3.9E-1,-6.691306E-1,-2.2073689E-1,2.7E-1,4.5E-1,1.3E-1,3.4202015E-1,6.8E-1,-4.1451877E-1,1.17E0,1.9021131E0,-4.3837115E-1,-9.945219E-1,1E0,1.5308086E-17,6.691306E-1,2.5E-1,9.135454E-1,9.612617E-1,-2.5E-1,-4.275252E-1,-7.193398E-1,2.2469851E-1,-7.6604444E-1,-5.3606212E-2,-6.5113366E-2,-1.25211915E-2,-3.7460658E-1,-3.038843E-1,6.123234E-17,9.945219E-1,-1.9151111E-1,9.975641E-1,5.1E-1,-6.1387777E-2,-3.7477762E-3,-5.04066E-2,9.9026805E-1,2.7563736E-1,7.277218E-1,8.993613E-2,6.4278764E-1,4.9E-1,-7.4270105E-1,-2.4492937E-16,-7.2094625E-1,-2.8095496E-1,-8.985023E-3,7.810825E-2,7.7E-1,-6.513555E-2,-9.396926E-1,-3.6956705E-2,5.9075713E-2,-2.3519176E-3,2.5415992E-2,8.282264E-2,4.967707E-2,-5.023495E-2,6.900083E-2,1.2216384E-2,-2.5289414E-2,3.9675996E-2,7.61333E-2,-1.584748E-2,2.9427482E-2,-4.68291E-2,8.8350184E-2,-4.6275314E-2,3.9733972E-2,-1.6642204E-2,-3.2781784E-3,-4.7393005E-2,-6.505041E-2,-2.1184279E-2,1.1666414E-2,-5.4497864E-2,3.3893622E-2,-5.5425692E-2,3.149215E-2,8.547972E-2,7.3978305E-3,-6.598845E-2,8.1623524E-2,-4.8497617E-3,-4.7418154E-3,-5.763206E-2,7.3616183E-3,5.2877486E-2],"split_indices":[2,6,2,3,2,3,6,2,2,2,3,2,6,2,6,3,4,1,6,6,2,6,3,6,6,4,6,3,0,0,0,6,6,3,4,6,3,2,0,0,0,3,4,6,0,4,2,6,4,6,6,0,0,2,0,3,0,0,0,0,0,0,0,0,0,0,0,0,0,0,0,0,0,0,0,0,0,0,0,0,0,0,0,0,0,0,0,0,0,0,0,0,0],"split_type":[0,0,0,0,0,0,0,0,0,0,0,0,0,0,0,0,0,0,0,0,0,0,0,0,0,0,0,0,0,0,0,0,0,0,0,0,0,0,0,0,0,0,0,0,0,0,0,0,0,0,0,0,0,0,0,0,0,0,0,0,0,0,0,0,0,0,0,0,0,0,0,0,0,0,0,0,0,0,0,0,0,0,0,0,0,0,0,0,0,0,0,0,0],"sum_hessian":[5.07638E2,3.207612E2,1.8687679E2,2.6196698E2,5.8794228E1,1.2911328E2,5.7763504E1,2.0012161E2,6.1845375E1,3.0264606E1,2.8529623E1,8.9976494E1,3.9136784E1,7.4118457E0,5.0351658E1,5.8695118E1,1.414265E2,5.1898865E1,9.946511E0,3.1990561E0,2.706555E1,5.084016E0,2.3445606E1,1.3916116E1,7.606038E1,3.1102717E0,3.6026512E1,3.5843477E0,3.8274977E0,4.8382668E1,1.968989E0,3.9068924E1,1.9626196E1,4.0341077E0,1.3739238E2,2.6446692E1,2.5452173E1,3.7190337E0,6.227478E0,1.3813113E0,1.8177447E0,1.1662279E1,1.5403271E1,2.724951E0,2.359065E0,1.5066702E1,8.378904E0,3.3562741E0,1.0559841E1,1.5106575E1,6.09538E1,1.7125696E0,1.3977021E0,1.5718669E1,2.0307842E1,2.40653E0,1.177818E0,1.20177555E1,2.7051168E1,3.3744287E0,1.6251766E1,1.8928263E0,2.1412814E0,1.322292E2,5.1631823E0,2.314945E0,2.4131746E1,2.3605925E1,1.8462477E0,1.6867185E0,2.0323153E0,1.0268263E1,1.3940161E0,9.177465E0,6.2258058E0,1.3306358E0,1.3943152E0,1.2607534E1,2.4591672E0,4.455519E0,3.923385E0,1.4280742E0,1.9281999E0,5.7715287E0,4.7883124E0,6.0561337E0,9.050441E0,3.9529872E0,5.7000813E1,1.0281114E1,5.4375553E0,1.2028248E0,1.2037051E0],"tree_param":{"num_deleted":"0","num_feature":"7","num_nodes":"93","size_leaf_vector":"0"}},{"base_weights":[1.4557E-1,-2.065348E-1,6.888535E-1,-4.7284648E-1,1.5038815E-1,5.263643E-1,9.144787E-1,-5.5187523E-1,-2.0905472E-1,-1.8485132E-1,4.913366E-1,3.5332197E-1,6.9029236E-1,9.448603E-2,4.9123976E-1,-6.1771655E-1,-3.9577937E-1,8.727263E-2,-4.148643E-1,-4.544208E-1,-1.7687266E-3,2.4212827E-1,6.135973E-1,2.6003847E-1,6.868433E-1,6.720989E-2,7.3877364E-1,4.6187095E-2,7.742747E-2,-2.9867345E-1,-6.268081E-1,-5.6690353E-1,1.381987E-1,-6.064746E-2,5.786865E-1,-5.088075E-1,2.577411E-1,-5.370174E-1,2.044895E-2,-1.2290283E-1,2.0018205E-1,4.0130717E-1,-4.416017E-1,7.1940887E-1,3.3137724E-1,3.1954396E-1,-6.0145915E-2,8.708412E-1,-1.9766305E-2,-3.492548E-1,6.8902485E-2,7.7440983E-1,-2.4005086E-3,-1.7156033E-2,2.468111E-2,-4.6714094E-2,9.519797E-3,-5.0412517E-2,-6.673847E-2,-3.5203283E-3,-5.9338827E-2,-2.2798453E-2,6.9908775E-2,3.2307833E-2,-2.0923577E-2,8.7925196E-2,-3.2281782E-3,-6.4840786E-2,-3.492768E-2,4.630385E-2,-4.5706597E-3,-6.346462E-2,-3.8159844E-2,-4.0752485E-2,2.8339652E-2,2.6218815E-2,-2.2188261E-2,9.116469E-2,3.8298636E-3,1.1302448E-2,6.702008E-2,-7.288338E-3,-5.7587095E-2,3.2806914E-2,8.162916E-2,6.0993392E-2,-1.5268785E-2,5.854113E-2,2.2543197E-2,1.026144E-1,2.6180077E-2,-7.7589387E-3,-4.7835965E-2,8.121544E-2,-2.0513377E-4],"categories":[],"categories_nodes":[],"categories_segments":[],"categories_sizes":[],"default_left":[0,0,0,0,0,0,0,0,0,0,0,0,0,0,0,0,0,0,0,0,0,0,0,0,0,0,0,0,0,0,0,0,0,0,0,0,0,0,0,0,0,0,0,0,0,0,0,0,0,0,0,0,0,0,0,0,0,0,0,0,0,0,0,0,0,0,0,0,0,0,0,0,0,0,0,0,0,0,0,0,0,0,0,0,0,0,0,0,0,0,0,0,0,0,0],"id":14,"left_children":[1,3,5,7,9,11,13,15,17,19,21,23,25,-1,27,29,31,33,35,37,39,41,43,45,47,49,51,53,-1,55,57,59,61,63,65,67,69,71,73,75,77,79,81,83,85,87,-1,89,-1,91,-1,93,-1,-1,-1,-1,-1,-1,-1,-1,-1,-1,-1,-1,-1,-1,-1,-1,-1,-1,-1,-1,-1,-1,-1,-1,-1,-1,-1,-1,-1,-1,-1,-1,-1,-1,-1,-1,-1,-1,-1,-1,-1,-1,-1],"loss_changes":[9.494794E1,2.8727753E1,6.6722183E0,3.4890518E0,1.4902131E1,3.0406265E0,5.6884766E-1,1.1165886E0,2.5651639E0,3.259752E0,1.8171911E0,1.6376228E0,1.7148399E0,0E0,9.043715E-1,7.778931E-2,3.922657E0,1.330594E0,1.6883721E0,1.0589051E0,1.0116423E0,2.668076E0,1.0346756E0,2.6132443E0,2.1494737E0,1.6175376E0,1.4890232E0,2.1554437E-1,0E0,3.3918446E-1,1.0121155E-1,4.305315E-1,2.4216108E0,9.0027344E-1,8.030187E-1,2.6260567E-1,2.5067145E-1,1.03703976E-1,6.693721E-1,1.0430967E0,1.7512188E0,1.4039328E0,1.9557005E-1,8.754015E-1,1.9106481E0,9.897089E-1,0E0,7.001529E-1,0E0,9.784204E-2,0E0,1.5171585E0,0E0,0E0,0E0,0E0,0E0,0E0,0E0,0E0,0E0,0E0,0E0,0E0,0E0,0E0,0E0,0E0,0E0,0E0,0E0,0E0,0E0,0E0,0E0,0E0,0E0,0E0,0E0,0E0,0E0,0E0,0E0,0E0,0E0,0E0,0E0,0E0,0E0,0E0,0E0,0E0,0E0,0E0,0E0],"parents":[2147483647,0,0,1,1,2,2,3,3,4,4,5,5,6,6,7,7,8,8,9,9,10,10,11,11,12,12,14,14,15,15,16,16,17,17,18,18,19,19,20,20,21,21,22,22,23,23,24,24,25,25,26,26,27,27,29,29,30,30,31,31,32,32,33,33,34,34,35,35,36,36,37,37,38,38,39,39,40,40,41,41,42,42,43,43,44,44,45,45,47,47,49,49,51,51],"right_children":[2,4,6,8,10,12,14,16,18,20,22,24,26,-1,28,30,32,34,36,38,40,42,44,46,48,50,52,54,-1,56,58,60,62,64,66,68,70,72,74,76,78,80,82,84,86,88,-1,90,-1,92,-1,94,-1,-1,-1,-1,-1,-1,-1,-1,-1,-1,-1,-1,-1,-1,-1,-1,-1,-1,-1,-1,-1,-1,-1,-1,-1,-1,-1,-1,-1,-1,-1,-1,-1,-1,-1,-1,-1,-1,-1,-1,-1,-1,-1],"split_conditions":[6.8E-1,6.975647E-2,1.03E0,5.6E-1,4E-1,-9.135454E-1,7.4E1,-5E-1,-5.2317355E-2,2.3E-1,5.8778524E-1,4.8063084E-1,-7.336107E-1,9.448603E-2,1.21E0,4.7E1,4.1E-1,-5.2991927E-1,6.851591E-1,9.945219E-1,4.820907E-1,7.4E1,5.6E-1,4.4147378E-1,9.9E-1,1E0,2.7563736E-1,-1.0959279E-1,7.742747E-2,4.6E-1,2.4E-1,-7.047695E-1,1E0,-5E-1,1E0,1E0,-8.8294756E-1,2.9389262E-1,1E-1,2.5E-1,5.084208E-1,1E0,2.419219E-1,4.3E-1,8.9879405E-1,-4.6359193E-1,-6.0145915E-2,7.880108E-1,-1.9766305E-2,7.5E-1,6.8902485E-2,7.6E1,-2.4005086E-3,-1.7156033E-2,2.468111E-2,-4.6714094E-2,9.519797E-3,-5.0412517E-2,-6.673847E-2,-3.5203283E-3,-5.9338827E-2,-2.2798453E-2,6.9908775E-2,3.2307833E-2,-2.0923577E-2,8.7925196E-2,-3.2281782E-3,-6.4840786E-2,-3.492768E-2,4.630385E-2,-4.5706597E-3,-6.346462E-2,-3.8159844E-2,-4.0752485E-2,2.8339652E-2,2.6218815E-2,-2.2188261E-2,9.116469E-2,3.8298636E-3,1.1302448E-2,6.702008E-2,-7.288338E-3,-5.7587095E-2,3.2806914E-2,8.162916E-2,6.0993392E-2,-1.5268785E-2,5.854113E-2,2.2543197E-2,1.026144E-1,2.6180077E-2,-7.7589387E-3,-4.7835965E-2,8.121544E-2,-2.0513377E-4],"split_indices":[2,3,2,2,2,3,0,3,6,2,3,6,6,0,2,0,2,3,6,3,6,0,2,6,2,1,3,6,0,2,2,6,1,6,1,1,3,6,2,2,6,1,3,2,3,6,0,6,0,2,0,0,0,0,0,0,0,0,0,0,0,0,0,0,0,0,0,0,0,0,0,0,0,0,0,0,0,0,0,0,0,0,0,0,0,0,0,0,0,0,0,0,0,0,0],"split_type":[0,0,0,0,0,0,0,0,0,0,0,0,0,0,0,0,0,0,0,0,0,0,0,0,0,0,0,0,0,0,0,0,0,0,0,0,0,0,0,0,0,0,0,0,0,0,0,0,0,0,0,0,0,0,0,0,0,0,0,0,0,0,0,0,0,0,0,0,0,0,0,0,0,0,0,0,0,0,0,0,0,0,0,0,0,0,0,0,0,0,0,0,0,0,0],"sum_hessian":[4.946052E2,3.0048145E2,1.9412373E2,1.7189803E2,1.2858342E2,1.1478883E2,7.933489E1,1.3143088E2,4.0467155E1,6.506537E1,6.351805E1,5.737703E1,5.7411808E1,7.287147E1,6.4634194E0,9.035978E1,4.1071095E1,1.6822235E1,2.3644922E1,2.5717321E1,3.934805E1,2.1886475E1,4.1631577E1,4.6227272E1,1.1149756E1,4.316926E0,5.3094883E1,2.9647474E0,3.4986722E0,3.4415004E0,8.6918274E1,3.1056686E1,1.001441E1,1.3603917E1,3.2183182E0,2.0960836E1,2.6840854E0,2.179545E1,3.9218698E0,2.4839966E1,1.4508085E1,1.8088387E1,3.7980886E0,2.9152456E1,1.2479121E1,4.382899E1,2.3982792E0,9.242542E0,1.9072143E0,2.847874E0,1.4690523E0,5.07105E1,2.384386E0,1.4911706E0,1.4735768E0,2.2801895E0,1.1613109E0,2.4939108E1,6.1979168E1,1.5840895E0,2.9472597E1,6.417922E0,3.5964882E0,3.469555E0,1.0134362E1,1.8628017E0,1.3555166E0,9.544378E0,1.1416459E1,1.2872628E0,1.3968225E0,1.1492689E1,1.0302761E1,1.2833135E0,2.6385562E0,4.7419634E0,2.0098001E1,1.8307185E0,1.2677367E1,9.414919E0,8.673468E0,1.4257193E0,2.3723693E0,6.655407E0,2.249705E1,7.755926E0,4.7231946E0,1.0093731E1,3.373526E1,6.8188972E0,2.423645E0,1.4331616E0,1.4147122E0,4.831584E1,2.3946538E0],"tree_param":{"num_deleted":"0","num_feature":"7","num_nodes":"95","size_leaf_vector":"0"}},{"base_weights":[-3.3789104E-1,-8.4398896E-2,-4.567683E-1,1.6968386E-1,-5.521596E-1,-1.5389149E-1,-4.868481E-1,3.2587302E-1,-9.6357994E-2,4.7946153E-3,-5.6811064E-1,3.8232863E-1,-5.7364106E-1,-5.186622E-1,-2.2315453E-1,5.038314E-1,8.083504E-2,6.4075786E-1,-2.030666E-1,-5.8363166E-2,-2.4578291E-1,5.5320853E-1,8.607032E-3,-2.7137578E-1,-6.240294E-2,-4.3327293E-1,-6.040057E-1,5.838599E-4,-6.0074795E-2,-2.2659631E-1,6.0344636E-1,7.60203E-1,-5.9305094E-2,2.1734474E-2,8.251054E-2,-2.7107134E-1,5.9170604E-2,1.3456496E-2,-4.3652795E-2,3.2559133E-1,9.379872E-2,5.829323E-2,-4.7600288E-2,-4.462671E-2,8.815137E-3,-1.9228487E-1,-5.181554E-1,-6.1087155E-1,-1.8932305E-1,-3.5467973E-1,6.413292E-1,1.4672597E-2,-5.248424E-2,1.0475035E-2,7.380892E-2,9.588794E-2,2.7652219E-2,-3.295506E-2,1.45448325E-2,-5.2685875E-2,-1.2493474E-2,6.259301E-2,-6.292452E-3,5.925026E-2,-3.6713015E-2,-2.98417E-2,-5.458801E-2,-5.156554E-2,-6.4249724E-2,-3.6706943E-2,7.1446174E-3,7.810948E-3,-5.2130233E-2,8.382021E-2,1.0532643E-2],"categories":[],"categories_nodes":[],"categories_segments":[],"categories_sizes":[],"default_left":[0,0,0,0,0,0,0,0,0,0,0,0,0,0,0,0,0,0,0,0,0,0,0,0,0,0,0,0,0,0,0,0,0,0,0,0,0,0,0,0,0,0,0,0,0,0,0,0,0,0,0,0,0,0,0,0,0,0,0,0,0,0,0,0,0,0,0,0,0,0,0,0,0,0,0],"id":15,"left_children":[1,3,5,7,9,11,13,15,17,-1,19,21,23,25,27,29,31,33,35,-1,37,39,41,43,-1,45,47,49,-1,51,53,55,57,-1,-1,59,-1,-1,-1,61,-1,-1,-1,-1,-1,63,65,67,69,71,73,-1,-1,-1,-1,-1,-1,-1,-1,-1,-1,-1,-1,-1,-1,-1,-1,-1,-1,-1,-1,-1,-1,-1,-1],"loss_changes":[1.3196342E1,1.6903534E1,2.6469002E0,3.8716173E0,5.060444E-1,6.623319E0,2.1602707E0,2.5084825E0,2.879824E0,0E0,1.007061E-1,8.3137596E-1,7.981634E-2,1.497055E0,2.6162214E0,2.5868979E0,2.5000322E0,1.8451607E-1,1.8519413E0,0E0,3.467279E-1,4.8012376E-1,1.7036071E0,2.9757994E-1,0E0,2.440466E0,2.2077942E-1,4.880739E0,0E0,6.079159E-1,1.9307213E0,1.6553211E-1,1.2820752E0,0E0,0E0,1.0374789E0,0E0,0E0,0E0,8.7568194E-1,0E0,0E0,0E0,0E0,0E0,4.8740034E0,3.9295578E-1,1.7372131E-2,1.8259874E-1,1.0354716E0,7.187104E-1,0E0,0E0,0E0,0E0,0E0,0E0,0E0,0E0,0E0,0E0,0E0,0E0,0E0,0E0,0E0,0E0,0E0,0E0,0E0,0E0,0E0,0E0,0E0,0E0],"parents":[2147483647,0,0,1,1,2,2,3,3,4,4,5,5,6,6,7,7,8,8,10,10,11,11,12,12,13,13,14,14,15,15,16,16,17,17,18,18,20,20,21,21,22,22,23,23,25,25,26,26,27,27,29,29,30,30,31,31,32,32,35,35,39,39,45,45,46,46,47,47,48,48,49,49,50,50],"right_children":[2,4,6,8,10,12,14,16,18,-1,20,22,24,26,28,30,32,34,36,-1,38,40,42,44,-1,46,48,50,-1,52,54,56,58,-1,-1,60,-1,-1,-1,62,-1,-1,-1,-1,-1,64,66,68,70,72,74,-1,-1,-1,-1,-1,-1,-1,-1,-1,-1,-1,-1,-1,-1,-1,-1,-1,-1,-1,-1,-1,-1,-1,-1],"split_conditions":[5.9E1,7.2E-1,1.6E-1,2.1706022E-1,-9.5105654E-1,6.7E1,9.2893106E-1,4.1E-1,1.6E-1,4.7946153E-3,5.8E1,2.4756701E-1,-8.480481E-1,1E0,6.7E-1,1E-1,-4.9240386E-1,-5.591929E-1,1.036297E0,-5.8363166E-2,-1.391731E-1,9.396926E-1,1E-1,7E1,-6.240294E-2,4E-1,9.945219E-1,5.6E-1,-6.0074795E-2,1E0,-4.275252E-1,1E0,-2.419219E-1,2.1734474E-2,8.251054E-2,-4.0673664E-1,5.9170604E-2,1.3456496E-2,-4.3652795E-2,-1.3247982E-1,9.379872E-2,5.829323E-2,-4.7600288E-2,-4.462671E-2,8.815137E-3,6.3E1,-5E-1,6.5E1,6.9E1,9.945219E-1,7.5E1,1.4672597E-2,-5.248424E-2,1.0475035E-2,7.380892E-2,9.588794E-2,2.7652219E-2,-3.295506E-2,1.45448325E-2,-5.2685875E-2,-1.2493474E-2,6.259301E-2,-6.292452E-3,5.925026E-2,-3.6713015E-2,-2.98417E-2,-5.458801E-2,-5.156554E-2,-6.4249724E-2,-3.6706943E-2,7.1446174E-3,7.810948E-3,-5.2130233E-2,8.382021E-2,1.0532643E-2],"split_indices":[0,2,2,6,4,0,6,2,2,0,0,6,4,1,2,2,6,4,6,0,4,4,2,0,0,2,4,2,0,1,6,1,4,0,0,4,0,0,0,6,0,0,0,0,0,0,6,0,0,6,0,0,0,0,0,0,0,0,0,0,0,0,0,0,0,0,0,0,0,0,0,0,0,0,0],"split_type":[0,0,0,0,0,0,0,0,0,0,0,0,0,0,0,0,0,0,0,0,0,0,0,0,0,0,0,0,0,0,0,0,0,0,0,0,0,0,0,0,0,0,0,0,0,0,0,0,0,0,0,0,0,0,0,0,0,0,0,0,0,0,0,0,0,0,0,0,0,0,0,0,0,0,0],"sum_hessian":[4.3819452E2,1.4043755E2,2.9775696E2,9.141766E1,4.9019886E1,2.7452335E1,2.7030463E2,5.745929E1,3.3958374E1,1.2172954E0,4.780259E1,1.2092984E1,1.535935E1,2.4034105E2,2.9963587E1,3.267384E1,2.478545E1,3.6614273E0,3.0296946E1,4.483307E1,2.9695196E0,7.968988E0,4.1239963E0,3.1070032E0,1.2252347E1,1.2317592E2,1.1716513E2,1.944195E1,1.0521637E1,3.7682662E0,2.8905573E1,3.4818122E0,2.1303638E1,1.7715319E0,1.8898953E0,2.8515913E1,1.7810326E0,1.0901923E0,1.8793273E0,6.167035E0,1.8019531E0,1.7944508E0,2.3295455E0,1.9279126E0,1.1790907E0,3.2935295E1,9.024062E1,1.1479144E2,2.3736866E0,1.2794468E1,6.6474814E0,1.8991227E0,1.8691436E0,6.5230837E0,2.2382488E1,1.7716342E0,1.7101779E0,8.920432E0,1.2383205E1,9.420927E0,1.9094986E1,3.133573E0,3.0334618E0,5.56559E0,2.7369703E1,1.1428119E1,7.88125E1,3.293584E1,8.18556E1,1.1691357E0,1.204551E0,3.704232E0,9.090236E0,4.4494176E0,2.1980639E0],"tree_param":{"num_deleted":"0","num_feature":"7","num_nodes":"75","size_leaf_vector":"0"}},{"base_weights":[1.557699E-1,3.8215372E-1,-2.3650531E-1,4.899966E-1,3.335194E-2,-6.455251E-2,-5.000169E-1,5.2203876E-1,2.944987E-1,3.3077633E-1,-4.0146074E-1,6.698741E-2,-2.6918378E-1,-3.8593864E-1,-6.253808E-2,4.9756292E-1,1.0120528E-1,4.4671112E-1,-3.2435242E-2,3.9488146E-1,-2.841721E-1,-2.2822034E-1,-6.2181443E-2,1.8598057E-1,-2.3288216E-1,-5.1003058E-2,-1.8867013E-1,-2.0349403E-1,-5.7762396E-1,5.2078444E-1,4.8554026E-2,7.722292E-2,5.958534E-1,-2.3911689E-1,4.7601572E-1,4.8158178E-1,-1.0514172E-1,7.485694E-3,-5.5208206E-2,-4.8032814E-1,9.270376E-2,-3.6035504E-2,5.7058895E-1,-1.24310136E-1,-5.424291E-2,1.6833644E-2,-3.2394964E-1,-4.2389613E-1,-4.127536E-3,-6.2132455E-2,-1.4040152E-2,4.485839E-2,6.393343E-2,6.521256E-2,-3.9460506E-2,4.218146E-2,-2.547068E-2,6.481245E-2,1.1392583E-2,2.6137996E-2,-5.890816E-2,6.671106E-2,3.841994E-3,2.565216E-2,6.838443E-2,-4.146421E-2,4.655772E-2,-5.4782785E-2,1.6529922E-4,3.8368832E-2,-2.0420905E-2,2.4536122E-2,-2.7062071E-2,2.2808889E-2,7.977409E-2,-2.6943892E-2,1.0955542E-2,-2.3300914E-2,1.5411249E-2,-4.4122446E-2,-1.9033918E-2,-5.0038677E-2,1.1421931E-2,-4.246979E-2,9.479814E-3],"categories":[],"categories_nodes":[],"categories_segments":[],"categories_sizes":[],"default_left":[0,0,0,0,0,0,0,0,0,0,0,0,0,0,0,0,0,0,0,0,0,0,0,0,0,0,0,0,0,0,0,0,0,0,0,0,0,0,0,0,0,0,0,0,0,0,0,0,0,0,0,0,0,0,0,0,0,0,0,0,0,0,0,0,0,0,0,0,0,0,0,0,0,0,0,0,0,0,0,0,0,0,0,0,0],"id":16,"left_children":[1,3,5,7,9,11,13,15,17,19,21,23,25,27,-1,29,-1,31,33,35,37,39,-1,41,43,-1,45,47,49,51,53,55,57,59,61,63,65,-1,-1,67,69,71,73,75,-1,77,79,81,83,-1,-1,-1,-1,-1,-1,-1,-1,-1,-1,-1,-1,-1,-1,-1,-1,-1,-1,-1,-1,-1,-1,-1,-1,-1,-1,-1,-1,-1,-1,-1,-1,-1,-1,-1,-1],"loss_changes":[4.4314686E1,1.1875797E1,8.252817E0,1.3585052E0,9.927217E0,3.0272164E0,7.890949E-1,1.9685631E0,1.8203955E0,1.9067187E0,1.0496755E0,2.5000875E0,7.5589204E-1,1.2930989E0,0E0,2.0421486E0,0E0,1.3222322E0,1.4232819E0,1.855916E0,5.106141E-1,1.5862411E0,0E0,4.276999E0,6.0485685E-1,0E0,9.6514297E-1,9.7418606E-1,2.7820587E-1,1.326046E0,3.160335E0,1.0555384E0,3.6801434E-1,1.822339E0,3.034773E-1,1.4482279E0,1.42497E0,0E0,0E0,3.5336137E-1,8.7507707E-1,2.214717E0,1.2420001E0,5.761891E-1,0E0,5.385192E-1,2.429781E-1,4.9093854E-1,5.674592E-1,0E0,0E0,0E0,0E0,0E0,0E0,0E0,0E0,0E0,0E0,0E0,0E0,0E0,0E0,0E0,0E0,0E0,0E0,0E0,0E0,0E0,0E0,0E0,0E0,0E0,0E0,0E0,0E0,0E0,0E0,0E0,0E0,0E0,0E0,0E0,0E0],"parents":[2147483647,0,0,1,1,2,2,3,3,4,4,5,5,6,6,7,7,8,8,9,9,10,10,11,11,12,12,13,13,15,15,17,17,18,18,19,19,20,20,21,21,23,23,24,24,26,26,27,27,28,28,29,29,30,30,31,31,32,32,33,33,34,34,35,35,36,36,39,39,40,40,41,41,42,42,43,43,45,45,46,46,47,47,48,48],"right_children":[2,4,6,8,10,12,14,16,18,20,22,24,26,28,-1,30,-1,32,34,36,38,40,-1,42,44,-1,46,48,50,52,54,56,58,60,62,64,66,-1,-1,68,70,72,74,76,-1,78,80,82,84,-1,-1,-1,-1,-1,-1,-1,-1,-1,-1,-1,-1,-1,-1,-1,-1,-1,-1,-1,-1,-1,-1,-1,-1,-1,-1,-1,-1,-1,-1,-1,-1,-1,-1,-1,-1],"split_conditions":[6.2E-1,6.156615E-1,7.956425E-1,2.419219E-1,3.8E-1,8.5E-1,1.15E0,1.391731E-1,4E-1,7.431448E-1,5E-1,-6.691306E-1,-3.09017E-1,-7.193398E-1,-6.253808E-2,6.123234E-17,1.0120528E-1,3.7460658E-1,6.633939E-1,9.975641E-1,2.9E-1,7.458914E-1,-6.2181443E-2,5.140033E-1,6.795173E-1,-5.1003058E-2,1.04528464E-1,1.04528464E-1,9.848077E-1,4.6E-1,2.5E-1,3.2356587E-1,8.9879405E-1,4.986858E-1,4.3837115E-1,-2.0791169E-1,5.6479007E-1,7.485694E-3,-5.5208206E-2,9.9026805E-1,8.894578E-1,7E-1,1E0,5.9963447E-1,-5.424291E-2,6.2098926E-1,-9.5105654E-1,1.004504E0,8.159218E-1,-6.2132455E-2,-1.4040152E-2,4.485839E-2,6.393343E-2,6.521256E-2,-3.9460506E-2,4.218146E-2,-2.547068E-2,6.481245E-2,1.1392583E-2,2.6137996E-2,-5.890816E-2,6.671106E-2,3.841994E-3,2.565216E-2,6.838443E-2,-4.146421E-2,4.655772E-2,-5.4782785E-2,1.6529922E-4,3.8368832E-2,-2.0420905E-2,2.4536122E-2,-2.7062071E-2,2.2808889E-2,7.977409E-2,-2.6943892E-2,1.0955542E-2,-2.3300914E-2,1.5411249E-2,-4.4122446E-2,-1.9033918E-2,-5.0038677E-2,1.1421931E-2,-4.246979E-2,9.479814E-3],"split_indices":[2,3,5,3,2,2,2,3,2,4,2,3,4,3,0,3,0,3,5,3,2,5,0,5,5,0,4,4,4,2,2,5,4,5,3,4,5,0,0,3,5,2,1,5,0,5,3,5,5,0,0,0,0,0,0,0,0,0,0,0,0,0,0,0,0,0,0,0,0,0,0,0,0,0,0,0,0,0,0,0,0,0,0,0,0],"split_type":[0,0,0,0,0,0,0,0,0,0,0,0,0,0,0,0,0,0,0,0,0,0,0,0,0,0,0,0,0,0,0,0,0,0,0,0,0,0,0,0,0,0,0,0,0,0,0,0,0,0,0,0,0,0,0,0,0,0,0,0,0,0,0,0,0,0,0,0,0,0,0,0,0,0,0,0,0,0,0,0,0,0,0,0,0],"sum_hessian":[4.9699478E2,3.1514752E2,1.8184726E2,2.4041191E2,7.47356E1,1.107942E2,7.105306E1,2.0512206E2,3.5289852E1,4.4521133E1,3.021447E1,6.785114E1,4.2943047E1,3.9336384E1,3.171668E1,1.9728333E2,7.838742E0,2.3829199E1,1.1460652E1,4.0642254E1,3.8788786E0,1.805526E1,1.2159209E1,4.8847466E1,1.900368E1,9.422396E0,3.3520653E1,2.1210241E1,1.8126143E1,1.8743008E2,9.853231E0,7.289016E0,1.6540182E1,8.525012E0,2.935641E0,3.466797E1,5.9742866E0,1.9654914E0,1.9133871E0,9.833596E0,8.221664E0,3.1544588E1,1.730288E1,1.5106675E1,3.8970034E0,1.365414E1,1.986651E1,9.538784E0,1.1671458E1,1.6096243E1,2.0298994E0,1.1945945E2,6.797064E1,3.9719696E0,5.8812613E0,3.443433E0,3.8455827E0,1.4610618E1,1.9295653E0,3.6122005E0,4.9128113E0,1.6782644E0,1.2573766E0,1.748284E1,1.718513E1,4.0509396E0,1.9233469E0,8.505776E0,1.3278193E0,4.004682E0,4.2169824E0,1.4320497E1,1.722409E1,7.6987762E0,9.604103E0,9.227995E0,5.878681E0,4.5946655E0,9.059475E0,9.353914E0,1.0512597E1,8.413024E0,1.1257601E0,1.5954592E0,1.0075999E1],"tree_param":{"num_deleted":"0","num_feature":"7","num_nodes":"85","size_leaf_vector":"0"}},{"base_weights":[1.4828354E-1,-1.9903989E-1,6.476452E-1,-4.7630644E-1,1.545548E-1,4.76631E-1,8.339307E-1,-5.505442E-1,-1.9070892E-1,-1.5007535E-1,4.6841124E-1,3.3623153E-1,6.596297E-1,6.114159E-1,8.754588E-2,4.1224733E-2,-5.8248746E-1,9.54285E-2,-3.6439824E-1,-4.7701773E-1,2.3279112E-2,5.367316E-1,1.914848E-3,5.795254E-1,1.7218181E-1,4.5120758E-1,9.19549E-2,7.562505E-1,-1.7579485E-2,-2.5840896E-1,8.012667E-2,-6.415946E-1,-4.599279E-1,6.670847E-1,-2.3211123E-1,-4.6415246E-1,3.4468647E-2,-6.291173E-2,-1.47518E-1,6.813674E-1,-6.650338E-2,3.0306777E-1,6.5735686E-1,-4.3558303E-1,3.899528E-1,7.886597E-1,2.4117617E-1,2.0204095E-2,6.494166E-1,5.5101776E-1,-1.555485E-2,9.370838E-2,1.2571178E-1,4.089254E-2,-5.2165028E-2,7.6993047E-3,-4.9944784E-2,-2.457123E-2,-6.5357745E-2,-5.509944E-2,-1.874172E-2,-3.9980123E-3,9.722044E-2,7.3162816E-3,-5.657899E-2,-5.5230975E-2,4.4727303E-2,3.456683E-2,-3.0983342E-2,1.5919562E-2,9.6342154E-2,-3.861175E-2,5.914747E-3,5.0461482E-2,-1.5112509E-2,9.498435E-2,3.818603E-2,-5.764801E-2,-5.7274066E-3,7.11602E-2,-8.994181E-4,9.093713E-2,5.00923E-2,8.865772E-2,-3.9344463E-3,-1.9307194E-2,2.3497967E-2,9.158539E-2,5.5008703E-3,2.5143737E-3,6.765847E-2,4.348302E-2,-3.5669845E-2,5.9364893E-2,-3.0768296E-2],"categories":[],"categories_nodes":[],"categories_segments":[],"categories_sizes":[],"default_left":[0,0,0,0,0,0,0,0,0,0,0,0,0,0,0,0,0,0,0,0,0,0,0,0,0,0,0,0,0,0,0,0,0,0,0,0,0,0,0,0,0,0,0,0,0,0,0,0,0,0,0,0,0,0,0,0,0,0,0,0,0,0,0,0,0,0,0,0,0,0,0,0,0,0,0,0,0,0,0,0,0,0,0,0,0,0,0,0,0,0,0,0,0,0,0],"id":17,"left_children":[1,3,5,7,9,11,13,15,17,19,21,23,25,27,-1,29,31,33,35,37,39,41,43,45,47,49,-1,51,53,55,-1,57,59,61,63,65,-1,-1,67,69,71,73,75,77,79,81,83,85,87,89,91,-1,93,-1,-1,-1,-1,-1,-1,-1,-1,-1,-1,-1,-1,-1,-1,-1,-1,-1,-1,-1,-1,-1,-1,-1,-1,-1,-1,-1,-1,-1,-1,-1,-1,-1,-1,-1,-1,-1,-1,-1,-1,-1,-1],"loss_changes":[8.574886E1,2.8693092E1,6.0613403E0,3.3692436E0,1.2409135E1,2.5540047E0,3.4909058E-1,2.4724464E0,1.7909666E0,3.765767E0,2.0325766E0,2.4216285E0,2.0696468E0,1.6865969E0,0E0,1.9304461E0,5.956421E-1,2.8024266E0,1.7300384E0,1.0599413E0,2.659551E0,1.369379E0,1.7239971E0,1.5801725E0,2.8267179E0,1.2858458E0,0E0,1.5871305E0,1.16251E0,5.383909E-1,0E0,2.2090912E-1,9.771881E-1,1.205754E0,1.0326581E0,1.8447804E0,0E0,0E0,7.9319125E-1,6.4203715E-1,1.6229998E0,1.9806315E0,2.525959E0,2.2152579E-1,6.966621E-1,6.62241E-2,2.0259972E0,1.4529724E0,1.4422996E0,1.4762583E0,1.0466166E0,0E0,1.0927224E0,0E0,0E0,0E0,0E0,0E0,0E0,0E0,0E0,0E0,0E0,0E0,0E0,0E0,0E0,0E0,0E0,0E0,0E0,0E0,0E0,0E0,0E0,0E0,0E0,0E0,0E0,0E0,0E0,0E0,0E0,0E0,0E0,0E0,0E0,0E0,0E0,0E0,0E0,0E0,0E0,0E0,0E0],"parents":[2147483647,0,0,1,1,2,2,3,3,4,4,5,5,6,6,7,7,8,8,9,9,10,10,11,11,12,12,13,13,15,15,16,16,17,17,18,18,19,19,20,20,21,21,22,22,23,23,24,24,25,25,27,27,28,28,29,29,31,31,32,32,33,33,34,34,35,35,38,38,39,39,40,40,41,41,42,42,43,43,44,44,45,45,46,46,47,47,48,48,49,49,50,50,52,52],"right_children":[2,4,6,8,10,12,14,16,18,20,22,24,26,28,-1,30,32,34,36,38,40,42,44,46,48,50,-1,52,54,56,-1,58,60,62,64,66,-1,-1,68,70,72,74,76,78,80,82,84,86,88,90,92,-1,94,-1,-1,-1,-1,-1,-1,-1,-1,-1,-1,-1,-1,-1,-1,-1,-1,-1,-1,-1,-1,-1,-1,-1,-1,-1,-1,-1,-1,-1,-1,-1,-1,-1,-1,-1,-1,-1,-1,-1,-1,-1,-1],"split_conditions":[6.6E-1,-1.8369701E-16,9.9E-1,5.6E-1,4E-1,-8.2903755E-1,7.1393156E-1,-3.0079168E-1,-5.2317355E-2,3.2908964E-1,6.2E-1,4.9969542E-1,7.9E-1,6.691306E-1,8.754588E-2,-3.8027197E-1,-5.591929E-1,6.2E1,6.490287E-1,6.691306E-1,3.7E-1,5.2991927E-1,8.314255E-1,7.725425E-2,4.9726096E-1,7.3E1,9.19549E-2,6.663297E-1,6E1,-4.1451877E-1,8.012667E-2,4.7E1,4.1E-1,-9.135454E-1,-7.6604444E-1,7.4817306E-1,3.4468647E-2,-6.291173E-2,8.2903755E-1,3.550704E-1,2.3E-1,7.1E1,7.308364E-1,6.49519E-1,6.4E1,-2.0336832E-1,-9.945219E-1,8.2E-1,7.8582335E-1,-6.691306E-1,-6.691306E-1,9.370838E-2,-9.848077E-1,4.089254E-2,-5.2165028E-2,7.6993047E-3,-4.9944784E-2,-2.457123E-2,-6.5357745E-2,-5.509944E-2,-1.874172E-2,-3.9980123E-3,9.722044E-2,7.3162816E-3,-5.657899E-2,-5.5230975E-2,4.4727303E-2,3.456683E-2,-3.0983342E-2,1.5919562E-2,9.6342154E-2,-3.861175E-2,5.914747E-3,5.0461482E-2,-1.5112509E-2,9.498435E-2,3.818603E-2,-5.764801E-2,-5.7274066E-3,7.11602E-2,-8.994181E-4,9.093713E-2,5.00923E-2,8.865772E-2,-3.9344463E-3,-1.9307194E-2,2.3497967E-2,9.158539E-2,5.5008703E-3,2.5143737E-3,6.765847E-2,4.348302E-2,-3.5669845E-2,5.9364893E-2,-3.0768296E-2],"split_indices":[2,3,2,2,2,3,5,5,6,5,2,5,2,6,0,5,3,0,5,3,5,3,5,6,6,0,0,5,0,6,0,0,2,3,3,6,0,0,3,5,2,0,5,6,0,6,3,2,5,3,3,0,3,0,0,0,0,0,0,0,0,0,0,0,0,0,0,0,0,0,0,0,0,0,0,0,0,0,0,0,0,0,0,0,0,0,0,0,0,0,0,0,0,0,0],"split_type":[0,0,0,0,0,0,0,0,0,0,0,0,0,0,0,0,0,0,0,0,0,0,0,0,0,0,0,0,0,0,0,0,0,0,0,0,0,0,0,0,0,0,0,0,0,0,0,0,0,0,0,0,0,0,0,0,0,0,0,0,0,0,0,0,0,0,0,0,0,0,0,0,0,0,0,0,0,0,0,0,0,0,0,0,0,0,0,0,0,0,0,0,0,0,0],"sum_hessian":[4.9265747E2,2.9091638E2,2.0174109E2,1.6286272E2,1.2805367E2,1.07037224E2,9.470387E1,1.2852615E2,3.4336567E1,6.5246765E1,6.2806904E1,6.2173832E1,4.486339E1,1.7367697E1,7.7336174E1,6.567557E0,1.21958595E2,1.3140072E1,2.1196497E1,2.2001247E1,4.324552E1,5.4652287E1,8.154615E0,2.4019337E1,3.8154495E1,2.64166E1,1.8446793E1,1.3952607E1,3.4150891E0,5.1838994E0,1.3836576E0,7.942105E1,4.2537544E1,4.4087725E0,8.731298E0,1.8885149E1,2.3113472E0,1.4430645E1,7.570603E0,4.4006343E0,3.8844887E1,1.9803429E1,3.4848858E1,3.7754328E0,4.3791823E0,1.4021635E1,9.997702E0,2.972937E1,8.425125E0,2.1614212E1,4.802387E0,1.0465131E1,3.4874759E0,1.9521163E0,1.4629729E0,2.4522324E0,2.7316668E0,2.965163E0,7.645589E1,3.1117058E1,1.1420488E1,1.5909579E0,2.8178148E0,4.9674473E0,3.7638516E0,1.7578857E1,1.3062928E0,1.5949197E0,5.975683E0,2.0920324E0,2.3086016E0,1.0376802E1,2.8468084E1,1.3639789E1,6.1636395E0,1.5715945E1,1.9132914E1,2.3692117E0,1.4062213E0,1.990583E0,2.3885992E0,8.355781E0,5.6658545E0,2.3743966E0,7.623305E0,1.4967462E1,1.4761909E1,5.4440856E0,2.9810395E0,4.3975434E0,1.7216667E1,1.9514354E0,2.8509517E0,1.4991144E0,1.9883614E0],"tree_param":{"num_deleted":"0","num_feature":"7","num_nodes":"95","size_leaf_vector":"0"}},{"base_weights":[-3.5400096E-1,-2.0328154E-1,-5.12274E-1,-2.4254942E-2,-5.610025E-1,-5.3892714E-1,-2.7860978E-1,1.20350875E-1,-3.2726243E-1,5.92876E-3,-5.720682E-1,-2.9179218E-1,-5.5629593E-1,5.8550604E-2,-3.7692732E-1,4.665509E-1,-3.3213902E-2,4.8261724E-2,-3.5929275E-1,-2.5390136E-1,-5.8129873E-2,-5.306252E-1,4.7800106E-1,-3.8721058E-1,-5.807146E-1,1.8824661E-2,-4.4431674E-1,-1.14425935E-1,6.105472E-1,1.8763164E-1,-2.0144427E-1,1.930217E-1,-4.1416356E-1,-4.2923532E-2,6.8287975E-3,8.67036E-3,-6.1056573E-2,9.145339E-2,-3.4200154E-2,-5.533431E-1,-3.9965816E-2,-9.608856E-3,-5.8631843E-1,-6.319704E-2,-6.1385214E-2,5.0276536E-2,-4.386074E-2,7.753778E-2,-8.437756E-3,2.2444734E-3,6.274597E-2,-4.571473E-3,-3.8391784E-2,6.330982E-2,-4.3531492E-2,-6.336689E-2,-2.8851932E-2,-6.0958475E-2,1.2255491E-2,5.680244E-2,-1.9965041E-2,-6.284481E-2,-5.0996896E-2,-3.8809422E-2,5.9127092E-2],"categories":[],"categories_nodes":[],"categories_segments":[],"categories_sizes":[],"default_left":[0,0,0,0,0,0,0,0,0,0,0,0,0,0,0,0,0,0,0,0,0,0,0,0,0,0,0,0,0,0,0,0,0,0,0,0,0,0,0,0,0,0,0,0,0,0,0,0,0,0,0,0,0,0,0,0,0,0,0,0,0,0,0,0,0],"id":18,"left_children":[1,3,5,7,9,11,13,15,17,-1,19,21,23,-1,25,27,29,-1,31,33,-1,35,37,39,41,-1,43,45,47,49,51,53,55,-1,-1,-1,-1,-1,-1,57,59,-1,61,63,-1,-1,-1,-1,-1,-1,-1,-1,-1,-1,-1,-1,-1,-1,-1,-1,-1,-1,-1,-1,-1],"loss_changes":[1.0111843E1,1.4140897E1,1.1467171E0,6.539439E0,5.396099E-1,6.3539886E-1,2.20793E0,5.3932047E0,1.4235787E0,0E0,6.5258026E-2,2.8839636E0,4.8752213E-1,0E0,9.066863E-1,2.6756701E0,2.675834E0,0E0,1.5023041E0,2.4504325E-1,0E0,6.151757E-1,1.713743E0,1.4070613E0,3.476677E-1,0E0,1.2279611E0,1.626873E0,2.9427052E0,2.2541056E0,1.1414365E0,1.6370064E0,1.0033708E0,0E0,0E0,0E0,0E0,0E0,0E0,7.0873976E-1,9.963976E-1,0E0,1.5193176E-1,1.7499772E0,0E0,0E0,0E0,0E0,0E0,0E0,0E0,0E0,0E0,0E0,0E0,0E0,0E0,0E0,0E0,0E0,0E0,0E0,0E0,0E0,0E0],"parents":[2147483647,0,0,1,1,2,2,3,3,4,4,5,5,6,6,7,7,8,8,10,10,11,11,12,12,14,14,15,15,16,16,18,18,19,19,21,21,22,22,23,23,24,24,26,26,27,27,28,28,29,29,30,30,31,31,32,32,39,39,40,40,42,42,43,43],"right_children":[2,4,6,8,10,12,14,16,18,-1,20,22,24,-1,26,28,30,-1,32,34,-1,36,38,40,42,-1,44,46,48,50,52,54,56,-1,-1,-1,-1,-1,-1,58,60,-1,62,64,-1,-1,-1,-1,-1,-1,-1,-1,-1,-1,-1,-1,-1,-1,-1,-1,-1,-1,-1,-1,-1],"split_conditions":[6.5E1,7.1E-1,9.2893106E-1,2.4984771E-1,-9.5105654E-1,1.4E-1,9.612617E-1,2.7E-1,