{"learner":{"attributes":{},"feature_names":["Age","Barrett Integrated-K magnitude (D)","BIK_axis_cos","BIK_axis_sin","deltaK_IOL700_cyl_atBIKaxis","deltaTK_IOL700_cyl_atBIKaxis","PostAstig_IOL700_cyl_atBIKaxis","Pentacam_cyl_atBIKaxis","Axial length (mm)"],"feature_types":["int","float","float","float","float","float","float","float","float"],"gradient_booster":{"model":{"cats":{"enc":[],"feature_segments":[],"sorted_idx":[]},"gbtree_model_param":{"num_parallel_tree":"1","num_trees":"180"},"iteration_indptr":[0,1,2,3,4,5,6,7,8,9,10,11,12,13,14,15,16,17,18,19,20,21,22,23,24,25,26,27,28,29,30,31,32,33,34,35,36,37,38,39,40,41,42,43,44,45,46,47,48,49,50,51,52,53,54,55,56,57,58,59,60,61,62,63,64,65,66,67,68,69,70,71,72,73,74,75,76,77,78,79,80,81,82,83,84,85,86,87,88,89,90,91,92,93,94,95,96,97,98,99,100,101,102,103,104,105,106,107,108,109,110,111,112,113,114,115,116,117,118,119,120,121,122,123,124,125,126,127,128,129,130,131,132,133,134,135,136,137,138,139,140,141,142,143,144,145,146,147,148,149,150,151,152,153,154,155,156,157,158,159,160,161,162,163,164,165,166,167,168,169,170,171,172,173,174,175,176,177,178,179,180],"tree_info":[0,0,0,0,0,0,0,0,0,0,0,0,0,0,0,0,0,0,0,0,0,0,0,0,0,0,0,0,0,0,0,0,0,0,0,0,0,0,0,0,0,0,0,0,0,0,0,0,0,0,0,0,0,0,0,0,0,0,0,0,0,0,0,0,0,0,0,0,0,0,0,0,0,0,0,0,0,0,0,0,0,0,0,0,0,0,0,0,0,0,0,0,0,0,0,0,0,0,0,0,0,0,0,0,0,0,0,0,0,0,0,0,0,0,0,0,0,0,0,0,0,0,0,0,0,0,0,0,0,0,0,0,0,0,0,0,0,0,0,0,0,0,0,0,0,0,0,0,0,0,0,0,0,0,0,0,0,0,0,0,0,0,0,0,0,0,0,0,0,0,0,0,0,0,0,0,0,0,0,0],"trees":[{"base_weights":[-1.5116255E-1,-1.9735203E0,1.8380507E0,1.3907436E-1,-2.8740616E0,3.914182E0,5.7748896E-1,1.3724744E-1,-3.921228E-1,-3.606196E0,4.2245218E-1,2.500238E0,5.907502E0,-5.675529E-2,5.0858574E0,1.6827394E0,-1.4165468E0,-4.2169914E0,-5.8316064E-1,1.5799919E0,-1.2476802E-1,3.1994073E0,2.199927E-1,3.7859812E-2,2.0747425E-1,1.3759396E0,-9.8767245E-1,5.724744E-2,1.8220858E-1,-5.82179E-4,1.3385981E-1,-8.960113E-2,2.7931446E-2,-1.5767962E-1,-6.439721E-2,-5.767523E-2,1.07731976E-1,-2.7791413E-2,8.788957E-2,4.3574765E-2,1.3749665E-1,-1.9419225E-2,2.7451754E-2,1.3477391E-2,1.3627838E-1,-1.207642E-1,3.7540316E-3],"categories":[],"categories_nodes":[],"categories_segments":[],"categories_sizes":[],"default_left":[0,0,0,0,0,0,0,0,0,0,0,0,0,0,0,0,0,0,0,0,0,0,0,0,0,0,0,0,0,0,0,0,0,0,0,0,0,0,0,0,0,0,0,0,0,0,0],"id":0,"left_children":[1,3,5,7,9,11,13,-1,15,17,19,21,23,25,27,29,31,33,35,37,-1,39,41,-1,-1,43,45,-1,-1,-1,-1,-1,-1,-1,-1,-1,-1,-1,-1,-1,-1,-1,-1,-1,-1,-1,-1],"loss_changes":[1.8236656E3,5.0402924E2,6.2356665E2,2.03301E2,4.542732E2,2.1355322E2,4.460123E2,0E0,1.6953261E2,2.7383765E2,2.1507562E2,9.2066284E1,1.4184912E2,1.8896608E2,2.8856781E1,1.2996054E2,2.0496478E2,2.3874878E2,1.8752226E2,1.1786489E2,0E0,8.9412476E1,1.3721335E1,0E0,0E0,1.5777307E2,2.9495325E2,0E0,0E0,0E0,0E0,0E0,0E0,0E0,0E0,0E0,0E0,0E0,0E0,0E0,0E0,0E0,0E0,0E0,0E0,0E0,0E0],"parents":[2147483647,0,0,1,1,2,2,3,3,4,4,5,5,6,6,8,8,9,9,10,10,11,11,12,12,13,13,14,14,15,15,16,16,17,17,18,18,19,19,21,21,22,22,25,25,26,26],"right_children":[2,4,6,8,10,12,14,-1,16,18,20,22,24,26,28,30,32,34,36,38,-1,40,42,-1,-1,44,46,-1,-1,-1,-1,-1,-1,-1,-1,-1,-1,-1,-1,-1,-1,-1,-1,-1,-1,-1,-1],"split_conditions":[3.1398734E-1,-5E-1,6.3E1,-1.5390004E-1,6.909954E-1,1.04528464E-1,8.180025E-1,1.3724744E-1,6.5E1,9.2718387E-1,-4.175193E-2,2.124933E-1,5.032736E-2,-6.975647E-2,1.3145204E-1,-1.91013E-2,3.804226E-1,4.4E-1,1.04528464E-1,5.5E-1,-1.2476802E-1,4.9948528E-1,2.4665727E-1,3.7859812E-2,2.0747425E-1,6.989085E-1,-8.2903755E-1,5.724744E-2,1.8220858E-1,-5.82179E-4,1.3385981E-1,-8.960113E-2,2.7931446E-2,-1.5767962E-1,-6.439721E-2,-5.767523E-2,1.07731976E-1,-2.7791413E-2,8.788957E-2,4.3574765E-2,1.3749665E-1,-1.9419225E-2,2.7451754E-2,1.3477391E-2,1.3627838E-1,-1.207642E-1,3.7540316E-3],"split_indices":[5,3,0,5,7,2,5,0,0,3,6,6,6,3,6,6,7,1,2,1,0,7,6,0,0,7,2,0,0,0,0,0,0,0,0,0,0,0,0,0,0,0,0,0,0,0,0],"split_type":[0,0,0,0,0,0,0,0,0,0,0,0,0,0,0,0,0,0,0,0,0,0,0,0,0,0,0,0,0,0,0,0,0,0,0,0,0,0,0,0,0,0,0,0,0,0,0],"sum_hessian":[4.96E2,2.59E2,2.37E2,7.8E1,1.81E2,8.7E1,1.5E2,6E0,7.2E1,1.48E2,3.3E1,5.5E1,3.2E1,1.34E2,1.6E1,2.3E1,4.9E1,1.22E2,2.6E1,2.8E1,5E0,4.1E1,1.4E1,7E0,2.5E1,5.2E1,8.2E1,6E0,1E1,1.6E1,7E0,2.9E1,2E1,7.8E1,4.4E1,2.1E1,5E0,1E1,1.8E1,2.1E1,2E1,6E0,8E0,4.3E1,9E0,2E1,6.2E1],"tree_param":{"num_deleted":"0","num_feature":"9","num_nodes":"47","size_leaf_vector":"1"}},{"base_weights":[-2.3015246E-1,-1.6186746E0,2.368546E0,-3.5352538E0,3.469415E-1,-4.84522E-2,4.4870324E0,-1.5941561E0,-4.520334E0,1.1564957E0,-1.5526226E0,2.21929E0,-1.3432211E0,2.21929E0,5.450942E0,-1.0346698E-1,-4.7824685E-2,-4.7824685E-2,-4.97985E0,-8.017721E-2,3.2065918E0,-4.7824685E-2,2.2826338E0,-2.8978258E-2,2.21929E0,1.7866305E0,-2.1173546E0,6.65787E-2,1.1174034E-1,3.0372865E0,6.3248763E0,-1.7733245E-1,-9.874906E-2,-1.2703727E-2,6.1486166E-2,-4.4739246E-3,1.15490474E-1,1.982647E-2,1.1998476E-1,1.8800221E-2,6.65787E-2,6.65787E-2,-3.0157885E-2,1.7792404E-2,-7.907108E-2,6.65787E-2,1.21340714E-1,1.4106262E-1,2.3842812E-1],"categories":[],"categories_nodes":[],"categories_segments":[],"categories_sizes":[],"default_left":[0,0,0,0,0,0,0,0,0,0,0,0,0,0,0,0,0,0,0,0,0,0,0,0,0,0,0,0,0,0,0,0,0,0,0,0,0,0,0,0,0,0,0,0,0,0,0,0,0],"id":1,"left_children":[1,3,5,7,9,11,13,15,17,19,21,23,25,27,29,-1,-1,-1,31,33,35,-1,37,-1,39,41,43,-1,-1,45,47,-1,-1,-1,-1,-1,-1,-1,-1,-1,-1,-1,-1,-1,-1,-1,-1,-1,-1],"loss_changes":[1.8481561E3,1.2636531E3,9.188345E2,3.7906738E2,2.6471045E2,2.8040527E2,2.1228601E2,2.8322998E1,2.0494897E2,3.0732178E2,2.6829E2,8.130362E1,1.5594766E2,7.221916E0,9.048743E1,0E0,0E0,0E0,1.1444702E2,6.0557537E1,1.0468292E2,0E0,4.4518326E1,0E0,1.0136719E0,7.1416504E1,7.637724E1,0E0,0E0,3.6519745E1,1.798108E1,0E0,0E0,0E0,0E0,0E0,0E0,0E0,0E0,0E0,0E0,0E0,0E0,0E0,0E0,0E0,0E0,0E0,0E0],"parents":[2147483647,0,0,1,1,2,2,3,3,4,4,5,5,6,6,7,7,8,8,9,9,10,10,11,11,12,12,13,13,14,14,18,18,19,19,20,20,22,22,24,24,25,25,26,26,29,29,30,30],"right_children":[2,4,6,8,10,12,14,16,18,20,22,24,26,28,30,-1,-1,-1,32,34,36,-1,38,-1,40,42,44,-1,-1,46,48,-1,-1,-1,-1,-1,-1,-1,-1,-1,-1,-1,-1,-1,-1,-1,-1,-1,-1],"split_conditions":[-3.4202015E-1,4.8E-1,2.6E-1,-4.6947157E-1,2.124933E-1,6.2E1,1.391731E-1,1.3614675E-1,-4.0104052E-1,6.966592E-1,9E-1,1.1E-1,-1.04528464E-1,4.9E-1,3.4E-1,-1.0346698E-1,-4.7824685E-2,-4.7824685E-2,-8.09017E-1,-5.591929E-1,3.7087354E-1,-4.7824685E-2,-9.612617E-1,-2.8978258E-2,9.992629E-2,1.8607391E-1,-2.9107636E-2,6.65787E-2,1.1174034E-1,4.5992523E-2,1.2608837E-1,-1.7733245E-1,-9.874906E-2,-1.2703727E-2,6.1486166E-2,-4.4739246E-3,1.15490474E-1,1.982647E-2,1.1998476E-1,1.8800221E-2,6.65787E-2,6.65787E-2,-3.0157885E-2,1.7792404E-2,-7.907108E-2,6.65787E-2,1.21340714E-1,1.4106262E-1,2.3842812E-1],"split_indices":[2,1,1,3,6,0,2,4,6,7,1,1,2,1,1,0,0,0,2,2,4,0,2,0,7,4,6,0,0,6,6,0,0,0,0,0,0,0,0,0,0,0,0,0,0,0,0,0,0],"split_type":[0,0,0,0,0,0,0,0,0,0,0,0,0,0,0,0,0,0,0,0,0,0,0,0,0,0,0,0,0,0,0,0,0,0,0,0,0,0,0,0,0,0,0,0,0,0,0,0,0],"sum_hessian":[5.05E2,3.3E2,1.75E2,1.66E2,1.64E2,8.3E1,9.2E1,5E1,1.16E2,1.16E2,4.8E1,2.8E1,5.5E1,2.7E1,6.5E1,1E1,4E1,1.2E1,1.04E2,7.4E1,4.2E1,3.3E1,1.5E1,6E0,2.2E1,1E1,4.5E1,2E1,7E0,2.1E1,4.4E1,6.2E1,4.2E1,6.6E1,8E0,7E0,3.5E1,1E1,5E0,6E0,1.6E1,5E0,5E0,7E0,3.8E1,5E0,1.6E1,2.8E1,1.6E1],"tree_param":{"num_deleted":"0","num_feature":"9","num_nodes":"49","size_leaf_vector":"1"}},{"base_weights":[1.7946544E-1,-1.7695268E0,2.1909218E0,3.410677E-1,-2.6641588E0,2.50906E0,-2.0300758E0,2.7201986E0,-3.847528E-1,4.670974E-1,-3.1093721E0,1.4390934E0,3.78991E0,-3.944378E-3,-8.512644E-2,-1.4282018E-3,1.4374758E-1,-1.132153E0,1.4985139E0,-1.021559E0,7.1305946E-2,-3.7537124E0,-1.0976372E0,3.538353E0,5.973597E-1,5.276906E0,2.5629647E0,-5.6438684E-2,5.495413E-3,6.6164084E-2,5.495413E-3,-4.975955E-2,-0E0,-1.3844076E-1,-6.544035E-2,-5.503306E-2,3.6681008E-2,3.5020184E-2,1.24726065E-1,-2.4672737E-4,1.280502E-1,7.584148E-2,2.0124763E-1,1.2474201E-2,1.1788752E-1],"categories":[],"categories_nodes":[],"categories_segments":[],"categories_sizes":[],"default_left":[0,0,0,0,0,0,0,0,0,0,0,0,0,0,0,0,0,0,0,0,0,0,0,0,0,0,0,0,0,0,0,0,0,0,0,0,0,0,0,0,0,0,0,0,0],"id":2,"left_children":[1,3,5,7,9,11,13,15,17,19,21,23,25,-1,-1,-1,-1,27,29,31,-1,33,35,37,39,41,43,-1,-1,-1,-1,-1,-1,-1,-1,-1,-1,-1,-1,-1,-1,-1,-1,-1,-1],"loss_changes":[1.987719E3,4.9216144E2,3.5443164E2,1.4383144E2,2.615829E2,3.0557117E2,2.9493484E1,1.1682631E2,9.621303E1,8.243509E1,1.9616748E2,2.289732E2,1.5309045E2,0E0,0E0,0E0,0E0,5.2588947E1,2.2398361E1,1.2472576E1,0E0,1.3429895E2,8.3605576E1,4.2421997E1,2.2437442E2,1.26862915E2,1.821347E2,0E0,0E0,0E0,0E0,0E0,0E0,0E0,0E0,0E0,0E0,0E0,0E0,0E0,0E0,0E0,0E0,0E0,0E0],"parents":[2147483647,0,0,1,1,2,2,3,3,4,4,5,5,6,6,7,7,8,8,9,9,10,10,11,11,12,12,17,17,18,18,19,19,21,21,22,22,23,23,24,24,25,25,26,26],"right_children":[2,4,6,8,10,12,14,16,18,20,22,24,26,-1,-1,-1,-1,28,30,32,-1,34,36,38,40,42,44,-1,-1,-1,-1,-1,-1,-1,-1,-1,-1,-1,-1,-1,-1,-1,-1,-1,-1],"split_conditions":[3.1398734E-1,-5.2991927E-1,2.646E1,-9.702957E-1,-4.159126E-1,5.5425626E-1,-1.5309041E-2,-9.945219E-1,4E-1,5.7E-1,7.431448E-1,-5.2991927E-1,6.49519E-1,-3.944378E-3,-8.512644E-2,-1.4282018E-3,1.4374758E-1,-1.91013E-2,-6.691306E-1,-4.3973196E-1,7.1305946E-2,4.5E-1,3.8E-1,3.8648143E-1,9.702957E-1,3.4E-1,7.1E-1,-5.6438684E-2,5.495413E-3,6.6164084E-2,5.495413E-3,-4.975955E-2,-0E0,-1.3844076E-1,-6.544035E-2,-5.503306E-2,3.6681008E-2,3.5020184E-2,1.24726065E-1,-2.4672737E-4,1.280502E-1,7.584148E-2,2.0124763E-1,1.2474201E-2,1.1788752E-1],"split_indices":[5,3,8,3,6,5,6,3,1,1,3,3,4,0,0,0,0,6,3,6,0,1,1,5,3,1,1,0,0,0,0,0,0,0,0,0,0,0,0,0,0,0,0,0,0],"split_type":[0,0,0,0,0,0,0,0,0,0,0,0,0,0,0,0,0,0,0,0,0,0,0,0,0,0,0,0,0,0,0,0,0,0,0,0,0,0,0,0,0,0,0,0,0],"sum_hessian":[5E2,2.54E2,2.46E2,7.6E1,1.78E2,2.3E2,1.6E1,1.6E1,6E1,2.2E1,1.56E2,1.29E2,1.01E2,6E0,1E1,8E0,8E0,4.4E1,1.6E1,1.3E1,9E0,1.16E2,4E1,3.4E1,9.5E1,4.1E1,6E1,2.8E1,1.6E1,1E1,6E0,7E0,6E0,7.1E1,4.5E1,3.1E1,9E0,9E0,2.5E1,8.4E1,1.1E1,1.7E1,2.4E1,2.5E1,3.5E1],"tree_param":{"num_deleted":"0","num_feature":"9","num_nodes":"45","size_leaf_vector":"1"}},{"base_weights":[-9.529424E-3,-1.8770882E0,2.0800412E0,-2.8390827E0,7.3863E-1,2.0502773E-1,3.3217902E0,-1.3527622E0,-4.6107264E0,-7.5167537E-1,2.3976307E0,-9.20489E-1,3.2308388E0,1.9597208E0,5.246762E0,-2.1708448E0,1.8252941E0,-1.3532034E0,-5.6405387E0,1.9209983E0,-2.6830547E0,3.4433472E0,1.3017546E-1,1.749988E-1,-3.7104583E0,4.2492332E0,8.299136E-3,4.5530105E0,6.8642104E-1,6.052739E0,1.9073397E0,-7.9496145E-2,1.6837634E-2,7.387494E-2,-6.9120023E-3,-8.203641E-2,4.053126E-2,-2.0633951E-1,-1.1999638E-1,-5.5300663E-3,1.2429999E-1,-1.0380819E-1,-5.3613153E-3,2.426443E-2,1.2603115E-1,-3.5940755E-2,3.968886E-2,4.7941554E-2,-3.177441E-2,-1.4753632E-1,-0E0,2.1740913E-2,1.5950967E-1,2.0363731E-2,1.8152304E-1,-6.9963736E-3,8.696637E-2,7.72398E-2,1.9211924E-1,-1.9186713E-2,1.02679655E-1],"categories":[],"categories_nodes":[],"categories_segments":[],"categories_sizes":[],"default_left":[0,0,0,0,0,0,0,0,0,0,0,0,0,0,0,0,0,0,0,0,0,0,0,0,0,0,0,0,0,0,0,0,0,0,0,0,0,0,0,0,0,0,0,0,0,0,0,0,0,0,0,0,0,0,0,0,0,0,0,0,0],"id":3,"left_children":[1,3,5,7,9,11,13,15,17,19,21,23,25,27,29,31,33,35,37,39,41,43,45,47,49,51,-1,53,55,57,59,-1,-1,-1,-1,-1,-1,-1,-1,-1,-1,-1,-1,-1,-1,-1,-1,-1,-1,-1,-1,-1,-1,-1,-1,-1,-1,-1,-1,-1,-1],"loss_changes":[1.8653044E3,6.450283E2,5.235869E2,4.7141772E2,1.8244823E2,3.3094922E2,3.2671924E2,2.89047E2,2.5903308E2,2.2176344E2,8.105995E1,2.2154758E2,7.695853E1,2.7061487E2,1.14687256E2,1.19960815E2,3.563865E1,1.0551265E2,4.8779297E1,9.281607E1,4.6678467E1,3.8223083E1,2.9517918E1,1.0108587E2,9.235071E1,6.2964752E1,0E0,1.4771442E2,1.2857213E2,6.333374E0,6.991101E1,0E0,0E0,0E0,0E0,0E0,0E0,0E0,0E0,0E0,0E0,0E0,0E0,0E0,0E0,0E0,0E0,0E0,0E0,0E0,0E0,0E0,0E0,0E0,0E0,0E0,0E0,0E0,0E0,0E0,0E0],"parents":[2147483647,0,0,1,1,2,2,3,3,4,4,5,5,6,6,7,7,8,8,9,9,10,10,11,11,12,12,13,13,14,14,15,15,16,16,17,17,18,18,19,19,20,20,21,21,22,22,23,23,24,24,25,25,27,27,28,28,29,29,30,30],"right_children":[2,4,6,8,10,12,14,16,18,20,22,24,26,28,30,32,34,36,38,40,42,44,46,48,50,52,-1,54,56,58,60,-1,-1,-1,-1,-1,-1,-1,-1,-1,-1,-1,-1,-1,-1,-1,-1,-1,-1,-1,-1,-1,-1,-1,-1,-1,-1,-1,-1,-1,-1],"split_conditions":[3.1398734E-1,-3.7460658E-1,-6.156615E-1,-2.0784609E-1,2.7655894E-1,7.9141784E-1,5.5425626E-1,6.961653E-1,-5E-1,1.2990381E-1,-1.7364818E-1,1.3145204E-1,2.47E1,6.1E1,2.447E1,-6.946584E-1,2.511E1,4.1345604E-2,-9.5105654E-1,1.9892713E-2,9.612617E-1,-9.945219E-1,2.2294345E-1,6.4E1,6.9318765E-1,2.268E1,8.299136E-3,5.032736E-2,4.3037102E-1,2.272E1,6.762749E-1,-7.9496145E-2,1.6837634E-2,7.387494E-2,-6.9120023E-3,-8.203641E-2,4.053126E-2,-2.0633951E-1,-1.1999638E-1,-5.5300663E-3,1.2429999E-1,-1.0380819E-1,-5.3613153E-3,2.426443E-2,1.2603115E-1,-3.5940755E-2,3.968886E-2,4.7941554E-2,-3.177441E-2,-1.4753632E-1,-0E0,2.1740913E-2,1.5950967E-1,2.0363731E-2,1.8152304E-1,-6.9963736E-3,8.696637E-2,7.72398E-2,1.9211924E-1,-1.9186713E-2,1.02679655E-1],"split_indices":[5,2,2,6,7,7,5,7,3,5,3,6,8,0,8,2,8,6,2,5,3,3,5,0,5,8,0,6,7,8,5,0,0,0,0,0,0,0,0,0,0,0,0,0,0,0,0,0,0,0,0,0,0,0,0,0,0,0,0,0,0],"split_type":[0,0,0,0,0,0,0,0,0,0,0,0,0,0,0,0,0,0,0,0,0,0,0,0,0,0,0,0,0,0,0,0,0,0,0,0,0,0,0,0,0,0,0,0,0,0,0,0,0,0,0,0,0,0,0,0,0,0,0,0,0],"sum_hessian":[4.71E2,2.49E2,2.22E2,1.82E2,6.7E1,9E1,1.32E2,1.02E2,8E1,3.6E1,3.1E1,6.7E1,2.3E1,8.1E1,5.1E1,8.2E1,2E1,2.1E1,5.9E1,1.5E1,2.1E1,2E1,1.1E1,5E1,1.7E1,1.6E1,7E0,2.4E1,5.7E1,3.9E1,1.2E1,7E1,1.2E1,1.5E1,5E0,1.4E1,7E0,2.8E1,3.1E1,9E0,6E0,1.5E1,6E0,6E0,1.4E1,5E0,6E0,2.3E1,2.7E1,1.2E1,5E0,5E0,1.1E1,8E0,1.6E1,4.2E1,1.5E1,6E0,3.3E1,5E0,7E0],"tree_param":{"num_deleted":"0","num_feature":"9","num_nodes":"61","size_leaf_vector":"1"}},{"base_weights":[-2.6854409E-2,-1.6189054E0,1.7725446E0,-2.9113076E0,8.570931E-3,6.937302E-1,3.5905006E0,1.0037569E-1,-3.437273E0,-1.96056E0,1.4851656E0,1.9543561E0,-5.390389E-1,1.5477071E0,5.6567526E0,-6.503867E-1,-4.3875327E0,-3.2077203E0,5.534126E-1,8.027007E-1,3.6493824E0,2.990428E0,-8.014306E-1,-2.3231652E0,8.8151896E-1,2.7975519E0,-9.7384834E-1,7.081806E-2,1.7986515E-1,-5.7382036E-2,2.8622862E-2,-8.548419E-2,-1.7003423E-1,-4.3367036E-2,-1.2708244E-1,8.366489E-2,-2.8995456E-2,-1.881033E-2,7.597224E-2,1.3377671E-1,4.4326268E-2,5.780881E-2,1.5769626E-1,4.8038293E-2,-8.174618E-2,1.629011E-2,-1.0522269E-1,-3.7770155E-3,1.1427048E-1,1.6357724E-1,2.730748E-2,2.606362E-2,-6.462089E-2],"categories":[],"categories_nodes":[],"categories_segments":[],"categories_sizes":[],"default_left":[0,0,0,0,0,0,0,0,0,0,0,0,0,0,0,0,0,0,0,0,0,0,0,0,0,0,0,0,0,0,0,0,0,0,0,0,0,0,0,0,0,0,0,0,0,0,0,0,0,0,0,0,0],"id":4,"left_children":[1,3,5,7,9,11,13,-1,15,17,19,21,23,25,27,29,31,33,35,37,39,41,43,45,47,49,51,-1,-1,-1,-1,-1,-1,-1,-1,-1,-1,-1,-1,-1,-1,-1,-1,-1,-1,-1,-1,-1,-1,-1,-1,-1,-1],"loss_changes":[1.4442908E3,5.660415E2,4.5752148E2,5.316975E2,3.6376392E2,2.4257867E2,3.4455774E2,0E0,3.6206702E2,1.7658617E2,9.8305115E1,2.290708E2,2.1029115E2,1.6413098E2,8.615601E0,8.781212E1,1.5862903E2,4.9706787E1,8.070629E1,1.5230865E2,1.1343872E1,1.0816092E2,1.2427153E2,1.3344046E2,1.4287914E2,1.5364926E2,4.8423214E1,0E0,0E0,0E0,0E0,0E0,0E0,0E0,0E0,0E0,0E0,0E0,0E0,0E0,0E0,0E0,0E0,0E0,0E0,0E0,0E0,0E0,0E0,0E0,0E0,0E0,0E0],"parents":[2147483647,0,0,1,1,2,2,3,3,4,4,5,5,6,6,8,8,9,9,10,10,11,11,12,12,13,13,14,14,15,15,16,16,17,17,18,18,19,19,20,20,21,21,22,22,23,23,24,24,25,25,26,26],"right_children":[2,4,6,8,10,12,14,-1,16,18,20,22,24,26,28,30,32,34,36,38,40,42,44,46,48,50,52,-1,-1,-1,-1,-1,-1,-1,-1,-1,-1,-1,-1,-1,-1,-1,-1,-1,-1,-1,-1,-1,-1,-1,-1,-1,-1],"split_conditions":[3.1398734E-1,-7.193398E-1,1.391731E-1,-4.688551E-1,2.7959645E-1,6.6E1,5.6374556E-1,1.0037569E-1,6.2E1,8.8294756E-1,1.04528464E-1,2.481E1,-7.880108E-1,8.480481E-1,-5.8495767E-2,5.826806E-1,-2.543184E-1,1.23612665E-1,7.641208E-2,4.345031E-1,2.9997075E-1,7.9141784E-1,-5.2371096E-2,-1.04528464E-1,6.074358E-1,6E1,2.363E1,7.081806E-2,1.7986515E-1,-5.7382036E-2,2.8622862E-2,-8.548419E-2,-1.7003423E-1,-4.3367036E-2,-1.2708244E-1,8.366489E-2,-2.8995456E-2,-1.881033E-2,7.597224E-2,1.3377671E-1,4.4326268E-2,5.780881E-2,1.5769626E-1,4.8038293E-2,-8.174618E-2,1.629011E-2,-1.0522269E-1,-3.7770155E-3,1.1427048E-1,1.6357724E-1,2.730748E-2,2.606362E-2,-6.462089E-2],"split_indices":[5,2,2,6,7,0,5,0,0,3,2,8,2,2,7,7,6,5,5,7,7,7,6,3,7,0,8,0,0,0,0,0,0,0,0,0,0,0,0,0,0,0,0,0,0,0,0,0,0,0,0,0,0],"split_type":[0,0,0,0,0,0,0,0,0,0,0,0,0,0,0,0,0,0,0,0,0,0,0,0,0,0,0,0,0,0,0,0,0,0,0,0,0,0,0,0,0,0,0,0,0,0,0,0,0,0,0,0,0],"sum_hessian":[4.97E2,2.64E2,2.33E2,1.46E2,1.18E2,1.49E2,8.4E1,1E1,1.36E2,5E1,6.8E1,7.3E1,7.6E1,4.5E1,3.9E1,3.6E1,1E2,3.3E1,1.7E1,5.5E1,1.3E1,5.3E1,2E1,3.3E1,4.3E1,3E1,1.5E1,6E0,3.3E1,2E1,1.6E1,5E1,5E1,1.5E1,1.8E1,6E0,1.1E1,3.1E1,2.4E1,7E0,6E0,4E1,1.3E1,9E0,1.1E1,1E1,2.3E1,3.4E1,9E0,1E1,2E1,6E0,9E0],"tree_param":{"num_deleted":"0","num_feature":"9","num_nodes":"53","size_leaf_vector":"1"}},{"base_weights":[3.5209793E-1,-1.4789135E0,2.173405E0,1.3946722E0,-2.184684E0,2.6251109E0,-8.6003643E-1,1.3784593E-2,3.1275585E0,-2.5252883E0,1.3965832E0,3.4082794E0,8.125392E-1,-9.591872E-2,8.265439E-2,-1.6815103E0,1.7360587E0,1.2824352E-1,1.7038966E0,-3.1967556E0,-5.643526E-1,2.5935912E0,-1.6930576E-2,1.7739631E0,5.3753457E0,3.5867105E0,-3.677591E-1,1.6502161E0,-1.2732098E0,-1.5320028E-2,-8.234124E-2,9.427196E-2,-2.8859194E-2,-3.4041165E-3,8.089864E-2,-4.671167E-2,-1.1451962E-1,-6.0812645E-2,-1.6930576E-2,1.0029122E-1,2.1460904E-2,9.828435E-2,-3.0688783E-3,7.9581834E-2,1.8232258E-1,1.5608144E-1,4.059474E-2,-6.5911904E-2,1.6909521E-2,-2.9604685E-2,1.04992025E-1,-4.6719544E-2,5.811793E-3],"categories":[],"categories_nodes":[],"categories_segments":[],"categories_sizes":[],"default_left":[0,0,0,0,0,0,0,0,0,0,0,0,0,0,0,0,0,0,0,0,0,0,0,0,0,0,0,0,0,0,0,0,0,0,0,0,0,0,0,0,0,0,0,0,0,0,0,0,0,0,0,0,0],"id":5,"left_children":[1,3,5,7,9,11,13,15,17,19,21,23,25,-1,27,29,31,-1,33,35,37,39,-1,41,43,45,47,49,51,-1,-1,-1,-1,-1,-1,-1,-1,-1,-1,-1,-1,-1,-1,-1,-1,-1,-1,-1,-1,-1,-1,-1,-1],"loss_changes":[1.6410413E3,5.0999756E2,3.4821558E2,1.2108741E2,2.5658618E2,2.9900537E2,8.054256E1,1.0271509E2,1.7069733E1,2.7946826E2,6.819452E1,4.5397388E2,2.3545123E2,0E0,6.6800964E1,1.8585018E1,7.876724E1,0E0,3.2081806E1,1.2832898E2,3.769733E1,1.4561661E1,0E0,2.4836023E2,8.215759E1,5.795572E1,9.418799E1,8.438538E1,2.2336575E1,0E0,0E0,0E0,0E0,0E0,0E0,0E0,0E0,0E0,0E0,0E0,0E0,0E0,0E0,0E0,0E0,0E0,0E0,0E0,0E0,0E0,0E0,0E0,0E0],"parents":[2147483647,0,0,1,1,2,2,3,3,4,4,5,5,6,6,7,7,8,8,9,9,10,10,11,11,12,12,14,14,15,15,16,16,18,18,19,19,20,20,21,21,23,23,24,24,25,25,26,26,27,27,28,28],"right_children":[2,4,6,8,10,12,14,16,18,20,22,24,26,-1,28,30,32,-1,34,36,38,40,-1,42,44,46,48,50,52,-1,-1,-1,-1,-1,-1,-1,-1,-1,-1,-1,-1,-1,-1,-1,-1,-1,-1,-1,-1,-1,-1,-1,-1],"split_conditions":[3.1398734E-1,-7.431448E-1,7.4E1,3.804226E-1,6.5E-1,2.459E1,3.1E-1,1.1509437E-1,-9.135454E-1,6.946584E-1,2.524E1,5.5425626E-1,-5.2991927E-1,-9.591872E-2,5.596589E-1,-8.9879405E-1,7.2E1,1.2824352E-1,6.6E1,6.2E1,1.2206261E-1,4.5887947E-1,-1.6930576E-2,6.6E1,5.4E1,6.9E1,2.511E1,3.3917177E-1,6.9E-1,-1.5320028E-2,-8.234124E-2,9.427196E-2,-2.8859194E-2,-3.4041165E-3,8.089864E-2,-4.671167E-2,-1.1451962E-1,-6.0812645E-2,-1.6930576E-2,1.0029122E-1,2.1460904E-2,9.828435E-2,-3.0688783E-3,7.9581834E-2,1.8232258E-1,1.5608144E-1,4.059474E-2,-6.5911904E-2,1.6909521E-2,-2.9604685E-2,1.04992025E-1,-4.6719544E-2,5.811793E-3],"split_indices":[5,3,0,7,1,8,1,5,3,3,8,5,3,0,4,3,0,0,0,0,5,4,0,0,0,0,8,5,1,0,0,0,0,0,0,0,0,0,0,0,0,0,0,0,0,0,0,0,0,0,0,0,0],"split_type":[0,0,0,0,0,0,0,0,0,0,0,0,0,0,0,0,0,0,0,0,0,0,0,0,0,0,0,0,0,0,0,0,0,0,0,0,0,0,0,0,0,0,0,0,0,0,0,0,0,0,0,0,0],"sum_hessian":[4.85E2,2.42E2,2.43E2,4.7E1,1.95E2,2.12E2,3.1E1,2.8E1,1.9E1,1.79E2,1.6E1,1.46E2,6.6E1,7E0,2.4E1,1.4E1,1.4E1,7E0,1.2E1,1.38E2,4.1E1,1.1E1,5E0,8.3E1,6.3E1,1.8E1,4.8E1,1.1E1,1.3E1,9E0,5E0,9E0,5E0,5E0,7E0,4.1E1,9.7E1,1.7E1,2.4E1,6E0,5E0,4.5E1,3.8E1,1.6E1,4.7E1,8E0,1E1,1.5E1,3.3E1,5E0,6E0,7E0,6E0],"tree_param":{"num_deleted":"0","num_feature":"9","num_nodes":"53","size_leaf_vector":"1"}},{"base_weights":[8.8873185E-2,-1.3355724E0,1.6770651E0,-8.5089445E-1,-4.8904066E0,2.5308292E0,-1.3910516E-1,-1.5334759E0,1.132935E0,-3.186905E-2,-5.8148E0,3.703327E0,6.0754913E-1,2.5981195E0,-1.0528258E0,-2.0027041E-1,-2.552853E0,2.1677577E0,3.3695954E-1,-5.5493E-2,-1.9510779E-1,3.9450576E0,-1.7523637E-2,-1.427686E-1,1.4931573E-1,1.1966162E-1,1.2108015E0,-2.0018077E0,8.3694375E-1,-6.0081123E-3,-4.671567E-2,-9.677124E-2,-8.980875E-3,3.982351E-2,7.883625E-2,8.28356E-2,-6.0081123E-3,1.0002023E-1,1.9260935E-1,-2.6193071E-2,1.2693803E-1,-2.053984E-2,7.241794E-2,-9.581864E-2,-1.9138413E-2,-1.6959943E-2,8.638503E-2],"categories":[],"categories_nodes":[],"categories_segments":[],"categories_sizes":[],"default_left":[0,0,0,0,0,0,0,0,0,0,0,0,0,0,0,0,0,0,0,0,0,0,0,0,0,0,0,0,0,0,0,0,0,0,0,0,0,0,0,0,0,0,0,0,0,0,0],"id":6,"left_children":[1,3,5,7,9,11,13,15,17,-1,19,21,23,25,27,29,31,33,35,-1,-1,37,-1,39,-1,-1,41,43,45,-1,-1,-1,-1,-1,-1,-1,-1,-1,-1,-1,-1,-1,-1,-1,-1,-1,-1],"loss_changes":[1.1749838E3,4.607523E2,3.848142E2,3.3848526E2,9.81449E1,3.7199756E2,2.1367015E2,2.9150723E2,5.1777397E1,0E0,3.6363525E1,1.1987305E2,2.2933643E2,2.862445E1,1.2142887E2,6.88717E1,1.6717175E2,1.951828E0,6.125805E1,0E0,0E0,8.888635E1,0E0,2.061787E2,0E0,0E0,4.3128723E1,6.5717865E1,7.536276E1,0E0,0E0,0E0,0E0,0E0,0E0,0E0,0E0,0E0,0E0,0E0,0E0,0E0,0E0,0E0,0E0,0E0,0E0],"parents":[2147483647,0,0,1,1,2,2,3,3,4,4,5,5,6,6,7,7,8,8,10,10,11,11,12,12,13,13,14,14,15,15,16,16,17,17,18,18,21,21,23,23,26,26,27,27,28,28],"right_children":[2,4,6,8,10,12,14,16,18,-1,20,22,24,26,28,30,32,34,36,-1,-1,38,-1,40,-1,-1,42,44,46,-1,-1,-1,-1,-1,-1,-1,-1,-1,-1,-1,-1,-1,-1,-1,-1,-1,-1],"split_conditions":[3.1398734E-1,1.9E-1,2.459E1,4.8E-1,2.318E1,6.8E1,-5.2991927E-1,-5E-1,-6.975647E-2,-3.186905E-2,-1.7449748E-2,9.848077E-1,8.180025E-1,6.9E1,6.762749E-1,2.372E1,9.2718387E-1,-3.052904E-1,-4.688551E-1,-5.5493E-2,-1.9510779E-1,2.421E1,-1.7523637E-2,9.612617E-1,1.4931573E-1,1.1966162E-1,7E1,5E-1,6.8E1,-6.0081123E-3,-4.671567E-2,-9.677124E-2,-8.980875E-3,3.982351E-2,7.883625E-2,8.28356E-2,-6.0081123E-3,1.0002023E-1,1.9260935E-1,-2.6193071E-2,1.2693803E-1,-2.053984E-2,7.241794E-2,-9.581864E-2,-1.9138413E-2,-1.6959943E-2,8.638503E-2],"split_indices":[5,6,8,1,8,0,3,3,3,0,5,3,5,0,5,8,3,6,6,0,0,8,0,3,0,0,0,3,0,0,0,0,0,0,0,0,0,0,0,0,0,0,0,0,0,0,0],"split_type":[0,0,0,0,0,0,0,0,0,0,0,0,0,0,0,0,0,0,0,0,0,0,0,0,0,0,0,0,0,0,0,0,0,0,0,0,0,0,0,0,0,0,0,0,0,0,0],"sum_hessian":[5.12E2,2.7E2,2.42E2,2.41E2,2.9E1,1.64E2,7.8E1,1.8E2,6.1E1,7E0,2.2E1,1E2,6.4E1,1.8E1,6E1,7.2E1,1.08E2,2.4E1,3.7E1,5E0,1.7E1,9.5E1,5E0,5.7E1,7E0,6E0,1.2E1,4E1,2E1,3.6E1,3.6E1,8.2E1,2.6E1,1.3E1,1.1E1,5E0,3.2E1,8.2E1,1.3E1,5.1E1,6E0,5E0,7E0,1.9E1,2.1E1,1.3E1,7E0],"tree_param":{"num_deleted":"0","num_feature":"9","num_nodes":"47","size_leaf_vector":"1"}},{"base_weights":[-6.901904E-2,-1.3676078E0,2.0613222E0,-3.8524604E0,3.308212E-1,3.2405558E-1,3.9990182E0,-5.638166E0,-2.4297967E0,-1.1797942E-1,4.076123E0,2.161537E0,-7.3008865E-1,2.2001812E0,1.7940328E-1,-2.7228405E0,-1.858593E-1,-3.7855844E0,-5.2824587E-2,1.083549E0,-8.74617E-1,1.8957958E-1,2.031194E0,-1.8097521E-1,6.4846106E-2,1.0504852E-1,-2.3327522E0,6.4846106E-2,9.6581556E-2,-1.2653993E-1,-5.2824587E-2,-5.2824587E-2,-1.4602146E-1,4.4604793E-2,-3.183716E-2,5.9372153E-2,-3.4875434E-2,1.0272447E-1,5.9372153E-2,6.4846106E-2,-7.25774E-2,-7.5002715E-2,1.9263575E-2,-9.211943E-2,-0E0],"categories":[],"categories_nodes":[],"categories_segments":[],"categories_sizes":[],"default_left":[0,0,0,0,0,0,0,0,0,0,0,0,0,0,0,0,0,0,0,0,0,0,0,0,0,0,0,0,0,0,0,0,0,0,0,0,0,0,0,0,0,0,0,0,0],"id":7,"left_children":[1,3,5,7,9,11,13,15,17,19,21,23,25,27,-1,29,-1,31,-1,33,35,-1,37,39,-1,41,43,-1,-1,-1,-1,-1,-1,-1,-1,-1,-1,-1,-1,-1,-1,-1,-1,-1,-1],"loss_changes":[1.3698602E3,1.3054138E3,6.27771E2,2.8049255E2,3.1858124E2,2.4867787E2,2.782202E2,3.993799E1,1.1670682E2,1.574292E2,5.741147E1,6.6169754E1,1.006548E2,1.2626358E1,0E0,3.026155E1,0E0,9.069739E1,0E0,6.45808E1,1.1142751E2,0E0,1.2515709E1,1.1592786E2,0E0,7.698648E1,4.617601E1,0E0,0E0,0E0,0E0,0E0,0E0,0E0,0E0,0E0,0E0,0E0,0E0,0E0,0E0,0E0,0E0,0E0,0E0],"parents":[2147483647,0,0,1,1,2,2,3,3,4,4,5,5,6,6,7,7,8,8,9,9,10,10,11,11,12,12,13,13,15,15,17,17,19,19,20,20,22,22,23,23,25,25,26,26],"right_children":[2,4,6,8,10,12,14,16,18,20,22,24,26,28,-1,30,-1,32,-1,34,36,-1,38,40,-1,42,44,-1,-1,-1,-1,-1,-1,-1,-1,-1,-1,-1,-1,-1,-1,-1,-1,-1,-1],"split_conditions":[-4.0673664E-1,4.5E-1,2.9E-1,-8.660254E-1,9.5E-1,6.2E1,5.5425626E-1,2.326E1,3.1691587E-1,6.3E1,2.288E1,1.3486047E-1,7.2E1,4.1E-1,1.7940328E-1,1.4418925E-1,-1.858593E-1,6.7E1,-5.2824587E-2,2.622E1,-1.5390004E-1,1.8957958E-1,-9.781476E-1,1.4953534E-2,6.4846106E-2,-3.4202015E-1,2.2846149E-1,6.4846106E-2,9.6581556E-2,-1.2653993E-1,-5.2824587E-2,-5.2824587E-2,-1.4602146E-1,4.4604793E-2,-3.183716E-2,5.9372153E-2,-3.4875434E-2,1.0272447E-1,5.9372153E-2,6.4846106E-2,-7.25774E-2,-7.5002715E-2,1.9263575E-2,-9.211943E-2,-0E0],"split_indices":[2,1,1,2,1,0,5,8,7,0,8,7,0,1,0,4,0,0,0,8,5,0,2,7,0,2,7,0,0,0,0,0,0,0,0,0,0,0,0,0,0,0,0,0,0],"split_type":[0,0,0,0,0,0,0,0,0,0,0,0,0,0,0,0,0,0,0,0,0,0,0,0,0,0,0,0,0,0,0,0,0,0,0,0,0,0,0,0,0,0,0,0,0],"sum_hessian":[4.88E2,3.04E2,1.84E2,1.22E2,1.82E2,9.9E1,8.5E1,5E1,7.2E1,1.65E2,1.7E1,3E1,6.9E1,4.8E1,3.7E1,1.1E1,3.9E1,3.5E1,3.7E1,6.3E1,1.02E2,5E0,1.2E1,1.2E1,1.8E1,4.7E1,2.2E1,3E1,1.8E1,5E0,6E0,1.2E1,2.3E1,5.4E1,9E0,6E0,9.6E1,7E0,5E0,5E0,7E0,6E0,4.1E1,1.6E1,6E0],"tree_param":{"num_deleted":"0","num_feature":"9","num_nodes":"45","size_leaf_vector":"1"}},{"base_weights":[1.3689832E-1,-1.084166E0,2.1458037E0,-2.946369E0,1.6455045E-2,1.1235664E0,4.0314827E0,1.3741239E0,-3.5603971E0,1.7537204E0,-8.688851E-1,5.574588E-1,1.4320911E-1,4.454622E0,2.0709953E0,-2.8300742E-2,1.06398545E-1,-6.7811626E-1,-3.891883E0,2.7248857E0,-1.4969708E0,-2.7207547E-1,-1.3428262E-1,2.7942317E0,-5.914712E-1,5.010619E0,2.1589043E0,-2.4183333E-2,1.0538952E-1,-5.6495767E-2,2.6081635E-2,-1.3285623E-1,-4.965864E-2,2.5079869E-2,1.3087353E-1,3.8607724E-2,-9.060974E-2,-5.8094785E-2,1.240632E-2,1.0371942E-1,-1.3177465E-2,-3.724117E-2,3.3622514E-2,1.5901661E-1,5.728197E-2,2.5087366E-2,8.820416E-2],"categories":[],"categories_nodes":[],"categories_segments":[],"categories_sizes":[],"default_left":[0,0,0,0,0,0,0,0,0,0,0,0,0,0,0,0,0,0,0,0,0,0,0,0,0,0,0,0,0,0,0,0,0,0,0,0,0,0,0,0,0,0,0,0,0,0,0],"id":8,"left_children":[1,3,5,7,9,11,13,15,17,19,21,23,-1,25,27,-1,-1,29,31,33,35,37,-1,39,41,43,45,-1,-1,-1,-1,-1,-1,-1,-1,-1,-1,-1,-1,-1,-1,-1,-1,-1,-1,-1,-1],"loss_changes":[1.1906342E3,6.214968E2,3.417414E2,3.178302E2,3.0294592E2,2.4884117E2,2.7848572E1,9.6384254E1,8.895557E1,2.2543227E2,2.7643353E2,2.9213376E2,0E0,3.3676758E1,8.469694E1,0E0,0E0,3.4279198E1,8.667554E1,1.5250366E2,8.8929306E1,1.356059E2,0E0,9.143585E1,9.0054344E1,6.5109253E0,1.0011765E1,0E0,0E0,0E0,0E0,0E0,0E0,0E0,0E0,0E0,0E0,0E0,0E0,0E0,0E0,0E0,0E0,0E0,0E0,0E0,0E0],"parents":[2147483647,0,0,1,1,2,2,3,3,4,4,5,5,6,6,7,7,8,8,9,9,10,10,11,11,13,13,14,14,17,17,18,18,19,19,20,20,21,21,23,23,24,24,25,25,26,26],"right_children":[2,4,6,8,10,12,14,16,18,20,22,24,-1,26,28,-1,-1,30,32,34,36,38,-1,40,42,44,46,-1,-1,-1,-1,-1,-1,-1,-1,-1,-1,-1,-1,-1,-1,-1,-1,-1,-1,-1,-1],"split_conditions":[-4.0673664E-1,4.431018E-1,2.9999816E-1,-3.939231E-1,2.326E1,8.053455E-1,2.459E1,-8.480481E-1,2.268E1,7.1E1,2.7985588E-1,6.4E1,1.4320911E-1,7.1E1,2.52E1,-2.8300742E-2,1.06398545E-1,-8.2903755E-1,3.8845372E-1,2.268E1,-2.543184E-1,3.377499E-1,-1.3428262E-1,9.135454E-1,2.4574561E-1,6.795173E-1,3.3978713E-1,-2.4183333E-2,1.0538952E-1,-5.6495767E-2,2.6081635E-2,-1.3285623E-1,-4.965864E-2,2.5079869E-2,1.3087353E-1,3.8607724E-2,-9.060974E-2,-5.8094785E-2,1.240632E-2,1.0371942E-1,-1.3177465E-2,-3.724117E-2,3.3622514E-2,1.5901661E-1,5.728197E-2,2.5087366E-2,8.820416E-2],"split_indices":[2,7,7,6,8,5,8,2,8,0,6,0,0,0,8,0,0,2,7,8,6,4,0,2,7,5,4,0,0,0,0,0,0,0,0,0,0,0,0,0,0,0,0,0,0,0,0],"split_type":[0,0,0,0,0,0,0,0,0,0,0,0,0,0,0,0,0,0,0,0,0,0,0,0,0,0,0,0,0,0,0,0,0,0,0,0,0,0,0,0,0,0,0,0,0,0,0],"sum_hessian":[4.78E2,2.98E2,1.8E2,1.09E2,1.89E2,1.2E2,6E1,1.3E1,9.6E1,6.3E1,1.26E2,1.07E2,1.3E1,4.6E1,1.4E1,7E0,6E0,1.1E1,8.5E1,4.9E1,1.4E1,1.11E2,1.5E1,3.5E1,7.2E1,3.4E1,1.2E1,5E0,9E0,6E0,5E0,6.6E1,1.9E1,2.5E1,2.4E1,5E0,9E0,3.1E1,8E1,2.9E1,6E0,5.3E1,1.9E1,2.9E1,5E0,7E0,5E0],"tree_param":{"num_deleted":"0","num_feature":"9","num_nodes":"47","size_leaf_vector":"1"}},{"base_weights":[-4.3221496E-2,-1.7190762E0,1.3725E0,-2.3065603E0,8.3879554E-1,5.652494E-1,3.909502E0,-7.4787295E-1,-3.2289805E0,2.8867033E0,-1.125935E0,-2.5569913E-1,2.4160898E0,2.1648567E-2,4.3742537E0,-1.6771994E0,1.6546986E0,-1.1122155E0,-4.0148926E0,8.303274E-1,1.2715365E-1,-1.9296662E0,3.7293553E-2,-1.261391E0,1.0790178E0,3.3428133E0,8.1547517E-1,5.0897613E0,1.3672466E0,-1.22103795E-1,-1.386277E-2,1.0438755E-2,9.2051975E-2,3.236621E-2,-5.3098444E-2,-1.2933499E-1,-1.6000175E-3,7.9173036E-2,-3.6819577E-2,1.3546479E-2,-9.2479855E-2,4.9725726E-2,-5.020906E-2,-1.5035825E-2,1.01316795E-1,2.9153686E-2,1.3464475E-1,-4.5597732E-2,5.047176E-2,5.051677E-2,1.64443E-1,-3.0846061E-2,8.7702945E-2],"categories":[],"categories_nodes":[],"categories_segments":[],"categories_sizes":[],"default_left":[0,0,0,0,0,0,0,0,0,0,0,0,0,0,0,0,0,0,0,0,0,0,0,0,0,0,0,0,0,0,0,0,0,0,0,0,0,0,0,0,0,0,0,0,0,0,0,0,0,0,0,0,0],"id":9,"left_children":[1,3,5,7,9,11,13,15,17,19,21,23,25,-1,27,29,31,33,35,37,-1,39,-1,41,43,45,47,49,51,-1,-1,-1,-1,-1,-1,-1,-1,-1,-1,-1,-1,-1,-1,-1,-1,-1,-1,-1,-1,-1,-1,-1,-1],"loss_changes":[1.1942424E3,3.553064E2,5.5266284E2,2.650437E2,1.9570514E2,3.2468875E2,8.9380615E1,1.7689415E2,1.838075E2,5.590979E1,5.831452E1,2.0517725E2,9.031741E1,0E0,1.0283777E2,1.5654524E2,3.9146618E1,6.080444E1,1.0008374E2,6.2672997E1,0E0,6.393631E1,0E0,1.1514581E2,2.4645206E2,9.8270905E1,6.76436E1,3.4587646E1,6.98333E1,0E0,0E0,0E0,0E0,0E0,0E0,0E0,0E0,0E0,0E0,0E0,0E0,0E0,0E0,0E0,0E0,0E0,0E0,0E0,0E0,0E0,0E0,0E0,0E0],"parents":[2147483647,0,0,1,1,2,2,3,3,4,4,5,5,6,6,7,7,8,8,9,9,10,10,11,11,12,12,14,14,15,15,16,16,17,17,18,18,19,19,21,21,23,23,24,24,25,25,26,26,27,27,28,28],"right_children":[2,4,6,8,10,12,14,16,18,20,22,24,26,-1,28,30,32,34,36,38,-1,40,-1,42,44,46,48,50,52,-1,-1,-1,-1,-1,-1,-1,-1,-1,-1,-1,-1,-1,-1,-1,-1,-1,-1,-1,-1,-1,-1,-1,-1],"split_conditions":[-7.193398E-1,7.9141784E-1,5.5425626E-1,6.4E1,2.435E1,4.345031E-1,-4.3837115E-1,-8.660254E-1,-3.052904E-1,4.6574196E-1,3.145779E-1,1.391731E-1,2.384E1,2.1648567E-2,2.459E1,3.63111E-1,5.8E1,2.325E1,6.953725E-1,-3.1922048E-1,1.2715365E-1,-2.6096094E-1,3.7293553E-2,-2.2779475E-1,2.7959645E-1,-1.2789637E-1,4.9890074E-1,2.272E1,1.2802194E-1,-1.22103795E-1,-1.386277E-2,1.0438755E-2,9.2051975E-2,3.236621E-2,-5.3098444E-2,-1.2933499E-1,-1.6000175E-3,7.9173036E-2,-3.6819577E-2,1.3546479E-2,-9.2479855E-2,4.9725726E-2,-5.020906E-2,-1.5035825E-2,1.01316795E-1,2.9153686E-2,1.3464475E-1,-4.5597732E-2,5.047176E-2,5.051677E-2,1.64443E-1,-3.0846061E-2,8.7702945E-2],"split_indices":[2,7,5,0,8,7,2,2,6,5,6,2,8,0,8,7,0,8,5,6,0,6,0,6,7,6,7,8,7,0,0,0,0,0,0,0,0,0,0,0,0,0,0,0,0,0,0,0,0,0,0,0,0],"split_type":[0,0,0,0,0,0,0,0,0,0,0,0,0,0,0,0,0,0,0,0,0,0,0,0,0,0,0,0,0,0,0,0,0,0,0,0,0,0,0,0,0,0,0,0,0,0,0,0,0,0,0,0,0],"sum_hessian":[4.96E2,2.27E2,2.69E2,1.85E2,4.2E1,2.07E2,6.2E1,7.1E1,1.14E2,2E1,2.2E1,1.45E2,6.2E1,9E0,5.3E1,5.2E1,1.9E1,3.3E1,8.1E1,1E1,1E1,1.7E1,5E0,8.3E1,6.2E1,3.7E1,2.5E1,4.1E1,1.2E1,1.5E1,3.7E1,1.2E1,7E0,7E0,2.6E1,7.5E1,6E0,5E0,5E0,6E0,1.1E1,9E0,7.4E1,3.8E1,2.4E1,1.4E1,2.3E1,6E0,1.9E1,6E0,3.5E1,5E0,7E0],"tree_param":{"num_deleted":"0","num_feature":"9","num_nodes":"53","size_leaf_vector":"1"}},{"base_weights":[-2.1898815E-2,-1.4722291E0,1.6400199E0,2.645319E-1,-2.2853868E0,-5.221013E-1,2.4631147E0,2.652137E0,-7.633876E-1,9.012133E-1,-2.840582E0,-1.8035469E0,1.5107514E0,2.94028E0,-4.6297365E-1,5.8262497E-3,3.630074E0,-2.7852552E0,7.73519E-1,6.2317878E-2,-1.9433072E-2,-3.2717805E0,1.4876653E0,-2.0002834E-1,-4.0969515E0,2.8343213E0,-2.899181E-1,1.8906051E0,1.4992946E-1,2.790707E0,-3.0510318E0,1.5070912E-1,2.4563266E-2,1.12185925E-2,-1.0627665E-1,-5.126453E-2,5.2137446E-2,3.3926193E-2,-3.04449E-2,-1.17191456E-1,-4.579665E-2,-1.4595123E-2,1.1120321E-1,3.989092E-2,-4.3617453E-2,-1.7130637E-1,-2.3460817E-3,3.4625523E-2,1.1102433E-1,-4.9958397E-2,2.9211285E-2,1.3170566E-1,2.8019223E-2,1.0923563E-1,2.4936346E-2,-3.047706E-2,-1.1752017E-1],"categories":[],"categories_nodes":[],"categories_segments":[],"categories_sizes":[],"default_left":[0,0,0,0,0,0,0,0,0,0,0,0,0,0,0,0,0,0,0,0,0,0,0,0,0,0,0,0,0,0,0,0,0,0,0,0,0,0,0,0,0,0,0,0,0,0,0,0,0,0,0,0,0,0,0,0,0],"id":10,"left_children":[1,3,5,7,9,11,13,15,17,19,21,23,25,27,29,-1,31,33,35,-1,37,39,41,43,45,47,49,51,-1,53,55,-1,-1,-1,-1,-1,-1,-1,-1,-1,-1,-1,-1,-1,-1,-1,-1,-1,-1,-1,-1,-1,-1,-1,-1,-1,-1],"loss_changes":[1.1985651E3,3.7962305E2,4.189085E2,2.2395485E2,3.3261383E2,1.8356418E2,2.4329187E2,6.469704E1,2.0679553E2,3.4645752E1,3.0953528E2,1.5414569E2,7.1211044E1,2.8823584E2,2.504541E2,0E0,6.501828E1,7.646417E1,1.0334092E2,0E0,2.7285826E1,1.420946E2,8.130783E1,6.2352398E1,1.1177048E2,1.2906387E1,3.21805E1,2.3187024E2,0E0,1.4821075E1,1.8736496E1,0E0,0E0,0E0,0E0,0E0,0E0,0E0,0E0,0E0,0E0,0E0,0E0,0E0,0E0,0E0,0E0,0E0,0E0,0E0,0E0,0E0,0E0,0E0,0E0,0E0,0E0],"parents":[2147483647,0,0,1,1,2,2,3,3,4,4,5,5,6,6,7,7,8,8,9,9,10,10,11,11,12,12,13,13,14,14,16,16,17,17,18,18,20,20,21,21,22,22,23,23,24,24,25,25,26,26,27,27,29,29,30,30],"right_children":[2,4,6,8,10,12,14,16,18,20,22,24,26,28,30,-1,32,34,36,-1,38,40,42,44,46,48,50,52,-1,54,56,-1,-1,-1,-1,-1,-1,-1,-1,-1,-1,-1,-1,-1,-1,-1,-1,-1,-1,-1,-1,-1,-1,-1,-1,-1,-1],"split_conditions":[3.1398734E-1,-5E-1,-8.2903755E-1,6.4E1,-4.0900126E-1,7.9141784E-1,7.4E1,5.2E1,2.8689143E-1,-4.688551E-1,1.04528464E-1,1.3145204E-1,2.787659E-1,5.867679E-1,4.1345604E-2,5.8262497E-3,1.2990381E-1,-1.7449748E-2,-7.431448E-1,6.2317878E-2,2.9947194E-1,5.944487E-1,1.9336468E-1,-2.419219E-1,6.9318765E-1,-9.5105654E-1,6.7E1,-7.6604444E-1,1.4992946E-1,6.296162E-1,5.8778524E-1,1.5070912E-1,2.4563266E-2,1.12185925E-2,-1.0627665E-1,-5.126453E-2,5.2137446E-2,3.3926193E-2,-3.04449E-2,-1.17191456E-1,-4.579665E-2,-1.4595123E-2,1.1120321E-1,3.989092E-2,-4.3617453E-2,-1.7130637E-1,-2.3460817E-3,3.4625523E-2,1.1102433E-1,-4.9958397E-2,2.9211285E-2,1.3170566E-1,2.8019223E-2,1.0923563E-1,2.4936346E-2,-3.047706E-2,-1.1752017E-1],"split_indices":[5,3,2,0,6,7,0,0,7,6,2,6,6,5,6,0,5,5,2,0,7,7,7,3,5,2,0,3,0,4,3,0,0,0,0,0,0,0,0,0,0,0,0,0,0,0,0,0,0,0,0,0,0,0,0,0,0],"split_type":[0,0,0,0,0,0,0,0,0,0,0,0,0,0,0,0,0,0,0,0,0,0,0,0,0,0,0,0,0,0,0,0,0,0,0,0,0,0,0,0,0,0,0,0,0,0,0,0,0,0,0,0,0,0,0,0,0],"sum_hessian":[4.9E2,2.62E2,2.28E2,8.4E1,1.78E2,6.3E1,1.65E2,2.4E1,6E1,2.6E1,1.52E2,3.9E1,2.4E1,1.42E2,2.3E1,8E0,1.6E1,2.5E1,3.5E1,1E1,1.6E1,1.39E2,1.3E1,2.5E1,1.4E1,1.3E1,1.1E1,9.8E1,4.4E1,1E1,1.3E1,9E0,7E0,5E0,2E1,9E0,2.6E1,7E0,9E0,9.9E1,4E1,8E0,5E0,1.1E1,1.4E1,9E0,5E0,7E0,6E0,5E0,6E0,2.4E1,7.4E1,5E0,5E0,6E0,7E0],"tree_param":{"num_deleted":"0","num_feature":"9","num_nodes":"57","size_leaf_vector":"1"}},{"base_weights":[4.5654541E-4,-1.2670301E0,1.453446E0,-0E0,-2.349474E0,4.4914246E-2,2.4741073E0,-4.923793E-1,2.0616975E0,-2.81465E0,3.2678747E-1,-4.117249E0,8.531192E-1,1.4167275E0,4.727524E0,-2.4060512E0,3.6266482E-1,-5.8894155E-5,2.6029072E0,-3.710588E0,-6.423863E-1,-4.711887E-1,6.4858064E-2,-1.4464894E-1,-4.896195E-2,-2.9860887E-1,3.3709588E0,4.4082847E-1,3.4356582E0,-3.5776934E-3,1.7679514E-1,-9.1803044E-2,9.076849E-3,3.666749E-2,-4.7877017E-2,4.157824E-2,1.0062271E-1,-1.5007266E-1,-5.871778E-2,-4.484624E-2,6.9406234E-2,6.2822914E-3,-4.6441205E-2,3.9059117E-2,-4.896195E-2,1.2395269E-1,9.960677E-3,9.00587E-2,-7.427466E-3,1.2468767E-1,5.8486503E-2],"categories":[],"categories_nodes":[],"categories_segments":[],"categories_sizes":[],"default_left":[0,0,0,0,0,0,0,0,0,0,0,0,0,0,0,0,0,0,0,0,0,0,0,0,0,0,0,0,0,0,0,0,0,0,0,0,0,0,0,0,0,0,0,0,0,0,0,0,0,0,0],"id":11,"left_children":[1,3,5,7,9,11,13,15,17,19,21,23,25,27,29,31,33,-1,35,37,39,41,-1,-1,-1,43,45,47,49,-1,-1,-1,-1,-1,-1,-1,-1,-1,-1,-1,-1,-1,-1,-1,-1,-1,-1,-1,-1,-1,-1],"loss_changes":[9.3100244E2,3.7091022E2,3.3877002E2,1.3427492E2,1.8766003E2,3.5699164E2,3.0702887E2,1.7821695E2,3.1842506E1,2.3635608E2,4.168024E1,1.3916321E1,2.634138E2,1.8851106E2,2.4829254E2,6.598082E1,1.3474957E2,0E0,6.7075806E0,1.711626E2,1.1457019E2,1.7324453E1,0E0,0E0,0E0,1.5142007E2,6.2852844E1,1.2851086E2,1.19418335E1,0E0,0E0,0E0,0E0,0E0,0E0,0E0,0E0,0E0,0E0,0E0,0E0,0E0,0E0,0E0,0E0,0E0,0E0,0E0,0E0,0E0,0E0],"parents":[2147483647,0,0,1,1,2,2,3,3,4,4,5,5,6,6,7,7,8,8,9,9,10,10,11,11,12,12,13,13,14,14,15,15,16,16,18,18,19,19,20,20,21,21,25,25,26,26,27,27,28,28],"right_children":[2,4,6,8,10,12,14,16,18,20,22,24,26,28,30,32,34,-1,36,38,40,42,-1,-1,-1,44,46,48,50,-1,-1,-1,-1,-1,-1,-1,-1,-1,-1,-1,-1,-1,-1,-1,-1,-1,-1,-1,-1,-1,-1],"split_conditions":[3.1398734E-1,2.372E1,-6.156615E-1,6.074358E-1,4.543201E-1,5E-1,5.8103657E-1,-8.480481E-1,-9.9026805E-1,-4.6947157E-1,-8.660254E-1,-7.880108E-1,7.9141784E-1,4.3037102E-1,2.6E-1,2.8055754E-1,7.1E1,-5.8894155E-5,6.961653E-1,2.501E1,7.2E1,7.1E1,6.4858064E-2,-1.4464894E-1,-4.896195E-2,6.3E1,2.481E1,2.3E1,4.0622842E-1,-3.5776934E-3,1.7679514E-1,-9.1803044E-2,9.076849E-3,3.666749E-2,-4.7877017E-2,4.157824E-2,1.0062271E-1,-1.5007266E-1,-5.871778E-2,-4.484624E-2,6.9406234E-2,6.2822914E-3,-4.6441205E-2,3.9059117E-2,-4.896195E-2,1.2395269E-1,9.960677E-3,9.00587E-2,-7.427466E-3,1.2468767E-1,5.8486503E-2],"split_indices":[5,8,2,7,4,1,5,2,2,2,2,2,7,7,1,5,0,0,7,8,0,0,0,0,0,0,8,8,5,0,0,0,0,0,0,0,0,0,0,0,0,0,0,0,0,0,0,0,0,0,0],"split_type":[0,0,0,0,0,0,0,0,0,0,0,0,0,0,0,0,0,0,0,0,0,0,0,0,0,0,0,0,0,0,0,0,0,0,0,0,0,0,0,0,0,0,0,0,0,0,0,0,0,0,0],"sum_hessian":[4.98E2,2.66E2,2.32E2,1.24E2,1.42E2,9.9E1,1.33E2,1.02E2,2.2E1,1.21E2,2.1E1,1.4E1,8.5E1,9.4E1,3.9E1,3E1,7.2E1,5E0,1.7E1,8.4E1,3.7E1,1.6E1,5E0,9E0,5E0,6E1,2.5E1,6.6E1,2.8E1,8E0,3.1E1,2.4E1,6E0,5.1E1,2.1E1,1E1,7E0,4.5E1,3.9E1,3E1,7E0,1.1E1,5E0,2.8E1,3.2E1,1.9E1,6E0,1.2E1,5.4E1,1.5E1,1.3E1],"tree_param":{"num_deleted":"0","num_feature":"9","num_nodes":"51","size_leaf_vector":"1"}},{"base_weights":[3.1386744E-2,-1.3342957E0,1.6324528E0,3.6245105E-1,-2.108303E0,-6.577768E-1,2.5412822E0,-1.6239191E0,9.6725136E-1,-1.4277254E0,-4.1650686E0,6.824557E-1,-2.2032614E0,1.517888E0,4.3244915E0,8.139758E-2,-3.5192704E0,1.9555621E-1,1.1598512E-1,-1.8695045E0,2.398178E0,-1.7398006E-1,-2.3452682E0,1.7702984E0,-1.1140089E0,-6.398798E-1,-1.2906231E-1,5.476837E-1,3.137914E0,4.7844057E0,3.0273339E-2,-1.3124336E-1,-4.9305942E-2,-2.2490764E-2,5.472955E-2,-8.2184404E-2,1.8495003E-2,1.1485354E-1,1.0244362E-2,2.9091733E-2,-1.05306745E-1,2.1916302E-2,9.959045E-2,2.8830841E-3,-7.267977E-2,-5.5276718E-2,4.9678534E-2,-1.7684335E-2,4.3884493E-2,2.129965E-2,1.157867E-1,7.162982E-2,1.5791771E-1],"categories":[],"categories_nodes":[],"categories_segments":[],"categories_sizes":[],"default_left":[0,0,0,0,0,0,0,0,0,0,0,0,0,0,0,0,0,0,0,0,0,0,0,0,0,0,0,0,0,0,0,0,0,0,0,0,0,0,0,0,0,0,0,0,0,0,0,0,0,0,0,0,0],"id":12,"left_children":[1,3,5,7,9,11,13,15,17,19,21,23,25,27,29,-1,31,33,-1,35,37,-1,39,41,43,45,-1,47,49,51,-1,-1,-1,-1,-1,-1,-1,-1,-1,-1,-1,-1,-1,-1,-1,-1,-1,-1,-1,-1,-1,-1,-1],"loss_changes":[1.0854318E3,3.562858E2,4.8372125E2,1.1029179E2,2.425177E2,1.469347E2,2.8251672E2,2.079113E2,1.5188428E2,2.5915274E2,9.4127014E1,8.3391136E1,9.9212524E1,1.6800844E2,7.6850586E1,0E0,7.114258E0,9.4970695E1,0E0,2.9064346E2,4.5229225E1,0E0,1.1636948E2,3.5024063E1,2.971832E1,7.349054E1,0E0,8.000293E1,6.414789E1,2.3584473E1,0E0,0E0,0E0,0E0,0E0,0E0,0E0,0E0,0E0,0E0,0E0,0E0,0E0,0E0,0E0,0E0,0E0,0E0,0E0,0E0,0E0,0E0,0E0],"parents":[2147483647,0,0,1,1,2,2,3,3,4,4,5,5,6,6,7,7,8,8,9,9,10,10,11,11,12,12,13,13,14,14,16,16,17,17,19,19,20,20,22,22,23,23,24,24,25,25,27,27,28,28,29,29],"right_children":[2,4,6,8,10,12,14,16,18,20,22,24,26,28,30,-1,32,34,-1,36,38,-1,40,42,44,46,-1,48,50,52,-1,-1,-1,-1,-1,-1,-1,-1,-1,-1,-1,-1,-1,-1,-1,-1,-1,-1,-1,-1,-1,-1,-1],"split_conditions":[3.1212083E-1,2.328E1,-8.2903755E-1,1.3486047E-1,9.5E-2,6.6E1,5.9416085E-1,-2.9570805E-2,-3.4899496E-2,1.04528464E-1,-8.9879405E-1,2.39E1,-9.396926E-1,3.99961E-1,7.4E1,8.139758E-2,2.279E1,5.9806734E-1,1.1598512E-1,5.464102E-1,4.0673664E-1,-1.7398006E-1,2.0939698E-2,7.9141784E-1,2.2229068E-1,-9.702957E-1,-1.2906231E-1,4.503033E-1,-6.156615E-1,-1.2712763E-1,3.0273339E-2,-1.3124336E-1,-4.9305942E-2,-2.2490764E-2,5.472955E-2,-8.2184404E-2,1.8495003E-2,1.1485354E-1,1.0244362E-2,2.9091733E-2,-1.05306745E-1,2.1916302E-2,9.959045E-2,2.8830841E-3,-7.267977E-2,-5.5276718E-2,4.9678534E-2,-1.7684335E-2,4.3884493E-2,2.129965E-2,1.157867E-1,7.162982E-2,1.5791771E-1],"split_indices":[5,8,2,7,6,0,5,7,2,2,2,8,2,7,0,0,8,7,0,7,2,0,5,7,6,2,0,5,2,6,0,0,0,0,0,0,0,0,0,0,0,0,0,0,0,0,0,0,0,0,0,0,0],"split_type":[0,0,0,0,0,0,0,0,0,0,0,0,0,0,0,0,0,0,0,0,0,0,0,0,0,0,0,0,0,0,0,0,0,0,0,0,0,0,0,0,0,0,0,0,0,0,0,0,0,0,0,0,0],"sum_hessian":[4.89E2,2.64E2,2.25E2,8.3E1,1.81E2,6.4E1,1.61E2,1.8E1,6.5E1,1.4E2,4.1E1,3.5E1,2.9E1,1.06E2,5.5E1,5E0,1.3E1,5.4E1,1.1E1,1.27E2,1.3E1,1.8E1,2.3E1,2.2E1,1.3E1,1.9E1,1E1,6.9E1,3.7E1,4.7E1,8E0,6E0,7E0,3.5E1,1.9E1,9.4E1,3.3E1,6E0,7E0,6E0,1.7E1,1.6E1,6E0,8E0,5E0,1.3E1,6E0,3.1E1,3.8E1,1E1,2.7E1,1.1E1,3.6E1],"tree_param":{"num_deleted":"0","num_feature":"9","num_nodes":"53","size_leaf_vector":"1"}},{"base_weights":[1.5389614E-2,-1.4137441E0,1.3342324E0,1.151905E-1,-1.686121E0,-5.0966823E-3,2.313971E0,5.144949E-1,-2.4436376E0,-4.368658E-1,1.257008E-1,1.3219388E0,3.8960626E0,-2.0463135E0,1.6863502E0,-1.698575E0,-4.224182E0,1.1097333E0,-1.7862312E0,-6.510146E-3,2.3749974E0,4.579059E0,1.2133726E0,3.4808684E-2,-9.8915435E-2,-1.760416E-2,7.201219E-2,-6.190765E-2,8.302645E-2,-1.913666E-2,-1.3707066E-1,8.601038E-3,6.265003E-2,-9.1377854E-2,1.2322053E-2,7.994325E-2,-1.8138258E-2,4.1079767E-2,1.1495068E-1,5.051776E-2,1.440647E-1,-2.2016251E-2,9.0842366E-2],"categories":[],"categories_nodes":[],"categories_segments":[],"categories_sizes":[],"default_left":[0,0,0,0,0,0,0,0,0,0,0,0,0,0,0,0,0,0,0,0,0,0,0,0,0,0,0,0,0,0,0,0,0,0,0,0,0,0,0,0,0,0,0],"id":13,"left_children":[1,3,5,-1,7,9,11,13,15,17,-1,19,21,23,25,27,29,31,33,35,37,39,41,-1,-1,-1,-1,-1,-1,-1,-1,-1,-1,-1,-1,-1,-1,-1,-1,-1,-1,-1,-1],"loss_changes":[9.733859E2,3.7730692E2,3.5517642E2,0E0,4.0277405E2,2.1835544E2,2.304281E2,2.0296158E2,2.1624731E2,2.3456909E2,0E0,1.4350558E2,9.249939E1,1.0123471E2,8.116197E1,2.3353763E2,5.5694824E1,4.127318E1,1.7181075E2,8.216424E1,6.889743E1,8.04895E0,6.811468E1,0E0,0E0,0E0,0E0,0E0,0E0,0E0,0E0,0E0,0E0,0E0,0E0,0E0,0E0,0E0,0E0,0E0,0E0,0E0,0E0],"parents":[2147483647,0,0,1,1,2,2,4,4,5,5,6,6,7,7,8,8,9,9,11,11,12,12,13,13,14,14,15,15,16,16,17,17,18,18,19,19,20,20,21,21,22,22],"right_children":[2,4,6,-1,8,10,12,14,16,18,-1,20,22,24,26,28,30,32,34,36,38,40,42,-1,-1,-1,-1,-1,-1,-1,-1,-1,-1,-1,-1,-1,-1,-1,-1,-1,-1,-1,-1],"split_conditions":[2.87427E-1,-4.688551E-1,-6.156615E-1,1.151905E-1,-6.691306E-1,1.0982848E0,5.5425626E-1,2.2846149E-1,5.7883844E-2,-1.3787308E-1,1.257008E-1,2.9876533E-1,2.459E1,-9.2718387E-1,1.10819064E-1,1.04528464E-1,2.272E1,-2.6096094E-1,7.9141784E-1,2.286E1,3.0618083E-2,3.4238034E-1,2.2294345E-1,3.4808684E-2,-9.8915435E-2,-1.760416E-2,7.201219E-2,-6.190765E-2,8.302645E-2,-1.913666E-2,-1.3707066E-1,8.601038E-3,6.265003E-2,-9.1377854E-2,1.2322053E-2,7.994325E-2,-1.8138258E-2,4.1079767E-2,1.1495068E-1,5.051776E-2,1.440647E-1,-2.2016251E-2,9.0842366E-2],"split_indices":[5,6,2,0,3,7,5,7,6,6,0,7,8,3,4,2,8,6,7,8,6,4,7,0,0,0,0,0,0,0,0,0,0,0,0,0,0,0,0,0,0,0,0],"split_type":[0,0,0,0,0,0,0,0,0,0,0,0,0,0,0,0,0,0,0,0,0,0,0,0,0,0,0,0,0,0,0,0,0,0,0,0,0,0,0,0,0,0,0],"sum_hessian":[5.09E2,2.44E2,2.65E2,1E1,2.34E2,1.13E2,1.52E2,6E1,1.74E2,1.05E2,8E0,9.7E1,5.5E1,1.8E1,4.2E1,1.27E2,4.7E1,4.9E1,5.6E1,4.4E1,5.3E1,4.2E1,1.3E1,5E0,1.3E1,1E1,3.2E1,1.19E2,8E0,5E0,4.2E1,2.9E1,2E1,3.5E1,2.1E1,6E0,3.8E1,3.5E1,1.8E1,5E0,3.7E1,7E0,6E0],"tree_param":{"num_deleted":"0","num_feature":"9","num_nodes":"43","size_leaf_vector":"1"}},{"base_weights":[1.3482264E-1,-6.892043E-1,2.5736423E0,-1.9394121E0,9.2699707E-1,7.2656494E-1,4.406842E0,-3.8616743E0,-6.939243E-1,4.472333E-1,3.8090956E0,3.445754E0,-6.40143E-1,1.4454316E-1,3.6461126E-2,-2.4191632E0,-5.637372E0,-1.5186225E-2,-1.8328233E0,1.5706774E0,-1.5186225E-2,1.5712145E-1,6.3844934E-2,5.069211E0,-1.6002608E-2,-1.782983E0,9.999255E-2,-1.03472956E-1,-3.7779253E-2,-6.7705765E-2,-1.8357949E-1,-8.0047734E-2,-1.7666645E-2,2.421161E-2,6.3844934E-2,3.724782E-2,1.9274896E-1,-8.4070235E-2,2.998796E-2],"categories":[],"categories_nodes":[],"categories_segments":[],"categories_sizes":[],"default_left":[0,0,0,0,0,0,0,0,0,0,0,0,0,0,0,0,0,0,0,0,0,0,0,0,0,0,0,0,0,0,0,0,0,0,0,0,0,0,0],"id":14,"left_children":[1,3,5,7,9,11,13,15,17,19,21,23,25,-1,-1,27,29,-1,31,33,-1,-1,-1,35,-1,37,-1,-1,-1,-1,-1,-1,-1,-1,-1,-1,-1,-1,-1],"loss_changes":[9.6612115E2,7.321364E2,4.026748E2,4.8025195E2,2.1548833E2,2.4995158E2,6.420154E1,1.6547083E2,1.05703285E2,2.8422192E2,2.6160767E1,1.5810303E2,2.2650389E2,0E0,0E0,4.785797E1,1.6520996E1,0E0,6.1346725E1,6.066931E1,0E0,0E0,0E0,6.2930634E1,0E0,1.18055504E2,0E0,0E0,0E0,0E0,0E0,0E0,0E0,0E0,0E0,0E0,0E0,0E0,0E0],"parents":[2147483647,0,0,1,1,2,2,3,3,4,4,5,5,6,6,7,7,8,8,9,9,10,10,11,11,12,12,15,15,16,16,18,18,19,19,23,23,25,25],"right_children":[2,4,6,8,10,12,14,16,18,20,22,24,26,-1,-1,28,30,-1,32,34,-1,-1,-1,36,-1,38,-1,-1,-1,-1,-1,-1,-1,-1,-1,-1,-1,-1,-1],"split_conditions":[1.04528464E-1,5.1E-1,3.4238034E-1,-8.480481E-1,9E-1,6.1E1,7.4E1,-2.0784609E-1,-5E-1,5.5839196E-3,6.6E1,4.237416E-1,8.9879405E-1,1.4454316E-1,3.6461126E-2,3.9E-1,-9.945219E-1,-1.5186225E-2,3.0924484E-1,6.1E-1,-1.5186225E-2,1.5712145E-1,6.3844934E-2,-1.91013E-2,-1.6002608E-2,8.9879405E-1,9.999255E-2,-1.03472956E-1,-3.7779253E-2,-6.7705765E-2,-1.8357949E-1,-8.0047734E-2,-1.7666645E-2,2.421161E-2,6.3844934E-2,3.724782E-2,1.9274896E-1,-8.4070235E-2,2.998796E-2],"split_indices":[2,1,4,2,1,0,0,6,3,6,0,5,3,0,0,1,2,0,4,1,0,0,0,6,0,2,0,0,0,0,0,0,0,0,0,0,0,0,0],"split_type":[0,0,0,0,0,0,0,0,0,0,0,0,0,0,0,0,0,0,0,0,0,0,0,0,0,0,0,0,0,0,0,0,0,0,0,0,0,0,0],"sum_hessian":[4.73E2,3.55E2,1.18E2,2E2,1.55E2,6.1E1,5.7E1,7.6E1,1.24E2,1.36E2,1.9E1,1.9E1,4.2E1,4.9E1,8E0,4.6E1,3E1,6.5E1,5.9E1,9.2E1,4.4E1,7E0,1.2E1,1.3E1,6E0,3.4E1,8E0,2.1E1,2.5E1,6E0,2.4E1,3.3E1,2.6E1,5.6E1,3.6E1,5E0,8E0,2.5E1,9E0],"tree_param":{"num_deleted":"0","num_feature":"9","num_nodes":"39","size_leaf_vector":"1"}},{"base_weights":[1.8417407E-2,-1.2978822E0,1.4997325E0,-1.9477656E0,5.469137E-1,-4.0191278E-1,2.2527072E0,-3.931823E0,-1.0632461E0,1.2814567E0,-2.101278E-2,6.3812363E-1,-4.1279364E0,9.080651E-1,3.4437084E0,-2.101278E-2,-4.4594765E0,-7.00426E-1,-2.015202E0,2.4957633E0,6.722971E-1,-8.064119E-2,1.5669434E-1,-1.6534828E-1,-4.782747E-2,-1.08005844E-1,1.3258661E0,2.5507007E0,5.07179E0,-8.3995156E-2,-1.6211219E-1,-2.101278E-2,-6.507423E-2,-9.6933514E-2,-2.7196385E-2,2.649004E-2,9.365827E-2,1.1530259E-3,5.5858504E-2,-7.629244E-2,1.7552039E-2,6.168037E-2,-1.9331994E-2,6.52766E-2,1.6939361E-1,1.678488E-1,6.52766E-2],"categories":[],"categories_nodes":[],"categories_segments":[],"categories_sizes":[],"default_left":[0,0,0,0,0,0,0,0,0,0,0,0,0,0,0,0,0,0,0,0,0,0,0,0,0,0,0,0,0,0,0,0,0,0,0,0,0,0,0,0,0,0,0,0,0,0,0],"id":15,"left_children":[1,3,5,7,9,11,13,15,17,19,-1,21,23,25,27,-1,29,31,33,35,37,39,-1,-1,-1,-1,41,43,45,-1,-1,-1,-1,-1,-1,-1,-1,-1,-1,-1,-1,-1,-1,-1,-1,-1,-1],"loss_changes":[1.0051135E3,3.3249234E2,3.5281378E2,3.444533E2,1.3761514E2,2.895526E2,2.7145038E2,1.2907507E2,1.02591995E2,4.3891556E1,0E0,2.0028064E2,3.3285004E1,1.8009482E2,9.7305176E1,0E0,4.3338257E1,1.6189613E1,8.7643555E1,1.3929985E1,3.617712E1,9.545204E1,0E0,0E0,0E0,0E0,1.2390607E2,1.1480463E2,2.8751526E1,0E0,0E0,0E0,0E0,0E0,0E0,0E0,0E0,0E0,0E0,0E0,0E0,0E0,0E0,0E0,0E0,0E0,0E0],"parents":[2147483647,0,0,1,1,2,2,3,3,4,4,5,5,6,6,7,7,8,8,9,9,11,11,12,12,13,13,14,14,16,16,17,17,18,18,19,19,20,20,21,21,26,26,27,27,28,28],"right_children":[2,4,6,8,10,12,14,16,18,20,-1,22,24,26,28,-1,30,32,34,36,38,40,-1,-1,-1,-1,42,44,46,-1,-1,-1,-1,-1,-1,-1,-1,-1,-1,-1,-1,-1,-1,-1,-1,-1,-1],"split_conditions":[3.1398734E-1,4.8E-1,-8.2903755E-1,-8.480481E-1,1.7045772E-1,3.0597067E-1,4.1E-1,-4.0900126E-1,2.372E1,9.068342E-3,-2.101278E-2,9.3E-1,6.139662E-1,-3.4202015E-1,1.04528464E-1,-2.101278E-2,-2.585757E-1,5.6136157E-2,2.9736465E-1,2.304E1,-2.8841135E-1,5.5E-1,1.5669434E-1,-1.6534828E-1,-4.782747E-2,-1.08005844E-1,2.454E1,7.3E-1,4.9605736E-1,-8.3995156E-2,-1.6211219E-1,-2.101278E-2,-6.507423E-2,-9.6933514E-2,-2.7196385E-2,2.649004E-2,9.365827E-2,1.1530259E-3,5.5858504E-2,-7.629244E-2,1.7552039E-2,6.168037E-2,-1.9331994E-2,6.52766E-2,1.6939361E-1,1.678488E-1,6.52766E-2],"split_indices":[5,1,2,2,6,6,1,6,8,5,0,1,5,2,2,0,6,6,7,8,6,1,0,0,0,0,8,1,7,0,0,0,0,0,0,0,0,0,0,0,0,0,0,0,0,0,0],"split_type":[0,0,0,0,0,0,0,0,0,0,0,0,0,0,0,0,0,0,0,0,0,0,0,0,0,0,0,0,0,0,0,0,0,0,0,0,0,0,0,0,0,0,0,0,0,0,0],"sum_hessian":[5.08E2,2.69E2,2.39E2,1.99E2,7E1,6.8E1,1.71E2,5.8E1,1.41E2,6.1E1,9E0,5.5E1,1.3E1,8.3E1,8.8E1,7E0,5.1E1,7.4E1,6.7E1,1.7E1,4.4E1,5E1,5E0,6E0,7E0,5E0,7.8E1,6.2E1,2.6E1,2.3E1,2.8E1,5.9E1,1.5E1,2.9E1,3.8E1,7E0,1E1,3.1E1,1.3E1,9E0,4.1E1,5.7E1,2.1E1,5.4E1,8E0,2.1E1,5E0],"tree_param":{"num_deleted":"0","num_feature":"9","num_nodes":"47","size_leaf_vector":"1"}},{"base_weights":[1.402077E-1,-9.48168E-1,1.9681721E0,-2.4275253E0,6.3286936E-1,7.224822E-1,3.7524369E0,-3.6410863E0,-1.2081363E0,1.6250689E0,-8.9732796E-1,2.1547703E-1,2.2374597E0,2.990157E0,1.7047606E-1,-2.1484463E0,-1.6989014E-1,-2.6919838E-2,-2.4372764E0,7.3409E-1,2.7133913E0,-2.6919838E-2,2.3412693E0,1.1161584E0,-1.0491376E0,3.4857664E-4,6.7123786E-2,6.7123786E-2,3.908808E0,-2.6919838E-2,-7.74409E-2,-1.1384247E-1,-2.6919838E-2,-1.0262338E-2,5.1712215E-2,5.1712215E-2,9.5354766E-2,2.1659119E-2,1.2761135E-1,-1.985969E-2,6.7123786E-2,-6.444047E-2,2.9120464E-2,1.401475E-1,6.7123786E-2],"categories":[],"categories_nodes":[],"categories_segments":[],"categories_sizes":[],"default_left":[0,0,0,0,0,0,0,0,0,0,0,0,0,0,0,0,0,0,0,0,0,0,0,0,0,0,0,0,0,0,0,0,0,0,0,0,0,0,0,0,0,0,0,0,0],"id":16,"left_children":[1,3,5,7,9,11,13,15,17,19,21,23,25,27,-1,29,-1,-1,31,33,35,-1,37,39,41,-1,-1,-1,43,-1,-1,-1,-1,-1,-1,-1,-1,-1,-1,-1,-1,-1,-1,-1,-1],"loss_changes":[9.998018E2,7.429872E2,4.097381E2,2.3043555E2,2.9395395E2,1.0377141E2,6.5178345E1,2.0884546E2,9.6057335E1,9.562433E1,1.7188594E2,1.1164018E2,3.67406E1,6.606665E1,0E0,3.6610626E1,0E0,0E0,1.0691202E2,7.1695206E1,3.4843353E1,0E0,8.284578E1,1.6350589E2,9.8743866E1,0E0,0E0,0E0,4.3815674E1,0E0,0E0,0E0,0E0,0E0,0E0,0E0,0E0,0E0,0E0,0E0,0E0,0E0,0E0,0E0,0E0],"parents":[2147483647,0,0,1,1,2,2,3,3,4,4,5,5,6,6,7,7,8,8,9,9,10,10,11,11,12,12,13,13,15,15,18,18,19,19,20,20,22,22,23,23,24,24,28,28],"right_children":[2,4,6,8,10,12,14,16,18,20,22,24,26,28,-1,30,-1,-1,32,34,36,-1,38,40,42,-1,-1,-1,44,-1,-1,-1,-1,-1,-1,-1,-1,-1,-1,-1,-1,-1,-1,-1,-1],"split_conditions":[-4.0673664E-1,5.1E-1,3.4E-1,-8.480481E-1,2.124933E-1,1.9917156E-1,1.2608837E-1,-2.0784609E-1,2.372E1,6.2E-1,9.5E-1,6.840403E-2,7.3845536E-2,4.0104052E-1,1.7047606E-1,-4.0900126E-1,-1.6989014E-1,-2.6919838E-2,3.63111E-1,5.983887E-1,-9.945219E-1,-2.6919838E-2,-9.612617E-1,1.04528464E-1,3.3483464E-1,3.4857664E-4,6.7123786E-2,6.7123786E-2,4.5992523E-2,-2.6919838E-2,-7.74409E-2,-1.1384247E-1,-2.6919838E-2,-1.0262338E-2,5.1712215E-2,5.1712215E-2,9.5354766E-2,2.1659119E-2,1.2761135E-1,-1.985969E-2,6.7123786E-2,-6.444047E-2,2.9120464E-2,1.401475E-1,6.7123786E-2],"split_indices":[2,1,1,2,6,6,6,6,8,1,1,6,7,4,0,6,0,0,7,7,2,0,2,2,4,0,0,0,6,0,0,0,0,0,0,0,0,0,0,0,0,0,0,0,0],"split_type":[0,0,0,0,0,0,0,0,0,0,0,0,0,0,0,0,0,0,0,0,0,0,0,0,0,0,0,0,0,0,0,0,0,0,0,0,0,0,0,0,0,0,0,0,0],"sum_hessian":[4.95E2,3.11E2,1.84E2,1.6E2,1.51E2,1.11E2,7.3E1,7.7E1,8.3E1,1E2,5.1E1,9E1,2.1E1,5.8E1,1.5E1,4.8E1,2.9E1,4.2E1,4.1E1,5.8E1,4.2E1,3.7E1,1.4E1,5.3E1,3.7E1,8E0,1.3E1,2.1E1,3.7E1,1E1,3.8E1,2.2E1,1.9E1,2.9E1,2.9E1,5E0,3.7E1,7E0,7E0,2.6E1,2.7E1,2.4E1,1.3E1,2.5E1,1.2E1],"tree_param":{"num_deleted":"0","num_feature":"9","num_nodes":"45","size_leaf_vector":"1"}},{"base_weights":[1.2817584E-1,-6.8818855E-1,1.5459964E0,-2.3818347E0,1.127981E0,3.2832456E-1,3.4034765E0,-6.269269E-1,-3.0866444E0,8.729069E-1,1.589277E-1,1.8659005E0,-6.7892927E-1,2.1075802E0,1.2461032E-1,-7.453319E-2,-1.8807806E-2,-1.6550968E0,-4.2453265E0,1.6808735E0,-4.6835002E-1,5.5977013E-2,-2.434275E-2,-1.5246748E0,8.8621587E-1,5.5977013E-2,9.391886E-2,-7.5183436E-2,-2.048051E-2,-1.5079546E-1,-8.884714E-2,7.87293E-2,2.5857585E-2,6.839607E-2,-1.8807806E-2,7.485995E-3,-1.004648E-1,-2.7545242E-2,5.5977013E-2],"categories":[],"categories_nodes":[],"categories_segments":[],"categories_sizes":[],"default_left":[0,0,0,0,0,0,0,0,0,0,0,0,0,0,0,0,0,0,0,0,0,0,0,0,0,0,0,0,0,0,0,0,0,0,0,0,0,0,0],"id":17,"left_children":[1,3,5,7,9,11,13,15,17,19,-1,21,23,25,-1,-1,-1,27,29,31,33,-1,-1,35,37,-1,-1,-1,-1,-1,-1,-1,-1,-1,-1,-1,-1,-1,-1],"loss_changes":[5.660647E2,9.626649E2,4.011142E2,2.0790002E2,1.4980975E2,2.1725836E2,4.4920776E1,4.2153175E1,1.7428113E2,1.6333609E2,0E0,6.7105774E1,1.0606228E2,4.5631073E1,0E0,0E0,0E0,4.3631546E1,2.1511963E1,6.603937E1,8.541588E1,0E0,0E0,1.6947623E2,7.5846375E1,0E0,0E0,0E0,0E0,0E0,0E0,0E0,0E0,0E0,0E0,0E0,0E0,0E0,0E0],"parents":[2147483647,0,0,1,1,2,2,3,3,4,4,5,5,6,6,7,7,8,8,9,9,11,11,12,12,13,13,17,17,18,18,19,19,20,20,23,23,24,24],"right_children":[2,4,6,8,10,12,14,16,18,20,-1,22,24,26,-1,-1,-1,28,30,32,34,-1,-1,36,38,-1,-1,-1,-1,-1,-1,-1,-1,-1,-1,-1,-1,-1,-1],"split_conditions":[-4.0673664E-1,5.1E-1,3.4E-1,-4.6947157E-1,1.13E0,6.3E1,4.1E-1,1.3614675E-1,-2.426744E-1,-6.691306E-2,1.589277E-1,9.135454E-1,2.2846149E-1,3.0618083E-2,1.2461032E-1,-7.453319E-2,-1.8807806E-2,3.8E-1,-8.09017E-1,5.433656E-1,-6.946584E-1,5.5977013E-2,-2.434275E-2,7E1,7E1,5.5977013E-2,9.391886E-2,-7.5183436E-2,-2.048051E-2,-1.5079546E-1,-8.884714E-2,7.87293E-2,2.5857585E-2,6.839607E-2,-1.8807806E-2,7.485995E-3,-1.004648E-1,-2.7545242E-2,5.5977013E-2],"split_indices":[2,1,1,3,1,0,1,4,6,6,0,2,7,6,0,0,0,1,2,4,3,0,0,0,0,0,0,0,0,0,0,0,0,0,0,0,0,0,0],"split_type":[0,0,0,0,0,0,0,0,0,0,0,0,0,0,0,0,0,0,0,0,0,0,0,0,0,0,0,0,0,0,0,0,0,0,0,0,0,0,0],"sum_hessian":[4.81E2,3.06E2,1.75E2,1.58E2,1.48E2,1.08E2,6.7E1,4.5E1,1.13E2,1.43E2,5E0,3.6E1,7.2E1,2.9E1,3.8E1,9E0,3.6E1,5.4E1,5.9E1,8.9E1,5.4E1,2.8E1,8E0,4.7E1,2.5E1,1.8E1,1.1E1,2.6E1,2.8E1,3.1E1,2.8E1,3.8E1,5.1E1,7E0,4.7E1,2.5E1,2.2E1,1.1E1,1.4E1],"tree_param":{"num_deleted":"0","num_feature":"9","num_nodes":"39","size_leaf_vector":"1"}},{"base_weights":[1.6275574E-1,-7.954476E-1,1.9121022E0,-2.3204072E0,1.4303705E-1,-1.2371254E-1,2.7302003E0,-1.088685E0,-3.2047992E0,-4.875343E-1,1.8933178E0,1.3032439E0,-1.3305058E0,3.429631E0,1.3248726E0,-3.266055E-2,-1.1242332E-1,-3.973528E0,-1.088685E0,2.1284745E0,-1.088685E0,2.8047965E0,-7.09126E-1,3.9097317E-2,-2.7318222E-2,-2.1814094E0,3.4585234E-2,3.9306078E0,3.9097317E-2,3.9097317E-2,2.745932E0,-1.3120382E-1,-6.592225E-2,-1.06502175E-1,-3.266055E-2,2.12469E-2,1.0952915E-1,3.224157E-2,-3.266055E-2,4.5134913E-2,1.2346571E-1,-3.266055E-2,3.262436E-2,-9.356941E-2,-3.338786E-2,3.9097317E-2,1.24574944E-1,6.0737643E-2,1.1276791E-1],"categories":[],"categories_nodes":[],"categories_segments":[],"categories_sizes":[],"default_left":[0,0,0,0,0,0,0,0,0,0,0,0,0,0,0,0,0,0,0,0,0,0,0,0,0,0,0,0,0,0,0,0,0,0,0,0,0,0,0,0,0,0,0,0,0,0,0,0,0],"id":18,"left_children":[1,3,5,7,9,11,13,15,17,19,21,23,25,27,29,-1,-1,31,33,35,37,39,41,-1,-1,43,-1,45,-1,-1,47,-1,-1,-1,-1,-1,-1,-1,-1,-1,-1,-1,-1,-1,-1,-1,-1,-1,-1],"loss_changes":[8.1744775E2,4.5392932E2,2.916358E2,1.4448193E2,2.2327725E2,1.4007147E2,1.09645996E2,5.4565647E1,1.14611084E2,3.09881E2,1.3624847E2,2.8713356E1,8.7464165E1,1.06520325E2,3.717473E1,0E0,0E0,1.2102112E1,7.854614E1,7.010356E1,5.185356E1,5.2408173E1,4.9496674E1,0E0,0E0,1.975209E1,0E0,3.298181E1,0E0,0E0,1.7670944E1,0E0,0E0,0E0,0E0,0E0,0E0,0E0,0E0,0E0,0E0,0E0,0E0,0E0,0E0,0E0,0E0,0E0,0E0],"parents":[2147483647,0,0,1,1,2,2,3,3,4,4,5,5,6,6,7,7,8,8,9,9,10,10,11,11,12,12,13,13,14,14,17,17,18,18,19,19,20,20,21,21,22,22,25,25,27,27,30,30],"right_children":[2,4,6,8,10,12,14,16,18,20,22,24,26,28,30,-1,-1,32,34,36,38,40,42,-1,-1,44,-1,46,-1,-1,48,-1,-1,-1,-1,-1,-1,-1,-1,-1,-1,-1,-1,-1,-1,-1,-1,-1,-1],"split_conditions":[-3.4202015E-1,4.3E-1,1.9E-1,2.372E1,7.9141784E-1,6.2E1,6.946584E-1,4.999878E-1,2.56E1,-4.6947157E-1,2.554E1,7.193398E-1,8.8294756E-1,7.4E1,4.1E-1,-3.266055E-2,-1.1242332E-1,7.2E1,-9.2718387E-1,4.9948528E-1,5.3E1,5.099511E-1,3.0903167E-1,3.9097317E-2,-2.7318222E-2,4.035453E-2,3.4585234E-2,-9.945219E-1,3.9097317E-2,3.9097317E-2,4.6642646E-1,-1.3120382E-1,-6.592225E-2,-1.06502175E-1,-3.266055E-2,2.12469E-2,1.0952915E-1,3.224157E-2,-3.266055E-2,4.5134913E-2,1.2346571E-1,-3.266055E-2,3.262436E-2,-9.356941E-2,-3.338786E-2,3.9097317E-2,1.24574944E-1,6.0737643E-2,1.1276791E-1],"split_indices":[2,1,1,8,7,0,3,7,8,3,8,2,3,0,1,0,0,0,2,7,0,5,5,0,0,7,0,3,0,0,5,0,0,0,0,0,0,0,0,0,0,0,0,0,0,0,0,0,0],"split_type":[0,0,0,0,0,0,0,0,0,0,0,0,0,0,0,0,0,0,0,0,0,0,0,0,0,0,0,0,0,0,0,0,0,0,0,0,0,0,0,0,0,0,0,0,0,0,0,0,0],"sum_hessian":[4.8E2,3.11E2,1.69E2,1.17E2,1.94E2,4.9E1,1.2E2,4.7E1,7E1,1.44E2,5E1,1.6E1,3.3E1,7.7E1,4.3E1,4.2E1,5E0,5E1,2E1,3.2E1,1.12E2,3.7E1,1.3E1,1E1,6E0,2.5E1,8E0,6.5E1,1.2E1,2.7E1,1.6E1,3.7E1,1.3E1,1E1,1E1,1.9E1,1.3E1,9E0,1.03E2,2.2E1,1.5E1,5E0,8E0,1E1,1.5E1,6E0,5.9E1,7E0,9E0],"tree_param":{"num_deleted":"0","num_feature":"9","num_nodes":"49","size_leaf_vector":"1"}},{"base_weights":[-3.6281355E-2,-6.641177E-1,2.138238E0,-2.1579714E0,1.17276885E-1,5.571277E-1,3.653515E0,-3.4421754E0,-5.6414306E-1,-5.149957E-1,1.4902556E0,-1.4055303E-1,1.3120619E0,1.2645512E0,4.5614834E0,-6.0094777E-2,-3.8699467E0,5.556833E-1,-1.9903835E0,4.8762995E-1,-1.1880772E0,3.219215E0,7.4080735E-1,3.284705E-1,1.066576E-1,6.933781E-2,-5.3020893E-3,1.7071791E-1,9.543431E-2,-6.0094777E-2,-1.2083586E-1,3.373361E-2,-3.9726287E-2,-2.0499586E-3,-6.0094777E-2,1.4628898E-2,-8.885762E-2,-5.3748522E-2,1.4628898E-2,4.8145868E-2,1.1082688E-1,1.4628898E-2,6.940652E-2,3.117354E-2,-4.8211213E-2],"categories":[],"categories_nodes":[],"categories_segments":[],"categories_sizes":[],"default_left":[0,0,0,0,0,0,0,0,0,0,0,0,0,0,0,0,0,0,0,0,0,0,0,0,0,0,0,0,0,0,0,0,0,0,0,0,0,0,0,0,0,0,0,0,0],"id":19,"left_children":[1,3,5,7,9,11,13,15,17,19,21,-1,23,25,27,-1,29,31,33,35,37,39,41,43,-1,-1,-1,-1,-1,-1,-1,-1,-1,-1,-1,-1,-1,-1,-1,-1,-1,-1,-1,-1,-1],"loss_changes":[6.9167706E2,4.6163226E2,2.6672662E2,2.724956E2,2.3050049E2,2.562468E2,1.0924719E2,5.4658752E1,1.0879855E2,1.6210356E2,1.0237407E2,0E0,1.1758321E2,3.4952885E1,1.2470459E1,0E0,5.4939575E0,4.744646E1,1.7974113E1,9.048407E1,2.0397467E2,3.2675476E0,4.4301884E1,6.376603E1,0E0,0E0,0E0,0E0,0E0,0E0,0E0,0E0,0E0,0E0,0E0,0E0,0E0,0E0,0E0,0E0,0E0,0E0,0E0,0E0,0E0],"parents":[2147483647,0,0,1,1,2,2,3,3,4,4,5,5,6,6,7,7,8,8,9,9,10,10,12,12,13,13,14,14,16,16,17,17,18,18,19,19,20,20,21,21,22,22,23,23],"right_children":[2,4,6,8,10,12,14,16,18,20,22,-1,24,26,28,-1,30,32,34,36,38,40,42,44,-1,-1,-1,-1,-1,-1,-1,-1,-1,-1,-1,-1,-1,-1,-1,-1,-1,-1,-1,-1,-1],"split_conditions":[5.5425626E-1,-8.480481E-1,-4.0673664E-1,5.1E-1,4.1E-1,4.4E-1,3.2E-1,5.8E1,2.404E1,6.5E1,-6.946584E-1,-1.4055303E-1,9.5E-1,6.3E1,5.471648E-1,-6.0094777E-2,-2.4626459E-1,2.0791169E-1,6.1E1,9.135454E-1,9.396926E-1,4.2402405E-1,6.1E-1,2.554E1,1.066576E-1,6.933781E-2,-5.3020893E-3,1.7071791E-1,9.543431E-2,-6.0094777E-2,-1.2083586E-1,3.373361E-2,-3.9726287E-2,-2.0499586E-3,-6.0094777E-2,1.4628898E-2,-8.885762E-2,-5.3748522E-2,1.4628898E-2,4.8145868E-2,1.1082688E-1,1.4628898E-2,6.940652E-2,3.117354E-2,-4.8211213E-2],"split_indices":[5,2,2,1,1,1,1,0,8,0,3,0,1,0,4,0,5,3,0,2,3,4,1,8,0,0,0,0,0,0,0,0,0,0,0,0,0,0,0,0,0,0,0,0,0],"split_type":[0,0,0,0,0,0,0,0,0,0,0,0,0,0,0,0,0,0,0,0,0,0,0,0,0,0,0,0,0,0,0,0,0,0,0,0,0,0,0,0,0,0,0,0,0],"sum_hessian":[4.99E2,3.89E2,1.1E2,1.32E2,2.57E2,5.6E1,5.4E1,7.1E1,6.1E1,1.77E2,8E1,5E0,5.1E1,1.7E1,3.7E1,1.2E1,5.9E1,3.5E1,2.6E1,5.8E1,1.19E2,2.1E1,5.9E1,3.8E1,1.3E1,9E0,8E0,1.5E1,2.2E1,6E0,5.3E1,2.8E1,7E0,5E0,2.1E1,5.3E1,5E0,1.02E2,1.7E1,8E0,1.3E1,4.8E1,1.1E1,2.9E1,9E0],"tree_param":{"num_deleted":"0","num_feature":"9","num_nodes":"45","size_leaf_vector":"1"}},{"base_weights":[2.7676288E-2,-7.8122264E-1,1.6149781E0,-1.980906E0,6.288776E-1,-4.2099753E-1,2.205501E0,-6.760142E-1,-2.7171025E0,1.3810172E0,-6.760142E-1,8.922518E-1,-1.8150098E0,2.9849932E0,8.922518E-1,-6.292685E-2,-2.0280425E-2,-1.400411E0,-3.8457136E0,4.6577832E-1,3.061271E0,-2.0280425E-2,5.69522E-2,-3.2046597E-2,2.6767554E-2,-3.3435495E0,2.6767554E-2,2.104812E0,4.821793E0,2.6767554E-2,3.234748E0,-7.099819E-2,-2.4707306E-2,-1.3417381E-1,-4.0991448E-2,3.7906308E-2,-2.0280425E-2,1.1356796E-1,5.290574E-2,-3.189187E-2,-1.1810628E-1,9.202723E-2,2.6767554E-2,6.5518975E-2,1.6267416E-1,6.1904997E-2,1.2171008E-1],"categories":[],"categories_nodes":[],"categories_segments":[],"categories_sizes":[],"default_left":[0,0,0,0,0,0,0,0,0,0,0,0,0,0,0,0,0,0,0,0,0,0,0,0,0,0,0,0,0,0,0,0,0,0,0,0,0,0,0,0,0,0,0,0,0,0,0],"id":20,"left_children":[1,3,5,7,9,11,13,15,17,19,21,23,25,27,29,-1,-1,31,33,35,37,-1,-1,-1,-1,39,-1,41,43,-1,45,-1,-1,-1,-1,-1,-1,-1,-1,-1,-1,-1,-1,-1,-1,-1,-1],"loss_changes":[6.562853E2,5.7711707E2,2.130982E2,2.229975E2,1.8543692E2,9.729019E1,1.5489886E2,1.622787E1,1.7667853E2,1.6203409E2,5.8482006E1,3.7587852E1,1.5533835E2,1.15287476E2,9.6982735E1,0E0,0E0,3.1417267E1,8.8698425E1,9.28174E1,6.2983215E1,0E0,0E0,0E0,0E0,1.4299866E1,0E0,1.0858685E2,9.472351E0,0E0,1.4278732E1,0E0,0E0,0E0,0E0,0E0,0E0,0E0,0E0,0E0,0E0,0E0,0E0,0E0,0E0,0E0,0E0],"parents":[2147483647,0,0,1,1,2,2,3,3,4,4,5,5,6,6,7,7,8,8,9,9,10,10,11,11,12,12,13,13,14,14,17,17,18,18,19,19,20,20,25,25,27,27,28,28,30,30],"right_children":[2,4,6,8,10,12,14,16,18,20,22,24,26,28,30,-1,-1,32,34,36,38,-1,-1,-1,-1,40,-1,42,44,-1,46,-1,-1,-1,-1,-1,-1,-1,-1,-1,-1,-1,-1,-1,-1,-1,-1],"split_conditions":[-3.4202015E-1,5.1E-1,1.6E-1,-4.6947157E-1,2.481E1,5.7883844E-2,7.431448E-1,1.1183858E-1,-2.0784609E-1,7.1E-1,-6.4278764E-1,-6.064022E-2,2.3941538E-1,1.8E-1,4E-1,-6.292685E-2,-2.0280425E-2,1.7658952E-1,2.532E1,-6.691306E-2,4.1346475E-1,-2.0280425E-2,5.69522E-2,-3.2046597E-2,2.6767554E-2,5.8143426E-2,2.6767554E-2,6.840403E-2,-4.0673664E-1,2.6767554E-2,1.04528464E-1,-7.099819E-2,-2.4707306E-2,-1.3417381E-1,-4.0991448E-2,3.7906308E-2,-2.0280425E-2,1.1356796E-1,5.290574E-2,-3.189187E-2,-1.1810628E-1,9.202723E-2,2.6767554E-2,6.5518975E-2,1.6267416E-1,6.1904997E-2,1.2171008E-1],"split_indices":[2,1,1,3,8,6,3,4,6,1,2,6,6,6,1,0,0,4,8,6,6,0,0,0,0,5,0,6,3,0,2,0,0,0,0,0,0,0,0,0,0,0,0,0,0,0,0],"split_type":[0,0,0,0,0,0,0,0,0,0,0,0,0,0,0,0,0,0,0,0,0,0,0,0,0,0,0,0,0,0,0,0,0,0,0,0,0,0,0,0,0,0,0,0,0,0,0],"sum_hessian":[5.03E2,3.34E2,1.69E2,1.8E2,1.54E2,3.8E1,1.31E2,5.5E1,1.25E2,1.04E2,5E1,1.8E1,2E1,8.5E1,4.6E1,1E1,4.5E1,6.1E1,6.4E1,7E1,3.4E1,4.4E1,6E0,7E0,1.1E1,1.5E1,5E0,6.2E1,2.3E1,3.1E1,1.5E1,1.9E1,4.2E1,4.9E1,1.5E1,4.7E1,2.3E1,2.9E1,5E0,5E0,1E1,4E1,2.2E1,7E0,1.6E1,6E0,9E0],"tree_param":{"num_deleted":"0","num_feature":"9","num_nodes":"47","size_leaf_vector":"1"}},{"base_weights":[-7.506031E-2,-1.2672793E0,1.1942106E0,-2.1713262E0,-1.5410803E-1,1.4736283E0,-2.5318596E0,-1.0506066E0,-3.7050316E0,-1.8856882E0,1.0313896E0,3.7489554E-1,2.1478395E0,-4.5779655E-3,-1.01198494E-1,1.1195184E0,-1.8907852E0,-4.7335464E-1,-4.3253727E0,2.8822621E-2,-2.5083976E0,9.932982E-2,5.478049E-1,-3.307726E-1,3.3196783E0,1.127982E0,3.582648E0,2.3473217E-3,8.136253E-2,-9.426028E-2,-9.881181E-3,2.3486052E-2,-4.843709E-2,-1.4780448E-1,-4.453248E-2,3.2475519E-3,-9.741066E-2,-0E0,6.131215E-2,3.362587E-2,-5.652164E-2,1.3434882E-1,4.4833586E-2,-2.2075605E-2,5.7695962E-2,7.065945E-2,1.1541299E-1],"categories":[],"categories_nodes":[],"categories_segments":[],"categories_sizes":[],"default_left":[0,0,0,0,0,0,0,0,0,0,0,0,0,0,0,0,0,0,0,0,0,0,0,0,0,0,0,0,0,0,0,0,0,0,0,0,0,0,0,0,0,0,0,0,0,0,0],"id":21,"left_children":[1,3,5,7,9,11,13,15,17,19,21,23,25,-1,-1,27,29,31,33,-1,35,-1,37,39,41,43,45,-1,-1,-1,-1,-1,-1,-1,-1,-1,-1,-1,-1,-1,-1,-1,-1,-1,-1,-1,-1],"loss_changes":[7.651759E2,2.618122E2,2.6870505E2,2.3649628E2,2.5551297E2,1.6848389E2,3.6254074E1,1.683727E2,1.1453674E2,1.00098175E2,7.6961945E1,1.9754066E2,1.9655713E2,0E0,0E0,4.3874302E1,1.2366635E2,2.5242344E1,6.499042E1,0E0,8.715338E1,0E0,5.3844704E1,1.8108653E2,3.574849E1,1.3644565E2,3.7122192E0,0E0,0E0,0E0,0E0,0E0,0E0,0E0,0E0,0E0,0E0,0E0,0E0,0E0,0E0,0E0,0E0,0E0,0E0,0E0,0E0],"parents":[2147483647,0,0,1,1,2,2,3,3,4,4,5,5,6,6,7,7,8,8,9,9,10,10,11,11,12,12,15,15,16,16,17,17,18,18,20,20,22,22,23,23,24,24,25,25,26,26],"right_children":[2,4,6,8,10,12,14,16,18,20,22,24,26,-1,-1,28,30,32,34,-1,36,-1,38,40,42,44,46,-1,-1,-1,-1,-1,-1,-1,-1,-1,-1,-1,-1,-1,-1,-1,-1,-1,-1,-1,-1],"split_conditions":[3.1398734E-1,-7.193398E-1,2.646E1,-2.3868525E-1,2.7959645E-1,-6.156615E-1,-1.5309041E-2,2.326E1,2.2846149E-1,0E0,2.272E1,9.3E-1,4.1E-1,-4.5779655E-3,-1.01198494E-1,2.303E1,4.5E-1,-1.5098208E-1,2.5966045E-1,2.8822621E-2,5.8E1,9.932982E-2,4.999878E-1,-1.3667457E-1,6.6E1,5.032736E-2,2.9344428E-1,2.3473217E-3,8.136253E-2,-9.426028E-2,-9.881181E-3,2.3486052E-2,-4.843709E-2,-1.4780448E-1,-4.453248E-2,3.2475519E-3,-9.741066E-2,-0E0,6.131215E-2,3.362587E-2,-5.652164E-2,1.3434882E-1,4.4833586E-2,-2.2075605E-2,5.7695962E-2,7.065945E-2,1.1541299E-1],"split_indices":[5,2,8,6,7,2,6,8,7,7,8,1,1,0,0,8,1,5,5,0,0,0,7,6,0,6,7,0,0,0,0,0,0,0,0,0,0,0,0,0,0,0,0,0,0,0,0],"split_type":[0,0,0,0,0,0,0,0,0,0,0,0,0,0,0,0,0,0,0,0,0,0,0,0,0,0,0,0,0,0,0,0,0,0,0,0,0,0,0,0,0,0,0,0,0,0,0],"sum_hessian":[4.98E2,2.57E2,2.41E2,1.4E2,1.17E2,2.26E2,1.5E1,8.4E1,5.6E1,4.7E1,7E1,8.8E1,1.38E2,5E0,1E1,2.3E1,6.1E1,1E1,4.6E1,8E0,3.9E1,9E0,6.1E1,7.3E1,1.5E1,8.4E1,5.4E1,1.6E1,7E0,3.2E1,2.9E1,5E0,5E0,3.6E1,1E1,9E0,3E1,4.7E1,1.4E1,3.8E1,3.5E1,8E0,7E0,2.5E1,5.9E1,1.1E1,4.3E1],"tree_param":{"num_deleted":"0","num_feature":"9","num_nodes":"47","size_leaf_vector":"1"}},{"base_weights":[1.4782692E-1,-1.0899123E0,1.3431021E0,7.5187397E-1,-1.8710798E0,1.5770801E0,-2.0506704E0,1.2751833E-1,1.5416776E-1,5.7790214E-1,-2.2488883E0,9.571025E-1,2.3641138E0,-8.874353E-3,-8.43744E-2,-7.400888E-1,1.6459842E0,-1.306711E-1,6.851081E-2,5.24694E-2,-2.4204633E0,1.6641693E0,-7.359004E-1,-7.7323186E-1,2.8329868E0,2.9226799E-2,-4.8741143E-2,-1.4508356E-2,7.935995E-2,-3.9376773E-2,1.7137878E-2,-2.638197E-2,-8.972126E-2,2.9218327E-2,9.403877E-2,2.7132947E-2,-5.0854534E-2,-8.941781E-2,2.9926471E-2,1.0802707E-1,4.5987923E-2],"categories":[],"categories_nodes":[],"categories_segments":[],"categories_sizes":[],"default_left":[0,0,0,0,0,0,0,0,0,0,0,0,0,0,0,0,0,0,0,0,0,0,0,0,0,0,0,0,0,0,0,0,0,0,0,0,0,0,0,0,0],"id":22,"left_children":[1,3,5,7,9,11,13,-1,15,17,19,21,23,-1,-1,25,27,29,-1,-1,31,33,35,37,39,-1,-1,-1,-1,-1,-1,-1,-1,-1,-1,-1,-1,-1,-1,-1,-1],"loss_changes":[7.614651E2,3.699664E2,2.2034494E2,1.6126018E2,1.7225494E2,1.1490662E2,2.312188E1,0E0,9.854415E1,3.581175E1,1.2352527E2,1.7771867E2,1.6713562E2,0E0,0E0,7.5915665E1,6.5509315E1,2.1925665E1,0E0,0E0,1.2586261E2,9.641995E1,7.682794E1,7.6429596E1,7.885217E1,0E0,0E0,0E0,0E0,0E0,0E0,0E0,0E0,0E0,0E0,0E0,0E0,0E0,0E0,0E0,0E0],"parents":[2147483647,0,0,1,1,2,2,3,3,4,4,5,5,6,6,8,8,9,9,10,10,11,11,12,12,15,15,16,16,17,17,20,20,21,21,22,22,23,23,24,24],"right_children":[2,4,6,8,10,12,14,-1,16,18,20,22,24,-1,-1,26,28,30,-1,-1,32,34,36,38,40,-1,-1,-1,-1,-1,-1,-1,-1,-1,-1,-1,-1,-1,-1,-1,-1],"split_conditions":[2.87427E-1,-5E-1,2.63E1,-1.5390004E-1,-4.0900126E-1,5.5425626E-1,-1.5309041E-2,1.2751833E-1,-7.015735E-2,6.981201E-1,-6.507786E-2,5.471648E-1,2.6E-1,-8.874353E-3,-8.43744E-2,2.336E1,1.00707576E-1,-4.5650712E-1,6.851081E-2,5.24694E-2,2.328E1,4.9328607E-1,-2.0791169E-1,1.618034E-1,7.9E-1,2.9226799E-2,-4.8741143E-2,-1.4508356E-2,7.935995E-2,-3.9376773E-2,1.7137878E-2,-2.638197E-2,-8.972126E-2,2.9218327E-2,9.403877E-2,2.7132947E-2,-5.0854534E-2,-8.941781E-2,2.9926471E-2,1.0802707E-1,4.5987923E-2],"split_indices":[5,3,8,5,6,5,6,0,6,7,4,4,1,0,0,8,4,6,0,0,8,7,3,6,4,0,0,0,0,0,0,0,0,0,0,0,0,0,0,0,0],"split_type":[0,0,0,0,0,0,0,0,0,0,0,0,0,0,0,0,0,0,0,0,0,0,0,0,0,0,0,0,0,0,0,0,0,0,0,0,0,0,0,0,0],"sum_hessian":[5.07E2,2.49E2,2.58E2,7.4E1,1.75E2,2.43E2,1.5E1,8E0,6.6E1,2.3E1,1.52E2,1.4E2,1.03E2,6E0,9E0,4.2E1,2.4E1,1.8E1,5E0,5E0,1.47E2,9.9E1,4.1E1,1.3E1,9E1,1.4E1,2.8E1,8E0,1.6E1,6E0,1.2E1,4.2E1,1.05E2,7.1E1,2.8E1,1.5E1,2.6E1,5E0,8E0,5.3E1,3.7E1],"tree_param":{"num_deleted":"0","num_feature":"9","num_nodes":"41","size_leaf_vector":"1"}},{"base_weights":[-7.0596742E-3,-1.0664045E0,1.1235455E0,-1.5768641E0,1.500502E0,5.981557E-1,3.0395293E0,4.398432E-1,-2.060223E0,7.568029E-1,1.3781427E-1,-6.458527E-2,2.9878268E0,-3.2943726E-4,3.6904023E0,1.4783883E0,-1.3365947E0,-1.2705092E0,-3.5546298E0,1.5232584E0,-4.1122228E-2,1.2812729E0,-1.0128074E0,3.6530466E0,1.6498673E0,5.220983E-3,4.3457494E0,9.374676E-2,1.6438339E-2,-8.959628E-2,5.800447E-3,-8.486028E-2,-1.37594305E-2,-2.626212E-3,-1.2698385E-1,6.1182737E-2,-1.9890124E-2,9.183026E-2,-4.7139192E-4,-5.1427007E-2,5.4438144E-2,3.774575E-2,1.2931152E-1,2.5150005E-2,7.470878E-2,1.4056686E-1,5.1267028E-2],"categories":[],"categories_nodes":[],"categories_segments":[],"categories_sizes":[],"default_left":[0,0,0,0,0,0,0,0,0,0,0,0,0,0,0,0,0,0,0,0,0,0,0,0,0,0,0,0,0,0,0,0,0,0,0,0,0,0,0,0,0,0,0,0,0,0,0],"id":23,"left_children":[1,3,5,7,9,11,13,15,17,19,-1,21,23,-1,25,27,29,31,33,35,-1,37,39,41,43,-1,45,-1,-1,-1,-1,-1,-1,-1,-1,-1,-1,-1,-1,-1,-1,-1,-1,-1,-1,-1,-1],"loss_changes":[6.117924E2,3.5482324E2,2.4399759E2,2.2145813E2,9.576752E1,3.170884E2,1.0890842E2,9.183487E1,2.0011145E2,7.446094E1,0E0,2.0641197E2,2.2841919E1,0E0,9.908197E1,4.265899E1,5.174669E1,1.520835E2,1.421242E2,4.242981E1,0E0,1.5709097E2,1.992334E2,2.7444336E1,9.041901E0,0E0,1.1433105E1,0E0,0E0,0E0,0E0,0E0,0E0,0E0,0E0,0E0,0E0,0E0,0E0,0E0,0E0,0E0,0E0,0E0,0E0,0E0,0E0],"parents":[2147483647,0,0,1,1,2,2,3,3,4,4,5,5,6,6,7,7,8,8,9,9,11,11,12,12,14,14,15,15,16,16,17,17,18,18,19,19,21,21,22,22,23,23,24,24,26,26],"right_children":[2,4,6,8,10,12,14,16,18,20,-1,22,24,-1,26,28,30,32,34,36,-1,38,40,42,44,-1,46,-1,-1,-1,-1,-1,-1,-1,-1,-1,-1,-1,-1,-1,-1,-1,-1,-1,-1,-1,-1],"split_conditions":[-6.156615E-1,7.9141784E-1,5.68761E-1,-4.6947157E-1,1.0982848E0,4.3037102E-1,5.2335956E-3,2.417E1,-1.4265847E-1,7.1E1,1.3781427E-1,6.5E1,8.09017E-1,-3.2943726E-4,-1.8369701E-16,1.9336468E-1,2.519E1,9.068342E-3,5.8E1,1.0908383E0,-4.1122228E-2,-7.193398E-1,9.396926E-1,4.9975327E-1,-2.7563736E-1,5.220983E-3,2.53E1,9.374676E-2,1.6438339E-2,-8.959628E-2,5.800447E-3,-8.486028E-2,-1.37594305E-2,-2.626212E-3,-1.2698385E-1,6.1182737E-2,-1.9890124E-2,9.183026E-2,-4.7139192E-4,-5.1427007E-2,5.4438144E-2,3.774575E-2,1.2931152E-1,2.5150005E-2,7.470878E-2,1.4056686E-1,5.1267028E-2],"split_indices":[2,7,5,3,7,7,7,8,6,0,0,0,3,0,2,7,8,5,0,7,0,3,3,7,2,0,8,0,0,0,0,0,0,0,0,0,0,0,0,0,0,0,0,0,0,0,0],"split_type":[0,0,0,0,0,0,0,0,0,0,0,0,0,0,0,0,0,0,0,0,0,0,0,0,0,0,0,0,0,0,0,0,0,0,0,0,0,0,0,0,0,0,0,0,0,0,0],"sum_hessian":[5.03E2,2.6E2,2.43E2,2.18E2,4.2E1,1.94E2,4.9E1,4.2E1,1.76E2,3.7E1,5E0,1.54E2,4E1,9E0,4E1,2.7E1,1.5E1,1.19E2,5.7E1,2.8E1,9E0,6.3E1,9.1E1,2.3E1,1.7E1,7E0,3.3E1,7E0,2E1,6E0,9E0,3.8E1,8.1E1,1E1,4.7E1,2.3E1,5E0,2.5E1,3.8E1,7.4E1,1.7E1,7E0,1.6E1,1.2E1,5E0,2.7E1,6E0],"tree_param":{"num_deleted":"0","num_feature":"9","num_nodes":"47","size_leaf_vector":"1"}},{"base_weights":[1.09074175E-1,-6.220742E-1,2.4268532E0,-1.5884557E0,5.421292E-1,3.8985198E0,1.2601554E0,-3.1413085E0,-7.2258985E-1,1.3066406E0,-5.231632E-1,2.0374618E0,4.245001E0,-1.884508E-1,3.3948731E0,-1.5694896E-2,-3.747987E0,-1.5694896E-2,-1.2521498E0,5.655349E-1,2.3970258E0,-1.5694896E-2,1.4553382E0,1.2318498E-2,8.24651E-2,5.2264376E0,2.7065845E0,4.8096333E-2,-6.9933546E-1,4.8096333E-2,1.1647162E-1,-7.22348E-2,-1.3334273E-1,-7.462407E-2,-1.5694896E-2,2.8672192E-2,-1.5694896E-2,5.741973E-3,8.5322514E-2,8.423147E-2,1.3982626E-2,1.8922323E-1,4.8811894E-2,1.0842586E-1,2.3034869E-2,-7.09735E-2,1.3551809E-2],"categories":[],"categories_nodes":[],"categories_segments":[],"categories_sizes":[],"default_left":[0,0,0,0,0,0,0,0,0,0,0,0,0,0,0,0,0,0,0,0,0,0,0,0,0,0,0,0,0,0,0,0,0,0,0,0,0,0,0,0,0,0,0,0,0,0,0],"id":24,"left_children":[1,3,5,7,9,11,13,15,17,19,21,23,25,27,29,-1,31,-1,33,35,37,-1,39,-1,-1,41,43,-1,45,-1,-1,-1,-1,-1,-1,-1,-1,-1,-1,-1,-1,-1,-1,-1,-1,-1,-1],"loss_changes":[8.4393805E2,4.2938654E2,1.9216302E2,2.7344666E2,2.3607231E2,1.0080078E1,2.2666382E2,1.4730304E2,5.1313095E1,1.0165817E2,1.5714539E1,1.4395729E1,2.1923523E1,6.0604946E1,1.7362152E1,0E0,2.9214233E1,0E0,1.3826056E2,5.722907E1,5.0172882E1,0E0,4.0351746E1,0E0,0E0,5.488916E1,3.2577774E1,0E0,8.370804E1,0E0,0E0,0E0,0E0,0E0,0E0,0E0,0E0,0E0,0E0,0E0,0E0,0E0,0E0,0E0,0E0,0E0,0E0],"parents":[2147483647,0,0,1,1,2,2,3,3,4,4,5,5,6,6,7,7,8,8,9,9,10,10,11,11,12,12,13,13,14,14,16,16,18,18,19,19,20,20,22,22,25,25,26,26,28,28],"right_children":[2,4,6,8,10,12,14,16,18,20,22,24,26,28,30,-1,32,-1,34,36,38,-1,40,-1,-1,42,44,-1,46,-1,-1,-1,-1,-1,-1,-1,-1,-1,-1,-1,-1,-1,-1,-1,-1,-1,-1],"split_conditions":[1.04528464E-1,4.9E-1,6.3E1,-8.480481E-1,2.124933E-1,5.1E1,3.5E-1,-4.0104052E-1,1.6580752E-1,6.8978554E-1,9.2E-1,-1.391731E-1,1.8696514E-1,-2.9107636E-2,3.939231E-1,-1.5694896E-2,-2.585757E-1,-1.5694896E-2,3.7393028E-1,7.3E1,3.7087354E-1,-1.5694896E-2,6.6E1,1.2318498E-2,8.24651E-2,2.4984771E-1,1.2654746E-1,4.8096333E-2,2.1E-1,4.8096333E-2,1.1647162E-1,-7.22348E-2,-1.3334273E-1,-7.462407E-2,-1.5694896E-2,2.8672192E-2,-1.5694896E-2,5.741973E-3,8.5322514E-2,8.423147E-2,1.3982626E-2,1.8922323E-1,4.8811894E-2,1.0842586E-1,2.3034869E-2,-7.09735E-2,1.3551809E-2],"split_indices":[2,1,0,2,6,0,1,6,7,7,1,3,7,6,4,0,6,0,7,0,4,0,0,0,0,6,6,0,1,0,0,0,0,0,0,0,0,0,0,0,0,0,0,0,0,0,0],"split_type":[0,0,0,0,0,0,0,0,0,0,0,0,0,0,0,0,0,0,0,0,0,0,0,0,0,0,0,0,0,0,0,0,0,0,0,0,0,0,0,0,0,0,0,0,0,0,0],"sum_hessian":[4.9E2,3.74E2,1.16E2,2.04E2,1.7E2,4.8E1,6.8E1,7E1,1.34E2,1.26E2,4.4E1,1.1E1,3.7E1,4.2E1,2.6E1,1.1E1,5.9E1,3.1E1,1.03E2,7.8E1,4.8E1,3E1,1.4E1,5E0,6E0,1.8E1,1.9E1,5E0,3.7E1,7E0,1.9E1,2.5E1,3.4E1,4.7E1,5.6E1,6.7E1,1.1E1,9E0,3.9E1,7E0,7E0,1.2E1,6E0,1.1E1,8E0,1.4E1,2.3E1],"tree_param":{"num_deleted":"0","num_feature":"9","num_nodes":"47","size_leaf_vector":"1"}},{"base_weights":[1.2889591E-1,-9.6065265E-1,1.4123181E0,-3.8327336E-2,-2.056533E0,2.2621775E0,3.413844E-1,1.4062198E0,-9.150852E-1,1.0286793E-1,-2.5562837E0,4.170248E0,1.7661006E0,-1.076219E-1,3.1202137E0,2.561398E0,-0E0,-1.4392948E0,1.5685945E0,-8.001979E-2,1.1672941E0,-3.2023084E0,-1.1656755E0,1.8021297E-1,2.5290036E0,-1.3821179E0,2.3706925E0,-2.077887E0,4.6796077E-1,1.17136255E-1,3.720776E-2,1.2382467E-1,3.791914E-2,2.2029037E-2,-5.7643022E-2,2.88101E-2,-5.474673E-2,6.907683E-2,3.465589E-4,7.24024E-2,-0E0,-5.157032E-2,-1.422709E-1,-7.615958E-2,6.5777283E-3,1.2021484E-1,2.2394028E-2,8.384628E-3,-6.755914E-2,9.4462134E-2,1.290953E-3,-2.4148893E-2,-1.285257E-1,6.702192E-2,-1.6174043E-2],"categories":[],"categories_nodes":[],"categories_segments":[],"categories_sizes":[],"default_left":[0,0,0,0,0,0,0,0,0,0,0,0,0,0,0,0,0,0,0,0,0,0,0,0,0,0,0,0,0,0,0,0,0,0,0,0,0,0,0,0,0,0,0,0,0,0,0,0,0,0,0,0,0,0,0],"id":25,"left_children":[1,3,5,7,9,11,13,15,17,19,21,23,25,27,29,31,33,35,37,-1,39,41,43,-1,45,47,49,51,53,-1,-1,-1,-1,-1,-1,-1,-1,-1,-1,-1,-1,-1,-1,-1,-1,-1,-1,-1,-1,-1,-1,-1,-1,-1,-1],"loss_changes":[7.058444E2,2.7573718E2,2.0922797E2,1.971804E2,1.3849084E2,1.0203131E2,1.3799901E2,9.7813354E1,1.347052E2,8.9090614E1,8.172058E1,3.1045502E1,2.1773926E2,1.1286867E2,1.0161987E1,5.206508E1,4.8284477E1,8.3423416E1,2.1647968E1,0E0,3.2044968E1,1.3182611E2,7.59423E1,0E0,4.083082E1,3.286761E1,1.659927E2,6.3533073E1,1.4063165E2,0E0,0E0,0E0,0E0,0E0,0E0,0E0,0E0,0E0,0E0,0E0,0E0,0E0,0E0,0E0,0E0,0E0,0E0,0E0,0E0,0E0,0E0,0E0,0E0,0E0,0E0],"parents":[2147483647,0,0,1,1,2,2,3,3,4,4,5,5,6,6,7,7,8,8,9,9,10,10,11,11,12,12,13,13,14,14,15,15,16,16,17,17,18,18,20,20,21,21,22,22,24,24,25,25,26,26,27,27,28,28],"right_children":[2,4,6,8,10,12,14,16,18,20,22,24,26,28,30,32,34,36,38,-1,40,42,44,-1,46,48,50,52,54,-1,-1,-1,-1,-1,-1,-1,-1,-1,-1,-1,-1,-1,-1,-1,-1,-1,-1,-1,-1,-1,-1,-1,-1,-1,-1],"split_conditions":[3.1398734E-1,2.404E1,6.8E1,6.4E1,-7.880108E-1,1.8304355E-1,8.8294756E-1,1.3589506E-1,6.074358E-1,9.727759E-2,5.8778524E-1,1.1433629E-1,2.9876533E-1,2.6E-1,7.1E1,-5.2991927E-1,7.269508E-2,-9.135454E-1,6.975647E-2,-8.001979E-2,6.5E1,-1.8061118E-1,2.498E1,1.8021297E-1,2.31E1,-5E-1,2.508E1,1.9336468E-1,3.7910736E-1,1.17136255E-1,3.720776E-2,1.2382467E-1,3.791914E-2,2.2029037E-2,-5.7643022E-2,2.88101E-2,-5.474673E-2,6.907683E-2,3.465589E-4,7.24024E-2,-0E0,-5.157032E-2,-1.422709E-1,-7.615958E-2,6.5777283E-3,1.2021484E-1,2.2394028E-2,8.384628E-3,-6.755914E-2,9.4462134E-2,1.290953E-3,-2.4148893E-2,-1.285257E-1,6.702192E-2,-1.6174043E-2],"split_indices":[5,8,0,0,3,7,3,5,7,7,3,6,7,1,0,3,6,3,3,0,0,6,8,0,8,3,8,7,7,0,0,0,0,0,0,0,0,0,0,0,0,0,0,0,0,0,0,0,0,0,0,0,0,0,0],"split_type":[0,0,0,0,0,0,0,0,0,0,0,0,0,0,0,0,0,0,0,0,0,0,0,0,0,0,0,0,0,0,0,0,0,0,0,0,0,0,0,0,0,0,0,0,0,0,0,0,0,0,0,0,0,0,0],"sum_hessian":[4.97E2,2.69E2,2.28E2,1.48E2,1.21E2,1.25E2,1.03E2,5.5E1,9.3E1,2.3E1,9.8E1,2.1E1,1.04E2,9.1E1,1.2E1,2.9E1,2.6E1,7.8E1,1.5E1,5E0,1.8E1,6.4E1,3.4E1,6E0,1.5E1,1.6E1,8.8E1,1.9E1,7.2E1,6E0,6E0,1E1,1.9E1,2E1,6E0,1E1,6.8E1,9E0,6E0,7E0,1.1E1,3.6E1,2.8E1,1.6E1,1.8E1,6E0,9E0,6E0,1E1,6.5E1,2.3E1,1.4E1,5E0,2.5E1,4.7E1],"tree_param":{"num_deleted":"0","num_feature":"9","num_nodes":"55","size_leaf_vector":"1"}},{"base_weights":[9.169826E-2,1.3969626E0,-7.4292123E-1,7.744369E-1,2.935578E0,-1.954134E0,2.6710838E-1,-1.9464736E0,1.1734288E0,1.3567431E-1,2.3055885E0,1.0494196E0,-3.060829E0,-1.2560488E0,1.5693604E0,2.0865967E-2,-1.0094489E-1,4.425008E-1,1.986268E0,-3.4837082E-2,2.8385344E0,7.932758E-2,2.828047E-2,-3.775425E0,9.4238415E-2,1.5665579E-1,-1.9936961E0,3.675226E-1,2.9333482E0,-3.346211E-2,4.3514837E-2,6.871826E-2,-1.13603845E-2,1.3267826E-1,6.656615E-2,4.231039E-2,-3.012517E-2,-7.445034E-2,-1.424583E-1,4.6996735E-3,-3.870995E-2,-9.272633E-2,-2.3808777E-2,7.1207136E-2,4.6996735E-3,1.0938902E-2,1.07568234E-1],"categories":[],"categories_nodes":[],"categories_segments":[],"categories_sizes":[],"default_left":[0,0,0,0,0,0,0,0,0,0,0,0,0,0,0,0,0,0,0,0,0,0,0,0,0,0,0,0,0,0,0,0,0,0,0,0,0,0,0,0,0,0,0,0,0,0,0],"id":26,"left_children":[1,3,5,7,9,11,13,15,17,-1,19,21,23,25,27,-1,-1,29,31,-1,33,-1,35,37,-1,39,41,43,45,-1,-1,-1,-1,-1,-1,-1,-1,-1,-1,-1,-1,-1,-1,-1,-1,-1,-1],"loss_changes":[5.382966E2,1.7893762E2,3.7163898E2,1.6265811E2,2.611853E1,4.7014276E2,3.3816235E2,8.3614876E1,7.2843475E1,0E0,9.787038E1,6.4625244E1,4.90445E2,1.0519755E2,1.4759181E2,0E0,0E0,1.1751217E2,4.7972977E1,0E0,1.3144806E1,0E0,4.539308E1,8.409473E1,0E0,2.113252E1,6.831821E1,7.3708496E1,6.842264E1,0E0,0E0,0E0,0E0,0E0,0E0,0E0,0E0,0E0,0E0,0E0,0E0,0E0,0E0,0E0,0E0,0E0,0E0],"parents":[2147483647,0,0,1,1,2,2,3,3,4,4,5,5,6,6,7,7,8,8,10,10,11,11,12,12,13,13,14,14,17,17,18,18,20,20,22,22,23,23,25,25,26,26,27,27,28,28],"right_children":[2,4,6,8,10,12,14,16,18,-1,20,22,24,26,28,-1,-1,30,32,-1,34,-1,36,38,-1,40,42,44,46,-1,-1,-1,-1,-1,-1,-1,-1,-1,-1,-1,-1,-1,-1,-1,-1,-1,-1],"split_conditions":[6.5E1,1.04528464E-1,-7.193398E-1,1.7045772E-1,2.419219E-1,-3.052904E-1,3.1E-1,2.372E1,-8.2903755E-1,1.3567431E-1,4.6947157E-1,-4.2650458E-1,8.5E-1,1.0790097E-1,-2.0791169E-1,2.0865967E-2,-1.0094489E-1,5.6E-1,2.622E1,-3.4837082E-2,-4.2261828E-2,7.932758E-2,2.365E1,-1.4922677E-1,9.4238415E-2,2.394E1,2.379E1,-2.208131E-1,3.3483464E-1,-3.346211E-2,4.3514837E-2,6.871826E-2,-1.13603845E-2,1.3267826E-1,6.656615E-2,4.231039E-2,-3.012517E-2,-7.445034E-2,-1.424583E-1,4.6996735E-3,-3.870995E-2,-9.272633E-2,-2.3808777E-2,7.1207136E-2,4.6996735E-3,1.0938902E-2,1.07568234E-1],"split_indices":[0,2,2,4,2,6,1,8,2,0,2,6,1,4,2,0,0,1,8,0,7,0,8,6,0,8,8,6,4,0,0,0,0,0,0,0,0,0,0,0,0,0,0,0,0,0,0],"split_type":[0,0,0,0,0,0,0,0,0,0,0,0,0,0,0,0,0,0,0,0,0,0,0,0,0,0,0,0,0,0,0,0,0,0,0,0,0,0,0,0,0,0,0,0,0,0,0],"sum_hessian":[4.86E2,1.89E2,2.97E2,1.38E2,5.1E1,1.34E2,1.63E2,1.6E1,1.22E2,9E0,4.2E1,3.6E1,9.8E1,7.5E1,8.8E1,6E0,1E1,6.7E1,5.5E1,5E0,3.7E1,1.2E1,2.4E1,8.9E1,9E0,2.2E1,5.3E1,4.9E1,3.9E1,2.6E1,4.1E1,4.9E1,6E0,5E0,3.2E1,1E1,1.4E1,4.3E1,4.6E1,1.4E1,8E0,2.5E1,2.8E1,1.2E1,3.7E1,9E0,3E1],"tree_param":{"num_deleted":"0","num_feature":"9","num_nodes":"47","size_leaf_vector":"1"}},{"base_weights":[1.5792029E-1,-3.293045E-1,2.0550404E0,-1.3621334E0,5.71898E-1,-1.1750168E0,2.6083646E0,-2.209871E0,-2.0379515E-1,4.695087E-2,1.8654627E0,2.1500217E-2,-1.09353565E-1,3.1322858E0,7.166739E-1,-3.21798E0,-1.5874362E0,5.6899095E-1,-1.1770148E0,-1.4155376E0,7.345294E-1,3.3048925E0,1.0399077E0,3.5626023E0,2.1500217E-2,2.1500217E-2,6.1880548E-2,-1.2424907E-1,-5.5643596E-2,-3.6204994E-2,-9.191295E-2,4.266097E-2,-6.0878875E-4,4.3438654E-3,-3.6204994E-2,8.58056E-3,-6.69658E-2,-3.57941E-2,2.8686201E-2,2.8686201E-2,1.1962824E-1,5.8866154E-2,2.8686201E-2,4.4718612E-2,1.2223564E-1],"categories":[],"categories_nodes":[],"categories_segments":[],"categories_sizes":[],"default_left":[0,0,0,0,0,0,0,0,0,0,0,0,0,0,0,0,0,0,0,0,0,0,0,0,0,0,0,0,0,0,0,0,0,0,0,0,0,0,0,0,0,0,0,0,0],"id":27,"left_children":[1,3,5,7,9,11,13,15,17,19,21,-1,-1,23,25,27,29,31,33,35,37,39,41,43,-1,-1,-1,-1,-1,-1,-1,-1,-1,-1,-1,-1,-1,-1,-1,-1,-1,-1,-1,-1,-1],"loss_changes":[4.683637E2,3.7791208E2,1.9778323E2,1.8446555E2,1.4736891E2,1.1249698E2,1.2074414E2,5.4845764E1,6.6482666E1,1.628042E2,6.553839E1,0E0,0E0,9.893756E1,1.2821593E0,2.7799255E1,1.22599396E2,2.635858E1,3.103954E1,7.6275536E1,7.354071E1,3.2432037E1,2.52238E1,5.456714E1,0E0,0E0,0E0,0E0,0E0,0E0,0E0,0E0,0E0,0E0,0E0,0E0,0E0,0E0,0E0,0E0,0E0,0E0,0E0,0E0,0E0],"parents":[2147483647,0,0,1,1,2,2,3,3,4,4,5,5,6,6,7,7,8,8,9,9,10,10,13,13,14,14,15,15,16,16,17,17,18,18,19,19,20,20,21,21,22,22,23,23],"right_children":[2,4,6,8,10,12,14,16,18,20,22,-1,-1,24,26,28,30,32,34,36,38,40,42,44,-1,-1,-1,-1,-1,-1,-1,-1,-1,-1,-1,-1,-1,-1,-1,-1,-1,-1,-1,-1,-1],"split_conditions":[5.5425626E-1,-7.193398E-1,2.6E-1,5.1E-1,4.1E-1,4.5887947E-1,2.554E1,1.7045772E-1,1.04528464E-1,-3.4202015E-1,-7.6604444E-1,2.1500217E-2,-1.09353565E-1,7.4E1,7.491073E-1,2.449E1,1.4772116E-1,6.3E1,2.34E1,4.0172208E-2,1.2E-1,3.570832E-1,4.7532868E-1,5.6E1,2.1500217E-2,2.1500217E-2,6.1880548E-2,-1.2424907E-1,-5.5643596E-2,-3.6204994E-2,-9.191295E-2,4.266097E-2,-6.0878875E-4,4.3438654E-3,-3.6204994E-2,8.58056E-3,-6.69658E-2,-3.57941E-2,2.8686201E-2,2.8686201E-2,1.1962824E-1,5.8866154E-2,2.8686201E-2,4.4718612E-2,1.2223564E-1],"split_indices":[5,2,1,1,1,4,8,4,3,2,3,0,0,0,5,8,5,0,8,5,1,4,4,0,0,0,0,0,0,0,0,0,0,0,0,0,0,0,0,0,0,0,0,0,0],"split_type":[0,0,0,0,0,0,0,0,0,0,0,0,0,0,0,0,0,0,0,0,0,0,0,0,0,0,0,0,0,0,0,0,0,0,0,0,0,0,0,0,0,0,0,0,0],"sum_hessian":[4.98E2,3.98E2,1E2,1.85E2,2.13E2,1.4E1,8.6E1,1.05E2,8E1,1.54E2,5.9E1,8E0,6E0,7.2E1,1.4E1,3.5E1,7E1,4.5E1,3.5E1,4.8E1,1.06E2,1.8E1,4.1E1,6.3E1,9E0,9E0,5E0,1.7E1,1.8E1,3.4E1,3.6E1,1.7E1,2.8E1,1.5E1,2E1,1.6E1,3.2E1,1.4E1,9.2E1,5E0,1.3E1,2.3E1,1.8E1,1.5E1,4.8E1],"tree_param":{"num_deleted":"0","num_feature":"9","num_nodes":"45","size_leaf_vector":"1"}},{"base_weights":[4.4986546E-2,-6.7697406E-1,1.4298629E0,-2.183816E0,3.9486578E-1,2.8684123E0,6.278134E-1,-8.944751E-1,-2.8445942E0,7.775482E-2,2.7398677E0,4.567425E0,1.8830199E0,-1.9200662E-1,2.2743776E0,-2.2473736E0,-2.6834253E-2,-8.944751E-1,-3.5097072E0,4.2264335E-2,-4.9536166E-1,1.2955438E-1,1.4088112E0,4.8463512E-2,1.655585E-1,-3.9798144E-1,3.2129815E0,1.0411855E0,-1.4906344E0,1.2471251E0,1.1533751E-1,-4.7127727E-2,-1.1339115E-1,-6.544792E-2,-2.6834253E-2,-1.15947604E-1,-2.7100554E-2,1.7136095E-2,-2.6834253E-2,7.299548E-2,4.2264335E-2,4.5408174E-2,-4.562887E-2,1.18457064E-1,2.1837376E-2,3.1235565E-2,-4.415799E-2,-4.7810758E-3,-9.1901906E-2,3.1235565E-2,6.636425E-2],"categories":[],"categories_nodes":[],"categories_segments":[],"categories_sizes":[],"default_left":[0,0,0,0,0,0,0,0,0,0,0,0,0,0,0,0,0,0,0,0,0,0,0,0,0,0,0,0,0,0,0,0,0,0,0,0,0,0,0,0,0,0,0,0,0,0,0,0,0,0,0],"id":28,"left_children":[1,3,5,7,9,11,13,15,17,19,21,23,25,27,29,31,-1,33,35,-1,37,-1,39,-1,-1,41,43,45,47,49,-1,-1,-1,-1,-1,-1,-1,-1,-1,-1,-1,-1,-1,-1,-1,-1,-1,-1,-1,-1,-1],"loss_changes":[4.8330417E2,5.164295E2,1.8672058E2,1.1186548E2,1.3982773E2,7.4526855E1,1.5330518E2,3.8137737E1,1.2165442E2,1.8195253E2,4.404825E1,3.0171875E1,1.3626764E2,1.3906494E2,4.784276E1,3.0675491E1,0E0,2.3066727E1,5.3013428E1,0E0,8.188832E1,0E0,3.4996033E0,0E0,0E0,4.858483E1,4.3071198E1,6.938017E1,8.389731E1,8.783951E0,0E0,0E0,0E0,0E0,0E0,0E0,0E0,0E0,0E0,0E0,0E0,0E0,0E0,0E0,0E0,0E0,0E0,0E0,0E0,0E0,0E0],"parents":[2147483647,0,0,1,1,2,2,3,3,4,4,5,5,6,6,7,7,8,8,9,9,10,10,11,11,12,12,13,13,14,14,15,15,17,17,18,18,20,20,22,22,25,25,26,26,27,27,28,28,29,29],"right_children":[2,4,6,8,10,12,14,16,18,20,22,24,26,28,30,32,-1,34,36,-1,38,-1,40,-1,-1,42,44,46,48,50,-1,-1,-1,-1,-1,-1,-1,-1,-1,-1,-1,-1,-1,-1,-1,-1,-1,-1,-1,-1,-1],"split_conditions":[-3.4202015E-1,4.5E-1,6.3E1,-4.6947157E-1,8.7E-1,9.9121556E-2,3.5E-1,2.9E-1,-1.250385E-1,-4.3837115E-1,2.288E1,2.2E-1,2.7959645E-1,3.2908964E-1,6.7834353E-1,2.0939698E-2,-2.6834253E-2,-1.9726701E-1,7.3E1,4.2264335E-2,6.3E1,1.2955438E-1,-9.781476E-1,4.8463512E-2,1.655585E-1,1.391731E-1,3.9610723E-1,4.3837115E-1,4.3837115E-1,9.848077E-1,1.1533751E-1,-4.7127727E-2,-1.1339115E-1,-6.544792E-2,-2.6834253E-2,-1.15947604E-1,-2.7100554E-2,1.7136095E-2,-2.6834253E-2,7.299548E-2,4.2264335E-2,4.5408174E-2,-4.562887E-2,1.18457064E-1,2.1837376E-2,3.1235565E-2,-4.415799E-2,-4.7810758E-3,-9.1901906E-2,3.1235565E-2,6.636425E-2],"split_indices":[2,1,0,3,1,7,1,1,5,3,8,1,7,5,5,5,0,5,0,0,0,0,2,0,0,2,7,2,3,3,0,0,0,0,0,0,0,0,0,0,0,0,0,0,0,0,0,0,0,0,0],"split_type":[0,0,0,0,0,0,0,0,0,0,0,0,0,0,0,0,0,0,0,0,0,0,0,0,0,0,0,0,0,0,0,0,0,0,0,0,0,0,0,0,0,0,0,0,0,0,0,0,0,0,0],"sum_hessian":[4.75E2,3.13E2,1.62E2,1.29E2,1.84E2,5.5E1,1.07E2,4.5E1,8.4E1,1.65E2,1.9E1,1.6E1,3.9E1,7.3E1,3.4E1,1.8E1,2.7E1,2.1E1,6.3E1,3.5E1,1.3E2,7E0,1.2E1,6E0,1E1,1.5E1,2.4E1,3.6E1,3.7E1,2.4E1,1E1,1.2E1,6E0,1.2E1,9E0,5.4E1,9E0,4.5E1,8.5E1,5E0,7E0,5E0,1E1,1.7E1,7E0,2.8E1,8E0,2.2E1,1.5E1,1.9E1,5E0],"tree_param":{"num_deleted":"0","num_feature":"9","num_nodes":"51","size_leaf_vector":"1"}},{"base_weights":[4.4990923E-2,-7.002941E-1,8.742863E-1,3.0443094E0,-9.354262E-1,1.2301694E0,-1.32345E0,1.2029126E-1,3.6364704E-2,-1.707539E0,-2.2867398E-2,-1.773946E-1,1.8238224E0,1.0146399E-1,-2.3611093E0,-8.0844384E-1,-3.3639526E0,-1.5029714E0,1.1815904E0,-1.1798098E0,1.4678537E0,1.4062878E0,4.484406E0,-4.8826024E-2,3.81129E-2,2.3094878E-2,-3.5920546E0,-7.555745E-2,-2.2686655E-3,-8.511577E-3,-1.164651E-1,1.4671089E-2,-8.1977904E-2,9.733143E-2,1.2882977E-2,-8.279449E-3,-1.4226323E-1,7.732625E-2,-1.0110812E-2,5.8700155E-2,-1.5916065E-3,5.2545205E-2,1.5278597E-1,-4.3105863E-2,-1.3483019E-1],"categories":[],"categories_nodes":[],"categories_segments":[],"categories_sizes":[],"default_left":[0,0,0,0,0,0,0,0,0,0,0,0,0,0,0,0,0,0,0,0,0,0,0,0,0,0,0,0,0,0,0,0,0,0,0,0,0,0,0,0,0,0,0,0,0],"id":29,"left_children":[1,3,5,7,9,11,13,-1,-1,15,17,19,21,23,25,27,29,31,33,35,37,39,41,-1,-1,-1,43,-1,-1,-1,-1,-1,-1,-1,-1,-1,-1,-1,-1,-1,-1,-1,-1,-1,-1],"loss_changes":[3.082026E2,2.4127292E2,1.9119348E2,1.6329895E1,1.7548842E2,1.7425839E2,5.4582653E1,0E0,0E0,1.9349011E2,2.1675151E2,1.1159998E2,1.4399384E2,4.3281803E1,9.114912E1,1.14769295E2,7.220526E1,1.4062128E2,1.00059105E2,1.3059076E2,5.6712303E1,1.0688553E2,6.593109E0,0E0,0E0,0E0,1.2761322E1,0E0,0E0,0E0,0E0,0E0,0E0,0E0,0E0,0E0,0E0,0E0,0E0,0E0,0E0,0E0,0E0,0E0,0E0],"parents":[2147483647,0,0,1,1,2,2,3,3,4,4,5,5,6,6,9,9,10,10,11,11,12,12,13,13,14,14,15,15,16,16,17,17,18,18,19,19,20,20,21,21,22,22,26,26],"right_children":[2,4,6,8,10,12,14,-1,-1,16,18,20,22,24,26,28,30,32,34,36,38,40,42,-1,-1,-1,44,-1,-1,-1,-1,-1,-1,-1,-1,-1,-1,-1,-1,-1,-1,-1,-1,-1,-1],"split_conditions":[3.1398734E-1,-4.688551E-1,7.4E1,-1.37888E-1,-7.193398E-1,-8.2903755E-1,4.1345604E-2,1.2029126E-1,3.6364704E-2,-1.8061118E-1,2.7959645E-1,7.9141784E-1,6.634379E-1,-7.431448E-1,-8.8294756E-1,1.7658952E-1,6E1,1.2990381E-1,2.294E1,3.0597067E-1,2.787659E-1,2.459E1,6.6E1,-4.8826024E-2,3.81129E-2,2.3094878E-2,1.3145204E-1,-7.555745E-2,-2.2686655E-3,-8.511577E-3,-1.164651E-1,1.4671089E-2,-8.1977904E-2,9.733143E-2,1.2882977E-2,-8.279449E-3,-1.4226323E-1,7.732625E-2,-1.0110812E-2,5.8700155E-2,-1.5916065E-3,5.2545205E-2,1.5278597E-1,-4.3105863E-2,-1.3483019E-1],"split_indices":[5,6,0,5,2,2,6,0,0,6,7,7,7,2,2,4,0,5,8,6,6,8,0,0,0,0,6,0,0,0,0,0,0,0,0,0,0,0,0,0,0,0,0,0,0],"split_type":[0,0,0,0,0,0,0,0,0,0,0,0,0,0,0,0,0,0,0,0,0,0,0,0,0,0,0,0,0,0,0,0,0,0,0,0,0,0,0,0,0,0,0,0,0],"sum_hessian":[4.9E2,2.58E2,2.32E2,1.3E1,2.45E2,2.01E2,3.1E1,6E0,7E0,1.31E2,1.14E2,6E1,1.41E2,1.4E1,1.7E1,8.8E1,4.3E1,5.1E1,6.3E1,3.8E1,2.2E1,1.26E2,1.5E1,5E0,9E0,5E0,1.2E1,2.4E1,6.4E1,7E0,3.6E1,2E1,3.1E1,1.4E1,4.9E1,3.3E1,5E0,1.3E1,9E0,9.1E1,3.5E1,5E0,1E1,6E0,6E0],"tree_param":{"num_deleted":"0","num_feature":"9","num_nodes":"45","size_leaf_vector":"1"}},{"base_weights":[2.1453382E-1,-4.0236187E-1,2.0004332E0,-1.151119E0,7.540514E-1,8.3709186E-1,3.7084866E0,-5.956014E-3,-1.8581358E0,1.6062219E0,-5.956014E-3,6.8183675E-2,3.1341645E-1,6.8183675E-2,4.7830324E0,-2.4609926E0,-1.0274512E0,8.7801075E-1,2.7020245E0,-4.8142853E-1,2.2727892E0,1.6060479E-1,6.8183675E-2,-8.9892454E-2,-5.2326657E-2,-5.956014E-3,-5.2326657E-2,4.204162E-2,-5.956014E-3,1.10305265E-1,5.3700525E-2,-2.8966665E-2,5.229477E-2,6.8183675E-2,-8.147061E-3],"categories":[],"categories_nodes":[],"categories_segments":[],"categories_sizes":[],"default_left":[0,0,0,0,0,0,0,0,0,0,0,0,0,0,0,0,0,0,0,0,0,0,0,0,0,0,0,0,0,0,0,0,0,0,0],"id":30,"left_children":[1,3,5,7,9,11,13,-1,15,17,-1,-1,19,-1,21,23,25,27,29,31,33,-1,-1,-1,-1,-1,-1,-1,-1,-1,-1,-1,-1,-1,-1],"loss_changes":[5.432528E2,3.2075122E2,2.4332791E2,2.1528162E2,2.1842664E2,8.304141E1,7.526459E1,0E0,6.977698E1,8.005621E1,0E0,0E0,1.1534014E2,0E0,2.859491E1,4.5847168E1,6.7584114E1,6.466159E1,3.472455E1,6.2295387E1,4.7542908E1,0E0,0E0,0E0,0E0,0E0,0E0,0E0,0E0,0E0,0E0,0E0,0E0,0E0,0E0],"parents":[2147483647,0,0,1,1,2,2,3,3,4,4,5,5,6,6,8,8,9,9,12,12,14,14,15,15,16,16,17,17,18,18,19,19,20,20],"right_children":[2,4,6,8,10,12,14,-1,16,18,-1,-1,20,-1,22,24,26,28,30,32,34,-1,-1,-1,-1,-1,-1,-1,-1,-1,-1,-1,-1,-1,-1],"split_conditions":[1.04528464E-1,5.3E-1,3.4E-1,-5E-1,2.124933E-1,1.5282416E-1,5.45596E-1,-5.956014E-3,3.8E-1,6.5E-1,-5.956014E-3,6.8183675E-2,2.0672263E-1,6.8183675E-2,6.5611964E-1,-3.7460658E-1,1.5282416E-1,-6.691306E-2,2.344E1,6.067683E-1,2.419219E-1,1.6060479E-1,6.8183675E-2,-8.9892454E-2,-5.2326657E-2,-5.956014E-3,-5.2326657E-2,4.204162E-2,-5.956014E-3,1.10305265E-1,5.3700525E-2,-2.8966665E-2,5.229477E-2,6.8183675E-2,-8.147061E-3],"split_indices":[2,1,1,3,6,5,5,0,1,1,0,0,6,0,4,2,5,6,8,5,3,0,0,0,0,0,0,0,0,0,0,0,0,0,0],"split_type":[0,0,0,0,0,0,0,0,0,0,0,0,0,0,0,0,0,0,0,0,0,0,0,0,0,0,0,0,0,0,0,0,0,0,0],"sum_hessian":[4.85E2,3.62E2,1.23E2,2.2E2,1.42E2,7.6E1,4.7E1,7.2E1,1.48E2,1.04E2,3.8E1,1.1E1,6.5E1,2E1,2.7E1,8.2E1,6.6E1,6.6E1,3.8E1,4.8E1,1.7E1,2.1E1,6E0,5.8E1,2.4E1,2.6E1,4E1,5.3E1,1.3E1,1.8E1,2E1,4.1E1,7E0,1.1E1,6E0],"tree_param":{"num_deleted":"0","num_feature":"9","num_nodes":"35","size_leaf_vector":"1"}},{"base_weights":[-7.078345E-2,-5.021945E-1,1.4481426E0,1.0411106E0,-1.1411985E0,-1.1370877E0,1.8882427E0,2.6359813E0,1.0341233E-1,-6.7603713E-1,-2.5337505E0,1.1267325E-2,-1.0590134E-1,3.1311758E0,3.755775E-1,1.1880994E0,5.0677414E0,-1.2592937E0,1.4708624E0,-1.196215E0,6.5744454E-1,-3.3318436E0,-1.2168775E0,1.1267325E-2,3.6896365E0,1.1267325E-2,9.1092624E-2,-0E0,8.497161E-2,1.9281597E-1,7.2295584E-2,-5.52425E-2,5.0916895E-2,8.0489315E-2,-7.984673E-3,5.0899636E-2,-4.56238E-2,5.2854523E-2,1.0476122E-3,-1.1254297E-1,-3.9526103E-3,6.539649E-2,-6.422569E-2,6.731918E-2,1.323699E-1],"categories":[],"categories_nodes":[],"categories_segments":[],"categories_sizes":[],"default_left":[0,0,0,0,0,0,0,0,0,0,0,0,0,0,0,0,0,0,0,0,0,0,0,0,0,0,0,0,0,0,0,0,0,0,0,0,0,0,0,0,0,0,0,0,0],"id":31,"left_children":[1,3,5,7,9,11,13,15,17,19,21,-1,-1,23,25,27,29,31,33,35,37,39,41,-1,43,-1,-1,-1,-1,-1,-1,-1,-1,-1,-1,-1,-1,-1,-1,-1,-1,-1,-1,-1,-1],"loss_changes":[3.33921E2,3.953371E2,1.3727133E2,1.7552629E2,1.7848712E2,9.9205025E1,1.8320291E2,1.3646378E2,1.5187698E2,1.5361664E2,6.262915E1,0E0,0E0,8.40719E1,1.1587565E2,6.3364807E1,1.2152069E1,8.182909E1,9.051843E1,1.5734856E2,4.333873E1,5.5510345E1,1.1559627E2,0E0,1.9594727E1,0E0,0E0,0E0,0E0,0E0,0E0,0E0,0E0,0E0,0E0,0E0,0E0,0E0,0E0,0E0,0E0,0E0,0E0,0E0,0E0],"parents":[2147483647,0,0,1,1,2,2,3,3,4,4,5,5,6,6,7,7,8,8,9,9,10,10,13,13,14,14,15,15,16,16,17,17,18,18,19,19,20,20,21,21,22,22,24,24],"right_children":[2,4,6,8,10,12,14,16,18,20,22,-1,-1,24,26,28,30,32,34,36,38,40,42,-1,44,-1,-1,-1,-1,-1,-1,-1,-1,-1,-1,-1,-1,-1,-1,-1,-1,-1,-1,-1,-1],"split_conditions":[5.569323E-1,-4.3837115E-1,2.6E-1,6.4E1,1.2944272E-1,4.5887947E-1,7.458914E-1,-1.91013E-2,3.804226E-1,5.9228176E-1,3.8976243E-1,1.1267325E-2,-1.0590134E-1,5.4E1,9.3E-1,-7.193398E-1,2.9997075E-1,-5.8778524E-1,-7.6604444E-1,0E0,6.4E1,5.6E-1,1.902113E-1,1.1267325E-2,-6.975647E-2,1.1267325E-2,9.1092624E-2,-0E0,8.497161E-2,1.9281597E-1,7.2295584E-2,-5.52425E-2,5.0916895E-2,8.0489315E-2,-7.984673E-3,5.0899636E-2,-4.56238E-2,5.2854523E-2,1.0476122E-3,-1.1254297E-1,-3.9526103E-3,6.539649E-2,-6.422569E-2,6.731918E-2,1.323699E-1],"split_indices":[5,3,1,0,6,4,4,6,7,7,5,0,0,0,1,3,7,3,3,7,0,1,4,0,3,0,0,0,0,0,0,0,0,0,0,0,0,0,0,0,0,0,0,0,0],"split_type":[0,0,0,0,0,0,0,0,0,0,0,0,0,0,0,0,0,0,0,0,0,0,0,0,0,0,0,0,0,0,0,0,0,0,0,0,0,0,0,0,0,0,0,0,0],"sum_hessian":[5.01E2,3.92E2,1.09E2,1.14E2,2.78E2,1.5E1,9.4E1,4E1,7.4E1,2.12E2,6.6E1,9E0,6E0,5E1,4.4E1,2.8E1,1.2E1,3.7E1,3.7E1,1.53E2,5.9E1,3.8E1,2.8E1,9E0,4.1E1,3.1E1,1.3E1,1.8E1,1E1,5E0,7E0,3.2E1,5E0,2.1E1,1.6E1,1.4E1,1.39E2,1.9E1,4E1,3.3E1,5E0,5E0,2.3E1,1.8E1,2.3E1],"tree_param":{"num_deleted":"0","num_feature":"9","num_nodes":"45","size_leaf_vector":"1"}},{"base_weights":[-1.0407577E-1,-7.116128E-1,1.044345E0,-1.9454125E0,-1.3938853E-1,1.5745884E0,-2.3182985E-1,3.0145483E0,-2.5679731E0,2.5802486E0,-5.397363E-1,2.66231E0,4.3996954E-1,-1.548876E0,1.4618088E0,1.2372113E-1,2.1363107E-2,3.6461243E-1,-2.9317343E0,3.6614482E0,1.3498516E0,1.7761186E-1,-1.6196059E0,-1.6308442E-1,3.3465056E0,1.1874002E0,-1.3948594E0,-2.789826E0,-5.816498E-1,1.0347498E-1,-5.19596E-1,7.932408E-2,-5.967423E-2,1.7149478E-2,-9.535148E-2,2.0604279E-2,1.6717121E-1,1.7430091E-2,5.8647137E-2,-1.3149202E-2,4.058131E-2,-9.32927E-2,7.4931667E-3,2.5543734E-2,-2.9273786E-2,1.1567505E-1,1.5451526E-3,6.037749E-2,-1.4866724E-2,-7.573168E-2,2.3147538E-2,-2.7493479E-2,-1.0663553E-1,1.6038975E-2,-6.394734E-2,-3.8950138E-2,1.1303673E-2],"categories":[],"categories_nodes":[],"categories_segments":[],"categories_sizes":[],"default_left":[0,0,0,0,0,0,0,0,0,0,0,0,0,0,0,0,0,0,0,0,0,0,0,0,0,0,0,0,0,0,0,0,0,0,0,0,0,0,0,0,0,0,0,0,0,0,0,0,0,0,0,0,0,0,0,0,0],"id":32,"left_children":[1,3,5,7,9,11,13,15,17,19,21,23,25,27,29,-1,-1,31,33,35,37,39,41,43,45,47,49,51,53,-1,55,-1,-1,-1,-1,-1,-1,-1,-1,-1,-1,-1,-1,-1,-1,-1,-1,-1,-1,-1,-1,-1,-1,-1,-1,-1,-1],"loss_changes":[3.5685947E2,2.3533034E2,1.2266916E2,3.5281E2,2.5779065E2,1.5230579E2,1.3029912E2,2.6816849E1,1.0912897E2,2.7587585E1,1.6140831E2,1.285253E2,9.658878E1,3.5226578E1,1.0925403E2,0E0,0E0,9.0490135E1,8.395294E1,7.12285E1,6.6992226E0,9.449754E1,2.3554341E2,1.6749863E1,8.694812E1,7.291862E1,5.895698E1,1.1086098E1,4.4946983E1,0E0,1.4074291E1,0E0,0E0,0E0,0E0,0E0,0E0,0E0,0E0,0E0,0E0,0E0,0E0,0E0,0E0,0E0,0E0,0E0,0E0,0E0,0E0,0E0,0E0,0E0,0E0,0E0,0E0],"parents":[2147483647,0,0,1,1,2,2,3,3,4,4,5,5,6,6,7,7,8,8,9,9,10,10,11,11,12,12,13,13,14,14,17,17,18,18,19,19,20,20,21,21,22,22,23,23,24,24,25,25,26,26,27,27,28,28,30,30],"right_children":[2,4,6,8,10,12,14,16,18,20,22,24,26,28,30,-1,-1,32,34,36,38,40,42,44,46,48,50,52,54,-1,56,-1,-1,-1,-1,-1,-1,-1,-1,-1,-1,-1,-1,-1,-1,-1,-1,-1,-1,-1,-1,-1,-1,-1,-1,-1,-1],"split_conditions":[-3.4202015E-1,3.8845372E-1,7.1E1,-4.0104052E-1,-6.691306E-1,2.371E1,2.2846149E-1,2.321E1,5.5E1,2.344E1,-1.1612804E-1,5.4E1,8.480481E-1,6.4545766E-2,3.4202015E-1,1.2372113E-1,2.1363107E-2,1.8304355E-1,-2.9944408E-1,2.294E1,4.9975327E-1,6.8978554E-1,4.8856667E-1,-8.480481E-1,9.848077E-1,6.8E1,5.6374556E-1,3.2225826E-1,7.4E1,1.0347498E-1,2.401E1,7.932408E-2,-5.967423E-2,1.7149478E-2,-9.535148E-2,2.0604279E-2,1.6717121E-1,1.7430091E-2,5.8647137E-2,-1.3149202E-2,4.058131E-2,-9.32927E-2,7.4931667E-3,2.5543734E-2,-2.9273786E-2,1.1567505E-1,1.5451526E-3,6.037749E-2,-1.4866724E-2,-7.573168E-2,2.3147538E-2,-2.7493479E-2,-1.0663553E-1,1.6038975E-2,-6.394734E-2,-3.8950138E-2,1.1303673E-2],"split_indices":[2,7,0,6,3,8,7,8,0,8,6,0,2,7,3,0,0,7,5,8,7,7,5,3,3,0,5,5,0,0,8,0,0,0,0,0,0,0,0,0,0,0,0,0,0,0,0,0,0,0,0,0,0,0,0,0,0],"split_type":[0,0,0,0,0,0,0,0,0,0,0,0,0,0,0,0,0,0,0,0,0,0,0,0,0,0,0,0,0,0,0,0,0,0,0,0,0,0,0,0,0,0,0,0,0,0,0,0,0,0,0,0,0,0,0,0,0],"sum_hessian":[5.03E2,3.3E2,1.73E2,1.02E2,2.28E2,1.22E2,5.1E1,1E1,9.2E1,2.7E1,2.01E2,6E1,6.2E1,2.9E1,2.2E1,5E0,5E0,1E1,8.2E1,1.1E1,1.6E1,1.22E2,7.9E1,1.2E1,4.8E1,4.5E1,1.7E1,1E1,1.9E1,1E1,1.2E1,5E0,5E0,5E0,7.7E1,6E0,5E0,1E1,6E0,8.1E1,4.1E1,4.3E1,3.6E1,5E0,7E0,4.1E1,7E0,3E1,1.5E1,1.1E1,6E0,5E0,5E0,1.2E1,7E0,6E0,6E0],"tree_param":{"num_deleted":"0","num_feature":"9","num_nodes":"57","size_leaf_vector":"1"}},{"base_weights":[9.653146E-2,1.1057318E0,-5.71012E-1,2.634154E0,5.102008E-1,-8.146859E-1,2.5522015E0,8.1618494E-1,4.783759E0,-8.982225E-1,1.5710162E0,-1.1206871E0,1.6175752E0,4.055979E0,-1.2573743E-2,-1.9461595E-2,7.6147206E-2,1.6803975E-1,2.9568886E-2,-1.1890329E-1,-2.4531758E0,2.172524E0,-5.200585E-1,-1.9347903E-1,-2.0541875E0,2.4886208E0,-2.0357696E-2,1.4250235E-1,4.8145857E-2,5.115904E-2,-3.4843862E-2,-6.1328508E-2,1.5050151E-2,-9.215483E-2,-2.4033308E-2,3.0442707E-2,9.116634E-2,4.7418356E-2,-5.8344316E-2,-2.5671877E-2,9.2739776E-2,-1.4701764E-2,-8.793932E-2,1.4688835E-2,9.136707E-2],"categories":[],"categories_nodes":[],"categories_segments":[],"categories_sizes":[],"default_left":[0,0,0,0,0,0,0,0,0,0,0,0,0,0,0,0,0,0,0,0,0,0,0,0,0,0,0,0,0,0,0,0,0,0,0,0,0,0,0,0,0,0,0,0,0],"id":33,"left_children":[1,3,5,7,9,11,13,15,17,19,21,23,25,27,-1,29,-1,-1,-1,31,33,35,37,39,41,43,-1,-1,-1,-1,-1,-1,-1,-1,-1,-1,-1,-1,-1,-1,-1,-1,-1,-1,-1],"loss_changes":[3.3327026E2,1.75944E2,2.3400533E2,2.0211404E2,2.2368018E2,2.1409233E2,1.0969411E2,5.1453262E1,6.1256348E1,7.796648E1,1.1256331E2,2.1458768E2,7.314054E1,5.827606E0,0E0,5.777878E1,0E0,0E0,0E0,6.1356716E1,1.6016968E1,5.8976074E1,7.578112E1,2.892117E2,1.6614905E2,2.4014069E1,0E0,0E0,0E0,0E0,0E0,0E0,0E0,0E0,0E0,0E0,0E0,0E0,0E0,0E0,0E0,0E0,0E0,0E0,0E0],"parents":[2147483647,0,0,1,1,2,2,3,3,4,4,5,5,6,6,7,7,8,8,9,9,10,10,11,11,12,12,13,13,15,15,19,19,20,20,21,21,22,22,23,23,24,24,25,25],"right_children":[2,4,6,8,10,12,14,16,18,20,22,24,26,28,-1,30,-1,-1,-1,32,34,36,38,40,42,44,-1,-1,-1,-1,-1,-1,-1,-1,-1,-1,-1,-1,-1,-1,-1,-1,-1,-1,-1],"split_conditions":[6.5E1,-5.2991927E-1,7.724091E-1,-1.91013E-2,3.068598E-1,9.2718387E-1,7.4E1,-6.4278764E-1,4.5301157E-1,2.411E1,2.491E1,-2.4492937E-16,9.945219E-1,2.335E1,-1.2573743E-2,-9.396926E-1,7.6147206E-2,1.6803975E-1,2.9568886E-2,-2.0791169E-1,5.8778524E-1,1.0114378E-1,2.6132116E-2,6.989085E-1,-1.9773468E-1,6.8E1,-2.0357696E-2,1.4250235E-1,4.8145857E-2,5.115904E-2,-3.4843862E-2,-6.1328508E-2,1.5050151E-2,-9.215483E-2,-2.4033308E-2,3.0442707E-2,9.116634E-2,4.7418356E-2,-5.8344316E-2,-2.5671877E-2,9.2739776E-2,-1.4701764E-2,-8.793932E-2,1.4688835E-2,9.136707E-2],"split_indices":[0,3,5,6,5,3,0,3,5,8,8,3,3,8,0,3,0,0,0,3,3,6,6,7,6,0,0,0,0,0,0,0,0,0,0,0,0,0,0,0,0,0,0,0,0],"split_type":[0,0,0,0,0,0,0,0,0,0,0,0,0,0,0,0,0,0,0,0,0,0,0,0,0,0,0,0,0,0,0,0,0,0,0,0,0,0,0,0,0,0,0,0,0],"sum_hessian":[4.86E2,1.93E2,2.93E2,5.1E1,1.42E2,2.74E2,1.9E1,3E1,2.1E1,6.1E1,8.1E1,2.45E2,2.9E1,1.2E1,7E0,2.2E1,8E0,1.6E1,5E0,4.3E1,1.8E1,6.3E1,1.8E1,1.25E2,1.2E2,2.1E1,8E0,7E0,5E0,8E0,1.4E1,9E0,3.4E1,1.1E1,7E0,3E1,3.3E1,7E0,1.1E1,1.06E2,1.9E1,4.5E1,7.5E1,6E0,1.5E1],"tree_param":{"num_deleted":"0","num_feature":"9","num_nodes":"45","size_leaf_vector":"1"}},{"base_weights":[1.6452748E-1,-4.261599E-1,1.966426E0,1.1605836E0,-9.716577E-1,3.0885313E0,1.2275428E0,3.8339752E-1,3.1297553E0,-1.7971584E0,2.8854755E-1,1.6122033E-1,2.2300997E0,-1.3317439E-1,2.382891E0,-7.313956E-2,2.4755952E0,2.9135961E-2,4.0717206E0,-5.136279E-1,-2.7689145E0,1.0492842E0,-3.6594343E-1,1.3319583E-1,1.1801771E0,6.79325E-2,-1.1287458E0,-2.3116697E-2,2.9865675E0,4.083952E-2,-2.654035E-2,9.617288E-2,2.2637386E-2,1.3901567E-1,4.917368E-2,-2.6263127E-2,6.1522994E-2,3.834325E-2,-9.2935175E-2,6.0161684E-2,1.0543766E-2,-3.0848984E-2,4.5013282E-2,-3.3682648E-2,1.03110276E-1,-6.4552985E-2,1.765369E-2,-9.4830035E-4,1.04776755E-1],"categories":[],"categories_nodes":[],"categories_segments":[],"categories_sizes":[],"default_left":[0,0,0,0,0,0,0,0,0,0,0,0,0,0,0,0,0,0,0,0,0,0,0,0,0,0,0,0,0,0,0,0,0,0,0,0,0,0,0,0,0,0,0,0,0,0,0,0,0],"id":34,"left_children":[1,3,5,7,9,11,13,15,17,19,21,-1,23,25,27,29,31,-1,33,35,37,39,41,-1,43,-1,45,-1,47,-1,-1,-1,-1,-1,-1,-1,-1,-1,-1,-1,-1,-1,-1,-1,-1,-1,-1,-1,-1],